{"global_step": 5, "_timestamp": 1688064648.907446, "epoch_loss": 1.4601080417633057, "epoch_lr": 0.0010000000474974513, "pwm_conv/kernel_0/histogram": {"_type": "histogram", "values": [2.0, 1.0, 1.0, 36.0, 514.0, 96.0, 17.0, 408.0, 346.0, 324.0, 313.0, 421.0, 388.0, 425.0, 352.0, 473.0, 480.0, 575.0, 533.0, 580.0, 697.0, 739.0, 702.0, 701.0, 3864.0, 703.0, 709.0, 566.0, 577.0, 1417.0], "bins": [-5.521356105804443, -5.291306344668071, -5.061256583531698, -4.831206822395325, -4.601157061258952, -4.3711073001225795, -4.141057538986206, -3.911007777849833, -3.6809580167134603, -3.4509082555770876, -3.220858494440715, -2.9908087333043416, -2.760758972167969, -2.530709211031596, -2.300659449895223, -2.07060968875885, -1.8405599276224773, -1.6105101664861046, -1.3804604053497318, -1.150410644213359, -0.9203608830769863, -0.6903111219406126, -0.46026136080423985, -0.23021159966786708, -0.00016183853149431826, 0.22988792260487845, 0.4599376837412512, 0.689987444877624, 0.9200372060139976, 1.1500869671503704, 1.3801367282867432]}, "pwm_conv_kernel_0_image": {"_type": "images/separated", "width": 4, "height": 16, "format": "png", "count": 3, "filenames": ["media/images/pwm_conv_kernel_0_image_5_85f3ac3d3901ef7a9581.png", "media/images/pwm_conv_kernel_0_image_5_ff0166818b9ecb03dabe.png", "media/images/pwm_conv_kernel_0_image_5_5c3e85ae5e5c15d498f0.png"]}, "conv1d/kernel_0/histogram": {"_type": "histogram", "values": [1.0, 1.0, 0.0, 0.0, 0.0, 3.0, 10.0, 12.0, 31.0, 128.0, 777.0, 2900.0, 3051.0, 3308.0, 3265.0, 3209.0, 3322.0, 3298.0, 3366.0, 3266.0, 3375.0, 3298.0, 3282.0, 3295.0, 3170.0, 2938.0, 1244.0, 255.0, 72.0, 3.0], "bins": [-0.1629752814769745, -0.15399589637915292, -0.1450165112813314, -0.13603712618350983, -0.12705774108568826, -0.11807835598786671, -0.10909897089004517, -0.1001195857922236, -0.09114020069440205, -0.0821608155965805, -0.07318143049875894, -0.0642020454009374, -0.055222660303115845, -0.04624327520529428, -0.03726389010747272, -0.028284505009651184, -0.01930511991182962, -0.010325734814008058, -0.0013463497161865234, 0.007633035381635039, 0.016612420479456602, 0.025591805577278137, 0.0345711906750997, 0.04355057577292126, 0.0525299608707428, 0.06150934596856436, 0.07048873106638592, 0.07946811616420749, 0.08844750126202905, 0.09742688635985058, 0.10640627145767212]}, "conv1d_kernel_0_image": {"_type": "images/separated", "width": 265, "height": 3, "format": "png", "count": 3, "filenames": ["media/images/conv1d_kernel_0_image_5_1635204b733a3567aa12.png", "media/images/conv1d_kernel_0_image_5_4f861b80c7894f8c573b.png", "media/images/conv1d_kernel_0_image_5_ce525311ea7952d8c9ef.png"]}, "conv1d/bias_0/histogram": {"_type": "histogram", "values": [2.0, 1.0, 0.0, 1.0, 1.0, 0.0, 0.0, 1.0, 0.0, 0.0, 0.0, 2.0, 3.0, 5.0, 15.0, 15.0, 6.0, 4.0, 1.0, 0.0, 1.0, 2.0, 1.0, 1.0, 1.0, 0.0, 0.0, 0.0, 0.0, 1.0], "bins": [-0.024392876774072647, -0.02301623784005642, -0.02163959890604019, -0.020262959972023965, -0.018886321038007737, -0.01750968210399151, -0.01613304316997528, -0.014756404235959053, -0.013379765301942825, -0.012003126367926597, -0.01062648743391037, -0.009249848499894141, -0.007873209565877913, -0.006496570631861685, -0.00511993169784546, -0.0037432927638292313, -0.002366653829813003, -0.0009900148957967744, 0.000386624038219454, 0.001763262972235679, 0.0031399019062519073, 0.004516540840268136, 0.005893179774284364, 0.007269818708300589, 0.008646457642316821, 0.010023096576333046, 0.011399735510349278, 0.012776374444365503, 0.014153013378381728, 0.01552965231239796, 0.016906291246414185]}, "conv1d_bias_0_image": {"_type": "images/separated", "width": 1, "height": 64, "format": "png", "count": 1, "filenames": ["media/images/conv1d_bias_0_image_5_03ae4c678f4e9bb15863.png"]}, "dense/kernel_0/histogram": {"_type": "histogram", "values": [2.0, 6.0, 2.0, 4.0, 6.0, 2.0, 1.0, 5.0, 3.0, 1.0, 1.0, 4.0, 3.0, 4.0, 3.0, 19.0, 9.0, 5.0, 5.0, 6.0, 3.0, 3.0, 4.0, 3.0, 2.0, 2.0, 10.0, 4.0, 2.0, 4.0], "bins": [-0.2711752653121948, -0.25374822119871776, -0.2363211770852407, -0.2188941329717636, -0.20146708885828654, -0.18404004474480948, -0.1666130006313324, -0.14918595651785532, -0.13175891240437826, -0.1143318682909012, -0.09690482417742413, -0.07947778006394704, -0.062050735950469976, -0.04462369183699291, -0.02719664772351582, -0.009769603610038757, 0.007657440503438306, 0.02508448461691537, 0.042511528730392434, 0.0599385728438695, 0.07736561695734656, 0.09479266107082368, 0.11221970518430074, 0.1296467492977778, 0.14707379341125487, 0.16450083752473194, 0.181927881638209, 0.19935492575168606, 0.21678196986516318, 0.23420901397864025, 0.2516360580921173]}, "dense_kernel_0_image": {"_type": "images/separated", "width": 64, "height": 2, "format": "png", "count": 1, "filenames": ["media/images/dense_kernel_0_image_5_47ba0113723539ce496d.png"]}, "dense/bias_0/histogram": {"_type": "histogram", "values": [1.0, 0.0, 0.0, 0.0, 0.0, 0.0, 0.0, 0.0, 0.0, 0.0, 0.0, 0.0, 0.0, 0.0, 0.0, 0.0, 0.0, 0.0, 0.0, 0.0, 0.0, 0.0, 0.0, 0.0, 0.0, 0.0, 0.0, 0.0, 0.0, 1.0], "bins": [-3.747754089999944e-05, -3.460228472249582e-05, -3.1727028544992206e-05, -2.8851772367488592e-05, -2.597651618998498e-05, -2.310126001248136e-05, -2.0226003834977745e-05, -1.735074765747413e-05, -1.4475491479970514e-05, -1.1600235302466897e-05, -8.724979124963284e-06, -5.8497229474596666e-06, -2.9744667699560496e-06, -9.921059245243262e-08, 2.7760455850511776e-06, 5.6513017625547945e-06, 8.526557940058412e-06, 1.1401814117562028e-05, 1.4277070295065645e-05, 1.7152326472569256e-05, 2.0027582650072873e-05, 2.290283882757649e-05, 2.5778095005080107e-05, 2.8653351182583717e-05, 3.152860736008734e-05, 3.440386353759095e-05, 3.7279119715094574e-05, 4.0154375892598185e-05, 4.3029632070101795e-05, 4.590488824760542e-05, 4.878014442510903e-05]}, "dense_bias_0_image": {"_type": "images/separated", "width": 1, "height": 2, "format": "png", "count": 1, "filenames": ["media/images/dense_bias_0_image_5_8d994cf362504173484c.png"]}, "dense_1/kernel_0/histogram": {"_type": "histogram", "values": [3.0, 0.0, 0.0, 0.0, 0.0, 1.0, 1.0, 2.0, 1.0, 1.0, 2.0, 1.0, 4.0, 0.0, 1.0, 2.0, 5.0, 9.0, 17.0, 41.0, 63.0, 103.0, 94.0, 76.0, 44.0, 14.0, 9.0, 5.0, 0.0, 1.0], "bins": [-0.14120328426361084, -0.13476427644491196, -0.12832526862621307, -0.12188626080751419, -0.11544725298881531, -0.10900824517011642, -0.10256923735141754, -0.09613022953271866, -0.08969122171401978, -0.08325221389532089, -0.07681320607662201, -0.07037419825792313, -0.06393519043922424, -0.05749618262052536, -0.05105717480182648, -0.044618166983127594, -0.03817915916442871, -0.03174015134572983, -0.025301143527030945, -0.018862135708332062, -0.012423127889633179, -0.005984120070934296, 0.0004548877477645874, 0.0068938955664634705, 0.013332903385162354, 0.019771911203861237, 0.02621091902256012, 0.032649926841259, 0.039088934659957886, 0.04552794247865677, 0.05196695029735565]}, "dense_1_kernel_0_image": {"_type": "images/separated", "width": 1, "height": 500, "format": "png", "count": 1, "filenames": ["media/images/dense_1_kernel_0_image_5_e0e33bf5bb541fb30f80.png"]}, "dense_1/bias_0/histogram": {"_type": "histogram", "values": [5.0, 14.0, 34.0, 75.0, 99.0, 89.0, 80.0, 45.0, 3.0, 5.0, 4.0, 3.0, 7.0, 5.0, 4.0, 2.0, 7.0, 5.0, 6.0, 3.0, 3.0, 0.0, 0.0, 0.0, 0.0, 0.0, 0.0, 0.0, 1.0, 1.0], "bins": [-0.20149017870426178, -0.17517265925804773, -0.1488551398118337, -0.12253762036561966, -0.09622010091940562, -0.06990258147319159, -0.04358506202697754, -0.017267542580763517, 0.009049976865450532, 0.03536749631166458, 0.0616850157578786, 0.08800253520409262, 0.1143200546503067, 0.14063757409652072, 0.16695509354273474, 0.19327261298894882, 0.21959013243516284, 0.24590765188137687, 0.27222517132759094, 0.2985426907738049, 0.324860210220019, 0.35117772966623306, 0.37749524911244703, 0.4038127685586611, 0.4301302880048752, 0.45644780745108915, 0.4827653268973032, 0.5090828463435173, 0.5354003657897313, 0.5617178852359453, 0.5880354046821594]}, "dense_1_bias_0_image": {"_type": "images/separated", "width": 1, "height": 500, "format": "png", "count": 1, "filenames": ["media/images/dense_1_bias_0_image_5_f7822c9b5463b5a12d38.png"]}, "conv1d_transpose/kernel_0/histogram": {"_type": "histogram", "values": [1.0, 0.0, 0.0, 0.0, 0.0, 1.0, 0.0, 2.0, 2.0, 2.0, 4.0, 1.0, 10.0, 17.0, 40.0, 69.0, 109.0, 96.0, 109.0, 97.0, 89.0, 63.0, 30.0, 13.0, 5.0, 2.0, 2.0, 2.0, 1.0, 1.0], "bins": [-0.789089024066925, -0.7490427295366923, -0.7089964350064596, -0.6689501404762268, -0.628903845945994, -0.5888575514157612, -0.5488112568855286, -0.5087649623552958, -0.46871866782506305, -0.4286723732948303, -0.38862607876459754, -0.3485797842343648, -0.3085334897041321, -0.2684871951738993, -0.2284409006436665, -0.18839460611343384, -0.14834831158320105, -0.10830201705296827, -0.0682557225227356, -0.02820942799250281, 0.011836866537729973, 0.051883161067962646, 0.09192945559819543, 0.13197575012842822, 0.1720220446586609, 0.21206833918889378, 0.25211463371912646, 0.29216092824935913, 0.332207222779592, 0.3722535173098247, 0.4122998118400574]}, "conv1d_transpose_kernel_0_image": {"_type": "images/separated", "width": 64, "height": 3, "format": "png", "count": 3, "filenames": ["media/images/conv1d_transpose_kernel_0_image_5_0b1b2605c17e23630d31.png", "media/images/conv1d_transpose_kernel_0_image_5_1601952e7920614464a3.png", "media/images/conv1d_transpose_kernel_0_image_5_205fc3ff9251d059aa97.png"]}, "conv1d_transpose/bias_0/histogram": {"_type": "histogram", "values": [2.0, 3.0, 6.0, 2.0, 6.0, 6.0, 5.0, 5.0, 3.0, 3.0, 1.0, 6.0, 2.0, 6.0, 1.0, 0.0, 1.0, 0.0, 1.0, 1.0, 0.0, 1.0, 0.0, 0.0, 0.0, 2.0, 0.0, 0.0, 0.0, 1.0], "bins": [-0.1329432725906372, -0.12395885735750198, -0.11497444212436676, -0.10599002689123153, -0.09700561165809632, -0.08802119642496109, -0.07903678119182586, -0.07005236595869065, -0.06106795072555542, -0.05208353549242019, -0.04309912025928497, -0.034114705026149744, -0.025130289793014515, -0.0161458745598793, -0.007161459326744085, 0.0018229559063911438, 0.010807371139526373, 0.0197917863726616, 0.02877620160579683, 0.03776061683893203, 0.04674503207206726, 0.05572944730520249, 0.06471386253833772, 0.07369827777147295, 0.08268269300460818, 0.09166710823774338, 0.1006515234708786, 0.10963593870401384, 0.11862035393714904, 0.1276047691702843, 0.1365891844034195]}, "conv1d_transpose_bias_0_image": {"_type": "images/separated", "width": 1, "height": 64, "format": "png", "count": 1, "filenames": ["media/images/conv1d_transpose_bias_0_image_5_f6e67fb203d17d7bd822.png"]}, "conv1d_transpose_1/kernel_0/histogram": {"_type": "histogram", "values": [3.0, 0.0, 8.0, 7.0, 18.0, 34.0, 34.0, 62.0, 236.0, 494.0, 638.0, 598.0, 613.0, 627.0, 640.0, 642.0, 563.0, 556.0, 265.0, 53.0, 22.0, 11.0, 7.0, 4.0, 1.0, 1.0, 2.0, 0.0, 3.0, 2.0], "bins": [-0.35938143730163574, -0.3336275597413381, -0.30787368218104044, -0.2821198046207428, -0.25636592706044514, -0.23061204950014752, -0.20485817193984987, -0.17910429437955222, -0.15335041681925457, -0.12759653925895692, -0.1018426616986593, -0.07608878413836162, -0.050334906578064, -0.02458102901776632, 0.0011728485425313018, 0.02692672610282898, 0.0526806036631266, 0.07843448122342422, 0.1041883587837219, 0.12994223634401952, 0.15569611390431715, 0.18144999146461482, 0.2072038690249125, 0.23295774658521018, 0.25871162414550775, 0.2844655017058054, 0.3102193792661031, 0.33597325682640067, 0.36172713438669835, 0.387481011946996, 0.4132348895072937]}, "conv1d_transpose_1_kernel_0_image": {"_type": "images/separated", "width": 32, "height": 3, "format": "png", "count": 3, "filenames": ["media/images/conv1d_transpose_1_kernel_0_image_5_e014340b609839726be3.png", "media/images/conv1d_transpose_1_kernel_0_image_5_82782c3f6347447a7a8f.png", "media/images/conv1d_transpose_1_kernel_0_image_5_675a4eb9ef92486bd1cc.png"]}, "conv1d_transpose_1/bias_0/histogram": {"_type": "histogram", "values": [3.0, 4.0, 2.0, 6.0, 5.0, 3.0, 1.0, 2.0, 2.0, 1.0, 1.0, 0.0, 0.0, 1.0, 0.0, 0.0, 0.0, 0.0, 0.0, 0.0, 0.0, 0.0, 0.0, 0.0, 0.0, 0.0, 0.0, 0.0, 0.0, 1.0], "bins": [-0.09940443933010101, -0.09109509040911992, -0.08278574148813883, -0.07447639256715774, -0.06616704364617665, -0.057857694725195565, -0.04954834580421448, -0.04123899688323339, -0.0329296479622523, -0.024620299041271207, -0.016310950120290116, -0.008001601199309025, 0.00030774772167205255, 0.008617096642653144, 0.016926445563634235, 0.025235794484615326, 0.03354514340559642, 0.04185449232657751, 0.0501638412475586, 0.05847319016853969, 0.06678253908952078, 0.07509188801050187, 0.08340123693148296, 0.09171058585246405, 0.10001993477344512, 0.10832928369442621, 0.1166386326154073, 0.12494798153638839, 0.13325733045736948, 0.14156667937835057, 0.14987602829933167]}, "conv1d_transpose_1_bias_0_image": {"_type": "images/separated", "width": 1, "height": 32, "format": "png", "count": 1, "filenames": ["media/images/conv1d_transpose_1_bias_0_image_5_f9f6146ac317dea2c8dd.png"]}, "conv1d_transpose_2/kernel_0/histogram": {"_type": "histogram", "values": [3.0, 4.0, 5.0, 11.0, 10.0, 16.0, 13.0, 14.0, 15.0, 21.0, 10.0, 11.0, 18.0, 21.0, 24.0, 19.0, 17.0, 17.0, 16.0, 12.0, 22.0, 14.0, 17.0, 15.0, 17.0, 6.0, 7.0, 4.0, 3.0, 2.0], "bins": [-0.2311069518327713, -0.21570096959670385, -0.2002949873606364, -0.18488900512456893, -0.16948302288850148, -0.15407704065243405, -0.13867105841636657, -0.12326507618029912, -0.10785909394423167, -0.09245311170816423, -0.07704712947209677, -0.061641147236029314, -0.04623516499996186, -0.030829182763894403, -0.015423200527826947, -1.7218291759490967e-05, 0.015388763944307965, 0.03079474618037542, 0.04620072841644285, 0.06160671065251033, 0.07701269288857776, 0.09241867512464524, 0.10782465736071267, 0.12323063959678016, 0.13863662183284758, 0.15404260406891507, 0.1694485863049825, 0.18485456854104998, 0.2002605507771174, 0.2156665330131849, 0.23107251524925232]}, "conv1d_transpose_2_kernel_0_image": {"_type": "images/separated", "width": 4, "height": 3, "format": "png", "count": 3, "filenames": ["media/images/conv1d_transpose_2_kernel_0_image_5_dbb2a978035b7015688d.png", "media/images/conv1d_transpose_2_kernel_0_image_5_856e4dac21365089d89b.png", "media/images/conv1d_transpose_2_kernel_0_image_5_7e919fc66908056c138b.png"]}, "conv1d_transpose_2/bias_0/histogram": {"_type": "histogram", "values": [2.0, 0.0, 0.0, 0.0, 0.0, 0.0, 0.0, 0.0, 0.0, 0.0, 0.0, 0.0, 0.0, 0.0, 0.0, 0.0, 0.0, 0.0, 0.0, 0.0, 0.0, 0.0, 0.0, 0.0, 0.0, 0.0, 0.0, 0.0, 1.0, 1.0], "bins": [-0.08894749730825424, -0.08263070806860924, -0.07631391882896424, -0.06999712958931922, -0.06368034034967422, -0.05736355111002922, -0.05104676187038422, -0.04472997263073921, -0.03841318339109421, -0.03209639415144921, -0.0257796049118042, -0.019462815672159198, -0.013146026432514196, -0.006829237192869195, -0.0005124479532241794, 0.005804341286420822, 0.012121130526065824, 0.018437919765710825, 0.024754709005355827, 0.031071498245000842, 0.037388287484645844, 0.04370507672429083, 0.050021865963935846, 0.05633865520358086, 0.06265544444322585, 0.06897223368287086, 0.07528902292251585, 0.08160581216216087, 0.08792260140180588, 0.09423939064145087, 0.10055617988109589]}, "conv1d_transpose_2_bias_0_image": {"_type": "images/separated", "width": 1, "height": 4, "format": "png", "count": 1, "filenames": ["media/images/conv1d_transpose_2_bias_0_image_5_bf9dd41f550e441b6663.png"]}, "_runtime": 476.73423194885254, "_step": 5}