{"global_step": 40, "_timestamp": 1688080683.137951, "epoch_loss": 1.6077507734298706, "epoch_lr": 0.0010000000474974513, "pwm_conv/kernel_0/histogram": {"_type": "histogram", "values": [2.0, 1.0, 1.0, 36.0, 514.0, 96.0, 17.0, 408.0, 346.0, 324.0, 313.0, 421.0, 388.0, 425.0, 352.0, 473.0, 480.0, 575.0, 533.0, 580.0, 697.0, 739.0, 702.0, 701.0, 3864.0, 703.0, 709.0, 566.0, 577.0, 1417.0], "bins": [-5.521356105804443, -5.291306344668071, -5.061256583531698, -4.831206822395325, -4.601157061258952, -4.3711073001225795, -4.141057538986206, -3.911007777849833, -3.6809580167134603, -3.4509082555770876, -3.220858494440715, -2.9908087333043416, -2.760758972167969, -2.530709211031596, -2.300659449895223, -2.07060968875885, -1.8405599276224773, -1.6105101664861046, -1.3804604053497318, -1.150410644213359, -0.9203608830769863, -0.6903111219406126, -0.46026136080423985, -0.23021159966786708, -0.00016183853149431826, 0.22988792260487845, 0.4599376837412512, 0.689987444877624, 0.9200372060139976, 1.1500869671503704, 1.3801367282867432]}, "pwm_conv_kernel_0_image": {"_type": "images/separated", "width": 4, "height": 16, "format": "png", "count": 3, "filenames": ["media/images/pwm_conv_kernel_0_image_40_85f3ac3d3901ef7a9581.png", "media/images/pwm_conv_kernel_0_image_40_ff0166818b9ecb03dabe.png", "media/images/pwm_conv_kernel_0_image_40_5c3e85ae5e5c15d498f0.png"]}, "conv1d/kernel_0/histogram": {"_type": "histogram", "values": [1.0, 0.0, 0.0, 1.0, 0.0, 0.0, 0.0, 2.0, 3.0, 8.0, 20.0, 152.0, 1417.0, 3053.0, 3093.0, 3186.0, 3152.0, 3153.0, 3196.0, 3225.0, 3251.0, 3144.0, 3268.0, 3260.0, 3131.0, 3120.0, 3169.0, 2815.0, 1893.0, 167.0], "bins": [-0.19731181859970093, -0.187720654408137, -0.1781294902165731, -0.16853832602500915, -0.15894716183344523, -0.14935599764188132, -0.13976483345031737, -0.13017366925875345, -0.12058250506718954, -0.11099134087562562, -0.10140017668406169, -0.09180901249249776, -0.08221784830093384, -0.07262668410936993, -0.06303551991780598, -0.053444355726242065, -0.04385319153467815, -0.03426202734311423, -0.024670863151550315, -0.01507969895998637, -0.005488534768422454, 0.004102629423141463, 0.013693793614705407, 0.023284957806269324, 0.03287612199783324, 0.04246728618939716, 0.052058450380961074, 0.06164961457252499, 0.07124077876408896, 0.08083194295565288, 0.0904231071472168]}, "conv1d_kernel_0_image": {"_type": "images/separated", "width": 265, "height": 3, "format": "png", "count": 3, "filenames": ["media/images/conv1d_kernel_0_image_40_cd213b60ca2f07136017.png", "media/images/conv1d_kernel_0_image_40_26a52e8ed54d6d71ec17.png", "media/images/conv1d_kernel_0_image_40_c52e500efad4295700cb.png"]}, "conv1d/bias_0/histogram": {"_type": "histogram", "values": [1.0, 0.0, 0.0, 0.0, 2.0, 0.0, 0.0, 1.0, 0.0, 1.0, 1.0, 0.0, 1.0, 2.0, 0.0, 16.0, 8.0, 1.0, 0.0, 1.0, 2.0, 1.0, 4.0, 0.0, 0.0, 0.0, 0.0, 0.0, 0.0, 22.0], "bins": [-0.002289223251864314, -0.002189234500595679, -0.0020892457493270435, -0.0019892569980584085, -0.0018892682467897732, -0.001789279495521138, -0.001689290744252503, -0.0015893019929838677, -0.0014893132417152324, -0.0013893244904465973, -0.001289335739177962, -0.0011893469879093268, -0.0010893582366406918, -0.0009893694853720565, -0.0008893807341034212, -0.0007893919828347862, -0.0006894032315661509, -0.0005894144802975156, -0.0004894257290288806, -0.00038943697776024533, -0.00028944822649161006, -0.00018945947522297502, -8.947072395433953e-05, 1.0518027314295516e-05, 0.00011050677858293056, 0.00021049552985156605, 0.0003104842811202011, 0.00041047303238883615, 0.0005104617836574716, 0.0006104505349261067, 0.0007104392861947417]}, "conv1d_bias_0_image": {"_type": "images/separated", "width": 1, "height": 64, "format": "png", "count": 1, "filenames": ["media/images/conv1d_bias_0_image_40_bb73d8645203240d9bf5.png"]}, "dense/kernel_0/histogram": {"_type": "histogram", "values": [5.0, 2.0, 7.0, 8.0, 0.0, 1.0, 5.0, 4.0, 10.0, 4.0, 4.0, 6.0, 3.0, 6.0, 4.0, 4.0, 2.0, 5.0, 5.0, 7.0, 1.0, 3.0, 5.0, 1.0, 6.0, 4.0, 4.0, 5.0, 3.0, 4.0], "bins": [-0.27130788564682007, -0.2522619446118673, -0.23321600357691447, -0.2141700625419617, -0.19512412150700886, -0.1760781804720561, -0.1570322394371033, -0.1379862984021505, -0.11894035736719769, -0.09989441633224488, -0.08084847529729208, -0.06180253426233928, -0.04275659322738651, -0.023710652192433707, -0.004664711157480905, 0.014381229877471924, 0.0334271709124247, 0.05247311194737747, 0.0715190529823303, 0.09056499401728307, 0.1096109350522359, 0.12865687608718868, 0.1477028171221415, 0.16674875815709428, 0.18579469919204705, 0.20484064022699988, 0.22388658126195266, 0.24293252229690543, 0.26197846333185826, 0.2810244043668111, 0.3000703454017639]}, "dense_kernel_0_image": {"_type": "images/separated", "width": 64, "height": 2, "format": "png", "count": 1, "filenames": ["media/images/dense_kernel_0_image_40_65ff15931d1a8698f449.png"]}, "dense/bias_0/histogram": {"_type": "histogram", "values": [1.0, 0.0, 0.0, 0.0, 0.0, 0.0, 0.0, 0.0, 0.0, 0.0, 0.0, 0.0, 0.0, 0.0, 0.0, 0.0, 0.0, 0.0, 0.0, 0.0, 0.0, 0.0, 0.0, 0.0, 0.0, 0.0, 0.0, 0.0, 0.0, 1.0], "bins": [-0.0006915578269399703, -0.000689734477782622, -0.0006879111286252737, -0.0006860877794679255, -0.0006842644303105772, -0.0006824410811532289, -0.0006806177319958806, -0.0006787943828385323, -0.0006769710336811841, -0.0006751476845238358, -0.0006733243353664875, -0.0006715009862091392, -0.0006696776370517909, -0.0006678542878944427, -0.0006660309387370944, -0.0006642075895797461, -0.0006623842404223978, -0.0006605608912650495, -0.0006587375421077013, -0.000656914192950353, -0.0006550908437930048, -0.0006532674946356565, -0.0006514441454783082, -0.00064962079632096, -0.0006477974471636117, -0.0006459740980062634, -0.0006441507488489151, -0.0006423273996915668, -0.0006405040505342186, -0.0006386807013768703, -0.000636857352219522]}, "dense_bias_0_image": {"_type": "images/separated", "width": 1, "height": 2, "format": "png", "count": 1, "filenames": ["media/images/dense_bias_0_image_40_8d994cf362504173484c.png"]}, "dense_1/kernel_0/histogram": {"_type": "histogram", "values": [14.0, 19.0, 12.0, 13.0, 20.0, 12.0, 12.0, 19.0, 19.0, 16.0, 21.0, 20.0, 14.0, 13.0, 17.0, 21.0, 19.0, 18.0, 14.0, 11.0, 19.0, 12.0, 21.0, 19.0, 13.0, 17.0, 17.0, 15.0, 24.0, 19.0], "bins": [-0.10882269591093063, -0.10165741592645645, -0.09449213594198227, -0.08732685595750808, -0.0801615759730339, -0.07299629598855972, -0.06583101600408554, -0.05866573601961136, -0.05150045603513718, -0.04433517605066299, -0.03716989606618881, -0.030004616081714633, -0.022839336097240454, -0.015674056112766274, -0.008508776128292081, -0.0013434961438179016, 0.005821783840656278, 0.012987063825130457, 0.02015234380960465, 0.027317623794078816, 0.03448290377855301, 0.041648183763027175, 0.04881346374750137, 0.05597874373197556, 0.06314402371644973, 0.07030930370092392, 0.07747458368539809, 0.08463986366987228, 0.09180514365434647, 0.09897042363882064, 0.10613570362329483]}, "dense_1_kernel_0_image": {"_type": "images/separated", "width": 1, "height": 500, "format": "png", "count": 1, "filenames": ["media/images/dense_1_kernel_0_image_40_620d832f36efe5f31b47.png"]}, "dense_1/bias_0/histogram": {"_type": "histogram", "values": [2.0, 1.0, 3.0, 4.0, 6.0, 10.0, 10.0, 19.0, 25.0, 28.0, 35.0, 36.0, 38.0, 49.0, 51.0, 51.0, 36.0, 22.0, 30.0, 22.0, 9.0, 4.0, 4.0, 1.0, 1.0, 1.0, 1.0, 0.0, 0.0, 1.0], "bins": [-0.0005737251485697925, -0.0005405649698028962, -0.0005074047910359999, -0.00047424461226910355, -0.00044108443350220723, -0.0004079242547353109, -0.00037476407596841453, -0.0003416038972015182, -0.0003084437184346219, -0.0002752835396677256, -0.00024212336090082925, -0.00020896318213393293, -0.00017580300336703656, -0.00014264282460014024, -0.00010948264583324392, -7.63224670663476e-05, -4.316228829945128e-05, -1.0002109532554959e-05, 2.315806923434136e-05, 5.631824800123768e-05, 8.9478426768134e-05, 0.00012263860553503032, 0.00015579878430192664, 0.00018895896306882296, 0.0002221191418357194, 0.0002552793206026157, 0.00028843949936951203, 0.00032159967813640835, 0.00035475985690330467, 0.000387920035670201, 0.0004210802144370973]}, "dense_1_bias_0_image": {"_type": "images/separated", "width": 1, "height": 500, "format": "png", "count": 1, "filenames": ["media/images/dense_1_bias_0_image_40_5526b80dc252e6f13cc5.png"]}, "conv1d_transpose/kernel_0/histogram": {"_type": "histogram", "values": [22.0, 18.0, 29.0, 21.0, 28.0, 21.0, 32.0, 24.0, 22.0, 32.0, 27.0, 25.0, 23.0, 34.0, 20.0, 23.0, 31.0, 27.0, 25.0, 23.0, 19.0, 25.0, 27.0, 22.0, 31.0, 25.0, 31.0, 27.0, 32.0, 22.0], "bins": [-0.17089895904064178, -0.15951107094685238, -0.14812318285306295, -0.13673529475927354, -0.1253474066654841, -0.1139595185716947, -0.10257163047790528, -0.09118374238411586, -0.07979585429032644, -0.06840796619653702, -0.057020078102747604, -0.045632190008958184, -0.03424430191516878, -0.022856413821379346, -0.01146852572758994, -8.063763380050659e-05, 0.011307250459988899, 0.022695138553778305, 0.03408302664756774, 0.045470914741357144, 0.05685880283514658, 0.06824669092893598, 0.07963457902272542, 0.09102246711651485, 0.10241035521030423, 0.11379824330409366, 0.1251861313978831, 0.13657401949167247, 0.1479619075854619, 0.15934979567925134, 0.17073768377304077]}, "conv1d_transpose_kernel_0_image": {"_type": "images/separated", "width": 64, "height": 3, "format": "png", "count": 3, "filenames": ["media/images/conv1d_transpose_kernel_0_image_40_fd869915f93a32ab600c.png", "media/images/conv1d_transpose_kernel_0_image_40_7cf03515035f7c5e242d.png", "media/images/conv1d_transpose_kernel_0_image_40_c117592362a2ffd11009.png"]}, "conv1d_transpose/bias_0/histogram": {"_type": "histogram", "values": [1.0, 1.0, 0.0, 1.0, 2.0, 0.0, 2.0, 1.0, 2.0, 3.0, 5.0, 4.0, 7.0, 1.0, 1.0, 3.0, 7.0, 2.0, 5.0, 1.0, 0.0, 1.0, 2.0, 1.0, 2.0, 3.0, 4.0, 0.0, 0.0, 2.0], "bins": [-0.02011840231716633, -0.018878725295265516, -0.017639048273364703, -0.01639937125146389, -0.015159694229563078, -0.013920017207662266, -0.012680340185761451, -0.011440663163860639, -0.010200986141959826, -0.008961309120059014, -0.007721632098158201, -0.006481955076257389, -0.005242278054356574, -0.004002601032455762, -0.002762924010554949, -0.0015232469886541367, -0.0002835699667533241, 0.0009561070551474884, 0.002195784077048301, 0.0034354610989491136, 0.004675138120849926, 0.005914815142750739, 0.007154492164651551, 0.008394169186552364, 0.00963384620845318, 0.010873523230353992, 0.012113200252254805, 0.013352877274155614, 0.01459255429605643, 0.01583223131795724, 0.017071908339858055]}, "conv1d_transpose_bias_0_image": {"_type": "images/separated", "width": 1, "height": 64, "format": "png", "count": 1, "filenames": ["media/images/conv1d_transpose_bias_0_image_40_b2f1f6cdcbac31305b1a.png"]}, "conv1d_transpose_1/kernel_0/histogram": {"_type": "histogram", "values": [160.0, 197.0, 210.0, 196.0, 207.0, 206.0, 205.0, 226.0, 194.0, 223.0, 202.0, 195.0, 207.0, 209.0, 205.0, 235.0, 193.0, 229.0, 210.0, 196.0, 200.0, 208.0, 208.0, 209.0, 191.0, 208.0, 203.0, 216.0, 216.0, 180.0], "bins": [-0.14524759352207184, -0.1355689470966657, -0.12589030067125956, -0.11621165424585342, -0.10653300782044728, -0.09685436139504114, -0.08717571496963501, -0.07749706854422887, -0.06781842211882273, -0.05813977569341659, -0.04846112926801045, -0.03878248284260431, -0.029103836417198187, -0.019425189991792047, -0.009746543566385907, -6.789714097976685e-05, 0.009610749284426373, 0.019289395709832513, 0.028968042135238653, 0.03864668856064479, 0.04832533498605093, 0.05800398141145707, 0.06768262783686321, 0.07736127426226935, 0.08703992068767546, 0.0967185671130816, 0.10639721353848774, 0.11607585996389391, 0.12575450638930002, 0.1354331528147062, 0.1451117992401123]}, "conv1d_transpose_1_kernel_0_image": {"_type": "images/separated", "width": 32, "height": 3, "format": "png", "count": 3, "filenames": ["media/images/conv1d_transpose_1_kernel_0_image_40_ddcf3397eb205d8906fd.png", "media/images/conv1d_transpose_1_kernel_0_image_40_38de7152bd454ee2b0e6.png", "media/images/conv1d_transpose_1_kernel_0_image_40_0ed80dee1dc1cc4fc1e8.png"]}, "conv1d_transpose_1/bias_0/histogram": {"_type": "histogram", "values": [1.0, 1.0, 0.0, 2.0, 1.0, 1.0, 2.0, 1.0, 2.0, 2.0, 0.0, 3.0, 0.0, 0.0, 0.0, 1.0, 0.0, 1.0, 1.0, 0.0, 3.0, 2.0, 0.0, 1.0, 1.0, 2.0, 1.0, 1.0, 0.0, 2.0], "bins": [-0.026476696133613586, -0.024140920986731845, -0.021805145839850108, -0.01946937069296837, -0.01713359554608663, -0.01479782039920489, -0.01246204525232315, -0.010126270105441412, -0.007790494958559671, -0.00545471981167793, -0.0031189446647961923, -0.0007831695179144546, 0.0015526056289672865, 0.0038883807758490277, 0.006224155922730762, 0.008559931069612503, 0.010895706216494244, 0.013231481363375985, 0.015567256510257726, 0.01790303165713946, 0.020238806804021202, 0.022574581950902943, 0.024910357097784677, 0.02724613224466642, 0.02958190739154816, 0.0319176825384299, 0.03425345768531164, 0.03658923283219338, 0.03892500797907511, 0.04126078312595685, 0.04359655827283859]}, "conv1d_transpose_1_bias_0_image": {"_type": "images/separated", "width": 1, "height": 32, "format": "png", "count": 1, "filenames": ["media/images/conv1d_transpose_1_bias_0_image_40_12d0cc4f073df74e5dc0.png"]}, "conv1d_transpose_2/kernel_0/histogram": {"_type": "histogram", "values": [12.0, 13.0, 18.0, 12.0, 18.0, 12.0, 11.0, 13.0, 16.0, 13.0, 13.0, 14.0, 11.0, 14.0, 8.0, 11.0, 10.0, 17.0, 9.0, 10.0, 12.0, 17.0, 15.0, 14.0, 12.0, 16.0, 8.0, 14.0, 10.0, 11.0], "bins": [-0.23857225477695465, -0.22274669607480369, -0.2069211373726527, -0.1910955786705017, -0.17527001996835073, -0.15944446126619977, -0.14361890256404877, -0.12779334386189778, -0.11196778515974681, -0.09614222645759585, -0.08031666775544485, -0.06449110905329386, -0.048665550351142894, -0.03283999164899193, -0.017014432946840935, -0.0011888742446899414, 0.014636684457461024, 0.03046224315961199, 0.046287801861762956, 0.06211336056391398, 0.07793891926606494, 0.09376447796821591, 0.10959003667036693, 0.1254155953725179, 0.14124115407466886, 0.15706671277681983, 0.1728922714789708, 0.18871783018112182, 0.20454338888327278, 0.22036894758542375, 0.23619450628757477]}, "conv1d_transpose_2_kernel_0_image": {"_type": "images/separated", "width": 4, "height": 3, "format": "png", "count": 3, "filenames": ["media/images/conv1d_transpose_2_kernel_0_image_40_edc2368484847bf3d98d.png", "media/images/conv1d_transpose_2_kernel_0_image_40_861861a767b033235fb7.png", "media/images/conv1d_transpose_2_kernel_0_image_40_de6b9e4f079782c30fcd.png"]}, "conv1d_transpose_2/bias_0/histogram": {"_type": "histogram", "values": [1.0, 1.0, 0.0, 0.0, 0.0, 0.0, 0.0, 0.0, 0.0, 0.0, 0.0, 0.0, 0.0, 0.0, 0.0, 0.0, 0.0, 0.0, 0.0, 0.0, 0.0, 0.0, 0.0, 0.0, 0.0, 1.0, 0.0, 0.0, 0.0, 1.0], "bins": [-0.057347968220710754, -0.05331230834126473, -0.049276648461818694, -0.04524098858237267, -0.04120532870292663, -0.037169668823480606, -0.03313400894403458, -0.02909834906458855, -0.02506268918514252, -0.02102702930569649, -0.016991369426250458, -0.012955709546804431, -0.008920049667358404, -0.00488438978791237, -0.0008487299084663433, 0.0031869299709796906, 0.0072225898504257174, 0.011258249729871744, 0.015293909609317771, 0.019329569488763812, 0.02336522936820984, 0.027400889247655866, 0.03143654912710189, 0.03547220900654792, 0.039507868885993946, 0.04354352876543999, 0.047579188644886014, 0.05161484852433204, 0.05565050840377807, 0.059686168283224095, 0.06372182816267014]}, "conv1d_transpose_2_bias_0_image": {"_type": "images/separated", "width": 1, "height": 4, "format": "png", "count": 1, "filenames": ["media/images/conv1d_transpose_2_bias_0_image_40_44db48cbbbb2c3278d9b.png"]}, "_runtime": 5439.727863788605, "_step": 40}