{"global_step": 30, "_timestamp": 1688088023.62033, "epoch_loss": 1.3809248208999634, "epoch_lr": 9.999998695775503e-08, "pwm_conv/kernel_0/histogram": {"_type": "histogram", "values": [2.0, 1.0, 1.0, 36.0, 514.0, 96.0, 17.0, 408.0, 346.0, 324.0, 313.0, 421.0, 388.0, 425.0, 352.0, 473.0, 480.0, 575.0, 533.0, 580.0, 697.0, 739.0, 702.0, 701.0, 3864.0, 703.0, 709.0, 566.0, 577.0, 1417.0], "bins": [-5.521356105804443, -5.291306344668071, -5.061256583531698, -4.831206822395325, -4.601157061258952, -4.3711073001225795, -4.141057538986206, -3.911007777849833, -3.6809580167134603, -3.4509082555770876, -3.220858494440715, -2.9908087333043416, -2.760758972167969, -2.530709211031596, -2.300659449895223, -2.07060968875885, -1.8405599276224773, -1.6105101664861046, -1.3804604053497318, -1.150410644213359, -0.9203608830769863, -0.6903111219406126, -0.46026136080423985, -0.23021159966786708, -0.00016183853149431826, 0.22988792260487845, 0.4599376837412512, 0.689987444877624, 0.9200372060139976, 1.1500869671503704, 1.3801367282867432]}, "pwm_conv_kernel_0_image": {"_type": "images/separated", "width": 4, "height": 16, "format": "png", "count": 3, "filenames": ["media/images/pwm_conv_kernel_0_image_30_85f3ac3d3901ef7a9581.png", "media/images/pwm_conv_kernel_0_image_30_ff0166818b9ecb03dabe.png", "media/images/pwm_conv_kernel_0_image_30_5c3e85ae5e5c15d498f0.png"]}, "conv1d/kernel_0/histogram": {"_type": "histogram", "values": [1.0, 0.0, 1.0, 0.0, 0.0, 2.0, 1.0, 1.0, 5.0, 3.0, 12.0, 20.0, 82.0, 234.0, 835.0, 2172.0, 5161.0, 5360.0, 5409.0, 5502.0, 5341.0, 5358.0, 5191.0, 4633.0, 3936.0, 1611.0, 4.0, 2.0, 2.0, 1.0], "bins": [-0.3097672164440155, -0.2934469645222028, -0.2771267126003901, -0.26080646067857743, -0.24448620875676474, -0.22816595683495206, -0.21184570491313934, -0.19552545299132665, -0.17920520106951396, -0.16288494914770127, -0.14656469722588858, -0.1302444453040759, -0.11392419338226317, -0.09760394146045048, -0.0812836895386378, -0.0649634376168251, -0.048643185695012414, -0.032322933773199725, -0.016002681851387035, 0.00031757007042565455, 0.016637821992238344, 0.032958073914051034, 0.04927832583586372, 0.06559857775767641, 0.08191882967948916, 0.09823908160130185, 0.11455933352311454, 0.13087958544492723, 0.14719983736673992, 0.1635200892885526, 0.1798403412103653]}, "conv1d_kernel_0_image": {"_type": "images/separated", "width": 265, "height": 3, "format": "png", "count": 3, "filenames": ["media/images/conv1d_kernel_0_image_30_afed76f38a77dacb9f6d.png", "media/images/conv1d_kernel_0_image_30_e0af6948096a01742831.png", "media/images/conv1d_kernel_0_image_30_53594cd67f665719c988.png"]}, "conv1d/bias_0/histogram": {"_type": "histogram", "values": [30.0, 0.0, 1.0, 2.0, 7.0, 5.0, 2.0, 0.0, 0.0, 2.0, 2.0, 2.0, 1.0, 0.0, 2.0, 1.0, 0.0, 2.0, 1.0, 2.0, 0.0, 0.0, 0.0, 0.0, 0.0, 0.0, 1.0, 0.0, 0.0, 1.0], "bins": [-0.030226487666368484, -0.028110815957188607, -0.02599514424800873, -0.02387947253882885, -0.02176380082964897, -0.019648129120469093, -0.017532457411289212, -0.015416785702109335, -0.013301113992929457, -0.01118544228374958, -0.009069770574569702, -0.006954098865389821, -0.004838427156209944, -0.002722755447030066, -0.000607083737850185, 0.001508587971329689, 0.00362425968050957, 0.005739931389689451, 0.007855603098869325, 0.009971274808049206, 0.01208694651722908, 0.014202618226408961, 0.016318289935588842, 0.018433961644768716, 0.020549633353948597, 0.02266530506312848, 0.024780976772308352, 0.026896648481488233, 0.029012320190668114, 0.03112799189984799, 0.03324366360902786]}, "conv1d_bias_0_image": {"_type": "images/separated", "width": 1, "height": 64, "format": "png", "count": 1, "filenames": ["media/images/conv1d_bias_0_image_30_7a086effe10239882023.png"]}, "dense/kernel_0/histogram": {"_type": "histogram", "values": [4.0, 7.0, 5.0, 2.0, 2.0, 6.0, 6.0, 7.0, 6.0, 4.0, 4.0, 4.0, 8.0, 10.0, 8.0, 4.0, 2.0, 5.0, 3.0, 4.0, 9.0, 0.0, 4.0, 3.0, 4.0, 4.0, 1.0, 0.0, 0.0, 2.0], "bins": [-0.2699582874774933, -0.24944752057393393, -0.22893675367037455, -0.20842598676681517, -0.18791521986325582, -0.16740445295969647, -0.1468936860561371, -0.1263829191525777, -0.10587215224901836, -0.085361385345459, -0.06485061844189963, -0.04433985153834025, -0.023829084634780895, -0.003318317731221543, 0.017192449172337865, 0.03770321607589722, 0.05821398297945657, 0.07872474988301592, 0.09923551678657527, 0.11974628369013468, 0.14025705059369403, 0.16076781749725338, 0.1812785844008128, 0.20178935130437214, 0.2223001182079315, 0.24281088511149085, 0.2633216520150502, 0.28383241891860955, 0.304343185822169, 0.32485395272572837, 0.3453647196292877]}, "dense_kernel_0_image": {"_type": "images/separated", "width": 64, "height": 2, "format": "png", "count": 1, "filenames": ["media/images/dense_kernel_0_image_30_06a8c12f6ed6b85b135b.png"]}, "dense/bias_0/histogram": {"_type": "histogram", "values": [1.0, 0.0, 0.0, 0.0, 0.0, 0.0, 0.0, 0.0, 0.0, 0.0, 0.0, 0.0, 0.0, 0.0, 0.0, 0.0, 0.0, 0.0, 0.0, 0.0, 0.0, 0.0, 0.0, 0.0, 0.0, 0.0, 0.0, 0.0, 0.0, 1.0], "bins": [-0.053577955812215805, -0.05253307453046242, -0.05148819324870904, -0.05044331196695566, -0.04939843068520228, -0.0483535494034489, -0.04730866812169552, -0.04626378683994214, -0.045218905558188756, -0.044174024276435374, -0.04312914299468199, -0.04208426171292862, -0.041039380431175235, -0.03999449914942185, -0.03894961786766847, -0.03790473658591509, -0.03685985530416171, -0.035814974022408325, -0.03477009274065494, -0.03372521145890156, -0.03268033017714818, -0.0316354488953948, -0.03059056761364142, -0.02954568633188804, -0.028500805050134657, -0.027455923768381275, -0.026411042486627893, -0.025366161204874515, -0.024321279923121133, -0.02327639864136775, -0.022231517359614372]}, "dense_bias_0_image": {"_type": "images/separated", "width": 1, "height": 2, "format": "png", "count": 1, "filenames": ["media/images/dense_bias_0_image_30_8d994cf362504173484c.png"]}, "dense_1/kernel_0/histogram": {"_type": "histogram", "values": [1.0, 0.0, 0.0, 1.0, 1.0, 3.0, 0.0, 4.0, 14.0, 8.0, 17.0, 19.0, 34.0, 52.0, 80.0, 136.0, 30.0, 20.0, 11.0, 9.0, 13.0, 11.0, 6.0, 9.0, 3.0, 5.0, 7.0, 4.0, 1.0, 1.0], "bins": [-0.3388318419456482, -0.31649126013120016, -0.2941506783167521, -0.2718100965023041, -0.24946951468785605, -0.22712893287340802, -0.20478835105895996, -0.18244776924451192, -0.16010718743006389, -0.13776660561561585, -0.11542602380116782, -0.09308544198671978, -0.07074486017227172, -0.04840427835782368, -0.026063696543375647, -0.0037231147289276123, 0.018617467085520423, 0.04095804889996846, 0.06329863071441649, 0.08563921252886453, 0.10797979434331256, 0.1303203761577606, 0.15266095797220863, 0.17500153978665667, 0.19734212160110476, 0.21968270341555274, 0.24202328523000083, 0.2643638670444488, 0.2867044488588969, 0.3090450306733449, 0.33138561248779297]}, "dense_1_kernel_0_image": {"_type": "images/separated", "width": 1, "height": 500, "format": "png", "count": 1, "filenames": ["media/images/dense_1_kernel_0_image_30_ae951570e418170e0dfb.png"]}, "dense_1/bias_0/histogram": {"_type": "histogram", "values": [1.0, 0.0, 0.0, 0.0, 1.0, 1.0, 0.0, 1.0, 3.0, 9.0, 11.0, 14.0, 15.0, 14.0, 26.0, 27.0, 39.0, 55.0, 76.0, 23.0, 19.0, 19.0, 30.0, 30.0, 18.0, 29.0, 14.0, 11.0, 6.0, 8.0], "bins": [-0.8638108372688293, -0.8224556068579356, -0.7811003764470419, -0.739745146036148, -0.6983899156252543, -0.6570346852143606, -0.6156794548034668, -0.574324224392573, -0.5329689939816793, -0.49161376357078557, -0.4502585331598918, -0.408903302748998, -0.36754807233810427, -0.32619284192721054, -0.2848376115163167, -0.24348238110542297, -0.20212715069452925, -0.16077192028363552, -0.11941668987274179, -0.07806145946184795, -0.03670622905095422, 0.004649001359939509, 0.04600423177083335, 0.08735946218172708, 0.1287146925926208, 0.17006992300351453, 0.21142515341440826, 0.252780383825302, 0.29413561423619594, 0.33549084464708967, 0.3768460750579834]}, "dense_1_bias_0_image": {"_type": "images/separated", "width": 1, "height": 500, "format": "png", "count": 1, "filenames": ["media/images/dense_1_bias_0_image_30_b279b3ccd54fd1804db6.png"]}, "conv1d_transpose/kernel_0/histogram": {"_type": "histogram", "values": [1.0, 0.0, 3.0, 0.0, 1.0, 1.0, 1.0, 1.0, 4.0, 13.0, 7.0, 8.0, 17.0, 44.0, 99.0, 136.0, 181.0, 158.0, 59.0, 20.0, 8.0, 3.0, 1.0, 1.0, 0.0, 0.0, 0.0, 0.0, 0.0, 1.0], "bins": [-1.1780441999435425, -1.1086501975854237, -1.0392561952273052, -0.9698621928691864, -0.9004681905110676, -0.831074188152949, -0.7616801857948303, -0.6922861834367116, -0.6228921810785929, -0.5534981787204742, -0.4841041763623555, -0.4147101740042368, -0.34531617164611816, -0.2759221692879994, -0.20652816692988074, -0.13713416457176208, -0.06774016221364332, 0.0016538401444754491, 0.071047842502594, 0.14044184486071276, 0.20983584721883153, 0.2792298495769501, 0.34862385193506884, 0.4180178542931876, 0.48741185665130615, 0.5568058590094249, 0.6261998613675437, 0.6955938637256625, 0.764987866083781, 0.8343818684418998, 0.9037758708000183]}, "conv1d_transpose_kernel_0_image": {"_type": "images/separated", "width": 64, "height": 3, "format": "png", "count": 3, "filenames": ["media/images/conv1d_transpose_kernel_0_image_30_3d9815a6aad142e6d048.png", "media/images/conv1d_transpose_kernel_0_image_30_d688551de8619e621763.png", "media/images/conv1d_transpose_kernel_0_image_30_90dcfa67700673a4602f.png"]}, "conv1d_transpose/bias_0/histogram": {"_type": "histogram", "values": [1.0, 0.0, 0.0, 2.0, 1.0, 1.0, 11.0, 4.0, 4.0, 3.0, 4.0, 5.0, 6.0, 3.0, 3.0, 3.0, 0.0, 1.0, 1.0, 1.0, 1.0, 1.0, 0.0, 1.0, 2.0, 2.0, 1.0, 0.0, 1.0, 1.0], "bins": [-0.35539478063583374, -0.3386575698852539, -0.3219203591346741, -0.3051831483840942, -0.2884459376335144, -0.27170872688293457, -0.25497151613235475, -0.23823430538177492, -0.22149709463119507, -0.20475988388061525, -0.1880226731300354, -0.17128546237945558, -0.15454825162887575, -0.1378110408782959, -0.12107383012771608, -0.10433661937713623, -0.08759940862655641, -0.07086219787597658, -0.05412498712539676, -0.03738777637481688, -0.02065056562423706, -0.003913354873657238, 0.012823855876922585, 0.029561066627502408, 0.04629827737808223, 0.06303548812866211, 0.07977269887924193, 0.09650990962982176, 0.11324712038040158, 0.1299843311309814, 0.14672154188156128]}, "conv1d_transpose_bias_0_image": {"_type": "images/separated", "width": 1, "height": 64, "format": "png", "count": 1, "filenames": ["media/images/conv1d_transpose_bias_0_image_30_f1156c97b864b0d2bd25.png"]}, "conv1d_transpose_1/kernel_0/histogram": {"_type": "histogram", "values": [1.0, 1.0, 2.0, 1.0, 5.0, 5.0, 2.0, 8.0, 17.0, 21.0, 36.0, 174.0, 1043.0, 1439.0, 1484.0, 1318.0, 459.0, 70.0, 18.0, 18.0, 6.0, 6.0, 5.0, 3.0, 0.0, 0.0, 0.0, 1.0, 0.0, 1.0], "bins": [-1.0269486904144287, -0.9562691926956177, -0.8855896949768066, -0.8149101972579956, -0.7442306995391845, -0.6735512018203735, -0.6028717041015625, -0.5321922063827516, -0.46151270866394045, -0.39083321094512946, -0.32015371322631836, -0.24947421550750737, -0.17879471778869638, -0.10811522006988528, -0.037435722351074285, 0.033243775367736816, 0.10392327308654781, 0.1746027708053588, 0.2452822685241698, 0.315961766242981, 0.386641263961792, 0.457320761680603, 0.528000259399414, 0.598679757118225, 0.669359254837036, 0.7400387525558472, 0.8107182502746582, 0.8813977479934691, 0.9520772457122801, 1.0227567434310911, 1.0934362411499023]}, "conv1d_transpose_1_kernel_0_image": {"_type": "images/separated", "width": 32, "height": 3, "format": "png", "count": 3, "filenames": ["media/images/conv1d_transpose_1_kernel_0_image_30_e9a3040040820ee50ea0.png", "media/images/conv1d_transpose_1_kernel_0_image_30_29d3babdbd3d67fefcc8.png", "media/images/conv1d_transpose_1_kernel_0_image_30_570ad8c96a140d8efda1.png"]}, "conv1d_transpose_1/bias_0/histogram": {"_type": "histogram", "values": [1.0, 0.0, 0.0, 0.0, 0.0, 0.0, 0.0, 1.0, 1.0, 4.0, 3.0, 4.0, 3.0, 5.0, 2.0, 1.0, 1.0, 1.0, 2.0, 1.0, 0.0, 0.0, 0.0, 1.0, 0.0, 0.0, 0.0, 0.0, 0.0, 1.0], "bins": [-0.3589211702346802, -0.3410951018333435, -0.32326903343200686, -0.30544296503067014, -0.2876168966293335, -0.2697908282279968, -0.25196475982666017, -0.2341386914253235, -0.21631262302398682, -0.19848655462265016, -0.18066048622131348, -0.16283441781997682, -0.14500834941864016, -0.12718228101730347, -0.10935621261596681, -0.09153014421463013, -0.07370407581329347, -0.05587800741195681, -0.03805193901062015, -0.020225870609283436, -0.0023998022079467773, 0.015426266193389881, 0.03325233459472654, 0.0510784029960632, 0.06890447139739986, 0.08673053979873657, 0.10455660820007323, 0.12238267660140989, 0.14020874500274655, 0.1580348134040832, 0.17586088180541992]}, "conv1d_transpose_1_bias_0_image": {"_type": "images/separated", "width": 1, "height": 32, "format": "png", "count": 1, "filenames": ["media/images/conv1d_transpose_1_bias_0_image_30_efffbcdec0153cfa9cf3.png"]}, "conv1d_transpose_2/kernel_0/histogram": {"_type": "histogram", "values": [1.0, 0.0, 0.0, 0.0, 0.0, 0.0, 0.0, 0.0, 0.0, 0.0, 5.0, 1.0, 4.0, 15.0, 35.0, 34.0, 34.0, 45.0, 57.0, 47.0, 45.0, 34.0, 15.0, 5.0, 3.0, 3.0, 0.0, 0.0, 0.0, 1.0], "bins": [-0.8456787467002869, -0.7980880379676819, -0.750497329235077, -0.7029066205024719, -0.6553159117698669, -0.607725203037262, -0.560134494304657, -0.512543785572052, -0.46495307683944703, -0.4173623681068421, -0.36977165937423706, -0.3221809506416321, -0.27459024190902714, -0.22699953317642219, -0.17940882444381712, -0.13181811571121216, -0.0842274069786072, -0.03663669824600224, 0.010954010486602717, 0.058544719219207786, 0.10613542795181274, 0.1537261366844177, 0.20131684541702266, 0.24890755414962773, 0.2964982628822326, 0.34408897161483765, 0.3916796803474425, 0.43927038908004756, 0.48686109781265263, 0.5344518065452575, 0.5820425152778625]}, "conv1d_transpose_2_kernel_0_image": {"_type": "images/separated", "width": 4, "height": 3, "format": "png", "count": 3, "filenames": ["media/images/conv1d_transpose_2_kernel_0_image_30_c3b19d84b063dea385ee.png", "media/images/conv1d_transpose_2_kernel_0_image_30_77c87aca66e8c9c997bb.png", "media/images/conv1d_transpose_2_kernel_0_image_30_36e30d86d2b55ca2d102.png"]}, "conv1d_transpose_2/bias_0/histogram": {"_type": "histogram", "values": [2.0, 0.0, 0.0, 0.0, 0.0, 0.0, 0.0, 0.0, 0.0, 0.0, 0.0, 0.0, 0.0, 0.0, 0.0, 0.0, 0.0, 0.0, 0.0, 0.0, 0.0, 0.0, 0.0, 0.0, 0.0, 0.0, 0.0, 0.0, 0.0, 2.0], "bins": [-0.13741880655288696, -0.12600246568520865, -0.11458612481753032, -0.10316978394985199, -0.09175344308217367, -0.08033710221449535, -0.06892076134681702, -0.0575044204791387, -0.04608807961146037, -0.03467173874378204, -0.02325539787610373, -0.011839057008425413, -0.0004227161407470703, 0.010993624726931245, 0.02240996559460956, 0.0338263064622879, 0.04524264732996622, 0.05665898819764453, 0.06807532906532288, 0.07949166993300119, 0.0909080108006795, 0.10232435166835785, 0.11374069253603614, 0.12515703340371448, 0.13657337427139282, 0.1479897151390711, 0.15940605600674945, 0.1708223968744278, 0.18223873774210608, 0.19365507860978443, 0.20507141947746277]}, "conv1d_transpose_2_bias_0_image": {"_type": "images/separated", "width": 1, "height": 4, "format": "png", "count": 1, "filenames": ["media/images/conv1d_transpose_2_bias_0_image_30_714a62ccad58258f0d54.png"]}, "_runtime": 4054.5466141700745, "_step": 30, "_wandb": {"runtime": 4053}}