{"global_step": 2, "_timestamp": 1688059628.759146, "epoch_loss": 9.549922203405686e+26, "epoch_lr": 0.0010000000474974513, "pwm_conv/kernel_0/histogram": {"_type": "histogram", "values": [2.0, 1.0, 1.0, 36.0, 514.0, 96.0, 17.0, 408.0, 346.0, 324.0, 313.0, 421.0, 388.0, 425.0, 352.0, 473.0, 480.0, 575.0, 533.0, 580.0, 697.0, 739.0, 702.0, 701.0, 3864.0, 703.0, 709.0, 566.0, 577.0, 1417.0], "bins": [-5.521356105804443, -5.291306344668071, -5.061256583531698, -4.831206822395325, -4.601157061258952, -4.3711073001225795, -4.141057538986206, -3.911007777849833, -3.6809580167134603, -3.4509082555770876, -3.220858494440715, -2.9908087333043416, -2.760758972167969, -2.530709211031596, -2.300659449895223, -2.07060968875885, -1.8405599276224773, -1.6105101664861046, -1.3804604053497318, -1.150410644213359, -0.9203608830769863, -0.6903111219406126, -0.46026136080423985, -0.23021159966786708, -0.00016183853149431826, 0.22988792260487845, 0.4599376837412512, 0.689987444877624, 0.9200372060139976, 1.1500869671503704, 1.3801367282867432]}, "pwm_conv_kernel_0_image": {"_type": "images/separated", "width": 4, "height": 16, "format": "png", "count": 3, "filenames": ["media/images/pwm_conv_kernel_0_image_2_85f3ac3d3901ef7a9581.png", "media/images/pwm_conv_kernel_0_image_2_ff0166818b9ecb03dabe.png", "media/images/pwm_conv_kernel_0_image_2_5c3e85ae5e5c15d498f0.png"]}, "conv1d/kernel_0/histogram": {"_type": "histogram", "values": [1752.0, 1648.0, 1697.0, 1732.0, 1681.0, 1664.0, 1748.0, 1672.0, 1769.0, 1742.0, 1652.0, 1749.0, 1724.0, 1720.0, 1656.0, 1683.0, 1689.0, 1801.0, 1638.0, 1649.0, 1680.0, 1675.0, 1689.0, 1680.0, 1685.0, 1651.0, 1695.0, 1657.0, 1744.0, 1658.0], "bins": [-0.07795557379722595, -0.07275827328364054, -0.06756097277005513, -0.06236367225646973, -0.05716637174288432, -0.051969071229298905, -0.0467717707157135, -0.041574470202128094, -0.03637716968854268, -0.03117986917495727, -0.025982568661371865, -0.02078526814778646, -0.015587967634201047, -0.010390667120615635, -0.0051933666070302364, 3.933906555175781e-06, 0.005201234420140588, 0.010398534933726, 0.015595835447311412, 0.02079313596089681, 0.025990436474482223, 0.031187736988067635, 0.036385037501653034, 0.041582338015238446, 0.04677963852882386, 0.05197693904240927, 0.05717423955599468, 0.062371540069580095, 0.06756884058316548, 0.07276614109675089, 0.0779634416103363]}, "conv1d_kernel_0_image": {"_type": "images/separated", "width": 265, "height": 3, "format": "png", "count": 3, "filenames": ["media/images/conv1d_kernel_0_image_2_566e438863c3c7919ddc.png", "media/images/conv1d_kernel_0_image_2_fa334ed2d2aa9afb730f.png", "media/images/conv1d_kernel_0_image_2_1a14725a8be32320984c.png"]}, "conv1d/bias_0/histogram": {"_type": "histogram", "values": [0.0, 0.0, 0.0, 0.0, 0.0, 0.0, 0.0, 0.0, 0.0, 0.0, 0.0, 0.0, 0.0, 0.0, 0.0, 0.0, 0.0, 0.0, 0.0, 0.0, 0.0, 0.0, 0.0, 0.0, 0.0, 0.0, 0.0, 0.0, 0.0, 64.0], "bins": [0.0, 0.0, 0.0, 0.0, 0.0, 0.0, 0.0, 0.0, 0.0, 0.0, 0.0, 0.0, 0.0, 0.0, 0.0, 0.0, 0.0, 0.0, 0.0, 0.0, 0.0, 0.0, 0.0, 0.0, 0.0, 0.0, 0.0, 0.0, 0.0, 0.0, 0.0]}, "conv1d_bias_0_image": {"_type": "images/separated", "width": 1, "height": 64, "format": "png", "count": 1, "filenames": ["media/images/conv1d_bias_0_image_2_bb73d8645203240d9bf5.png"]}, "dense/kernel_0/histogram": {"_type": "histogram", "values": [4.0, 0.0, 2.0, 4.0, 3.0, 4.0, 2.0, 2.0, 1.0, 0.0, 4.0, 0.0, 3.0, 10.0, 46.0, 9.0, 4.0, 2.0, 1.0, 4.0, 2.0, 0.0, 3.0, 3.0, 1.0, 2.0, 4.0, 2.0, 2.0, 4.0], "bins": [-0.2806205749511719, -0.2613711396853129, -0.24212170441945394, -0.22287226915359498, -0.203622833887736, -0.18437339862187702, -0.16512396335601806, -0.1458745280901591, -0.12662509282430012, -0.10737565755844114, -0.08812622229258218, -0.06887678702672323, -0.04962735176086425, -0.030377916495005264, -0.011128481229146336, 0.008120954036712646, 0.02737038930257163, 0.04661982456843061, 0.0658692598342896, 0.08511869510014852, 0.1043681303660075, 0.12361756563186649, 0.14286700089772542, 0.1621164361635844, 0.18136587142944338, 0.20061530669530236, 0.21986474196116135, 0.23911417722702033, 0.2583636124928792, 0.2776130477587382, 0.29686248302459717]}, "dense_kernel_0_image": {"_type": "images/separated", "width": 64, "height": 2, "format": "png", "count": 1, "filenames": ["media/images/dense_kernel_0_image_2_2203ac39b5f579de7ad9.png"]}, "dense/bias_0/histogram": {"_type": "histogram", "values": [1.0, 0.0, 0.0, 0.0, 0.0, 0.0, 0.0, 0.0, 0.0, 0.0, 0.0, 0.0, 0.0, 0.0, 0.0, 0.0, 0.0, 0.0, 0.0, 0.0, 0.0, 0.0, 0.0, 0.0, 0.0, 0.0, 0.0, 0.0, 0.0, 1.0], "bins": [0.0, 0.00046792741244037946, 0.0009358548248807589, 0.0014037822373211383, 0.0018717096497615179, 0.002339637062201897, 0.0028075644746422767, 0.003275491887082656, 0.0037434192995230357, 0.004211346711963415, 0.004679274124403794, 0.005147201536844174, 0.005615128949284553, 0.006083056361724933, 0.006550983774165312, 0.007018911186605692, 0.007486838599046071, 0.007954766011486451, 0.00842269342392683, 0.00889062083636721, 0.009358548248807589, 0.009826475661247969, 0.010294403073688348, 0.010762330486128728, 0.011230257898569107, 0.011698185311009487, 0.012166112723449866, 0.012634040135890246, 0.013101967548330625, 0.013569894960771005, 0.014037822373211384]}, "dense_bias_0_image": {"_type": "images/separated", "width": 1, "height": 2, "format": "png", "count": 1, "filenames": ["media/images/dense_bias_0_image_2_1d0a35230981e2eb7913.png"]}, "dense_1/kernel_0/histogram": {"_type": "histogram", "values": [1.0, 2.0, 3.0, 6.0, 4.0, 9.0, 10.0, 8.0, 19.0, 31.0, 27.0, 19.0, 17.0, 35.0, 72.0, 38.0, 38.0, 26.0, 26.0, 25.0, 27.0, 20.0, 10.0, 11.0, 4.0, 4.0, 2.0, 1.0, 2.0, 3.0], "bins": [-0.005326665472239256, -0.0049637374468147755, -0.004600809421390295, -0.004237881395965815, -0.003874953370541334, -0.0035120253451168537, -0.0031490973196923733, -0.002786169294267893, -0.0024232412688434124, -0.002060313243418932, -0.0016973852179944515, -0.001334457192569971, -0.0009715291671454906, -0.0006086011417210102, -0.00024567311629652977, 0.00011725490912795067, 0.0004801829345524311, 0.0008431109599769115, 0.001206038985401392, 0.0015689670108258724, 0.0019318950362503529, 0.0022948230616748333, 0.0026577510870993137, 0.003020679112523794, 0.0033836071379482746, 0.003746535163372755, 0.0041094631887972355, 0.004472391214221716, 0.004835319239646196, 0.005198247265070677, 0.005561175290495157]}, "dense_1_kernel_0_image": {"_type": "images/separated", "width": 1, "height": 500, "format": "png", "count": 1, "filenames": ["media/images/dense_1_kernel_0_image_2_e84f13fcdd7158d30534.png"]}, "dense_1/bias_0/histogram": {"_type": "histogram", "values": [2.0, 3.0, 6.0, 7.0, 8.0, 15.0, 10.0, 30.0, 23.0, 19.0, 28.0, 29.0, 41.0, 26.0, 45.0, 31.0, 24.0, 29.0, 29.0, 28.0, 13.0, 9.0, 13.0, 8.0, 9.0, 9.0, 1.0, 1.0, 2.0, 2.0], "bins": [-0.31389448046684265, -0.3079260547955831, -0.3019576291243235, -0.29598920345306395, -0.2900207777818044, -0.28405235211054486, -0.27808392643928526, -0.2721155007680257, -0.26614707509676616, -0.2601786494255066, -0.254210223754247, -0.24824179808298746, -0.24227337241172792, -0.23630494674046834, -0.23033652106920877, -0.22436809539794922, -0.21839966972668967, -0.2124312440554301, -0.20646281838417052, -0.20049439271291097, -0.19452596704165143, -0.18855754137039185, -0.18258911569913228, -0.17662069002787273, -0.17065226435661315, -0.1646838386853536, -0.15871541301409403, -0.15274698734283448, -0.1467785616715749, -0.14081013600031536, -0.1348417103290558]}, "dense_1_bias_0_image": {"_type": "images/separated", "width": 1, "height": 500, "format": "png", "count": 1, "filenames": ["media/images/dense_1_bias_0_image_2_5526b80dc252e6f13cc5.png"]}, "conv1d_transpose/kernel_0/histogram": {"_type": "histogram", "values": [2.0, 0.0, 1.0, 0.0, 6.0, 6.0, 6.0, 15.0, 30.0, 26.0, 39.0, 38.0, 53.0, 46.0, 48.0, 34.0, 54.0, 51.0, 40.0, 56.0, 45.0, 50.0, 36.0, 25.0, 27.0, 14.0, 13.0, 2.0, 4.0, 1.0], "bins": [-0.22708404064178467, -0.21346597075462342, -0.19984790086746215, -0.1862298309803009, -0.17261176109313964, -0.1589936912059784, -0.14537562131881715, -0.1317575514316559, -0.11813948154449463, -0.10452141165733338, -0.09090334177017212, -0.07728527188301088, -0.06366720199584963, -0.05004913210868836, -0.036431062221527116, -0.022812992334365845, -0.009194922447204601, 0.004423147439956643, 0.018041217327117914, 0.031659287214279186, 0.04527735710144043, 0.05889542698860167, 0.07251349687576292, 0.08613156676292416, 0.0997496366500854, 0.1133677065372467, 0.12698577642440795, 0.1406038463115692, 0.15422191619873044, 0.16783998608589168, 0.18145805597305298]}, "conv1d_transpose_kernel_0_image": {"_type": "images/separated", "width": 64, "height": 3, "format": "png", "count": 3, "filenames": ["media/images/conv1d_transpose_kernel_0_image_2_f1512ab027de6f579940.png", "media/images/conv1d_transpose_kernel_0_image_2_91aa2f8dfffa71224ba6.png", "media/images/conv1d_transpose_kernel_0_image_2_9064de4f4a52726c626d.png"]}, "conv1d_transpose/bias_0/histogram": {"_type": "histogram", "values": [1.0, 0.0, 1.0, 0.0, 0.0, 1.0, 2.0, 1.0, 1.0, 4.0, 5.0, 5.0, 6.0, 5.0, 3.0, 2.0, 3.0, 4.0, 3.0, 10.0, 0.0, 1.0, 0.0, 0.0, 0.0, 0.0, 1.0, 2.0, 1.0, 2.0], "bins": [-0.1904694139957428, -0.18081458111604054, -0.17115974823633828, -0.16150491535663605, -0.1518500824769338, -0.14219524959723154, -0.1325404167175293, -0.12288558383782705, -0.11323075095812479, -0.10357591807842254, -0.09392108519872029, -0.08426625231901805, -0.07461141943931579, -0.06495658655961353, -0.0553017536799113, -0.045646920800209045, -0.03599208792050679, -0.02633725504080453, -0.016682422161102273, -0.007027589281400043, 0.0026272435983022147, 0.012282076478004472, 0.021936909357706702, 0.03159174223740896, 0.04124657511711122, 0.050901407996813475, 0.06055624087651573, 0.07021107375621799, 0.07986590663592019, 0.08952073951562245, 0.09917557239532471]}, "conv1d_transpose_bias_0_image": {"_type": "images/separated", "width": 1, "height": 64, "format": "png", "count": 1, "filenames": ["media/images/conv1d_transpose_bias_0_image_2_8e7eae35f345e6696e2f.png"]}, "conv1d_transpose_1/kernel_0/histogram": {"_type": "histogram", "values": [2.0, 5.0, 7.0, 15.0, 67.0, 154.0, 242.0, 259.0, 317.0, 358.0, 358.0, 364.0, 362.0, 381.0, 350.0, 353.0, 399.0, 342.0, 335.0, 364.0, 319.0, 299.0, 247.0, 153.0, 61.0, 24.0, 5.0, 1.0, 0.0, 1.0], "bins": [-0.2359037697315216, -0.2206447660923004, -0.2053857624530792, -0.19012675881385804, -0.17486775517463685, -0.15960875153541565, -0.14434974789619445, -0.12909074425697326, -0.11383174061775207, -0.09857273697853089, -0.08331373333930969, -0.0680547297000885, -0.0527957260608673, -0.0375367224216461, -0.022277718782424932, -0.007018715143203735, 0.008240288496017462, 0.02349929213523866, 0.03875829577445983, 0.05401729941368105, 0.06927630305290222, 0.08453530669212345, 0.09979431033134462, 0.11505331397056578, 0.130312317609787, 0.14557132124900818, 0.1608303248882294, 0.17608932852745057, 0.19134833216667174, 0.20660733580589297, 0.22186633944511414]}, "conv1d_transpose_1_kernel_0_image": {"_type": "images/separated", "width": 32, "height": 3, "format": "png", "count": 3, "filenames": ["media/images/conv1d_transpose_1_kernel_0_image_2_c7ef60636d90b8ffe24b.png", "media/images/conv1d_transpose_1_kernel_0_image_2_488efa51b67002fcef6f.png", "media/images/conv1d_transpose_1_kernel_0_image_2_0b6c180c20dd7995573d.png"]}, "conv1d_transpose_1/bias_0/histogram": {"_type": "histogram", "values": [1.0, 0.0, 0.0, 0.0, 0.0, 0.0, 0.0, 0.0, 1.0, 0.0, 1.0, 0.0, 0.0, 2.0, 0.0, 3.0, 2.0, 2.0, 1.0, 1.0, 0.0, 1.0, 2.0, 1.0, 1.0, 2.0, 1.0, 3.0, 4.0, 3.0], "bins": [-0.2003444880247116, -0.19336361478393277, -0.18638274154315393, -0.1794018683023751, -0.17242099506159625, -0.1654401218208174, -0.15845924858003854, -0.1514783753392597, -0.14449750209848086, -0.13751662885770202, -0.13053575561692318, -0.12355488237614433, -0.11657400913536549, -0.10959313589458665, -0.1026122626538078, -0.09563138941302896, -0.08865051617225012, -0.08166964293147128, -0.07468876969069244, -0.0677078964499136, -0.060727023209134756, -0.05374614996835589, -0.04676527672757705, -0.03978440348679821, -0.03280353024601937, -0.02582265700524053, -0.01884178376446169, -0.01186091052368285, -0.004880037282903982, 0.002100835957874858, 0.009081709198653698]}, "conv1d_transpose_1_bias_0_image": {"_type": "images/separated", "width": 1, "height": 32, "format": "png", "count": 1, "filenames": ["media/images/conv1d_transpose_1_bias_0_image_2_dd2c870a45e76ad997dc.png"]}, "conv1d_transpose_2/kernel_0/histogram": {"_type": "histogram", "values": [1.0, 0.0, 0.0, 10.0, 6.0, 7.0, 11.0, 21.0, 18.0, 16.0, 16.0, 19.0, 22.0, 17.0, 23.0, 24.0, 20.0, 16.0, 16.0, 28.0, 18.0, 16.0, 14.0, 22.0, 10.0, 4.0, 3.0, 3.0, 1.0, 2.0], "bins": [-0.22815419733524323, -0.21296857992808024, -0.19778296252091726, -0.18259734511375428, -0.1674117277065913, -0.15222611029942829, -0.13704049289226533, -0.12185487548510233, -0.10666925807793935, -0.09148364067077636, -0.07629802326361337, -0.06111240585645039, -0.04592678844928741, -0.030741171042124427, -0.015555553634961444, -0.0003699362277984619, 0.01481568117936452, 0.030001298586527503, 0.04518691599369051, 0.06037253340085347, 0.07555815080801648, 0.09074376821517943, 0.10592938562234244, 0.1211150030295054, 0.1363006204366684, 0.15148623784383136, 0.16667185525099437, 0.18185747265815733, 0.19704309006532034, 0.2122287074724833, 0.2274143248796463]}, "conv1d_transpose_2_kernel_0_image": {"_type": "images/separated", "width": 4, "height": 3, "format": "png", "count": 3, "filenames": ["media/images/conv1d_transpose_2_kernel_0_image_2_a89f91ab149a4b97f1a7.png", "media/images/conv1d_transpose_2_kernel_0_image_2_f31a462f5fa69dc7f139.png", "media/images/conv1d_transpose_2_kernel_0_image_2_2f0ad552b97042046a67.png"]}, "conv1d_transpose_2/bias_0/histogram": {"_type": "histogram", "values": [2.0, 0.0, 0.0, 0.0, 0.0, 0.0, 0.0, 0.0, 0.0, 0.0, 0.0, 0.0, 0.0, 0.0, 0.0, 0.0, 0.0, 0.0, 0.0, 0.0, 0.0, 0.0, 0.0, 0.0, 0.0, 0.0, 0.0, 0.0, 0.0, 2.0], "bins": [-0.17964589595794678, -0.16701282958189648, -0.15437976320584615, -0.14174669682979585, -0.12911363045374552, -0.11648056407769522, -0.1038474977016449, -0.09121443132559459, -0.07858136494954428, -0.06594829857349396, -0.05331523219744366, -0.040682165821393335, -0.028049099445343034, -0.015416033069292706, -0.0027829666932424058, 0.009850099682807922, 0.022483166058858223, 0.03511623243490852, 0.04774929881095885, 0.06038236518700915, 0.07301543156305945, 0.08564849793910978, 0.09828156431516011, 0.11091463069121044, 0.12354769706726071, 0.13618076344331104, 0.14881382981936137, 0.16144689619541164, 0.17407996257146197, 0.1867130289475123, 0.19934609532356262]}, "conv1d_transpose_2_bias_0_image": {"_type": "images/separated", "width": 1, "height": 4, "format": "png", "count": 1, "filenames": ["media/images/conv1d_transpose_2_bias_0_image_2_d15e5e98bf51feca1a78.png"]}, "_runtime": 241.638347864151, "_step": 2}