{"global_step": 12, "_timestamp": 1688074921.568646, "epoch_loss": 1.3804244995117188, "epoch_lr": 1.0000000656873453e-05, "pwm_conv/kernel_0/histogram": {"_type": "histogram", "values": [2.0, 1.0, 1.0, 36.0, 514.0, 96.0, 17.0, 408.0, 346.0, 324.0, 313.0, 421.0, 388.0, 425.0, 352.0, 473.0, 480.0, 575.0, 533.0, 580.0, 697.0, 739.0, 702.0, 701.0, 3864.0, 703.0, 709.0, 566.0, 577.0, 1417.0], "bins": [-5.521356105804443, -5.291306344668071, -5.061256583531698, -4.831206822395325, -4.601157061258952, -4.3711073001225795, -4.141057538986206, -3.911007777849833, -3.6809580167134603, -3.4509082555770876, -3.220858494440715, -2.9908087333043416, -2.760758972167969, -2.530709211031596, -2.300659449895223, -2.07060968875885, -1.8405599276224773, -1.6105101664861046, -1.3804604053497318, -1.150410644213359, -0.9203608830769863, -0.6903111219406126, -0.46026136080423985, -0.23021159966786708, -0.00016183853149431826, 0.22988792260487845, 0.4599376837412512, 0.689987444877624, 0.9200372060139976, 1.1500869671503704, 1.3801367282867432]}, "pwm_conv_kernel_0_image": {"_type": "images/separated", "width": 4, "height": 16, "format": "png", "count": 3, "filenames": ["media/images/pwm_conv_kernel_0_image_12_85f3ac3d3901ef7a9581.png", "media/images/pwm_conv_kernel_0_image_12_ff0166818b9ecb03dabe.png", "media/images/pwm_conv_kernel_0_image_12_5c3e85ae5e5c15d498f0.png"]}, "conv1d/kernel_0/histogram": {"_type": "histogram", "values": [5.0, 10.0, 32.0, 116.0, 1265.0, 1913.0, 2038.0, 2113.0, 2123.0, 2168.0, 2192.0, 2264.0, 2165.0, 2194.0, 2110.0, 2115.0, 2258.0, 2208.0, 2208.0, 2139.0, 2257.0, 2074.0, 2237.0, 2136.0, 2137.0, 2183.0, 2088.0, 1690.0, 383.0, 59.0], "bins": [-0.10275401175022125, -0.09617281630635262, -0.08959162086248398, -0.08301042541861534, -0.0764292299747467, -0.06984803453087807, -0.06326683908700943, -0.05668564364314079, -0.05010444819927216, -0.04352325275540352, -0.03694205731153488, -0.030360861867666247, -0.023779666423797613, -0.01719847097992898, -0.01061727553606033, -0.004036080092191696, 0.002545115351676938, 0.009126310795545572, 0.015707506239414207, 0.02228870168328284, 0.02886989712715149, 0.03545109257102011, 0.04203228801488876, 0.048613483458757406, 0.055194678902626026, 0.061775874346494675, 0.0683570697903633, 0.07493826523423194, 0.08151946067810059, 0.08810065612196921, 0.09468185156583786]}, "conv1d_kernel_0_image": {"_type": "images/separated", "width": 265, "height": 3, "format": "png", "count": 3, "filenames": ["media/images/conv1d_kernel_0_image_12_9577a4f5a40e3bc7f786.png", "media/images/conv1d_kernel_0_image_12_e211a449246d98d2fb47.png", "media/images/conv1d_kernel_0_image_12_e5c3cd5f2f4b02c9593a.png"]}, "conv1d/bias_0/histogram": {"_type": "histogram", "values": [1.0, 0.0, 0.0, 0.0, 1.0, 0.0, 1.0, 1.0, 2.0, 1.0, 1.0, 1.0, 0.0, 0.0, 1.0, 3.0, 0.0, 1.0, 2.0, 3.0, 2.0, 0.0, 7.0, 6.0, 12.0, 8.0, 3.0, 3.0, 1.0, 3.0], "bins": [-0.01470586471259594, -0.014215669222176075, -0.01372547373175621, -0.013235278241336346, -0.012745082750916481, -0.012254887260496616, -0.011764691770076751, -0.011274496279656886, -0.010784300789237023, -0.010294105298817156, -0.009803909808397293, -0.009313714317977428, -0.008823518827557563, -0.0083333233371377, -0.007843127846717833, -0.00735293235629797, -0.006862736865878105, -0.00637254137545824, -0.005882345885038375, -0.0053921503946185115, -0.0049019549041986465, -0.0044117594137787815, -0.0039215639233589165, -0.0034313684329390515, -0.0029411729425191865, -0.0024509774520993233, -0.0019607819616794583, -0.0014705864712595933, -0.0009803909808397283, -0.0004901954904198633, 0.0]}, "conv1d_bias_0_image": {"_type": "images/separated", "width": 1, "height": 64, "format": "png", "count": 1, "filenames": ["media/images/conv1d_bias_0_image_12_bb73d8645203240d9bf5.png"]}, "dense/kernel_0/histogram": {"_type": "histogram", "values": [1.0, 1.0, 3.0, 0.0, 5.0, 6.0, 4.0, 5.0, 4.0, 1.0, 5.0, 6.0, 6.0, 4.0, 26.0, 8.0, 2.0, 3.0, 2.0, 1.0, 2.0, 2.0, 2.0, 4.0, 6.0, 2.0, 4.0, 7.0, 5.0, 1.0], "bins": [-0.28879913687705994, -0.26912772953510283, -0.24945632219314576, -0.22978491485118865, -0.21011350750923158, -0.19044210016727448, -0.17077069282531737, -0.1510992854833603, -0.1314278781414032, -0.11175647079944609, -0.09208506345748901, -0.07241365611553191, -0.05274224877357481, -0.033070841431617704, -0.013399434089660656, 0.006271973252296448, 0.02594338059425355, 0.045614787936210655, 0.06528619527816776, 0.0849576026201248, 0.10462900996208191, 0.12430041730403901, 0.14397182464599612, 0.16364323198795322, 0.18331463932991032, 0.20298604667186737, 0.22265745401382453, 0.24232886135578158, 0.2620002686977386, 0.2816716760396958, 0.30134308338165283]}, "dense_kernel_0_image": {"_type": "images/separated", "width": 64, "height": 2, "format": "png", "count": 1, "filenames": ["media/images/dense_kernel_0_image_12_bb20fd56faa1d7296abd.png"]}, "dense/bias_0/histogram": {"_type": "histogram", "values": [1.0, 0.0, 0.0, 0.0, 0.0, 0.0, 0.0, 0.0, 0.0, 0.0, 0.0, 0.0, 0.0, 0.0, 0.0, 0.0, 0.0, 0.0, 0.0, 0.0, 0.0, 0.0, 0.0, 0.0, 0.0, 0.0, 0.0, 0.0, 0.0, 1.0], "bins": [0.0005100266425870359, 0.0005794352677185088, 0.0006488438928499817, 0.0007182525179814548, 0.0007876611431129277, 0.0008570697682444006, 0.0009264783933758737, 0.0009958870185073467, 0.0010652956436388195, 0.0011347042687702923, 0.0012041128939017653, 0.0012735215190332384, 0.0013429301441647114, 0.0014123387692961842, 0.0014817473944276573, 0.00155115601955913, 0.001620564644690603, 0.0016899732698220761, 0.001759381894953549, 0.001828790520085022, 0.0018981991452164948, 0.001967607770347968, 0.002037016395479441, 0.0021064250206109135, 0.002175833645742387, 0.0022452422708738595, 0.0023146508960053326, 0.0023840595211368056, 0.0024534681462682786, 0.0025228767713997517, 0.0025922853965312243]}, "dense_bias_0_image": {"_type": "images/separated", "width": 1, "height": 2, "format": "png", "count": 1, "filenames": ["media/images/dense_bias_0_image_12_8d994cf362504173484c.png"]}, "dense_1/kernel_0/histogram": {"_type": "histogram", "values": [2.0, 0.0, 2.0, 2.0, 1.0, 6.0, 3.0, 11.0, 26.0, 68.0, 91.0, 111.0, 61.0, 40.0, 33.0, 19.0, 10.0, 6.0, 2.0, 1.0, 2.0, 1.0, 1.0, 0.0, 0.0, 0.0, 0.0, 0.0, 0.0, 1.0], "bins": [-0.07875769585371017, -0.0717669499417146, -0.06477620402971904, -0.05778545811772347, -0.0507947122057279, -0.04380396629373232, -0.036813220381736754, -0.029822474469741185, -0.022831728557745616, -0.01584098264575004, -0.008850236733754471, -0.0018594908217589023, 0.005131255090236667, 0.012122001002232236, 0.019112746914227804, 0.026103492826223373, 0.03309423873821894, 0.04008498465021451, 0.047075730562210094, 0.05406647647420565, 0.06105722238620123, 0.06804796829819679, 0.07503871421019237, 0.08202946012218792, 0.08902020603418351, 0.09601095194617906, 0.10300169785817465, 0.1099924437701702, 0.11698318968216578, 0.12397393559416134, 0.13096468150615692]}, "dense_1_kernel_0_image": {"_type": "images/separated", "width": 1, "height": 500, "format": "png", "count": 1, "filenames": ["media/images/dense_1_kernel_0_image_12_ab95ca5fcb529cb3eb6e.png"]}, "dense_1/bias_0/histogram": {"_type": "histogram", "values": [7.0, 16.0, 16.0, 43.0, 77.0, 108.0, 111.0, 34.0, 7.0, 9.0, 11.0, 11.0, 7.0, 6.0, 6.0, 8.0, 8.0, 6.0, 5.0, 2.0, 0.0, 0.0, 0.0, 1.0, 0.0, 0.0, 0.0, 0.0, 0.0, 1.0], "bins": [-0.23416349291801453, -0.20248871743679048, -0.1708139419555664, -0.13913916647434232, -0.10746439099311828, -0.07578961551189423, -0.04411484003067015, -0.012440064549446073, 0.019234710931777976, 0.050909486413002025, 0.08258426189422607, 0.11425903737545018, 0.14593381285667423, 0.17760858833789828, 0.20928336381912238, 0.24095813930034643, 0.2726329147815705, 0.3043076902627946, 0.3359824657440186, 0.3676572412252427, 0.3993320167064667, 0.4310067921876908, 0.4626815676689149, 0.4943563431501389, 0.526031118631363, 0.5577058941125871, 0.5893806695938111, 0.6210554450750352, 0.6527302205562593, 0.6844049960374833, 0.7160797715187073]}, "dense_1_bias_0_image": {"_type": "images/separated", "width": 1, "height": 500, "format": "png", "count": 1, "filenames": ["media/images/dense_1_bias_0_image_12_b86a3f6938866714b044.png"]}, "conv1d_transpose/kernel_0/histogram": {"_type": "histogram", "values": [6.0, 4.0, 5.0, 9.0, 12.0, 16.0, 31.0, 45.0, 46.0, 58.0, 61.0, 59.0, 61.0, 65.0, 43.0, 48.0, 54.0, 43.0, 35.0, 23.0, 21.0, 7.0, 4.0, 6.0, 3.0, 2.0, 0.0, 0.0, 0.0, 1.0], "bins": [-0.3756967782974243, -0.35046484768390657, -0.3252329170703888, -0.300000986456871, -0.27476905584335326, -0.2495371252298355, -0.22430519461631776, -0.19907326400279998, -0.17384133338928223, -0.14860940277576448, -0.1233774721622467, -0.09814554154872895, -0.0729136109352112, -0.047681680321693454, -0.022449749708175648, 0.002782180905342102, 0.028014111518859852, 0.0532460421323776, 0.07847797274589535, 0.10370990335941316, 0.1289418339729309, 0.1541737645864486, 0.1794056951999664, 0.20463762581348421, 0.2298695564270019, 0.2551014870405197, 0.2803334176540374, 0.3055653482675552, 0.330797278881073, 0.3560292094945907, 0.3812611401081085]}, "conv1d_transpose_kernel_0_image": {"_type": "images/separated", "width": 64, "height": 3, "format": "png", "count": 3, "filenames": ["media/images/conv1d_transpose_kernel_0_image_12_283d464cb18685168981.png", "media/images/conv1d_transpose_kernel_0_image_12_b6f900621289dce6ea58.png", "media/images/conv1d_transpose_kernel_0_image_12_a59e4d1f20db0da0c74d.png"]}, "conv1d_transpose/bias_0/histogram": {"_type": "histogram", "values": [1.0, 0.0, 0.0, 0.0, 0.0, 0.0, 0.0, 3.0, 3.0, 1.0, 3.0, 3.0, 5.0, 4.0, 4.0, 7.0, 7.0, 5.0, 5.0, 2.0, 2.0, 2.0, 0.0, 2.0, 2.0, 1.0, 1.0, 0.0, 0.0, 1.0], "bins": [-0.2001163512468338, -0.1897547222673893, -0.17939309328794478, -0.1690314643085003, -0.1586698353290558, -0.14830820634961128, -0.13794657737016677, -0.12758494839072226, -0.11722331941127777, -0.10686169043183326, -0.09650006145238876, -0.08613843247294425, -0.07577680349349974, -0.06541517451405524, -0.055053545534610754, -0.044691916555166245, -0.034330287575721735, -0.023968658596277226, -0.013607029616832717, -0.003245400637388235, 0.007116228342056274, 0.017477857321500784, 0.027839486300945293, 0.0382011152803898, 0.04856274425983431, 0.05892437323927879, 0.06928600221872333, 0.07964763119816781, 0.0900092601776123, 0.10037088915705683, 0.11073251813650131]}, "conv1d_transpose_bias_0_image": {"_type": "images/separated", "width": 1, "height": 64, "format": "png", "count": 1, "filenames": ["media/images/conv1d_transpose_bias_0_image_12_5d72bd01b0ef44ad3197.png"]}, "conv1d_transpose_1/kernel_0/histogram": {"_type": "histogram", "values": [2.0, 3.0, 5.0, 9.0, 10.0, 31.0, 44.0, 86.0, 228.0, 465.0, 514.0, 553.0, 545.0, 555.0, 547.0, 499.0, 498.0, 503.0, 511.0, 354.0, 127.0, 21.0, 12.0, 7.0, 3.0, 3.0, 0.0, 5.0, 1.0, 3.0], "bins": [-0.36271610856056213, -0.33796001176039375, -0.3132039149602254, -0.28844781816005705, -0.2636917213598887, -0.23893562455972034, -0.21417952775955199, -0.18942343095938363, -0.16466733415921528, -0.13991123735904692, -0.11515514055887857, -0.09039904375871022, -0.06564294695854184, -0.04088685015837351, -0.01613075335820513, 0.008625343441963196, 0.03338144024213158, 0.05813753704229996, 0.08289363384246828, 0.10764973064263667, 0.132405827442805, 0.15716192424297337, 0.1819180210431417, 0.20667411784331002, 0.23143021464347846, 0.2561863114436468, 0.2809424082438151, 0.30569850504398355, 0.3304546018441519, 0.3552106986443202, 0.3799667954444885]}, "conv1d_transpose_1_kernel_0_image": {"_type": "images/separated", "width": 32, "height": 3, "format": "png", "count": 3, "filenames": ["media/images/conv1d_transpose_1_kernel_0_image_12_c0d93c504ffe24fa645c.png", "media/images/conv1d_transpose_1_kernel_0_image_12_56171a3cc1a69fca3a4f.png", "media/images/conv1d_transpose_1_kernel_0_image_12_8719f6ea6a75331cadb6.png"]}, "conv1d_transpose_1/bias_0/histogram": {"_type": "histogram", "values": [1.0, 0.0, 0.0, 0.0, 0.0, 4.0, 1.0, 5.0, 4.0, 1.0, 6.0, 3.0, 1.0, 0.0, 2.0, 0.0, 1.0, 0.0, 0.0, 0.0, 0.0, 0.0, 1.0, 0.0, 0.0, 0.0, 0.0, 0.0, 1.0, 1.0], "bins": [-0.12988582253456116, -0.12200768515467644, -0.11412954777479171, -0.106251410394907, -0.09837327301502227, -0.09049513563513756, -0.08261699825525284, -0.07473886087536813, -0.0668607234954834, -0.05898258611559869, -0.05110444873571396, -0.043226311355829244, -0.03534817397594453, -0.027470036596059802, -0.019591899216175088, -0.01171376183629036, -0.003835624456405645, 0.004042512923479069, 0.011920650303363783, 0.019798787683248525, 0.02767692506313324, 0.035555062443017954, 0.04343319982290267, 0.05131133720278738, 0.0591894745826721, 0.06706761196255684, 0.07494574934244155, 0.08282388672232627, 0.09070202410221098, 0.0985801614820957, 0.10645829886198044]}, "conv1d_transpose_1_bias_0_image": {"_type": "images/separated", "width": 1, "height": 32, "format": "png", "count": 1, "filenames": ["media/images/conv1d_transpose_1_bias_0_image_12_2e9f61cf2da3c97bd9bc.png"]}, "conv1d_transpose_2/kernel_0/histogram": {"_type": "histogram", "values": [1.0, 0.0, 0.0, 1.0, 0.0, 7.0, 9.0, 16.0, 11.0, 18.0, 19.0, 22.0, 18.0, 14.0, 26.0, 20.0, 27.0, 21.0, 22.0, 23.0, 19.0, 18.0, 18.0, 16.0, 14.0, 11.0, 6.0, 4.0, 2.0, 1.0], "bins": [-0.33968421816825867, -0.3184598028659821, -0.29723538756370543, -0.27601097226142884, -0.2547865569591522, -0.2335621416568756, -0.21233772635459902, -0.1911133110523224, -0.1698888957500458, -0.14866448044776917, -0.12744006514549255, -0.10621564984321596, -0.08499123454093938, -0.06376681923866273, -0.04254240393638614, -0.021317988634109497, -9.357333183290795e-05, 0.02113084197044368, 0.042355257272720326, 0.06357967257499691, 0.08480408787727356, 0.10602850317955015, 0.12725291848182674, 0.14847733378410338, 0.16970174908637992, 0.19092616438865662, 0.2121505796909332, 0.2333749949932098, 0.2545994102954864, 0.275823825597763, 0.2970482409000397]}, "conv1d_transpose_2_kernel_0_image": {"_type": "images/separated", "width": 4, "height": 3, "format": "png", "count": 3, "filenames": ["media/images/conv1d_transpose_2_kernel_0_image_12_a4a710845bf542f8b0c0.png", "media/images/conv1d_transpose_2_kernel_0_image_12_dd62295043c76dd91aae.png", "media/images/conv1d_transpose_2_kernel_0_image_12_76211a25078412b27f22.png"]}, "conv1d_transpose_2/bias_0/histogram": {"_type": "histogram", "values": [1.0, 1.0, 0.0, 0.0, 0.0, 0.0, 0.0, 0.0, 0.0, 0.0, 0.0, 0.0, 0.0, 0.0, 0.0, 0.0, 0.0, 0.0, 0.0, 0.0, 0.0, 0.0, 0.0, 0.0, 0.0, 0.0, 0.0, 1.0, 0.0, 1.0], "bins": [-0.08987444639205933, -0.0830889381468296, -0.07630342990159988, -0.06951792165637016, -0.06273241341114044, -0.05594690516591072, -0.049161396920681, -0.04237588867545128, -0.03559038043022156, -0.028804872184991837, -0.022019363939762115, -0.015233855694532394, -0.008448347449302673, -0.0016628392040729523, 0.005122669041156769, 0.01190817728638649, 0.01869368553161621, 0.025479193776845932, 0.03226470202207565, 0.039050210267305374, 0.045835718512535095, 0.052621226757764816, 0.05940673500299454, 0.06619224324822426, 0.07297775149345398, 0.0797632597386837, 0.08654876798391342, 0.09333427622914314, 0.10011978447437286, 0.10690529271960258, 0.1136908009648323]}, "conv1d_transpose_2_bias_0_image": {"_type": "images/separated", "width": 1, "height": 4, "format": "png", "count": 1, "filenames": ["media/images/conv1d_transpose_2_bias_0_image_12_53c1ff7119778de12189.png"]}, "_runtime": 1797.5831558704376, "_step": 12, "_wandb": {"runtime": 1796}}