{"global_step": 56, "_timestamp": 1688161193.059237, "epoch_loss": 1.3862252235412598, "epoch_lr": 9.99999883788405e-06, "pwm_conv/kernel_0/histogram": {"_type": "histogram", "values": [2.0, 1.0, 1.0, 36.0, 514.0, 96.0, 17.0, 408.0, 346.0, 324.0, 313.0, 421.0, 388.0, 425.0, 352.0, 473.0, 480.0, 575.0, 533.0, 580.0, 697.0, 739.0, 702.0, 701.0, 3864.0, 703.0, 709.0, 566.0, 577.0, 1417.0], "bins": [-5.521356105804443, -5.291306344668071, -5.061256583531698, -4.831206822395325, -4.601157061258952, -4.3711073001225795, -4.141057538986206, -3.911007777849833, -3.6809580167134603, -3.4509082555770876, -3.220858494440715, -2.9908087333043416, -2.760758972167969, -2.530709211031596, -2.300659449895223, -2.07060968875885, -1.8405599276224773, -1.6105101664861046, -1.3804604053497318, -1.150410644213359, -0.9203608830769863, -0.6903111219406126, -0.46026136080423985, -0.23021159966786708, -0.00016183853149431826, 0.22988792260487845, 0.4599376837412512, 0.689987444877624, 0.9200372060139976, 1.1500869671503704, 1.3801367282867432]}, "pwm_conv_kernel_0_image": {"_type": "images/separated", "width": 4, "height": 16, "format": "png", "count": 3, "filenames": ["media/images/pwm_conv_kernel_0_image_56_85f3ac3d3901ef7a9581.png", "media/images/pwm_conv_kernel_0_image_56_ff0166818b9ecb03dabe.png", "media/images/pwm_conv_kernel_0_image_56_5c3e85ae5e5c15d498f0.png"]}, "batch_normalization/gamma_0/histogram": {"_type": "histogram", "values": [12.0, 21.0, 5.0, 5.0, 4.0, 10.0, 5.0, 3.0, 8.0, 8.0, 10.0, 9.0, 5.0, 7.0, 12.0, 12.0, 10.0, 8.0, 9.0, 11.0, 7.0, 13.0, 16.0, 13.0, 7.0, 16.0, 6.0, 6.0, 5.0, 2.0], "bins": [-0.03936908021569252, -0.009124510114391644, 0.02112005998690923, 0.0513646300882101, 0.08160920018951098, 0.11185377029081187, 0.14209834039211272, 0.1723429104934136, 0.2025874805947145, 0.23283205069601537, 0.26307662079731625, 0.29332119089861713, 0.32356576099991796, 0.35381033110121884, 0.3840549012025197, 0.4142994713038206, 0.4445440414051215, 0.4747886115064224, 0.5050331816077233, 0.5352777517090241, 0.565522321810325, 0.5957668919116259, 0.6260114620129268, 0.6562560321142277, 0.6865006022155284, 0.7167451723168293, 0.7469897424181302, 0.7772343125194311, 0.807478882620732, 0.8377234527220329, 0.8679680228233337]}, "batch_normalization_gamma_0_image": {"_type": "images/separated", "width": 1, "height": 265, "format": "png", "count": 1, "filenames": ["media/images/batch_normalization_gamma_0_image_56_2660958fec83af08cda4.png"]}, "batch_normalization/beta_0/histogram": {"_type": "histogram", "values": [1.0, 1.0, 1.0, 2.0, 0.0, 4.0, 6.0, 7.0, 10.0, 21.0, 30.0, 18.0, 7.0, 11.0, 9.0, 5.0, 5.0, 10.0, 7.0, 16.0, 19.0, 27.0, 17.0, 13.0, 3.0, 3.0, 5.0, 2.0, 1.0, 4.0], "bins": [-0.027212541550397873, -0.025469793068865935, -0.023727044587333997, -0.02198429610580206, -0.02024154762427012, -0.018498799142738186, -0.016756050661206244, -0.015013302179674308, -0.01327055369814237, -0.011527805216610433, -0.009785056735078495, -0.008042308253546557, -0.006299559772014619, -0.0045568112904826805, -0.0028140628089507423, -0.0010713143274188042, 0.000671434154113134, 0.002414182635645072, 0.004156931117177007, 0.005899679598708948, 0.007642428080240883, 0.009385176561772825, 0.01112792504330476, 0.012870673524836701, 0.014613422006368636, 0.016356170487900577, 0.018098918969432512, 0.019841667450964454, 0.02158441593249639, 0.02332716441402833, 0.025069912895560265]}, "batch_normalization_beta_0_image": {"_type": "images/separated", "width": 1, "height": 265, "format": "png", "count": 1, "filenames": ["media/images/batch_normalization_beta_0_image_56_78d27bb93330f5f244d7.png"]}, "batch_normalization/moving_mean_0/histogram": {"_type": "histogram", "values": [1.0, 0.0, 0.0, 0.0, 1.0, 1.0, 3.0, 5.0, 2.0, 2.0, 9.0, 6.0, 5.0, 11.0, 15.0, 16.0, 11.0, 10.0, 13.0, 21.0, 25.0, 14.0, 27.0, 17.0, 16.0, 12.0, 9.0, 3.0, 9.0, 1.0], "bins": [-17.75080108642578, -17.214741961161295, -16.67868283589681, -16.142623710632325, -15.606564585367838, -15.070505460103353, -14.534446334838869, -13.998387209574382, -13.462328084309895, -12.92626895904541, -12.390209833780926, -11.854150708516439, -11.318091583251954, -10.78203245798747, -10.245973332722983, -9.709914207458496, -9.173855082194011, -8.637795956929526, -8.10173683166504, -7.565677706400555, -7.029618581136068, -6.4935594558715835, -5.957500330607097, -5.421441205342612, -4.885382080078127, -4.3493229548136405, -3.8132638295491557, -3.277204704284669, -2.741145579020184, -2.2050864537556976, -1.669027328491211]}, "batch_normalization_moving_mean_0_image": {"_type": "images/separated", "width": 1, "height": 265, "format": "png", "count": 1, "filenames": ["media/images/batch_normalization_moving_mean_0_image_56_33c86070b749851d6717.png"]}, "batch_normalization/moving_variance_0/histogram": {"_type": "histogram", "values": [5.0, 6.0, 12.0, 22.0, 21.0, 26.0, 21.0, 21.0, 24.0, 23.0, 19.0, 19.0, 5.0, 12.0, 7.0, 6.0, 2.0, 1.0, 1.0, 4.0, 1.0, 5.0, 0.0, 0.0, 1.0, 0.0, 0.0, 0.0, 0.0, 1.0], "bins": [5.557315826416016, 7.258721160888672, 8.960126495361328, 10.661531829833985, 12.36293716430664, 14.064342498779297, 15.765747833251954, 17.46715316772461, 19.168558502197264, 20.869963836669925, 22.571369171142578, 24.272774505615235, 25.974179840087892, 27.67558517456055, 29.376990509033202, 31.07839584350586, 32.77980117797851, 34.48120651245117, 36.182611846923834, 37.88401718139649, 39.58542251586914, 41.2868278503418, 42.988233184814455, 44.68963851928711, 46.39104385375977, 48.09244918823242, 49.79385452270508, 51.495259857177736, 53.19666519165039, 54.89807052612305, 56.5994758605957]}, "batch_normalization_moving_variance_0_image": {"_type": "images/separated", "width": 1, "height": 265, "format": "png", "count": 1, "filenames": ["media/images/batch_normalization_moving_variance_0_image_56_d68e280870fe2b62fed4.png"]}, "conv1d/kernel_0/histogram": {"_type": "histogram", "values": [9.0, 44.0, 110.0, 191.0, 336.0, 525.0, 896.0, 1148.0, 1619.0, 2311.0, 3024.0, 4019.0, 5219.0, 6274.0, 6312.0, 5131.0, 3841.0, 2934.0, 2099.0, 1609.0, 1140.0, 813.0, 514.0, 389.0, 195.0, 110.0, 56.0, 10.0, 0.0, 2.0], "bins": [-0.08727220445871353, -0.0810907724002997, -0.07490934034188589, -0.06872790828347206, -0.06254647622505824, -0.05636504416664441, -0.05018361210823059, -0.044002180049816764, -0.03782074799140294, -0.03163931593298912, -0.025457883874575295, -0.019276451816161472, -0.013095019757747642, -0.006913587699333826, -0.0007321556409199959, 0.00544927641749382, 0.01163070847590765, 0.01781214053432148, 0.023993572592735296, 0.030175004651149126, 0.03635643670956294, 0.04253786876797677, 0.04871930082639059, 0.054900732884804404, 0.06108216494321825, 0.06726359700163206, 0.07344502906004588, 0.07962646111845972, 0.08580789317687354, 0.09198932523528736, 0.09817075729370117]}, "conv1d_kernel_0_image": {"_type": "images/separated", "width": 265, "height": 3, "format": "png", "count": 3, "filenames": ["media/images/conv1d_kernel_0_image_56_278cb6f23066781a9778.png", "media/images/conv1d_kernel_0_image_56_a88524a08ebf7380a1b9.png", "media/images/conv1d_kernel_0_image_56_b5ee37323e9e2c41eabd.png"]}, "conv1d/bias_0/histogram": {"_type": "histogram", "values": [1.0, 0.0, 1.0, 2.0, 6.0, 5.0, 5.0, 9.0, 5.0, 2.0, 1.0, 0.0, 0.0, 0.0, 0.0, 0.0, 0.0, 0.0, 0.0, 0.0, 0.0, 0.0, 1.0, 2.0, 9.0, 7.0, 4.0, 3.0, 0.0, 1.0], "bins": [-0.016923315823078156, -0.015898160946865875, -0.014873006070653597, -0.013847851194441319, -0.012822696318229038, -0.01179754144201676, -0.010772386565804482, -0.009747231689592201, -0.008722076813379923, -0.0076969219371676445, -0.006671767060955364, -0.005646612184743086, -0.0046214573085308075, -0.0035963024323185273, -0.002571147556106249, -0.0015459926798939688, -0.0005208378036816903, 0.0005043170725305898, 0.0015294719487428665, 0.0025546268249551467, 0.003579781701167427, 0.0046049365773797035, 0.005630091453591984, 0.006655246329804264, 0.0076804012060165405, 0.00870555608222882, 0.0097307109584411, 0.010755865834653381, 0.011781020710865658, 0.012806175587077938, 0.013831330463290215]}, "conv1d_bias_0_image": {"_type": "images/separated", "width": 1, "height": 64, "format": "png", "count": 1, "filenames": ["media/images/conv1d_bias_0_image_56_58f4e73cf4ca41bda71f.png"]}, "dense/kernel_0/histogram": {"_type": "histogram", "values": [4.0, 1.0, 0.0, 1.0, 4.0, 3.0, 4.0, 4.0, 5.0, 6.0, 9.0, 9.0, 5.0, 2.0, 8.0, 6.0, 7.0, 4.0, 3.0, 5.0, 9.0, 4.0, 3.0, 3.0, 8.0, 4.0, 3.0, 1.0, 1.0, 2.0], "bins": [-0.26925355195999146, -0.2507690022389094, -0.23228445251782737, -0.2137999027967453, -0.19531535307566325, -0.1768308033545812, -0.15834625363349913, -0.1398617039124171, -0.12137715419133505, -0.102892604470253, -0.08440805474917096, -0.06592350502808889, -0.04743895530700684, -0.028954405585924797, -0.010469855864842725, 0.008014693856239319, 0.026499243577321363, 0.04498379329840341, 0.06346834301948545, 0.0819528927405675, 0.10043744246164954, 0.11892199218273164, 0.13740654190381368, 0.15589109162489573, 0.17437564134597777, 0.19286019106705982, 0.21134474078814186, 0.2298292905092239, 0.248313840230306, 0.26679838995138805, 0.2852829396724701]}, "dense_kernel_0_image": {"_type": "images/separated", "width": 64, "height": 2, "format": "png", "count": 1, "filenames": ["media/images/dense_kernel_0_image_56_6350994e77fb2c45936c.png"]}, "dense/bias_0/histogram": {"_type": "histogram", "values": [1.0, 0.0, 0.0, 0.0, 0.0, 0.0, 0.0, 0.0, 0.0, 0.0, 0.0, 0.0, 0.0, 0.0, 0.0, 0.0, 0.0, 0.0, 0.0, 0.0, 0.0, 0.0, 0.0, 0.0, 0.0, 0.0, 0.0, 0.0, 0.0, 1.0], "bins": [-0.01044122502207756, -0.009447973656157653, -0.008454722290237745, -0.007461470924317836, -0.0064682195583979285, -0.005474968192478021, -0.004481716826558112, -0.0034884654606382043, -0.0024952140947182965, -0.0015019627287983887, -0.000508711362878481, 0.0004845400030414268, 0.0014777913689613363, 0.002471042734881244, 0.003464294100801152, 0.00445754546672106, 0.005450796832640967, 0.006444048198560877, 0.007437299564480783, 0.008430550930400692, 0.009423802296320598, 0.010417053662240508, 0.011410305028160414, 0.012403556394080324, 0.013396807760000233, 0.014390059125920139, 0.015383310491840049, 0.016376561857759955, 0.017369813223679864, 0.01836306458959977, 0.019356315955519676]}, "dense_bias_0_image": {"_type": "images/separated", "width": 1, "height": 2, "format": "png", "count": 1, "filenames": ["media/images/dense_bias_0_image_56_cd0b332f55a79c02f00f.png"]}, "dense_1/kernel_0/histogram": {"_type": "histogram", "values": [2.0, 2.0, 0.0, 1.0, 3.0, 5.0, 4.0, 5.0, 9.0, 12.0, 8.0, 17.0, 23.0, 30.0, 17.0, 278.0, 22.0, 22.0, 18.0, 5.0, 4.0, 4.0, 3.0, 1.0, 2.0, 1.0, 0.0, 0.0, 1.0, 1.0], "bins": [-7.155938419600716e-06, -6.705013735578783e-06, -6.254089051556851e-06, -5.803164367534919e-06, -5.352239683512986e-06, -4.901314999491054e-06, -4.450390315469122e-06, -3.999465631447189e-06, -3.5485409474252567e-06, -3.097616263403324e-06, -2.6466915793813915e-06, -2.1957668953594597e-06, -1.744842211337527e-06, -1.2939175273155945e-06, -8.429928432936627e-07, -3.920681592717301e-07, 5.88565247502025e-08, 5.097812087721351e-07, 9.607058927940677e-07, 1.4116305768160003e-06, 1.862555260837933e-06, 2.313479944859864e-06, 2.7644046288817965e-06, 3.215329312903729e-06, 3.6662539969256617e-06, 4.117178680947594e-06, 4.568103364969527e-06, 5.0190280489914595e-06, 5.46995273301339e-06, 5.920877417035323e-06, 6.371802101057256e-06]}, "dense_1_kernel_0_image": {"_type": "images/separated", "width": 1, "height": 500, "format": "png", "count": 1, "filenames": ["media/images/dense_1_kernel_0_image_56_5526b80dc252e6f13cc5.png"]}, "dense_1/bias_0/histogram": {"_type": "histogram", "values": [1.0, 0.0, 1.0, 3.0, 0.0, 3.0, 5.0, 5.0, 4.0, 11.0, 11.0, 12.0, 16.0, 24.0, 34.0, 15.0, 281.0, 28.0, 20.0, 8.0, 5.0, 3.0, 4.0, 0.0, 3.0, 1.0, 0.0, 1.0, 0.0, 1.0], "bins": [-1.5693863133492414e-06, -1.4737330957359518e-06, -1.3780798781226623e-06, -1.2824266605093725e-06, -1.186773442896083e-06, -1.0911202252827934e-06, -9.954670076695038e-07, -8.998137900562142e-07, -8.041605724429246e-07, -7.085073548296351e-07, -6.128541372163454e-07, -5.172009196030559e-07, -4.215477019897663e-07, -3.2589448437647674e-07, -2.3024126676318697e-07, -1.3458804914989742e-07, -3.893483153660786e-08, 5.67183860766817e-08, 1.5237160368997125e-07, 2.48024821303261e-07, 3.436780389165506e-07, 4.393312565298399e-07, 5.349844741431297e-07, 6.306376917564195e-07, 7.262909093697088e-07, 8.219441269829986e-07, 9.175973445962879e-07, 1.0132505622095777e-06, 1.1089037798228674e-06, 1.2045569974361568e-06, 1.3002102150494466e-06]}, "dense_1_bias_0_image": {"_type": "images/separated", "width": 1, "height": 500, "format": "png", "count": 1, "filenames": ["media/images/dense_1_bias_0_image_56_5526b80dc252e6f13cc5.png"]}, "conv1d_transpose/kernel_0/histogram": {"_type": "histogram", "values": [1.0, 2.0, 2.0, 7.0, 8.0, 6.0, 8.0, 14.0, 20.0, 28.0, 23.0, 36.0, 53.0, 49.0, 76.0, 172.0, 77.0, 54.0, 35.0, 24.0, 24.0, 18.0, 9.0, 8.0, 6.0, 1.0, 3.0, 1.0, 1.0, 2.0], "bins": [-6.028448297001887e-06, -5.643910602278386e-06, -5.259372907554886e-06, -4.8748352128313854e-06, -4.490297518107885e-06, -4.105759823384384e-06, -3.7212221286608838e-06, -3.336684433937383e-06, -2.9521467392138825e-06, -2.567609044490382e-06, -2.1830713497668812e-06, -1.7985336550433804e-06, -1.4139959603198804e-06, -1.0294582655963796e-06, -6.449205708728787e-07, -2.603828761493787e-07, 1.2415481857412213e-07, 5.08692513297623e-07, 8.93230208021123e-07, 1.2777679027446238e-06, 1.6623055974681246e-06, 2.0468432921916246e-06, 2.4313809869151263e-06, 2.8159186816386263e-06, 3.2004563763621263e-06, 3.584994071085628e-06, 3.969531765809128e-06, 4.354069460532628e-06, 4.73860715525613e-06, 5.12314484997963e-06, 5.50768254470313e-06]}, "conv1d_transpose_kernel_0_image": {"_type": "images/separated", "width": 64, "height": 3, "format": "png", "count": 3, "filenames": ["media/images/conv1d_transpose_kernel_0_image_56_b1b9b4f003c95d302bbe.png", "media/images/conv1d_transpose_kernel_0_image_56_b1b9b4f003c95d302bbe.png", "media/images/conv1d_transpose_kernel_0_image_56_b1b9b4f003c95d302bbe.png"]}, "conv1d_transpose/bias_0/histogram": {"_type": "histogram", "values": [2.0, 1.0, 0.0, 1.0, 2.0, 3.0, 3.0, 4.0, 1.0, 1.0, 6.0, 3.0, 4.0, 4.0, 3.0, 7.0, 2.0, 4.0, 4.0, 0.0, 1.0, 0.0, 2.0, 2.0, 1.0, 2.0, 0.0, 0.0, 0.0, 1.0], "bins": [-4.245907985023223e-05, -3.951225905135895e-05, -3.6565438252485666e-05, -3.3618617453612384e-05, -3.06717966547391e-05, -2.7724975855865825e-05, -2.4778155056992547e-05, -2.1831334258119266e-05, -1.8884513459245984e-05, -1.5937692660372703e-05, -1.2990871861499422e-05, -1.004405106262614e-05, -7.0972302637528655e-06, -4.150409464879584e-06, -1.2035886660063027e-06, 1.7432321328669786e-06, 4.69005293174026e-06, 7.636873730613541e-06, 1.0583694529486823e-05, 1.3530515328360104e-05, 1.6477336127233386e-05, 1.9424156926106667e-05, 2.237097772497995e-05, 2.531779852385323e-05, 2.8264619322726498e-05, 3.121144012159978e-05, 3.415826092047306e-05, 3.710508171934634e-05, 4.005190251821962e-05, 4.2998723317092905e-05, 4.5945544115966186e-05]}, "conv1d_transpose_bias_0_image": {"_type": "images/separated", "width": 1, "height": 64, "format": "png", "count": 1, "filenames": ["media/images/conv1d_transpose_bias_0_image_56_bb73d8645203240d9bf5.png"]}, "conv1d_transpose_1/kernel_0/histogram": {"_type": "histogram", "values": [1.0, 0.0, 1.0, 1.0, 1.0, 3.0, 2.0, 4.0, 8.0, 8.0, 17.0, 7.0, 16.0, 14.0, 18.0, 36.0, 86.0, 133.0, 282.0, 654.0, 1449.0, 2221.0, 572.0, 313.0, 157.0, 78.0, 33.0, 18.0, 10.0, 1.0], "bins": [-1.0426918379380368e-05, -9.93564453892759e-06, -9.444370698474814e-06, -8.953096858022036e-06, -8.46182301756926e-06, -7.970549177116482e-06, -7.479275336663704e-06, -6.988001496210927e-06, -6.49672765575815e-06, -6.0054538153053725e-06, -5.5141799748525955e-06, -5.022906134399818e-06, -4.5316322939470405e-06, -4.0403584534942635e-06, -3.5490846130414856e-06, -3.0578107725887085e-06, -2.5665369321359315e-06, -2.0752630916831536e-06, -1.5839892512303774e-06, -1.0927154107775995e-06, -6.014415703248233e-07, -1.1016772987204536e-07, 3.8110611058073254e-07, 8.723799510335087e-07, 1.3636537914862866e-06, 1.8549276319390645e-06, 2.3462014723918407e-06, 2.8374753128446186e-06, 3.3287491532973965e-06, 3.820022993750173e-06, 4.311296834202949e-06]}, "conv1d_transpose_1_kernel_0_image": {"_type": "images/separated", "width": 32, "height": 3, "format": "png", "count": 3, "filenames": ["media/images/conv1d_transpose_1_kernel_0_image_56_2347627157f53da5ad5e.png", "media/images/conv1d_transpose_1_kernel_0_image_56_2347627157f53da5ad5e.png", "media/images/conv1d_transpose_1_kernel_0_image_56_2347627157f53da5ad5e.png"]}, "conv1d_transpose_1/bias_0/histogram": {"_type": "histogram", "values": [1.0, 0.0, 1.0, 0.0, 0.0, 0.0, 0.0, 3.0, 2.0, 2.0, 1.0, 4.0, 1.0, 4.0, 2.0, 0.0, 3.0, 0.0, 1.0, 0.0, 1.0, 0.0, 0.0, 2.0, 2.0, 0.0, 0.0, 0.0, 1.0, 1.0], "bins": [-0.00022290018387138844, -0.00020661139472698172, -0.000190322605582575, -0.0001740338164381683, -0.00015774502729376159, -0.00014145623814935487, -0.00012516744900494813, -0.00010887865986054142, -9.258987071613471e-05, -7.6301081571728e-05, -6.0012292427321284e-05, -4.372350328291457e-05, -2.7434714138507832e-05, -1.114592499410112e-05, 5.142864150305593e-06, 2.1431653294712305e-05, 3.772044243911902e-05, 5.400923158352573e-05, 7.029802072793244e-05, 8.658680987233915e-05, 0.00010287559901674587, 0.00011916438816115258, 0.0001354531773055593, 0.000151741966449966, 0.00016803075559437277, 0.00018431954473877948, 0.0002006083338831862, 0.0002168971230275929, 0.00023318591217199962, 0.00024947470131640633, 0.00026576349046081305]}, "conv1d_transpose_1_bias_0_image": {"_type": "images/separated", "width": 1, "height": 32, "format": "png", "count": 1, "filenames": ["media/images/conv1d_transpose_1_bias_0_image_56_867170f26db453b27bf2.png"]}, "conv1d_transpose_2/kernel_0/histogram": {"_type": "histogram", "values": [3.0, 3.0, 0.0, 0.0, 1.0, 10.0, 6.0, 1.0, 1.0, 10.0, 4.0, 4.0, 2.0, 15.0, 12.0, 82.0, 127.0, 33.0, 21.0, 3.0, 4.0, 2.0, 4.0, 2.0, 14.0, 8.0, 0.0, 1.0, 7.0, 4.0], "bins": [-8.779550989856943e-05, -8.242087011846403e-05, -7.704623033835862e-05, -7.167159055825323e-05, -6.629695077814783e-05, -6.092231099804242e-05, -5.554767121793702e-05, -5.017303143783162e-05, -4.4798391657726216e-05, -3.942375187762081e-05, -3.404911209751541e-05, -2.8674472317410013e-05, -2.3299832537304607e-05, -1.79251927571992e-05, -1.255055297709381e-05, -7.175913196988404e-06, -1.8012734168829981e-06, 3.5733663632224076e-06, 8.948006143327813e-06, 1.4322645923433205e-05, 1.969728570353861e-05, 2.5071925483644017e-05, 3.044656526374941e-05, 3.5821205043854815e-05, 4.119584482396022e-05, 4.6570484604065626e-05, 5.194512438417103e-05, 5.731976416427644e-05, 6.269440394438182e-05, 6.806904372448722e-05, 7.344368350459263e-05]}, "conv1d_transpose_2_kernel_0_image": {"_type": "images/separated", "width": 4, "height": 3, "format": "png", "count": 3, "filenames": ["media/images/conv1d_transpose_2_kernel_0_image_56_9864fe5ac8f86a93618a.png", "media/images/conv1d_transpose_2_kernel_0_image_56_9864fe5ac8f86a93618a.png", "media/images/conv1d_transpose_2_kernel_0_image_56_9864fe5ac8f86a93618a.png"]}, "conv1d_transpose_2/bias_0/histogram": {"_type": "histogram", "values": [2.0, 0.0, 0.0, 0.0, 0.0, 0.0, 0.0, 0.0, 0.0, 0.0, 0.0, 0.0, 0.0, 0.0, 0.0, 0.0, 0.0, 0.0, 0.0, 0.0, 0.0, 0.0, 0.0, 0.0, 0.0, 0.0, 0.0, 0.0, 0.0, 2.0], "bins": [-0.12310723960399628, -0.11489405855536461, -0.10668087750673294, -0.09846769645810127, -0.0902545154094696, -0.08204133436083794, -0.07382815331220627, -0.0656149722635746, -0.05740179121494293, -0.049188610166311264, -0.040975429117679596, -0.03276224806904793, -0.02454906702041626, -0.01633588597178459, -0.008122704923152924, 9.047612547874451e-05, 0.008303657174110413, 0.01651683822274208, 0.02473001927137375, 0.03294320032000542, 0.041156381368637085, 0.04936956241726875, 0.05758274346590042, 0.06579592451453209, 0.07400910556316376, 0.08222228661179543, 0.0904354676604271, 0.09864864870905876, 0.10686182975769043, 0.1150750108063221, 0.12328819185495377]}, "conv1d_transpose_2_bias_0_image": {"_type": "images/separated", "width": 1, "height": 4, "format": "png", "count": 1, "filenames": ["media/images/conv1d_transpose_2_bias_0_image_56_f552c3c6a27b3ec7ce3a.png"]}, "_runtime": 9852.050674915314, "_step": 56, "_wandb": {"runtime": 9851}}