{"global_step": 8, "_timestamp": 1688083634.481049, "epoch_loss": 1.4028234481811523, "epoch_lr": 9.999999747378752e-05, "pwm_conv/kernel_0/histogram": {"_type": "histogram", "values": [2.0, 1.0, 1.0, 36.0, 514.0, 96.0, 17.0, 408.0, 346.0, 324.0, 313.0, 421.0, 388.0, 425.0, 352.0, 473.0, 480.0, 575.0, 533.0, 580.0, 697.0, 739.0, 702.0, 701.0, 3864.0, 703.0, 709.0, 566.0, 577.0, 1417.0], "bins": [-5.521356105804443, -5.291306344668071, -5.061256583531698, -4.831206822395325, -4.601157061258952, -4.3711073001225795, -4.141057538986206, -3.911007777849833, -3.6809580167134603, -3.4509082555770876, -3.220858494440715, -2.9908087333043416, -2.760758972167969, -2.530709211031596, -2.300659449895223, -2.07060968875885, -1.8405599276224773, -1.6105101664861046, -1.3804604053497318, -1.150410644213359, -0.9203608830769863, -0.6903111219406126, -0.46026136080423985, -0.23021159966786708, -0.00016183853149431826, 0.22988792260487845, 0.4599376837412512, 0.689987444877624, 0.9200372060139976, 1.1500869671503704, 1.3801367282867432]}, "pwm_conv_kernel_0_image": {"_type": "images/separated", "width": 4, "height": 16, "format": "png", "count": 3, "filenames": ["media/images/pwm_conv_kernel_0_image_8_85f3ac3d3901ef7a9581.png", "media/images/pwm_conv_kernel_0_image_8_ff0166818b9ecb03dabe.png", "media/images/pwm_conv_kernel_0_image_8_5c3e85ae5e5c15d498f0.png"]}, "conv1d/kernel_0/histogram": {"_type": "histogram", "values": [1.0, 1.0, 2.0, 0.0, 2.0, 5.0, 7.0, 17.0, 97.0, 470.0, 2284.0, 3121.0, 3212.0, 3125.0, 3107.0, 3166.0, 3159.0, 3149.0, 3080.0, 3215.0, 3018.0, 3245.0, 3165.0, 3066.0, 2986.0, 2633.0, 1409.0, 125.0, 10.0, 3.0], "bins": [-0.1716676652431488, -0.16220892121394476, -0.1527501771847407, -0.14329143315553666, -0.13383268912633262, -0.12437394509712855, -0.1149152010679245, -0.10545645703872045, -0.0959977130095164, -0.08653896898031235, -0.0770802249511083, -0.06762148092190425, -0.0581627368927002, -0.04870399286349615, -0.03924524883429209, -0.029786504805088043, -0.020327760775883996, -0.01086901674667995, -0.0014102727174759022, 0.008048471311728145, 0.017507215340932192, 0.026965959370136267, 0.036424703399340314, 0.04588344742854436, 0.05534219145774841, 0.06480093548695245, 0.0742596795161565, 0.08371842354536058, 0.09317716757456462, 0.10263591160376867, 0.11209465563297272]}, "conv1d_kernel_0_image": {"_type": "images/separated", "width": 265, "height": 3, "format": "png", "count": 3, "filenames": ["media/images/conv1d_kernel_0_image_8_3216e332088196643281.png", "media/images/conv1d_kernel_0_image_8_7e7f73c85ae3177733a3.png", "media/images/conv1d_kernel_0_image_8_4ff6c24fe3efa47ddf9e.png"]}, "conv1d/bias_0/histogram": {"_type": "histogram", "values": [1.0, 1.0, 0.0, 7.0, 7.0, 3.0, 8.0, 6.0, 11.0, 13.0, 3.0, 1.0, 0.0, 0.0, 0.0, 1.0, 1.0, 0.0, 0.0, 0.0, 0.0, 0.0, 0.0, 0.0, 0.0, 0.0, 0.0, 0.0, 0.0, 1.0], "bins": [-0.0062199183739721775, -0.005523395212367177, -0.004826872050762177, -0.004130348889157176, -0.0034338257275521753, -0.002737302565947175, -0.002040779404342174, -0.0013442562427371735, -0.0006477330811321732, 4.879008047282713e-05, 0.0007453132420778275, 0.0014418364036828286, 0.00213835956528783, 0.0028348827268928293, 0.0035314058884978305, 0.00422792905010283, 0.004924452211707831, 0.005620975373312832, 0.006317498534917832, 0.007014021696522833, 0.007710544858127832, 0.008407068019732834, 0.009103591181337835, 0.009800114342942836, 0.010496637504547837, 0.011193160666152835, 0.011889683827757836, 0.012586206989362837, 0.013282730150967838, 0.01397925331257284, 0.014675776474177837]}, "conv1d_bias_0_image": {"_type": "images/separated", "width": 1, "height": 64, "format": "png", "count": 1, "filenames": ["media/images/conv1d_bias_0_image_8_f63cb49abf668802e522.png"]}, "dense/kernel_0/histogram": {"_type": "histogram", "values": [4.0, 3.0, 1.0, 1.0, 2.0, 2.0, 5.0, 6.0, 6.0, 6.0, 4.0, 6.0, 4.0, 7.0, 7.0, 7.0, 7.0, 9.0, 5.0, 4.0, 1.0, 2.0, 1.0, 6.0, 4.0, 2.0, 2.0, 2.0, 7.0, 5.0], "bins": [-0.2895166575908661, -0.2699889729420344, -0.2504612882932027, -0.23093360364437104, -0.21140591899553934, -0.19187823434670764, -0.17235054969787597, -0.1528228650490443, -0.1332951804002126, -0.1137674957513809, -0.09423981110254923, -0.07471212645371755, -0.05518444180488585, -0.03565675715605415, -0.01612907250722251, 0.003398612141609192, 0.022926296790440892, 0.04245398143927259, 0.06198166608810429, 0.08150935073693594, 0.10103703538576764, 0.12056472003459934, 0.14009240468343098, 0.15962008933226268, 0.17914777398109438, 0.19867545862992608, 0.21820314327875778, 0.23773082792758948, 0.2572585125764211, 0.2767861972252528, 0.2963138818740845]}, "dense_kernel_0_image": {"_type": "images/separated", "width": 64, "height": 2, "format": "png", "count": 1, "filenames": ["media/images/dense_kernel_0_image_8_a0a46682aa9405a995ca.png"]}, "dense/bias_0/histogram": {"_type": "histogram", "values": [1.0, 0.0, 0.0, 0.0, 0.0, 0.0, 0.0, 0.0, 0.0, 0.0, 0.0, 0.0, 0.0, 0.0, 0.0, 0.0, 0.0, 0.0, 0.0, 0.0, 0.0, 0.0, 0.0, 0.0, 0.0, 0.0, 0.0, 0.0, 0.0, 1.0], "bins": [0.001023939112201333, 0.0010916042064006129, 0.001159269300599893, 0.0012269343947991728, 0.0012945994889984529, 0.0013622645831977327, 0.0014299296773970125, 0.0014975947715962926, 0.0015652598657955727, 0.0016329249599948525, 0.0017005900541941323, 0.0017682551483934124, 0.0018359202425926922, 0.001903585336791972, 0.001971250430991252, 0.002038915525190532, 0.0021065806193898123, 0.002174245713589092, 0.002241910807788372, 0.0023095759019876516, 0.0023772409961869316, 0.0024449060903862117, 0.0025125711845854918, 0.002580236278784772, 0.0026479013729840514, 0.0027155664671833315, 0.002783231561382611, 0.002850896655581891, 0.0029185617497811712, 0.0029862268439804513, 0.0030538919381797314]}, "dense_bias_0_image": {"_type": "images/separated", "width": 1, "height": 2, "format": "png", "count": 1, "filenames": ["media/images/dense_bias_0_image_8_8d994cf362504173484c.png"]}, "dense_1/kernel_0/histogram": {"_type": "histogram", "values": [3.0, 6.0, 7.0, 2.0, 11.0, 8.0, 14.0, 10.0, 20.0, 21.0, 20.0, 19.0, 20.0, 21.0, 43.0, 53.0, 28.0, 24.0, 25.0, 22.0, 13.0, 18.0, 20.0, 19.0, 14.0, 12.0, 11.0, 9.0, 4.0, 3.0], "bins": [-0.05070289596915245, -0.04733816348016262, -0.04397343099117279, -0.04060869850218296, -0.03724396601319313, -0.0338792335242033, -0.03051450103521347, -0.02714976854622364, -0.02378503605723381, -0.02042030356824398, -0.01705557107925415, -0.01369083859026432, -0.01032610610127449, -0.00696137361228466, -0.0035966411232948303, -0.0002319086343050003, 0.0031328238546848297, 0.00649755634367466, 0.00986228883266449, 0.01322702132165432, 0.01659175381064415, 0.01995648629963398, 0.02332121878862381, 0.02668595127761364, 0.03005068376660347, 0.0334154162555933, 0.03678014874458313, 0.04014488123357296, 0.04350961372256279, 0.04687434621155262, 0.05023907870054245]}, "dense_1_kernel_0_image": {"_type": "images/separated", "width": 1, "height": 500, "format": "png", "count": 1, "filenames": ["media/images/dense_1_kernel_0_image_8_70eeac0b49db8db7b152.png"]}, "dense_1/bias_0/histogram": {"_type": "histogram", "values": [15.0, 29.0, 42.0, 66.0, 99.0, 77.0, 60.0, 36.0, 18.0, 13.0, 13.0, 11.0, 6.0, 3.0, 5.0, 3.0, 1.0, 1.0, 0.0, 0.0, 0.0, 0.0, 0.0, 0.0, 0.0, 0.0, 0.0, 1.0, 0.0, 1.0], "bins": [-0.09115861356258392, -0.07652046034733455, -0.06188230713208516, -0.047244153916835785, -0.0326060007015864, -0.01796784748633702, -0.0033296942710876465, 0.011308458944161742, 0.025946612159411117, 0.04058476537466049, 0.05522291858990988, 0.06986107180515927, 0.08449922502040863, 0.09913737823565802, 0.11377553145090741, 0.12841368466615677, 0.14305183788140616, 0.15768999109665555, 0.1723281443119049, 0.18696629752715432, 0.20160445074240368, 0.21624260395765305, 0.23088075717290246, 0.24551891038815182, 0.2601570636034012, 0.2747952168186506, 0.28943337003389996, 0.3040715232491493, 0.31870967646439874, 0.3333478296796481, 0.34798598289489746]}, "dense_1_bias_0_image": {"_type": "images/separated", "width": 1, "height": 500, "format": "png", "count": 1, "filenames": ["media/images/dense_1_bias_0_image_8_6e03a91594a6981da67f.png"]}, "conv1d_transpose/kernel_0/histogram": {"_type": "histogram", "values": [2.0, 2.0, 3.0, 6.0, 4.0, 15.0, 21.0, 21.0, 30.0, 28.0, 40.0, 47.0, 41.0, 37.0, 37.0, 43.0, 45.0, 45.0, 38.0, 43.0, 29.0, 35.0, 33.0, 41.0, 25.0, 25.0, 15.0, 7.0, 6.0, 4.0], "bins": [-0.2457270324230194, -0.23070497860511144, -0.21568292478720347, -0.2006608709692955, -0.18563881715138753, -0.17061676333347958, -0.15559470951557158, -0.14057265569766364, -0.12555060187975564, -0.1105285480618477, -0.09550649424393973, -0.08048444042603176, -0.06546238660812378, -0.050440332790215814, -0.03541827897230784, -0.020396225154399872, -0.005374171336491901, 0.00964788248141607, 0.024669936299324013, 0.03969199011723201, 0.054714043935139955, 0.06973609775304795, 0.0847581515709559, 0.0997802053888639, 0.11480225920677184, 0.12982431302467984, 0.14484636684258778, 0.15986842066049578, 0.17489047447840372, 0.18991252829631172, 0.20493458211421967]}, "conv1d_transpose_kernel_0_image": {"_type": "images/separated", "width": 64, "height": 3, "format": "png", "count": 3, "filenames": ["media/images/conv1d_transpose_kernel_0_image_8_c5f32c716c8df6c5d454.png", "media/images/conv1d_transpose_kernel_0_image_8_48c02d1855b26f4bf70d.png", "media/images/conv1d_transpose_kernel_0_image_8_88a5588d0605629c3a2f.png"]}, "conv1d_transpose/bias_0/histogram": {"_type": "histogram", "values": [1.0, 0.0, 1.0, 0.0, 0.0, 1.0, 0.0, 0.0, 3.0, 7.0, 4.0, 1.0, 4.0, 1.0, 6.0, 4.0, 2.0, 5.0, 0.0, 1.0, 2.0, 4.0, 2.0, 4.0, 5.0, 2.0, 2.0, 1.0, 0.0, 1.0], "bins": [-0.03149797022342682, -0.029133048032720883, -0.026768125842014948, -0.024403203651309012, -0.022038281460603076, -0.01967335926989714, -0.01730843707919121, -0.014943514888485273, -0.012578592697779337, -0.010213670507073402, -0.007848748316367466, -0.0054838261256615305, -0.0031189039349555983, -0.0007539817442496627, 0.001610940446456273, 0.0039758626371622086, 0.006340784827868144, 0.00870570701857408, 0.011070629209280015, 0.013435551399985951, 0.015800473590691887, 0.018165395781397822, 0.020530317972103758, 0.022895240162809694, 0.025260162353515622, 0.027625084544221558, 0.029990006734927493, 0.032354928925633436, 0.034719851116339365, 0.03708477330704531, 0.039449695497751236]}, "conv1d_transpose_bias_0_image": {"_type": "images/separated", "width": 1, "height": 64, "format": "png", "count": 1, "filenames": ["media/images/conv1d_transpose_bias_0_image_8_3494dd859a41a8aee476.png"]}, "conv1d_transpose_1/kernel_0/histogram": {"_type": "histogram", "values": [3.0, 11.0, 14.0, 44.0, 86.0, 134.0, 200.0, 229.0, 250.0, 298.0, 306.0, 330.0, 323.0, 319.0, 330.0, 346.0, 329.0, 329.0, 294.0, 338.0, 345.0, 308.0, 280.0, 213.0, 209.0, 139.0, 72.0, 35.0, 19.0, 11.0], "bins": [-0.22712355852127075, -0.212744169930617, -0.19836478133996327, -0.18398539274930953, -0.1696060041586558, -0.15522661556800205, -0.14084722697734833, -0.1264678383866946, -0.11208844979604085, -0.09770906120538711, -0.08332967261473337, -0.06895028402407963, -0.054570895433425914, -0.04019150684277217, -0.025812118252118432, -0.011432729661464691, 0.00294665892918905, 0.01732604751984279, 0.03170543611049653, 0.04608482470115027, 0.060464213291804014, 0.07484360188245776, 0.0892229904731115, 0.10360237906376524, 0.11798176765441892, 0.13236115624507266, 0.1467405448357264, 0.16111993342638015, 0.1754993220170339, 0.18987871060768763, 0.20425809919834137]}, "conv1d_transpose_1_kernel_0_image": {"_type": "images/separated", "width": 32, "height": 3, "format": "png", "count": 3, "filenames": ["media/images/conv1d_transpose_1_kernel_0_image_8_cc8122a1c1bcd41255c3.png", "media/images/conv1d_transpose_1_kernel_0_image_8_52e0e0587891e14a0414.png", "media/images/conv1d_transpose_1_kernel_0_image_8_b3c3149f41ee59fea59c.png"]}, "conv1d_transpose_1/bias_0/histogram": {"_type": "histogram", "values": [1.0, 1.0, 0.0, 0.0, 2.0, 2.0, 2.0, 1.0, 1.0, 3.0, 0.0, 2.0, 3.0, 0.0, 0.0, 0.0, 0.0, 0.0, 0.0, 4.0, 0.0, 0.0, 1.0, 1.0, 2.0, 3.0, 0.0, 1.0, 1.0, 1.0], "bins": [-0.021166551858186722, -0.018882089480757713, -0.016597627103328703, -0.014313164725899698, -0.012028702348470689, -0.00974423997104168, -0.007459777593612672, -0.0051753152161836645, -0.0028908528387546553, -0.0006063904613256461, 0.001678071916103363, 0.003962534293532369, 0.006246996670961378, 0.008531459048390387, 0.010815921425819393, 0.013100383803248405, 0.015384846180677411, 0.017669308558106417, 0.01995377093553543, 0.022238233312964435, 0.024522695690393448, 0.026807158067822454, 0.02909162044525146, 0.03137608282268047, 0.03366054520010948, 0.03594500757753848, 0.038229469954967496, 0.0405139323323965, 0.04279839470982551, 0.04508285708725451, 0.04736731946468353]}, "conv1d_transpose_1_bias_0_image": {"_type": "images/separated", "width": 1, "height": 32, "format": "png", "count": 1, "filenames": ["media/images/conv1d_transpose_1_bias_0_image_8_2aa2c09a3e5140af72df.png"]}, "conv1d_transpose_2/kernel_0/histogram": {"_type": "histogram", "values": [6.0, 4.0, 18.0, 13.0, 19.0, 10.0, 13.0, 12.0, 10.0, 14.0, 18.0, 11.0, 20.0, 13.0, 13.0, 12.0, 14.0, 13.0, 14.0, 14.0, 12.0, 9.0, 19.0, 15.0, 18.0, 12.0, 15.0, 7.0, 9.0, 7.0], "bins": [-0.25498127937316895, -0.23791933556397757, -0.22085739175478616, -0.2037954479455948, -0.18673350413640338, -0.169671560327212, -0.15260961651802063, -0.13554767270882923, -0.11848572889963785, -0.10142378509044647, -0.08436184128125507, -0.06729989747206369, -0.050237953662872314, -0.03317600985368091, -0.016114066044489533, 0.0009478777647018433, 0.018009821573893248, 0.03507176538308465, 0.052133709192276, 0.0691956530014674, 0.08625759681065881, 0.10331954061985016, 0.12038148442904156, 0.13744342823823297, 0.15450537204742432, 0.17156731585661572, 0.18862925966580713, 0.20569120347499853, 0.22275314728418988, 0.23981509109338128, 0.25687703490257263]}, "conv1d_transpose_2_kernel_0_image": {"_type": "images/separated", "width": 4, "height": 3, "format": "png", "count": 3, "filenames": ["media/images/conv1d_transpose_2_kernel_0_image_8_6f397cb55f3812fe0949.png", "media/images/conv1d_transpose_2_kernel_0_image_8_ab33fb241ba04d4cf2ef.png", "media/images/conv1d_transpose_2_kernel_0_image_8_7fa23b8337e74a169ca8.png"]}, "conv1d_transpose_2/bias_0/histogram": {"_type": "histogram", "values": [1.0, 0.0, 0.0, 1.0, 0.0, 0.0, 0.0, 0.0, 0.0, 0.0, 0.0, 0.0, 0.0, 0.0, 0.0, 0.0, 0.0, 0.0, 0.0, 0.0, 0.0, 0.0, 0.0, 0.0, 0.0, 0.0, 0.0, 1.0, 0.0, 1.0], "bins": [-0.0452868714928627, -0.0420083566258351, -0.038729841758807504, -0.0354513268917799, -0.0321728120247523, -0.0288942971577247, -0.0256157822906971, -0.022337267423669496, -0.019058752556641897, -0.0157802376896143, -0.0125017228225867, -0.009223207955559094, -0.0059446930885314955, -0.0026661782215038968, 0.0006123366455237089, 0.0038908515125513077, 0.0071693663795789064, 0.010447881246606505, 0.013726396113634104, 0.01700491098066171, 0.0202834258476893, 0.023561940714716914, 0.026840455581744513, 0.03011897044877211, 0.03339748531579971, 0.03667600018282731, 0.03995451504985491, 0.04323302991688251, 0.04651154478391012, 0.04979005965093772, 0.05306857451796532]}, "conv1d_transpose_2_bias_0_image": {"_type": "images/separated", "width": 1, "height": 4, "format": "png", "count": 1, "filenames": ["media/images/conv1d_transpose_2_bias_0_image_8_04714f3af90ee2a8fa5c.png"]}, "_runtime": 1207.1429879665375, "_step": 8}