{"global_step": 7, "_timestamp": 1688073783.814793, "epoch_loss": 3.6235348296534844e+32, "epoch_lr": 1.0000000656873453e-05, "pwm_conv/kernel_0/histogram": {"_type": "histogram", "values": [2.0, 1.0, 1.0, 36.0, 514.0, 96.0, 17.0, 408.0, 346.0, 324.0, 313.0, 421.0, 388.0, 425.0, 352.0, 473.0, 480.0, 575.0, 533.0, 580.0, 697.0, 739.0, 702.0, 701.0, 3864.0, 703.0, 709.0, 566.0, 577.0, 1417.0], "bins": [-5.521356105804443, -5.291306344668071, -5.061256583531698, -4.831206822395325, -4.601157061258952, -4.3711073001225795, -4.141057538986206, -3.911007777849833, -3.6809580167134603, -3.4509082555770876, -3.220858494440715, -2.9908087333043416, -2.760758972167969, -2.530709211031596, -2.300659449895223, -2.07060968875885, -1.8405599276224773, -1.6105101664861046, -1.3804604053497318, -1.150410644213359, -0.9203608830769863, -0.6903111219406126, -0.46026136080423985, -0.23021159966786708, -0.00016183853149431826, 0.22988792260487845, 0.4599376837412512, 0.689987444877624, 0.9200372060139976, 1.1500869671503704, 1.3801367282867432]}, "pwm_conv_kernel_0_image": {"_type": "images/separated", "width": 4, "height": 16, "format": "png", "count": 3, "filenames": ["media/images/pwm_conv_kernel_0_image_7_85f3ac3d3901ef7a9581.png", "media/images/pwm_conv_kernel_0_image_7_ff0166818b9ecb03dabe.png", "media/images/pwm_conv_kernel_0_image_7_5c3e85ae5e5c15d498f0.png"]}, "conv1d/kernel_0/histogram": {"_type": "histogram", "values": [1604.0, 1719.0, 1692.0, 1570.0, 1684.0, 1657.0, 1732.0, 1681.0, 1725.0, 1746.0, 1706.0, 1721.0, 1605.0, 1744.0, 1693.0, 1675.0, 1666.0, 1700.0, 1732.0, 1698.0, 1732.0, 1792.0, 1690.0, 1626.0, 1723.0, 1664.0, 1755.0, 1671.0, 1743.0, 1734.0], "bins": [-0.0779661312699318, -0.07276876146594684, -0.06757139166196187, -0.06237402185797691, -0.05717665205399196, -0.051979282250006996, -0.046781912446022034, -0.04158454264203708, -0.036387172838052116, -0.031189803034067154, -0.0259924332300822, -0.020795063426097236, -0.015597693622112274, -0.010400323818127319, -0.005202954014142364, -5.584210157394409e-06, 0.005191785593827561, 0.010389155397812516, 0.015586525201797485, 0.02078389500578244, 0.025981264809767396, 0.031178634613752365, 0.03637600441773732, 0.041573374221722276, 0.046770744025707245, 0.051968113829692186, 0.057165483633677155, 0.062362853437662125, 0.06756022324164707, 0.07275759304563204, 0.077954962849617]}, "conv1d_kernel_0_image": {"_type": "images/separated", "width": 265, "height": 3, "format": "png", "count": 3, "filenames": ["media/images/conv1d_kernel_0_image_7_a2c20be3695ff4d3d99b.png", "media/images/conv1d_kernel_0_image_7_774596c3dbb605837cb4.png", "media/images/conv1d_kernel_0_image_7_26f5819d2002c91f6322.png"]}, "conv1d/bias_0/histogram": {"_type": "histogram", "values": [0.0, 0.0, 0.0, 0.0, 0.0, 0.0, 0.0, 0.0, 0.0, 0.0, 0.0, 0.0, 0.0, 0.0, 0.0, 0.0, 0.0, 0.0, 0.0, 0.0, 0.0, 0.0, 0.0, 0.0, 0.0, 0.0, 0.0, 0.0, 0.0, 64.0], "bins": [0.0, 0.0, 0.0, 0.0, 0.0, 0.0, 0.0, 0.0, 0.0, 0.0, 0.0, 0.0, 0.0, 0.0, 0.0, 0.0, 0.0, 0.0, 0.0, 0.0, 0.0, 0.0, 0.0, 0.0, 0.0, 0.0, 0.0, 0.0, 0.0, 0.0, 0.0]}, "conv1d_bias_0_image": {"_type": "images/separated", "width": 1, "height": 64, "format": "png", "count": 1, "filenames": ["media/images/conv1d_bias_0_image_7_bb73d8645203240d9bf5.png"]}, "dense/kernel_0/histogram": {"_type": "histogram", "values": [5.0, 5.0, 4.0, 3.0, 4.0, 1.0, 6.0, 8.0, 3.0, 2.0, 6.0, 4.0, 4.0, 2.0, 7.0, 7.0, 3.0, 2.0, 1.0, 3.0, 4.0, 3.0, 1.0, 3.0, 9.0, 3.0, 6.0, 7.0, 5.0, 7.0], "bins": [-0.2995668947696686, -0.2794969131549199, -0.2594269315401713, -0.23935694992542267, -0.219286968310674, -0.19921698669592539, -0.17914700508117676, -0.1590770234664281, -0.13900704185167947, -0.11893706023693085, -0.09886707862218219, -0.07879709700743356, -0.058727115392684937, -0.03865713377793628, -0.018587152163187626, 0.0014828294515609741, 0.02155281106630963, 0.041622792681058285, 0.061692774295806885, 0.08176275591055554, 0.1018327375253042, 0.1219027191400528, 0.14197270075480145, 0.1620426823695501, 0.1821126639842987, 0.20218264559904742, 0.22225262721379602, 0.24232260882854462, 0.2623925904432933, 0.2824625720580419, 0.3025325536727905]}, "dense_kernel_0_image": {"_type": "images/separated", "width": 64, "height": 2, "format": "png", "count": 1, "filenames": ["media/images/dense_kernel_0_image_7_d34751981ac26aa9d1ff.png"]}, "dense/bias_0/histogram": {"_type": "histogram", "values": [1.0, 0.0, 0.0, 0.0, 0.0, 0.0, 0.0, 0.0, 0.0, 0.0, 0.0, 0.0, 0.0, 0.0, 0.0, 0.0, 0.0, 0.0, 0.0, 0.0, 0.0, 0.0, 0.0, 0.0, 0.0, 0.0, 0.0, 0.0, 0.0, 1.0], "bins": [0.0, 0.0003595492181678613, 0.0007190984363357226, 0.001078647654503584, 0.0014381968726714452, 0.0017977460908393064, 0.002157295309007168, 0.002516844527175029, 0.0028763937453428904, 0.0032359429635107516, 0.0035954921816786127, 0.003955041399846474, 0.004314590618014336, 0.004674139836182197, 0.005033689054350058, 0.0053932382725179195, 0.005752787490685781, 0.006112336708853642, 0.006471885927021503, 0.006831435145189364, 0.0071909843633572255, 0.0075505335815250875, 0.007910082799692948, 0.008269632017860809, 0.008629181236028672, 0.008988730454196533, 0.009348279672364394, 0.009707828890532256, 0.010067378108700117, 0.010426927326867978, 0.010786476545035839]}, "dense_bias_0_image": {"_type": "images/separated", "width": 1, "height": 2, "format": "png", "count": 1, "filenames": ["media/images/dense_bias_0_image_7_a5c4351c8271c6ae3d61.png"]}, "dense_1/kernel_0/histogram": {"_type": "histogram", "values": [2.0, 6.0, 4.0, 11.0, 12.0, 12.0, 25.0, 17.0, 22.0, 20.0, 25.0, 18.0, 24.0, 41.0, 44.0, 50.0, 29.0, 20.0, 14.0, 18.0, 11.0, 18.0, 13.0, 13.0, 11.0, 11.0, 3.0, 4.0, 1.0, 1.0], "bins": [-0.09181481599807739, -0.08546160931388537, -0.07910840262969335, -0.07275519594550132, -0.0664019892613093, -0.060048782577117286, -0.053695575892925264, -0.04734236920873324, -0.04098916252454122, -0.034635955840349196, -0.02828274915615718, -0.021929542471965158, -0.015576335787773135, -0.009223129103581112, -0.00286992241938909, 0.0034832842648029327, 0.009836490948994955, 0.016189697633186978, 0.022542904317379, 0.028896111001571023, 0.03524931768576303, 0.04160252436995507, 0.04795573105414708, 0.054308937738339114, 0.06066214442253112, 0.06701535110672316, 0.07336855779091517, 0.0797217644751072, 0.08607497115929921, 0.09242817784349125, 0.09878138452768326]}, "dense_1_kernel_0_image": {"_type": "images/separated", "width": 1, "height": 500, "format": "png", "count": 1, "filenames": ["media/images/dense_1_kernel_0_image_7_b6bf3dfbaa272ddf3c27.png"]}, "dense_1/bias_0/histogram": {"_type": "histogram", "values": [1.0, 0.0, 0.0, 0.0, 0.0, 0.0, 2.0, 1.0, 1.0, 3.0, 3.0, 3.0, 5.0, 14.0, 14.0, 17.0, 22.0, 14.0, 27.0, 23.0, 39.0, 37.0, 52.0, 58.0, 44.0, 59.0, 24.0, 26.0, 7.0, 4.0], "bins": [-0.0004911947762593627, -0.0004730065655166982, -0.00045481835477403367, -0.0004366301440313691, -0.0004184419332887046, -0.0004002537225460401, -0.00038206551180337557, -0.00036387730106071106, -0.0003456890903180465, -0.00032750087957538203, -0.00030931266883271746, -0.00029112445809005295, -0.00027293624734738844, -0.00025474803660472387, -0.00023655982586205936, -0.00021837161511939485, -0.00020018340437673033, -0.00018199519363406582, -0.0001638069828914013, -0.00014561877214873674, -0.00012743056140607223, -0.00010924235066340772, -9.10541399207432e-05, -7.286592917807869e-05, -5.467771843541418e-05, -3.648950769274961e-05, -1.83012969500851e-05, -1.1308620742058687e-07, 1.807512453524398e-05, 3.626333527790844e-05, 5.4451546020573005e-05]}, "dense_1_bias_0_image": {"_type": "images/separated", "width": 1, "height": 500, "format": "png", "count": 1, "filenames": ["media/images/dense_1_bias_0_image_7_5526b80dc252e6f13cc5.png"]}, "conv1d_transpose/kernel_0/histogram": {"_type": "histogram", "values": [4.0, 9.0, 13.0, 22.0, 26.0, 31.0, 31.0, 43.0, 32.0, 39.0, 34.0, 31.0, 36.0, 28.0, 30.0, 35.0, 29.0, 29.0, 25.0, 28.0, 25.0, 28.0, 23.0, 24.0, 26.0, 21.0, 26.0, 23.0, 8.0, 9.0], "bins": [-0.18660826981067657, -0.1744879588484764, -0.16236764788627625, -0.15024733692407607, -0.13812702596187593, -0.12600671499967575, -0.11388640403747557, -0.10176609307527541, -0.08964578211307525, -0.07752547115087509, -0.06540516018867493, -0.05328484922647475, -0.041164538264274575, -0.029044227302074427, -0.01692391633987425, -0.004803605377674103, 0.007316705584526073, 0.01943701654672625, 0.0315573275089264, 0.04367763847112657, 0.05579794943332672, 0.0679182603955269, 0.08003857135772707, 0.09215888231992725, 0.10427919328212742, 0.11639950424432755, 0.12851981520652772, 0.1406401261687279, 0.15276043713092807, 0.16488074809312825, 0.17700105905532837]}, "conv1d_transpose_kernel_0_image": {"_type": "images/separated", "width": 64, "height": 3, "format": "png", "count": 3, "filenames": ["media/images/conv1d_transpose_kernel_0_image_7_e780fd518c617c7a4b3d.png", "media/images/conv1d_transpose_kernel_0_image_7_647670eba34c4cef21eb.png", "media/images/conv1d_transpose_kernel_0_image_7_307407fcaf02268ecc26.png"]}, "conv1d_transpose/bias_0/histogram": {"_type": "histogram", "values": [1.0, 1.0, 0.0, 0.0, 2.0, 1.0, 2.0, 1.0, 2.0, 2.0, 5.0, 7.0, 5.0, 3.0, 2.0, 5.0, 2.0, 3.0, 6.0, 1.0, 1.0, 2.0, 3.0, 4.0, 1.0, 1.0, 0.0, 0.0, 0.0, 1.0], "bins": [-0.025010814890265465, -0.023292943462729455, -0.021575072035193443, -0.019857200607657433, -0.01813932918012142, -0.01642145775258541, -0.014703586325049402, -0.01298571489751339, -0.01126784346997738, -0.009549972042441368, -0.007832100614905357, -0.006114229187369348, -0.004396357759833339, -0.002678486332297326, -0.0009606149047613165, 0.0007572565227746964, 0.0024751279503107057, 0.004192999377846715, 0.005910870805382728, 0.007628742232918741, 0.00934661366045475, 0.01106448508799076, 0.012782356515526769, 0.014500227943062778, 0.016218099370598787, 0.017935970798134804, 0.019653842225670813, 0.021371713653206822, 0.023089585080742832, 0.02480745650827884, 0.026525327935814857]}, "conv1d_transpose_bias_0_image": {"_type": "images/separated", "width": 1, "height": 64, "format": "png", "count": 1, "filenames": ["media/images/conv1d_transpose_bias_0_image_7_6b77e44840d10fe626d8.png"]}, "conv1d_transpose_1/kernel_0/histogram": {"_type": "histogram", "values": [4.0, 13.0, 35.0, 131.0, 209.0, 214.0, 266.0, 218.0, 291.0, 270.0, 268.0, 288.0, 270.0, 293.0, 284.0, 289.0, 284.0, 289.0, 262.0, 287.0, 258.0, 277.0, 254.0, 272.0, 263.0, 209.0, 99.0, 33.0, 8.0, 6.0], "bins": [-0.1884060949087143, -0.1760404149691264, -0.16367473502953847, -0.15130905508995057, -0.13894337515036265, -0.12657769521077475, -0.11421201527118684, -0.10184633533159893, -0.08948065539201101, -0.0771149754524231, -0.06474929551283519, -0.05238361557324728, -0.04001793563365938, -0.027652255694071454, -0.015286575754483556, -0.00292089581489563, 0.009444784124692268, 0.021810464064280166, 0.03417614400386809, 0.04654182394345599, 0.058907503883043916, 0.07127318382263181, 0.08363886376221974, 0.09600454370180767, 0.10837022364139554, 0.12073590358098346, 0.1331015835205714, 0.14546726346015926, 0.15783294339974718, 0.1701986233393351, 0.18256430327892303]}, "conv1d_transpose_1_kernel_0_image": {"_type": "images/separated", "width": 32, "height": 3, "format": "png", "count": 3, "filenames": ["media/images/conv1d_transpose_1_kernel_0_image_7_65917b42b3e7490e8632.png", "media/images/conv1d_transpose_1_kernel_0_image_7_65ff2f8ae68ced6779ff.png", "media/images/conv1d_transpose_1_kernel_0_image_7_d5606ae68ca0a7e4151d.png"]}, "conv1d_transpose_1/bias_0/histogram": {"_type": "histogram", "values": [2.0, 1.0, 0.0, 1.0, 2.0, 1.0, 1.0, 2.0, 1.0, 4.0, 1.0, 0.0, 1.0, 1.0, 1.0, 2.0, 3.0, 0.0, 2.0, 1.0, 2.0, 0.0, 0.0, 0.0, 0.0, 0.0, 1.0, 1.0, 0.0, 1.0], "bins": [-0.03901702165603638, -0.03628131958345572, -0.033545617510875064, -0.03080991543829441, -0.028074213365713755, -0.0253385112931331, -0.022602809220552446, -0.01986710714797179, -0.017131405075391133, -0.014395703002810477, -0.01166000093022982, -0.008924298857649168, -0.006188596785068515, -0.0034528947124878584, -0.0007171926399072021, 0.0020185094326734543, 0.004754211505254111, 0.007489913577834767, 0.010225615650415423, 0.01296131772299608, 0.015697019795576736, 0.018432721868157385, 0.02116842394073804, 0.023904126013318705, 0.026639828085899347, 0.029375530158480004, 0.03211123223106066, 0.034846934303641316, 0.03758263637622197, 0.04031833844880263, 0.043054040521383286]}, "conv1d_transpose_1_bias_0_image": {"_type": "images/separated", "width": 1, "height": 32, "format": "png", "count": 1, "filenames": ["media/images/conv1d_transpose_1_bias_0_image_7_ac50aff4513e42251c54.png"]}, "conv1d_transpose_2/kernel_0/histogram": {"_type": "histogram", "values": [7.0, 10.0, 11.0, 11.0, 14.0, 19.0, 19.0, 11.0, 6.0, 14.0, 12.0, 15.0, 8.0, 19.0, 12.0, 14.0, 20.0, 14.0, 12.0, 15.0, 14.0, 13.0, 16.0, 11.0, 18.0, 9.0, 16.0, 7.0, 13.0, 4.0], "bins": [-0.22790342569351196, -0.21234669039646784, -0.19678995509942374, -0.1812332198023796, -0.16567648450533548, -0.15011974920829135, -0.13456301391124725, -0.11900627861420313, -0.10344954331715901, -0.0878928080201149, -0.07233607272307077, -0.056779337426026644, -0.041222602128982544, -0.025665866831938416, -0.010109131534894289, 0.005447603762149811, 0.02100433905919394, 0.036561074356238066, 0.052117809653282166, 0.06767454495032632, 0.08323128024737042, 0.09878801554441452, 0.11434475084145868, 0.12990148613850278, 0.14545822143554688, 0.16101495673259103, 0.17657169202963513, 0.19212842732667923, 0.20768516262372338, 0.22324189792076748, 0.23879863321781158]}, "conv1d_transpose_2_kernel_0_image": {"_type": "images/separated", "width": 4, "height": 3, "format": "png", "count": 3, "filenames": ["media/images/conv1d_transpose_2_kernel_0_image_7_70ff150023e47776c4c2.png", "media/images/conv1d_transpose_2_kernel_0_image_7_6d7b1892409ce77f0574.png", "media/images/conv1d_transpose_2_kernel_0_image_7_2d80db032429c4d01f05.png"]}, "conv1d_transpose_2/bias_0/histogram": {"_type": "histogram", "values": [1.0, 0.0, 0.0, 0.0, 0.0, 0.0, 1.0, 0.0, 0.0, 0.0, 0.0, 0.0, 0.0, 0.0, 0.0, 0.0, 0.0, 1.0, 0.0, 0.0, 0.0, 0.0, 0.0, 0.0, 0.0, 0.0, 0.0, 0.0, 0.0, 1.0], "bins": [-0.04334074258804321, -0.03984386287629604, -0.036346983164548874, -0.032850103452801704, -0.029353223741054535, -0.025856344029307365, -0.022359464317560196, -0.018862584605813026, -0.015365704894065857, -0.011868825182318687, -0.008371945470571518, -0.0048750657588243484, -0.001378186047077179, 0.0021186936646699905, 0.00561557337641716, 0.00911245308816433, 0.012609332799911499, 0.01610621251165867, 0.019603092223405838, 0.023099971935153008, 0.026596851646900177, 0.030093731358647346, 0.033590611070394516, 0.037087490782141685, 0.040584370493888855, 0.044081250205636024, 0.047578129917383194, 0.05107500962913036, 0.05457188934087753, 0.0580687690526247, 0.06156564876437187]}, "conv1d_transpose_2_bias_0_image": {"_type": "images/separated", "width": 1, "height": 4, "format": "png", "count": 1, "filenames": ["media/images/conv1d_transpose_2_bias_0_image_7_5b381888b27496eda4cc.png"]}, "_runtime": 995.8419940471649, "_step": 7, "_wandb": {"runtime": 994}}