{"global_step": 34, "_timestamp": 1688080609.280264, "epoch_loss": 1.3802045583724976, "epoch_lr": 1.0000000656873453e-05, "pwm_conv/kernel_0/histogram": {"_type": "histogram", "values": [2.0, 1.0, 1.0, 36.0, 514.0, 96.0, 17.0, 408.0, 346.0, 324.0, 313.0, 421.0, 388.0, 425.0, 352.0, 473.0, 480.0, 575.0, 533.0, 580.0, 697.0, 739.0, 702.0, 701.0, 3864.0, 703.0, 709.0, 566.0, 577.0, 1417.0], "bins": [-5.521356105804443, -5.291306344668071, -5.061256583531698, -4.831206822395325, -4.601157061258952, -4.3711073001225795, -4.141057538986206, -3.911007777849833, -3.6809580167134603, -3.4509082555770876, -3.220858494440715, -2.9908087333043416, -2.760758972167969, -2.530709211031596, -2.300659449895223, -2.07060968875885, -1.8405599276224773, -1.6105101664861046, -1.3804604053497318, -1.150410644213359, -0.9203608830769863, -0.6903111219406126, -0.46026136080423985, -0.23021159966786708, -0.00016183853149431826, 0.22988792260487845, 0.4599376837412512, 0.689987444877624, 0.9200372060139976, 1.1500869671503704, 1.3801367282867432]}, "pwm_conv_kernel_0_image": {"_type": "images/separated", "width": 4, "height": 16, "format": "png", "count": 3, "filenames": ["media/images/pwm_conv_kernel_0_image_34_85f3ac3d3901ef7a9581.png", "media/images/pwm_conv_kernel_0_image_34_ff0166818b9ecb03dabe.png", "media/images/pwm_conv_kernel_0_image_34_5c3e85ae5e5c15d498f0.png"]}, "conv1d/kernel_0/histogram": {"_type": "histogram", "values": [3.0, 0.0, 0.0, 8.0, 8.0, 33.0, 97.0, 392.0, 1952.0, 2551.0, 2571.0, 2688.0, 2714.0, 2651.0, 2682.0, 2677.0, 2762.0, 2786.0, 2570.0, 2600.0, 2576.0, 2657.0, 2706.0, 2632.0, 2554.0, 2517.0, 2151.0, 1224.0, 104.0, 14.0], "bins": [-0.14042143523693085, -0.13243968536456427, -0.12445793549219768, -0.11647618561983109, -0.10849443574746451, -0.10051268587509792, -0.09253093600273132, -0.08454918613036475, -0.07656743625799815, -0.06858568638563156, -0.06060393651326498, -0.05262218664089839, -0.0446404367685318, -0.03665868689616522, -0.02867693702379863, -0.02069518715143205, -0.01271343727906546, -0.004731687406698881, 0.0032500624656677246, 0.011231812338034303, 0.01921356221040088, 0.027195312082767487, 0.035177061955134065, 0.04315881182750064, 0.05114056169986725, 0.05912231157223383, 0.0671040614446004, 0.07508581131696698, 0.08306756118933359, 0.09104931106170017, 0.09903106093406677]}, "conv1d_kernel_0_image": {"_type": "images/separated", "width": 265, "height": 3, "format": "png", "count": 3, "filenames": ["media/images/conv1d_kernel_0_image_34_7ba131337d465f840aaa.png", "media/images/conv1d_kernel_0_image_34_6686244259f60b057c7b.png", "media/images/conv1d_kernel_0_image_34_21a380f3bf5f1b4681ef.png"]}, "conv1d/bias_0/histogram": {"_type": "histogram", "values": [1.0, 0.0, 0.0, 0.0, 0.0, 0.0, 0.0, 0.0, 0.0, 0.0, 1.0, 0.0, 3.0, 0.0, 0.0, 10.0, 2.0, 3.0, 2.0, 2.0, 2.0, 7.0, 4.0, 3.0, 6.0, 5.0, 8.0, 2.0, 0.0, 3.0], "bins": [-0.006533136125653982, -0.006300334622695422, -0.00606753311973686, -0.0058347316167782996, -0.005601930113819738, -0.0053691286108611775, -0.005136327107902616, -0.0049035256049440555, -0.004670724101985494, -0.0044379225990269335, -0.004205121096068373, -0.0039723195931098115, -0.0037395180901512504, -0.0035067165871926894, -0.0032739150842341284, -0.0030411135812755674, -0.0028083120783170064, -0.0025755105753584454, -0.002342709072399885, -0.0021099075694413234, -0.0018771060664827628, -0.0016443045635242013, -0.0014115030605656408, -0.0011787015576070793, -0.0009459000546485187, -0.0007130985516899573, -0.0004802970487313967, -0.00024749554577283527, -1.4694042814274687e-05, 0.00021810746014428676, 0.00045090896310284734]}, "conv1d_bias_0_image": {"_type": "images/separated", "width": 1, "height": 64, "format": "png", "count": 1, "filenames": ["media/images/conv1d_bias_0_image_34_bb73d8645203240d9bf5.png"]}, "dense/kernel_0/histogram": {"_type": "histogram", "values": [5.0, 0.0, 8.0, 1.0, 1.0, 3.0, 3.0, 6.0, 4.0, 5.0, 6.0, 12.0, 4.0, 8.0, 12.0, 9.0, 4.0, 4.0, 2.0, 3.0, 0.0, 5.0, 5.0, 3.0, 5.0, 0.0, 1.0, 5.0, 2.0, 2.0], "bins": [-0.2858832776546478, -0.2666886339584986, -0.24749399026234944, -0.22829934656620027, -0.20910470287005106, -0.18991005917390186, -0.17071541547775268, -0.1515207717816035, -0.1323261280854543, -0.11313148438930509, -0.09393684069315592, -0.07474219699700674, -0.05554755330085753, -0.03635290960470833, -0.017158265908559178, 0.002036377787590027, 0.021231021483739232, 0.04042566517988844, 0.05962030887603764, 0.07881495257218679, 0.098009596268336, 0.1172042399644852, 0.13639888366063435, 0.15559352735678356, 0.17478817105293276, 0.19398281474908197, 0.21317745844523117, 0.23237210214138038, 0.25156674583752947, 0.2707613895336787, 0.2899560332298279]}, "dense_kernel_0_image": {"_type": "images/separated", "width": 64, "height": 2, "format": "png", "count": 1, "filenames": ["media/images/dense_kernel_0_image_34_ad94785a425a5a60bbc3.png"]}, "dense/bias_0/histogram": {"_type": "histogram", "values": [1.0, 0.0, 0.0, 0.0, 0.0, 0.0, 0.0, 0.0, 0.0, 0.0, 0.0, 0.0, 0.0, 0.0, 0.0, 0.0, 0.0, 0.0, 0.0, 0.0, 0.0, 0.0, 0.0, 0.0, 0.0, 0.0, 0.0, 0.0, 0.0, 1.0], "bins": [-0.0004621418775059283, -0.00028985964794022345, -0.00011757741837451857, 5.470481119118631e-05, 0.00022698704075689113, 0.00039926927032259596, 0.0005715514998883009, 0.0007438337294540056, 0.0009161159590197105, 0.0010883981885854155, 0.0012606804181511202, 0.0014329626477168251, 0.00160524487728253, 0.0017775271068482348, 0.0019498093364139395, 0.0021220915659796447, 0.0022943737955453494, 0.002466656025111054, 0.0026389382546767592, 0.002811220484242464, 0.0029835027138081687, 0.003155784943373874, 0.0033280671729395785, 0.0035003494025052833, 0.0036726316320709884, 0.0038449138616366927, 0.004017196091202398, 0.004189478320768103, 0.004361760550333807, 0.0045340427798995124, 0.004706325009465218]}, "dense_bias_0_image": {"_type": "images/separated", "width": 1, "height": 2, "format": "png", "count": 1, "filenames": ["media/images/dense_bias_0_image_34_b77ff1aedfbfa82e5c35.png"]}, "dense_1/kernel_0/histogram": {"_type": "histogram", "values": [3.0, 3.0, 4.0, 4.0, 2.0, 6.0, 6.0, 19.0, 24.0, 24.0, 47.0, 76.0, 130.0, 41.0, 27.0, 25.0, 19.0, 16.0, 5.0, 4.0, 4.0, 0.0, 4.0, 1.0, 1.0, 3.0, 1.0, 0.0, 0.0, 1.0], "bins": [-0.0540669709444046, -0.049648145337899525, -0.04522931973139445, -0.04081049412488938, -0.036391668518384296, -0.031972842911879226, -0.02755401730537415, -0.023135191698869073, -0.018716366092363997, -0.01429754048585892, -0.009878714879353843, -0.005459889272848767, -0.0010410636663436973, 0.0033777619401613793, 0.007796587546666456, 0.01221541315317154, 0.01663423875967661, 0.02105306436618168, 0.025471889972686762, 0.02989071557919183, 0.034309541185696915, 0.038728366792201985, 0.04314719239870707, 0.04756601800521214, 0.05198484361171721, 0.05640366921822229, 0.06082249482472736, 0.06524132043123244, 0.06966014603773751, 0.0740789716442426, 0.07849779725074768]}, "dense_1_kernel_0_image": {"_type": "images/separated", "width": 1, "height": 500, "format": "png", "count": 1, "filenames": ["media/images/dense_1_kernel_0_image_34_7b8b54f27cdcd7356dbc.png"]}, "dense_1/bias_0/histogram": {"_type": "histogram", "values": [5.0, 5.0, 23.0, 33.0, 27.0, 34.0, 47.0, 46.0, 53.0, 43.0, 50.0, 8.0, 4.0, 15.0, 11.0, 16.0, 3.0, 3.0, 7.0, 19.0, 15.0, 15.0, 6.0, 7.0, 2.0, 1.0, 1.0, 0.0, 0.0, 1.0], "bins": [-0.16606789827346802, -0.15097870628039042, -0.13588951428731283, -0.12080032229423524, -0.10571113030115764, -0.09062193830808003, -0.07553274631500244, -0.060443554321924844, -0.04535436232884725, -0.030265170335769642, -0.015175978342692048, -8.678634961445386e-05, 0.01500240564346314, 0.030091597636540734, 0.04518078962961833, 0.06026998162269592, 0.07535917361577352, 0.09044836560885111, 0.10553755760192873, 0.1206267495950063, 0.13571594158808392, 0.1508051335811615, 0.1658943255742391, 0.18098351756731668, 0.1960727095603943, 0.21116190155347186, 0.2262510935465495, 0.24134028553962705, 0.2564294775327047, 0.27151866952578224, 0.28660786151885986]}, "dense_1_bias_0_image": {"_type": "images/separated", "width": 1, "height": 500, "format": "png", "count": 1, "filenames": ["media/images/dense_1_bias_0_image_34_6978cf5aa5d0a375f313.png"]}, "conv1d_transpose/kernel_0/histogram": {"_type": "histogram", "values": [2.0, 2.0, 6.0, 12.0, 11.0, 19.0, 17.0, 24.0, 39.0, 48.0, 34.0, 48.0, 60.0, 46.0, 56.0, 64.0, 46.0, 42.0, 42.0, 33.0, 36.0, 35.0, 10.0, 13.0, 11.0, 7.0, 2.0, 1.0, 1.0, 1.0], "bins": [-0.27865174412727356, -0.26075395147005714, -0.24285615881284078, -0.22495836615562437, -0.207060573498408, -0.1891627808411916, -0.1712649881839752, -0.15336719552675881, -0.13546940286954243, -0.11757161021232604, -0.09967381755510965, -0.08177602489789326, -0.06387823224067685, -0.04598043958346046, -0.02808264692624407, -0.01018485426902771, 0.007712938388188706, 0.025610731045405122, 0.04350852370262148, 0.0614063163598379, 0.07930410901705426, 0.09720190167427067, 0.11509969433148703, 0.13299748698870345, 0.15089527964591987, 0.16879307230313623, 0.18669086496035264, 0.204588657617569, 0.22248645027478542, 0.24038424293200178, 0.25828203558921814]}, "conv1d_transpose_kernel_0_image": {"_type": "images/separated", "width": 64, "height": 3, "format": "png", "count": 3, "filenames": ["media/images/conv1d_transpose_kernel_0_image_34_89b421535bd3bb3f364d.png", "media/images/conv1d_transpose_kernel_0_image_34_c212c60cf5eb3bf04583.png", "media/images/conv1d_transpose_kernel_0_image_34_af0369fabaed62fdfd1a.png"]}, "conv1d_transpose/bias_0/histogram": {"_type": "histogram", "values": [1.0, 0.0, 1.0, 0.0, 0.0, 0.0, 1.0, 1.0, 2.0, 3.0, 2.0, 5.0, 1.0, 1.0, 2.0, 0.0, 1.0, 1.0, 1.0, 6.0, 12.0, 5.0, 4.0, 6.0, 2.0, 1.0, 2.0, 1.0, 1.0, 1.0], "bins": [-0.08218428492546082, -0.07756132408976554, -0.07293836325407028, -0.06831540241837501, -0.06369244158267975, -0.05906948074698448, -0.05444651991128921, -0.049823559075593944, -0.04520059823989868, -0.040577637404203414, -0.03595467656850815, -0.031331715732812876, -0.02670875489711761, -0.022085794061422345, -0.017462833225727073, -0.012839872390031815, -0.008216911554336542, -0.00359395071864127, 0.0010290101170539884, 0.005651970952749261, 0.010274931788444519, 0.014897892624139791, 0.019520853459835064, 0.024143814295530322, 0.028766775131225594, 0.03338973596692087, 0.038012696802616125, 0.0426356576383114, 0.04725861847400667, 0.05188157930970194, 0.056504540145397186]}, "conv1d_transpose_bias_0_image": {"_type": "images/separated", "width": 1, "height": 64, "format": "png", "count": 1, "filenames": ["media/images/conv1d_transpose_bias_0_image_34_66afdd61e12fb609504f.png"]}, "conv1d_transpose_1/kernel_0/histogram": {"_type": "histogram", "values": [1.0, 0.0, 1.0, 5.0, 9.0, 19.0, 20.0, 47.0, 72.0, 120.0, 248.0, 418.0, 482.0, 471.0, 519.0, 502.0, 552.0, 506.0, 483.0, 455.0, 428.0, 359.0, 216.0, 85.0, 47.0, 35.0, 25.0, 9.0, 6.0, 4.0], "bins": [-0.4143713116645813, -0.3900282770395279, -0.3656852424144745, -0.3413422077894211, -0.31699917316436765, -0.29265613853931427, -0.2683131039142609, -0.24397006928920748, -0.21962703466415406, -0.19528400003910065, -0.17094096541404724, -0.14659793078899386, -0.12225489616394047, -0.09791186153888704, -0.07356882691383365, -0.04922579228878021, -0.02488275766372683, -0.0005397230386734453, 0.023803311586379994, 0.04814634621143338, 0.07248938083648682, 0.0968324154615402, 0.12117545008659358, 0.14551848471164697, 0.16986151933670035, 0.19420455396175385, 0.21854758858680723, 0.2428906232118606, 0.267233657836914, 0.2915766924619674, 0.3159197270870209]}, "conv1d_transpose_1_kernel_0_image": {"_type": "images/separated", "width": 32, "height": 3, "format": "png", "count": 3, "filenames": ["media/images/conv1d_transpose_1_kernel_0_image_34_1e72e5ddf2e33bf02363.png", "media/images/conv1d_transpose_1_kernel_0_image_34_5b74e4c412c3506e08a5.png", "media/images/conv1d_transpose_1_kernel_0_image_34_ca22e45cbb952fbada4f.png"]}, "conv1d_transpose_1/bias_0/histogram": {"_type": "histogram", "values": [3.0, 1.0, 3.0, 1.0, 0.0, 3.0, 1.0, 1.0, 0.0, 0.0, 2.0, 1.0, 0.0, 2.0, 2.0, 2.0, 1.0, 1.0, 1.0, 1.0, 2.0, 0.0, 0.0, 1.0, 2.0, 0.0, 0.0, 0.0, 0.0, 1.0], "bins": [-0.04892365634441376, -0.04308785597483317, -0.03725205560525258, -0.031416255235672, -0.02558045486609141, -0.019744654496510822, -0.013908854126930235, -0.008073053757349652, -0.0022372533877690615, 0.003598546981811529, 0.009434347351392113, 0.015270147720972696, 0.021105948090553286, 0.026941748460133877, 0.032777548829714453, 0.038613349199295044, 0.044449149568875634, 0.050284949938456225, 0.056120750308036815, 0.06195655067761739, 0.06779235104719798, 0.07362815141677857, 0.07946395178635915, 0.08529975215593974, 0.09113555252552033, 0.09697135289510092, 0.10280715326468151, 0.1086429536342621, 0.11447875400384266, 0.12031455437342325, 0.12615035474300385]}, "conv1d_transpose_1_bias_0_image": {"_type": "images/separated", "width": 1, "height": 32, "format": "png", "count": 1, "filenames": ["media/images/conv1d_transpose_1_bias_0_image_34_5caa0764bb4aeb512b8a.png"]}, "conv1d_transpose_2/kernel_0/histogram": {"_type": "histogram", "values": [1.0, 0.0, 6.0, 4.0, 6.0, 5.0, 9.0, 17.0, 19.0, 23.0, 18.0, 14.0, 26.0, 32.0, 9.0, 23.0, 24.0, 22.0, 22.0, 25.0, 14.0, 18.0, 15.0, 10.0, 7.0, 8.0, 2.0, 3.0, 1.0, 1.0], "bins": [-0.4532809555530548, -0.42351999481519065, -0.3937590340773265, -0.36399807333946227, -0.3342371126015981, -0.30447615186373395, -0.27471519112586973, -0.24495423038800557, -0.2151932696501414, -0.18543230891227724, -0.15567134817441308, -0.12591038743654887, -0.0961494266986847, -0.06638846596082054, -0.036627505222956325, -0.006866544485092163, 0.022894416252772, 0.05265537699063616, 0.08241633772850032, 0.11217729846636448, 0.14193825920422865, 0.17169921994209292, 0.20146018067995708, 0.23122114141782124, 0.2609821021556854, 0.29074306289354956, 0.3205040236314137, 0.3502649843692779, 0.38002594510714216, 0.4097869058450063, 0.4395478665828705]}, "conv1d_transpose_2_kernel_0_image": {"_type": "images/separated", "width": 4, "height": 3, "format": "png", "count": 3, "filenames": ["media/images/conv1d_transpose_2_kernel_0_image_34_4e3506869ab712fbe7fc.png", "media/images/conv1d_transpose_2_kernel_0_image_34_1bedf7d8caabcf1d45d7.png", "media/images/conv1d_transpose_2_kernel_0_image_34_837714e27294584fe3db.png"]}, "conv1d_transpose_2/bias_0/histogram": {"_type": "histogram", "values": [1.0, 1.0, 0.0, 0.0, 0.0, 0.0, 0.0, 0.0, 0.0, 0.0, 0.0, 0.0, 0.0, 0.0, 0.0, 0.0, 0.0, 0.0, 0.0, 0.0, 0.0, 0.0, 0.0, 0.0, 0.0, 0.0, 1.0, 0.0, 0.0, 1.0], "bins": [-0.11318662017583847, -0.10596959640582403, -0.09875257263580958, -0.09153554886579514, -0.0843185250957807, -0.07710150132576624, -0.0698844775557518, -0.06266745378573735, -0.05545043001572291, -0.04823340624570846, -0.041016382475694016, -0.03379935870567957, -0.026582334935665128, -0.019365311165650684, -0.01214828739563624, -0.004931263625621796, 0.0022857601443926484, 0.009502783914407092, 0.01671980768442155, 0.02393683145443598, 0.03115385522445044, 0.03837087899446487, 0.04558790276447933, 0.05280492653449376, 0.060021950304508215, 0.06723897407452264, 0.0744559978445371, 0.08167302161455153, 0.08889004538456599, 0.09610706915458042, 0.10332409292459488]}, "conv1d_transpose_2_bias_0_image": {"_type": "images/separated", "width": 1, "height": 4, "format": "png", "count": 1, "filenames": ["media/images/conv1d_transpose_2_bias_0_image_34_3320210021ea879667be.png"]}, "_runtime": 4147.020730018616, "_step": 34}