{"global_step": 36, "_timestamp": 1688080645.597221, "epoch_loss": 1.699467420578003, "epoch_lr": 0.0010000000474974513, "pwm_conv/kernel_0/histogram": {"_type": "histogram", "values": [2.0, 1.0, 1.0, 36.0, 514.0, 96.0, 17.0, 408.0, 346.0, 324.0, 313.0, 421.0, 388.0, 425.0, 352.0, 473.0, 480.0, 575.0, 533.0, 580.0, 697.0, 739.0, 702.0, 701.0, 3864.0, 703.0, 709.0, 566.0, 577.0, 1417.0], "bins": [-5.521356105804443, -5.291306344668071, -5.061256583531698, -4.831206822395325, -4.601157061258952, -4.3711073001225795, -4.141057538986206, -3.911007777849833, -3.6809580167134603, -3.4509082555770876, -3.220858494440715, -2.9908087333043416, -2.760758972167969, -2.530709211031596, -2.300659449895223, -2.07060968875885, -1.8405599276224773, -1.6105101664861046, -1.3804604053497318, -1.150410644213359, -0.9203608830769863, -0.6903111219406126, -0.46026136080423985, -0.23021159966786708, -0.00016183853149431826, 0.22988792260487845, 0.4599376837412512, 0.689987444877624, 0.9200372060139976, 1.1500869671503704, 1.3801367282867432]}, "pwm_conv_kernel_0_image": {"_type": "images/separated", "width": 4, "height": 16, "format": "png", "count": 3, "filenames": ["media/images/pwm_conv_kernel_0_image_36_85f3ac3d3901ef7a9581.png", "media/images/pwm_conv_kernel_0_image_36_ff0166818b9ecb03dabe.png", "media/images/pwm_conv_kernel_0_image_36_5c3e85ae5e5c15d498f0.png"]}, "conv1d/kernel_0/histogram": {"_type": "histogram", "values": [5.0, 6.0, 8.0, 18.0, 64.0, 257.0, 1137.0, 2034.0, 2231.0, 2311.0, 2119.0, 2328.0, 2271.0, 2281.0, 2285.0, 2345.0, 2374.0, 4788.0, 2415.0, 2358.0, 2351.0, 2341.0, 2320.0, 2204.0, 2217.0, 2115.0, 1903.0, 1352.0, 417.0, 25.0], "bins": [-0.12103861570358276, -0.11396482686201731, -0.10689103802045186, -0.09981724917888642, -0.09274346033732096, -0.08566967149575551, -0.07859588265419007, -0.07152209381262462, -0.06444830497105916, -0.05737451612949371, -0.050300727287928254, -0.043226938446362814, -0.03615314960479736, -0.029079360763231907, -0.022005571921666467, -0.014931783080101013, -0.00785799423853556, -0.0007842053969701057, 0.006289583444595348, 0.013363372286160802, 0.020437161127726255, 0.02751094996929168, 0.034584738810857135, 0.04165852765242259, 0.04873231649398804, 0.055806105335553496, 0.06287989417711895, 0.0699536830186844, 0.07702747186024983, 0.08410126070181528, 0.09117504954338074]}, "conv1d_kernel_0_image": {"_type": "images/separated", "width": 265, "height": 3, "format": "png", "count": 3, "filenames": ["media/images/conv1d_kernel_0_image_36_be57e3cc514fe7e1e96b.png", "media/images/conv1d_kernel_0_image_36_c4d17e6f44d95509e4d2.png", "media/images/conv1d_kernel_0_image_36_86570c84c85d29ffa384.png"]}, "conv1d/bias_0/histogram": {"_type": "histogram", "values": [3.0, 1.0, 1.0, 0.0, 0.0, 0.0, 1.0, 1.0, 0.0, 0.0, 1.0, 0.0, 1.0, 3.0, 1.0, 0.0, 0.0, 4.0, 6.0, 7.0, 6.0, 4.0, 5.0, 3.0, 10.0, 2.0, 2.0, 0.0, 1.0, 1.0], "bins": [-0.0022547978442162275, -0.002153109376862024, -0.002051420909507821, -0.0019497324421536178, -0.0018480439747994145, -0.001746355507445211, -0.001644667040091008, -0.0015429785727368046, -0.0014412901053826015, -0.001339601638028398, -0.0012379131706741948, -0.0011362247033199916, -0.0010345362359657883, -0.0009328477686115851, -0.0008311593012573818, -0.0007294708339031786, -0.0006277823665489753, -0.0005260938991947721, -0.0004244054318405688, -0.0003227169644863656, -0.0002210284971321621, -0.00011934002977795908, -1.765156242375561e-05, 8.403690493044742e-05, 0.0001857253722846509, 0.0002874138396388539, 0.0003891023069930574, 0.0004907907743472604, 0.0005924792417014639, 0.0006941677090556669, 0.0007958561764098704]}, "conv1d_bias_0_image": {"_type": "images/separated", "width": 1, "height": 64, "format": "png", "count": 1, "filenames": ["media/images/conv1d_bias_0_image_36_bb73d8645203240d9bf5.png"]}, "dense/kernel_0/histogram": {"_type": "histogram", "values": [5.0, 1.0, 6.0, 5.0, 4.0, 3.0, 5.0, 6.0, 5.0, 2.0, 2.0, 3.0, 6.0, 4.0, 22.0, 5.0, 2.0, 2.0, 3.0, 6.0, 0.0, 4.0, 1.0, 2.0, 5.0, 3.0, 1.0, 5.0, 5.0, 5.0], "bins": [-0.28356075286865234, -0.26443659563859306, -0.24531243840853373, -0.22618828117847445, -0.2070641239484151, -0.18793996671835583, -0.16881580948829653, -0.14969165225823722, -0.1305674950281779, -0.1114433377981186, -0.0923191805680593, -0.07319502333799999, -0.05407086610794071, -0.0349467088778814, -0.015822551647822092, 0.0033016055822372437, 0.022425762812296524, 0.041549920042355803, 0.06067407727241514, 0.07979823450247442, 0.09892239173253375, 0.11804654896259303, 0.13717070619265237, 0.15629486342271165, 0.17541902065277093, 0.19454317788283026, 0.21366733511288954, 0.23279149234294882, 0.25191564957300816, 0.2710398068030675, 0.29016396403312683]}, "dense_kernel_0_image": {"_type": "images/separated", "width": 64, "height": 2, "format": "png", "count": 1, "filenames": ["media/images/dense_kernel_0_image_36_ef74a24f40312b03e0ec.png"]}, "dense/bias_0/histogram": {"_type": "histogram", "values": [1.0, 0.0, 0.0, 0.0, 0.0, 0.0, 0.0, 0.0, 0.0, 0.0, 0.0, 0.0, 0.0, 0.0, 0.0, 0.0, 0.0, 0.0, 0.0, 0.0, 0.0, 0.0, 0.0, 0.0, 0.0, 0.0, 0.0, 0.0, 0.0, 1.0], "bins": [0.00025362567976117134, 0.0003381470451131463, 0.00042266841046512127, 0.0005071897758170962, 0.0005917111411690712, 0.0006762325065210462, 0.0007607538718730211, 0.0008452752372249961, 0.000929796602576971, 0.001014317967928946, 0.001098839333280921, 0.001183360698632896, 0.001267882063984871, 0.0013524034293368459, 0.0014369247946888208, 0.0015214461600407958, 0.0016059675253927708, 0.0016904888907447457, 0.0017750102560967207, 0.0018595316214486957, 0.0019440529868006706, 0.0020285743521526456, 0.0021130957175046206, 0.0021976170828565955, 0.0022821384482085705, 0.0023666598135605454, 0.0024511811789125204, 0.0025357025442644954, 0.0026202239096164703, 0.0027047452749684453, 0.0027892666403204203]}, "dense_bias_0_image": {"_type": "images/separated", "width": 1, "height": 2, "format": "png", "count": 1, "filenames": ["media/images/dense_bias_0_image_36_8d994cf362504173484c.png"]}, "dense_1/kernel_0/histogram": {"_type": "histogram", "values": [1.0, 0.0, 1.0, 1.0, 2.0, 1.0, 2.0, 6.0, 4.0, 1.0, 2.0, 8.0, 10.0, 279.0, 15.0, 15.0, 10.0, 14.0, 21.0, 21.0, 20.0, 25.0, 24.0, 14.0, 0.0, 2.0, 0.0, 0.0, 0.0, 1.0], "bins": [-8.491711923852563e-06, -7.871415012535484e-06, -7.251118101218405e-06, -6.630821189901326e-06, -6.010524278584247e-06, -5.390227367267168e-06, -4.769930455950089e-06, -4.14963354463301e-06, -3.529336633315931e-06, -2.9090397219988517e-06, -2.2887428106817733e-06, -1.668445899364694e-06, -1.0481489880476147e-06, -4.2785207673053624e-07, 1.924448345865422e-07, 8.127417459036224e-07, 1.4330386572207008e-06, 2.0533355685377793e-06, 2.6736324798548594e-06, 3.293929391171938e-06, 3.914226302489016e-06, 4.5345232138060965e-06, 5.154820125123175e-06, 5.775117036440253e-06, 6.3954139477573335e-06, 7.01571085907441e-06, 7.63600777039149e-06, 8.25630468170857e-06, 8.876601593025647e-06, 9.496898504342727e-06, 1.0117195415659808e-05]}, "dense_1_kernel_0_image": {"_type": "images/separated", "width": 1, "height": 500, "format": "png", "count": 1, "filenames": ["media/images/dense_1_kernel_0_image_36_5526b80dc252e6f13cc5.png"]}, "dense_1/bias_0/histogram": {"_type": "histogram", "values": [1.0, 3.0, 4.0, 5.0, 6.0, 6.0, 3.0, 4.0, 9.0, 4.0, 6.0, 16.0, 12.0, 10.0, 15.0, 19.0, 17.0, 9.0, 17.0, 20.0, 280.0, 11.0, 4.0, 1.0, 7.0, 5.0, 1.0, 3.0, 1.0, 1.0], "bins": [-3.73109713791564e-07, -3.545690323865832e-07, -3.3602835098160236e-07, -3.174876695766216e-07, -2.9894698817164074e-07, -2.8040630676665995e-07, -2.6186562536167916e-07, -2.433249439566983e-07, -2.247842625517175e-07, -2.062435811467367e-07, -1.8770289974175588e-07, -1.6916221833677507e-07, -1.5062153693179428e-07, -1.3208085552681345e-07, -1.1354017412183266e-07, -9.499949271685182e-08, -7.645881131187103e-08, -5.7918129906890245e-08, -3.9377448501909406e-08, -2.083676709692862e-08, -2.2960856919477793e-09, 1.6244595713033007e-08, 3.478527711801385e-08, 5.3325958522994634e-08, 7.186663992797542e-08, 9.040732133295626e-08, 1.089480027379371e-07, 1.2748868414291783e-07, 1.4602936554789867e-07, 1.645700469528795e-07, 1.8311072835786035e-07]}, "dense_1_bias_0_image": {"_type": "images/separated", "width": 1, "height": 500, "format": "png", "count": 1, "filenames": ["media/images/dense_1_bias_0_image_36_5526b80dc252e6f13cc5.png"]}, "conv1d_transpose/kernel_0/histogram": {"_type": "histogram", "values": [1.0, 1.0, 2.0, 4.0, 2.0, 5.0, 15.0, 35.0, 67.0, 107.0, 173.0, 205.0, 64.0, 35.0, 23.0, 9.0, 6.0, 5.0, 1.0, 2.0, 2.0, 0.0, 1.0, 0.0, 0.0, 0.0, 0.0, 1.0, 0.0, 2.0], "bins": [-1.6319569112965837e-05, -1.4844547392082556e-05, -1.3369525671199275e-05, -1.1894503950315992e-05, -1.0419482229432712e-05, -8.94446050854943e-06, -7.469438787666148e-06, -5.994417066782867e-06, -4.519395345899586e-06, -3.044373625016305e-06, -1.5693519041330238e-06, -9.433018324974258e-08, 1.3806915376335403e-06, 2.8557132585168198e-06, 4.330734979400103e-06, 5.805756700283382e-06, 7.280778421166665e-06, 8.755800142049948e-06, 1.0230821862933227e-05, 1.170584358381651e-05, 1.318086530469979e-05, 1.4655887025583072e-05, 1.6130908746466352e-05, 1.760593046734963e-05, 1.9080952188232918e-05, 2.0555973909116197e-05, 2.2030995629999477e-05, 2.3506017350882763e-05, 2.4981039071766042e-05, 2.6456060792649322e-05, 2.79310825135326e-05]}, "conv1d_transpose_kernel_0_image": {"_type": "images/separated", "width": 64, "height": 3, "format": "png", "count": 3, "filenames": ["media/images/conv1d_transpose_kernel_0_image_36_b1b9b4f003c95d302bbe.png", "media/images/conv1d_transpose_kernel_0_image_36_b1b9b4f003c95d302bbe.png", "media/images/conv1d_transpose_kernel_0_image_36_b1b9b4f003c95d302bbe.png"]}, "conv1d_transpose/bias_0/histogram": {"_type": "histogram", "values": [3.0, 1.0, 1.0, 0.0, 0.0, 1.0, 3.0, 1.0, 2.0, 2.0, 6.0, 5.0, 5.0, 4.0, 8.0, 5.0, 7.0, 2.0, 4.0, 1.0, 2.0, 0.0, 0.0, 0.0, 0.0, 0.0, 0.0, 0.0, 0.0, 1.0], "bins": [-1.4008101970830467e-05, -1.3057169568734632e-05, -1.2106237166638796e-05, -1.1155304764542962e-05, -1.0204372362447126e-05, -9.253439960351292e-06, -8.302507558255458e-06, -7.351575156159622e-06, -6.400642754063787e-06, -5.449710351967952e-06, -4.498777949872117e-06, -3.5478455477762814e-06, -2.596913145680447e-06, -1.6459807435846113e-06, -6.95048341488777e-07, 2.5588406060705893e-07, 1.2068164627028932e-06, 2.1577488647987274e-06, 3.1086812668945634e-06, 4.059613668990399e-06, 5.010546071086232e-06, 5.961478473182068e-06, 6.912410875277904e-06, 7.86334327737374e-06, 8.814275679469572e-06, 9.765208081565408e-06, 1.0716140483661244e-05, 1.1667072885757077e-05, 1.2618005287852913e-05, 1.3568937689948749e-05, 1.4519870092044584e-05]}, "conv1d_transpose_bias_0_image": {"_type": "images/separated", "width": 1, "height": 64, "format": "png", "count": 1, "filenames": ["media/images/conv1d_transpose_bias_0_image_36_bb73d8645203240d9bf5.png"]}, "conv1d_transpose_1/kernel_0/histogram": {"_type": "histogram", "values": [3.0, 1.0, 0.0, 3.0, 6.0, 4.0, 7.0, 11.0, 10.0, 14.0, 26.0, 36.0, 70.0, 155.0, 242.0, 382.0, 690.0, 2741.0, 1074.0, 306.0, 149.0, 90.0, 52.0, 24.0, 17.0, 17.0, 3.0, 4.0, 4.0, 3.0], "bins": [-1.7730333638610318e-05, -1.6740534647397e-05, -1.575073565618368e-05, -1.4760936664970359e-05, -1.3771137673757039e-05, -1.278133868254372e-05, -1.17915396913304e-05, -1.080174070011708e-05, -9.81194170890376e-06, -8.82214271769044e-06, -7.83234372647712e-06, -6.8425447352638e-06, -5.8527457440504804e-06, -4.862946752837161e-06, -3.873147761623841e-06, -2.883348770410521e-06, -1.8935497791972011e-06, -9.037507879838813e-07, 8.604820322943851e-08, 1.0758471944427583e-06, 2.065646185656078e-06, 3.055445176869398e-06, 4.045244168082718e-06, 5.035043159296038e-06, 6.0248421505093575e-06, 7.014641141722677e-06, 8.004440132935997e-06, 8.994239124149317e-06, 9.984038115362637e-06, 1.0973837106575957e-05, 1.1963636097789276e-05]}, "conv1d_transpose_1_kernel_0_image": {"_type": "images/separated", "width": 32, "height": 3, "format": "png", "count": 3, "filenames": ["media/images/conv1d_transpose_1_kernel_0_image_36_2347627157f53da5ad5e.png", "media/images/conv1d_transpose_1_kernel_0_image_36_2347627157f53da5ad5e.png", "media/images/conv1d_transpose_1_kernel_0_image_36_2347627157f53da5ad5e.png"]}, "conv1d_transpose_1/bias_0/histogram": {"_type": "histogram", "values": [2.0, 0.0, 1.0, 0.0, 1.0, 0.0, 1.0, 0.0, 1.0, 4.0, 2.0, 3.0, 3.0, 3.0, 4.0, 0.0, 0.0, 1.0, 0.0, 3.0, 0.0, 1.0, 0.0, 1.0, 0.0, 0.0, 0.0, 0.0, 0.0, 1.0], "bins": [-3.906663187080994e-05, -3.6403471434217256e-05, -3.374031099762457e-05, -3.1077150561031884e-05, -2.8413990124439198e-05, -2.5750829687846512e-05, -2.308766925125383e-05, -2.0424508814661143e-05, -1.7761348378068457e-05, -1.509818794147577e-05, -1.2435027504883085e-05, -9.771867068290398e-06, -7.108706631697716e-06, -4.4455461951050296e-06, -1.7823857585123434e-06, 8.807746780803427e-07, 3.543935114673029e-06, 6.207095551265715e-06, 8.870255987858401e-06, 1.1533416424451087e-05, 1.4196576861043773e-05, 1.685973729763646e-05, 1.9522897734229146e-05, 2.2186058170821832e-05, 2.484921860741451e-05, 2.7512379044007204e-05, 3.0175539480599883e-05, 3.2838699917192576e-05, 3.5501860353785256e-05, 3.816502079037795e-05, 4.082818122697063e-05]}, "conv1d_transpose_1_bias_0_image": {"_type": "images/separated", "width": 1, "height": 32, "format": "png", "count": 1, "filenames": ["media/images/conv1d_transpose_1_bias_0_image_36_867170f26db453b27bf2.png"]}, "conv1d_transpose_2/kernel_0/histogram": {"_type": "histogram", "values": [1.0, 0.0, 0.0, 0.0, 0.0, 0.0, 0.0, 2.0, 0.0, 2.0, 3.0, 14.0, 10.0, 32.0, 93.0, 129.0, 60.0, 25.0, 2.0, 6.0, 1.0, 0.0, 0.0, 1.0, 1.0, 0.0, 0.0, 1.0, 0.0, 1.0], "bins": [-5.142787267686799e-05, -4.807395829023638e-05, -4.472004390360477e-05, -4.136612951697316e-05, -3.801221513034155e-05, -3.4658300743709944e-05, -3.1304386357078326e-05, -2.795047197044672e-05, -2.4596557583815108e-05, -2.1242643197183497e-05, -1.788872881055189e-05, -1.4534814423920278e-05, -1.1180900037288667e-05, -7.826985650657056e-06, -4.473071264025445e-06, -1.1191568773938343e-06, 2.2347575092377767e-06, 5.588671895869388e-06, 8.942586282500999e-06, 1.229650066913261e-05, 1.5650415055764214e-05, 1.900432944239583e-05, 2.2358243829027436e-05, 2.5712158215659053e-05, 2.9066072602290657e-05, 3.2419986988922275e-05, 3.577390137555388e-05, 3.91278157621855e-05, 4.24817301488171e-05, 4.583564453544872e-05, 4.918955892208032e-05]}, "conv1d_transpose_2_kernel_0_image": {"_type": "images/separated", "width": 4, "height": 3, "format": "png", "count": 3, "filenames": ["media/images/conv1d_transpose_2_kernel_0_image_36_9864fe5ac8f86a93618a.png", "media/images/conv1d_transpose_2_kernel_0_image_36_9864fe5ac8f86a93618a.png", "media/images/conv1d_transpose_2_kernel_0_image_36_9864fe5ac8f86a93618a.png"]}, "conv1d_transpose_2/bias_0/histogram": {"_type": "histogram", "values": [2.0, 0.0, 0.0, 0.0, 0.0, 0.0, 0.0, 0.0, 0.0, 0.0, 0.0, 0.0, 0.0, 0.0, 0.0, 0.0, 0.0, 0.0, 0.0, 0.0, 0.0, 0.0, 0.0, 0.0, 0.0, 0.0, 0.0, 0.0, 0.0, 2.0], "bins": [-0.10978241264820099, -0.10246733178695043, -0.09515225092569987, -0.08783717006444931, -0.08052208920319875, -0.07320700834194818, -0.06589192748069764, -0.05857684661944707, -0.05126176575819651, -0.04394668489694595, -0.03663160403569539, -0.02931652317444483, -0.022001442313194272, -0.014686361451943714, -0.007371280590693155, -5.6199729442596436e-05, 0.007258881131807962, 0.01457396199305852, 0.021889042854309093, 0.029204123715559638, 0.03651920457681021, 0.043834285438060755, 0.05114936629931133, 0.05846444716056187, 0.06577952802181244, 0.07309460888306299, 0.08040968974431356, 0.0877247706055641, 0.09503985146681468, 0.10235493232806522, 0.1096700131893158]}, "conv1d_transpose_2_bias_0_image": {"_type": "images/separated", "width": 1, "height": 4, "format": "png", "count": 1, "filenames": ["media/images/conv1d_transpose_2_bias_0_image_36_e55a3cfc675d62ed2726.png"]}, "_runtime": 4990.510092973709, "_step": 36}