{"global_step": 1, "_timestamp": 1688061288.354477, "epoch_loss": 1.3659955263137817, "epoch_lr": 0.0010000000474974513, "pwm_conv/kernel_0/histogram": {"_type": "histogram", "values": [2.0, 1.0, 1.0, 36.0, 514.0, 96.0, 17.0, 408.0, 346.0, 324.0, 313.0, 421.0, 388.0, 425.0, 352.0, 473.0, 480.0, 575.0, 533.0, 580.0, 697.0, 739.0, 702.0, 701.0, 3864.0, 703.0, 709.0, 566.0, 577.0, 1417.0], "bins": [-5.521356105804443, -5.291306344668071, -5.061256583531698, -4.831206822395325, -4.601157061258952, -4.3711073001225795, -4.141057538986206, -3.911007777849833, -3.6809580167134603, -3.4509082555770876, -3.220858494440715, -2.9908087333043416, -2.760758972167969, -2.530709211031596, -2.300659449895223, -2.07060968875885, -1.8405599276224773, -1.6105101664861046, -1.3804604053497318, -1.150410644213359, -0.9203608830769863, -0.6903111219406126, -0.46026136080423985, -0.23021159966786708, -0.00016183853149431826, 0.22988792260487845, 0.4599376837412512, 0.689987444877624, 0.9200372060139976, 1.1500869671503704, 1.3801367282867432]}, "pwm_conv_kernel_0_image": {"_type": "images/separated", "width": 4, "height": 16, "format": "png", "count": 3, "filenames": ["media/images/pwm_conv_kernel_0_image_1_85f3ac3d3901ef7a9581.png", "media/images/pwm_conv_kernel_0_image_1_ff0166818b9ecb03dabe.png", "media/images/pwm_conv_kernel_0_image_1_5c3e85ae5e5c15d498f0.png"]}, "conv1d/kernel_0/histogram": {"_type": "histogram", "values": [1.0, 4.0, 13.0, 104.0, 1333.0, 2867.0, 3206.0, 3199.0, 3252.0, 3161.0, 3270.0, 3222.0, 3268.0, 3069.0, 3301.0, 3435.0, 3281.0, 3231.0, 3092.0, 2836.0, 1647.0, 72.0, 10.0, 4.0, 0.0, 1.0, 0.0, 0.0, 0.0, 1.0], "bins": [-0.11969443410634995, -0.11015361323952674, -0.10061279237270356, -0.09107197150588035, -0.08153115063905716, -0.07199032977223396, -0.06244950890541076, -0.05290868803858757, -0.04336786717176437, -0.03382704630494117, -0.02428622543811798, -0.014745404571294779, -0.005204583704471577, 0.004336237162351611, 0.0138770580291748, 0.023417878895998, 0.0329586997628212, 0.042499520629644405, 0.05204034149646761, 0.06158116236329078, 0.07112198323011398, 0.08066280409693719, 0.09020362496376039, 0.09974444583058359, 0.10928526669740679, 0.11882608756422997, 0.12836690843105317, 0.13790772929787637, 0.14744855016469954, 0.15698937103152277, 0.16653019189834595]}, "conv1d_kernel_0_image": {"_type": "images/separated", "width": 265, "height": 3, "format": "png", "count": 3, "filenames": ["media/images/conv1d_kernel_0_image_1_97a59741250dd3f25faf.png", "media/images/conv1d_kernel_0_image_1_8599eddf550c53ce464c.png", "media/images/conv1d_kernel_0_image_1_98e568f50b5b1428db17.png"]}, "conv1d/bias_0/histogram": {"_type": "histogram", "values": [28.0, 1.0, 0.0, 0.0, 0.0, 0.0, 0.0, 0.0, 0.0, 0.0, 0.0, 0.0, 0.0, 0.0, 3.0, 0.0, 0.0, 0.0, 0.0, 0.0, 0.0, 0.0, 0.0, 0.0, 0.0, 0.0, 0.0, 0.0, 0.0, 32.0], "bins": [-0.0057948678731918335, -0.005404443092023333, -0.005014018310854833, -0.004623593529686332, -0.004233168748517831, -0.0038427439673493304, -0.00345231918618083, -0.003061894405012329, -0.0026714696238438287, -0.0022810448426753283, -0.0018906200615068274, -0.0015001952803383265, -0.0011097704991698265, -0.0007193457180013256, -0.00032892093683282476, 6.150384433567524e-05, 0.0004519286255041761, 0.000842353406672677, 0.001232778187841177, 0.0016232029690096779, 0.0020136277501781787, 0.0024040525313466787, 0.0027944773125151805, 0.0031849020936836805, 0.0035753268748521805, 0.003965751656020682, 0.004356176437189182, 0.004746601218357682, 0.005137025999526184, 0.005527450780694684, 0.005917875561863184]}, "conv1d_bias_0_image": {"_type": "images/separated", "width": 1, "height": 64, "format": "png", "count": 1, "filenames": ["media/images/conv1d_bias_0_image_1_1a58771c3f3fadb689a1.png"]}, "dense/kernel_0/histogram": {"_type": "histogram", "values": [1.0, 0.0, 0.0, 0.0, 0.0, 1.0, 0.0, 0.0, 3.0, 5.0, 10.0, 3.0, 3.0, 3.0, 12.0, 6.0, 9.0, 5.0, 3.0, 4.0, 6.0, 9.0, 4.0, 8.0, 12.0, 7.0, 5.0, 4.0, 2.0, 3.0], "bins": [-0.519069254398346, -0.4910145749648412, -0.4629598955313365, -0.4349052160978317, -0.40685053666432697, -0.3787958572308222, -0.3507411777973175, -0.32268649836381275, -0.294631818930308, -0.2665771394968033, -0.23852246006329852, -0.21046778062979377, -0.18241310119628906, -0.1543584217627843, -0.12630374232927954, -0.09824906289577484, -0.07019438346227008, -0.042139704028765324, -0.01408502459526062, 0.013969654838244194, 0.0420243342717489, 0.0700790137052536, 0.09813369313875842, 0.12618837257226312, 0.15424305200576782, 0.18229773143927264, 0.21035241087277734, 0.23840709030628204, 0.26646176973978686, 0.29451644917329156, 0.32257112860679626]}, "dense_kernel_0_image": {"_type": "images/separated", "width": 64, "height": 2, "format": "png", "count": 1, "filenames": ["media/images/dense_kernel_0_image_1_60dd1a3f283b94065afa.png"]}, "dense/bias_0/histogram": {"_type": "histogram", "values": [1.0, 0.0, 0.0, 0.0, 0.0, 0.0, 0.0, 0.0, 0.0, 0.0, 0.0, 0.0, 0.0, 0.0, 0.0, 0.0, 0.0, 0.0, 0.0, 0.0, 0.0, 0.0, 0.0, 0.0, 0.0, 0.0, 0.0, 0.0, 0.0, 1.0], "bins": [-0.011307122185826302, -0.01112301335670054, -0.010938904527574778, -0.010754795698449015, -0.010570686869323253, -0.010386578040197492, -0.01020246921107173, -0.010018360381945968, -0.009834251552820205, -0.009650142723694443, -0.009466033894568682, -0.00928192506544292, -0.009097816236317158, -0.008913707407191395, -0.008729598578065633, -0.008545489748939872, -0.00836138091981411, -0.008177272090688349, -0.007993163261562585, -0.0078090544324368235, -0.007624945603311062, -0.0074408367741853, -0.007256727945059538, -0.007072619115933776, -0.006888510286808014, -0.006704401457682252, -0.006520292628556489, -0.006336183799430728, -0.006152074970304966, -0.005967966141179204, -0.005783857312053442]}, "dense_bias_0_image": {"_type": "images/separated", "width": 1, "height": 2, "format": "png", "count": 1, "filenames": ["media/images/dense_bias_0_image_1_8d994cf362504173484c.png"]}, "dense_1/kernel_0/histogram": {"_type": "histogram", "values": [10.0, 15.0, 17.0, 18.0, 19.0, 12.0, 10.0, 15.0, 14.0, 23.0, 16.0, 16.0, 24.0, 26.0, 26.0, 18.0, 12.0, 15.0, 11.0, 17.0, 12.0, 13.0, 19.0, 15.0, 23.0, 32.0, 21.0, 17.0, 9.0, 5.0], "bins": [-0.0939926952123642, -0.08776072065035502, -0.08152874608834584, -0.07529677152633667, -0.06906479696432749, -0.06283282240231831, -0.056600847840309144, -0.05036887327829997, -0.04413689871629079, -0.037904924154281615, -0.03167294959227244, -0.02544097503026327, -0.019209000468254092, -0.012977025906244916, -0.006745051344235739, -0.0005130767822265625, 0.005718897779782614, 0.01195087234179179, 0.018182846903800967, 0.024414821465810144, 0.03064679602781932, 0.0368787705898285, 0.04311074515183766, 0.04934271971384685, 0.05557469427585601, 0.0618066688378652, 0.06803864339987437, 0.07427061796188356, 0.08050259252389272, 0.08673456708590191, 0.09296654164791107]}, "dense_1_kernel_0_image": {"_type": "images/separated", "width": 1, "height": 500, "format": "png", "count": 1, "filenames": ["media/images/dense_1_kernel_0_image_1_185bcf00d7db00d98bb3.png"]}, "dense_1/bias_0/histogram": {"_type": "histogram", "values": [2.0, 0.0, 0.0, 1.0, 1.0, 11.0, 22.0, 17.0, 24.0, 20.0, 19.0, 15.0, 29.0, 21.0, 17.0, 14.0, 17.0, 19.0, 18.0, 18.0, 29.0, 19.0, 26.0, 23.0, 25.0, 25.0, 34.0, 21.0, 10.0, 3.0], "bins": [-2.012401819229126, -1.9301361004511515, -1.847870381673177, -1.7656046628952027, -1.6833389441172282, -1.6010732253392537, -1.5188075065612794, -1.4365417877833049, -1.3542760690053304, -1.2720103502273559, -1.1897446314493814, -1.107478912671407, -1.0252131938934326, -0.9429474751154581, -0.8606817563374838, -0.7784160375595093, -0.6961503187815348, -0.6138846000035603, -0.5316188812255858, -0.4493531624476115, -0.36708744366963697, -0.28482172489166246, -0.20255600611368818, -0.12029028733571367, -0.03802456855773917, 0.04424115022023534, 0.12650686899820984, 0.20877258777618435, 0.2910383065541584, 0.3733040253321329, 0.4555697441101074]}, "dense_1_bias_0_image": {"_type": "images/separated", "width": 1, "height": 500, "format": "png", "count": 1, "filenames": ["media/images/dense_1_bias_0_image_1_123ac45c648e9e1f7699.png"]}, "conv1d_transpose/kernel_0/histogram": {"_type": "histogram", "values": [1.0, 0.0, 0.0, 1.0, 0.0, 0.0, 0.0, 2.0, 1.0, 0.0, 6.0, 27.0, 43.0, 67.0, 67.0, 63.0, 78.0, 63.0, 80.0, 65.0, 71.0, 60.0, 61.0, 6.0, 2.0, 2.0, 0.0, 0.0, 1.0, 1.0], "bins": [-0.5027158260345459, -0.4738537122805913, -0.4449915985266368, -0.4161294847726822, -0.3872673710187276, -0.358405257264773, -0.3295431435108185, -0.3006810297568639, -0.2718189160029093, -0.24295680224895477, -0.21409468849500018, -0.1852325747410456, -0.15637046098709106, -0.12750834723313648, -0.09864623347918189, -0.06978411972522736, -0.04092200597127277, -0.01205989221731818, 0.016802221536636353, 0.045664335290590996, 0.07452644904454553, 0.10338856279850006, 0.1322506765524547, 0.16111279030640924, 0.18997490406036377, 0.2188370178143184, 0.24769913156827295, 0.2765612453222275, 0.3054233590761821, 0.33428547283013665, 0.3631475865840912]}, "conv1d_transpose_kernel_0_image": {"_type": "images/separated", "width": 64, "height": 3, "format": "png", "count": 3, "filenames": ["media/images/conv1d_transpose_kernel_0_image_1_0a761193b61f596a6b45.png", "media/images/conv1d_transpose_kernel_0_image_1_ab221e9556cc3ed60251.png", "media/images/conv1d_transpose_kernel_0_image_1_ead6a1815d418628fc4e.png"]}, "conv1d_transpose/bias_0/histogram": {"_type": "histogram", "values": [1.0, 1.0, 1.0, 2.0, 1.0, 1.0, 0.0, 1.0, 2.0, 1.0, 2.0, 3.0, 2.0, 1.0, 2.0, 2.0, 1.0, 1.0, 3.0, 16.0, 6.0, 2.0, 4.0, 1.0, 1.0, 2.0, 1.0, 0.0, 2.0, 1.0], "bins": [-0.7015872597694397, -0.66617531478405, -0.6307633697986603, -0.5953514248132705, -0.5599394798278808, -0.5245275348424911, -0.48911558985710146, -0.4537036448717118, -0.41829169988632203, -0.38287975490093235, -0.3474678099155426, -0.3120558649301529, -0.27664391994476323, -0.24123197495937349, -0.2058200299739838, -0.17040808498859406, -0.13499614000320437, -0.09958419501781468, -0.064172250032425, -0.028760305047035195, 0.006651639938354492, 0.04206358492374418, 0.07747552990913387, 0.11288747489452355, 0.14829941987991324, 0.18371136486530304, 0.21912330985069273, 0.2545352548360824, 0.2899471998214721, 0.3253591448068618, 0.3607710897922516]}, "conv1d_transpose_bias_0_image": {"_type": "images/separated", "width": 1, "height": 64, "format": "png", "count": 1, "filenames": ["media/images/conv1d_transpose_bias_0_image_1_066f8d4393a28f720098.png"]}, "conv1d_transpose_1/kernel_0/histogram": {"_type": "histogram", "values": [1.0, 2.0, 0.0, 1.0, 0.0, 4.0, 7.0, 7.0, 8.0, 14.0, 24.0, 305.0, 786.0, 832.0, 847.0, 892.0, 939.0, 821.0, 542.0, 49.0, 21.0, 14.0, 9.0, 7.0, 3.0, 1.0, 3.0, 1.0, 0.0, 4.0], "bins": [-0.6052321195602417, -0.5653109351793925, -0.5253897507985433, -0.4854685664176941, -0.44554738203684485, -0.40562619765599567, -0.3657050132751465, -0.32578382889429724, -0.28586264451344806, -0.24594146013259888, -0.20602027575174964, -0.16609909137090045, -0.12617790699005127, -0.08625672260920203, -0.04633553822835279, -0.006414353847503662, 0.03350683053334558, 0.07342801491419482, 0.11334919929504395, 0.15327038367589318, 0.19319156805674242, 0.23311275243759155, 0.2730339368184408, 0.31295512119929003, 0.35287630558013916, 0.3927974899609884, 0.43271867434183764, 0.47263985872268677, 0.5125610431035361, 0.5524822274843852, 0.5924034118652344]}, "conv1d_transpose_1_kernel_0_image": {"_type": "images/separated", "width": 32, "height": 3, "format": "png", "count": 3, "filenames": ["media/images/conv1d_transpose_1_kernel_0_image_1_2baef49610be87d7b6c1.png", "media/images/conv1d_transpose_1_kernel_0_image_1_c8af76be7cebc1be16ef.png", "media/images/conv1d_transpose_1_kernel_0_image_1_8679b3e998e6815ac18e.png"]}, "conv1d_transpose_1/bias_0/histogram": {"_type": "histogram", "values": [1.0, 0.0, 1.0, 0.0, 2.0, 1.0, 1.0, 3.0, 0.0, 0.0, 0.0, 2.0, 2.0, 0.0, 1.0, 3.0, 1.0, 2.0, 0.0, 4.0, 2.0, 1.0, 0.0, 0.0, 1.0, 1.0, 2.0, 0.0, 0.0, 1.0], "bins": [-0.26371821761131287, -0.24543082515398662, -0.22714343269666037, -0.2088560402393341, -0.19056864778200786, -0.1722812553246816, -0.15399386286735534, -0.1357064704100291, -0.11741907795270284, -0.0991316854953766, -0.08084429303805035, -0.06255690058072408, -0.04426950812339783, -0.025982115666071587, -0.007694723208745313, 0.010592669248580933, 0.02888006170590718, 0.047167454163233424, 0.06545484662055967, 0.08374223907788592, 0.10202963153521216, 0.12031702399253846, 0.1386044164498647, 0.15689180890719095, 0.1751792013645172, 0.19346659382184345, 0.2117539862791697, 0.23004137873649594, 0.24832877119382224, 0.2666161636511485, 0.28490355610847473]}, "conv1d_transpose_1_bias_0_image": {"_type": "images/separated", "width": 1, "height": 32, "format": "png", "count": 1, "filenames": ["media/images/conv1d_transpose_1_bias_0_image_1_eeff78f1042ec003fdf0.png"]}, "conv1d_transpose_2/kernel_0/histogram": {"_type": "histogram", "values": [1.0, 0.0, 0.0, 0.0, 0.0, 1.0, 0.0, 0.0, 0.0, 1.0, 0.0, 13.0, 22.0, 19.0, 23.0, 21.0, 18.0, 33.0, 23.0, 25.0, 27.0, 30.0, 21.0, 19.0, 21.0, 19.0, 26.0, 15.0, 3.0, 3.0], "bins": [-0.5525647401809692, -0.5243731300036113, -0.49618151982625325, -0.46798990964889525, -0.43979829947153726, -0.4116066892941793, -0.38341507911682127, -0.3552234689394633, -0.3270318587621053, -0.29884024858474734, -0.27064863840738934, -0.24245702823003135, -0.21426541805267335, -0.18607380787531536, -0.15788219769795736, -0.12969058752059937, -0.10149897734324137, -0.07330736716588337, -0.045115756988525435, -0.016924146811167384, 0.011267463366190555, 0.039459073543548606, 0.06765068372090655, 0.0958422938982646, 0.12403390407562254, 0.1522255142529806, 0.18041712443033853, 0.20860873460769658, 0.23680034478505452, 0.26499195496241257, 0.2931835651397705]}, "conv1d_transpose_2_kernel_0_image": {"_type": "images/separated", "width": 4, "height": 3, "format": "png", "count": 3, "filenames": ["media/images/conv1d_transpose_2_kernel_0_image_1_ebfc5d40419e9cdb44a8.png", "media/images/conv1d_transpose_2_kernel_0_image_1_7bf776b77a59e93f5d70.png", "media/images/conv1d_transpose_2_kernel_0_image_1_0b1ba40f0622d7547936.png"]}, "conv1d_transpose_2/bias_0/histogram": {"_type": "histogram", "values": [1.0, 0.0, 0.0, 1.0, 0.0, 0.0, 0.0, 0.0, 0.0, 0.0, 0.0, 1.0, 0.0, 0.0, 0.0, 0.0, 0.0, 0.0, 0.0, 0.0, 0.0, 0.0, 0.0, 0.0, 0.0, 0.0, 0.0, 0.0, 0.0, 1.0], "bins": [-0.019571593031287193, -0.01695328125109275, -0.01433496947089831, -0.01171665769070387, -0.009098345910509427, -0.006480034130314985, -0.003861722350120545, -0.0012434105699261032, 0.0013749012102683388, 0.003993212990462781, 0.006611524770657223, 0.009229836550851665, 0.011848148331046103, 0.014466460111240545, 0.017084771891434987, 0.01970308367162943, 0.02232139545182387, 0.024939707232018313, 0.027558019012212755, 0.030176330792407197, 0.03279464257260164, 0.03541295435279608, 0.03803126613299052, 0.040649577913184964, 0.0432678896933794, 0.04588620147357385, 0.04850451325376828, 0.05112282503396273, 0.05374113681415717, 0.056359448594351616, 0.05897776037454605]}, "conv1d_transpose_2_bias_0_image": {"_type": "images/separated", "width": 1, "height": 4, "format": "png", "count": 1, "filenames": ["media/images/conv1d_transpose_2_bias_0_image_1_68cb973b3f5ca0e7dd87.png"]}, "_runtime": 166.06514596939087, "_step": 1}