{"global_step": 2, "_timestamp": 1688060029.971221, "epoch_loss": 1429.9791259765625, "epoch_lr": 0.0010000000474974513, "pwm_conv/kernel_0/histogram": {"_type": "histogram", "values": [2.0, 1.0, 1.0, 36.0, 514.0, 96.0, 17.0, 408.0, 346.0, 324.0, 313.0, 421.0, 388.0, 425.0, 352.0, 473.0, 480.0, 575.0, 533.0, 580.0, 697.0, 739.0, 702.0, 701.0, 3864.0, 703.0, 709.0, 566.0, 577.0, 1417.0], "bins": [-5.521356105804443, -5.291306344668071, -5.061256583531698, -4.831206822395325, -4.601157061258952, -4.3711073001225795, -4.141057538986206, -3.911007777849833, -3.6809580167134603, -3.4509082555770876, -3.220858494440715, -2.9908087333043416, -2.760758972167969, -2.530709211031596, -2.300659449895223, -2.07060968875885, -1.8405599276224773, -1.6105101664861046, -1.3804604053497318, -1.150410644213359, -0.9203608830769863, -0.6903111219406126, -0.46026136080423985, -0.23021159966786708, -0.00016183853149431826, 0.22988792260487845, 0.4599376837412512, 0.689987444877624, 0.9200372060139976, 1.1500869671503704, 1.3801367282867432]}, "pwm_conv_kernel_0_image": {"_type": "images/separated", "width": 4, "height": 16, "format": "png", "count": 3, "filenames": ["media/images/pwm_conv_kernel_0_image_2_85f3ac3d3901ef7a9581.png", "media/images/pwm_conv_kernel_0_image_2_ff0166818b9ecb03dabe.png", "media/images/pwm_conv_kernel_0_image_2_5c3e85ae5e5c15d498f0.png"]}, "conv1d/kernel_0/histogram": {"_type": "histogram", "values": [1.0, 0.0, 0.0, 0.0, 0.0, 0.0, 0.0, 0.0, 0.0, 0.0, 0.0, 0.0, 0.0, 0.0, 1.0, 0.0, 0.0, 0.0, 1.0, 2.0, 4.0, 8.0, 20.0, 72.0, 3619.0, 28196.0, 18887.0, 60.0, 6.0, 3.0], "bins": [-2.2979774475097656, -2.2089871297279995, -2.119996811946233, -2.0310064941644668, -1.9420161763827006, -1.8530258586009343, -1.764035540819168, -1.6750452230374018, -1.5860549052556356, -1.4970645874738693, -1.408074269692103, -1.3190839519103368, -1.2300936341285704, -1.1411033163468043, -1.052112998565038, -0.9631226807832718, -0.8741323630015054, -0.7851420452197391, -0.6961517274379729, -0.6071614096562066, -0.5181710918744404, -0.4291807740926741, -0.34019045631090794, -0.2512001385291418, -0.16220982074737522, -0.07321950296560908, 0.015770814816157053, 0.10476113259792363, 0.19375145037968977, 0.2827417681614559, 0.37173208594322205]}, "conv1d_kernel_0_image": {"_type": "images/separated", "width": 265, "height": 3, "format": "png", "count": 3, "filenames": ["media/images/conv1d_kernel_0_image_2_3a65f7079d36c0060c0e.png", "media/images/conv1d_kernel_0_image_2_246c67779368abbc372b.png", "media/images/conv1d_kernel_0_image_2_6b835769bf1aaf30c2ec.png"]}, "conv1d/bias_0/histogram": {"_type": "histogram", "values": [1.0, 2.0, 0.0, 0.0, 0.0, 0.0, 0.0, 17.0, 11.0, 2.0, 0.0, 0.0, 0.0, 3.0, 17.0, 7.0, 3.0, 0.0, 0.0, 0.0, 0.0, 0.0, 0.0, 0.0, 0.0, 0.0, 0.0, 0.0, 0.0, 1.0], "bins": [-0.03209105506539345, -0.028694347416361173, -0.0252976397673289, -0.02190093211829662, -0.01850422446926435, -0.015107516820232071, -0.011710809171199797, -0.008314101522167522, -0.004917393873135247, -0.0015206862241029726, 0.0018760214249293056, 0.005272729073961577, 0.008669436722993855, 0.012066144372026126, 0.015462852021058404, 0.018859559670090675, 0.022256267319122953, 0.02565297496815523, 0.029049682617187503, 0.032446390266219774, 0.03584309791525206, 0.03923980556428433, 0.0426365132133166, 0.04603322086234887, 0.04942992851138116, 0.05282663616041343, 0.0562233438094457, 0.059620051458477985, 0.06301675910751026, 0.06641346675654253, 0.0698101744055748]}, "conv1d_bias_0_image": {"_type": "images/separated", "width": 1, "height": 64, "format": "png", "count": 1, "filenames": ["media/images/conv1d_bias_0_image_2_7b624ceed909b6540287.png"]}, "dense/kernel_0/histogram": {"_type": "histogram", "values": [3.0, 2.0, 1.0, 4.0, 2.0, 3.0, 3.0, 1.0, 3.0, 6.0, 3.0, 7.0, 4.0, 28.0, 13.0, 4.0, 2.0, 3.0, 5.0, 2.0, 6.0, 5.0, 1.0, 2.0, 4.0, 4.0, 4.0, 2.0, 0.0, 1.0], "bins": [-0.2929525673389435, -0.2717283417781194, -0.25050411621729535, -0.22927989065647125, -0.20805566509564716, -0.1868314395348231, -0.16560721397399902, -0.14438298841317493, -0.12315876285235086, -0.1019345372915268, -0.0807103117307027, -0.05948608616987863, -0.038261860609054565, -0.01703763504823047, 0.004186590512593624, 0.025410816073417664, 0.04663504163424176, 0.06785926719506585, 0.08908349275588989, 0.11030771831671399, 0.13153194387753808, 0.15275616943836212, 0.17398039499918622, 0.1952046205600103, 0.21642884612083435, 0.2376530716816585, 0.25887729724248254, 0.2801015228033066, 0.30132574836413073, 0.32254997392495477, 0.3437741994857788]}, "dense_kernel_0_image": {"_type": "images/separated", "width": 64, "height": 2, "format": "png", "count": 1, "filenames": ["media/images/dense_kernel_0_image_2_fe7ab2150c2cdca5428b.png"]}, "dense/bias_0/histogram": {"_type": "histogram", "values": [1.0, 0.0, 0.0, 0.0, 0.0, 0.0, 0.0, 0.0, 0.0, 0.0, 0.0, 0.0, 0.0, 0.0, 0.0, 0.0, 0.0, 0.0, 0.0, 0.0, 0.0, 0.0, 0.0, 0.0, 0.0, 0.0, 0.0, 0.0, 0.0, 1.0], "bins": [-0.048465680330991745, -0.04742575039466222, -0.0463858204583327, -0.04534589052200318, -0.044305960585673654, -0.043266030649344124, -0.0422261007130146, -0.04118617077668508, -0.040146240840355556, -0.03910631090402603, -0.03806638096769651, -0.03702645103136698, -0.03598652109503746, -0.034946591158707935, -0.03390666122237841, -0.03286673128604889, -0.031826801349719366, -0.030786871413389844, -0.02974694147706032, -0.028707011540730795, -0.02766708160440127, -0.02662715166807175, -0.025587221731742223, -0.0245472917954127, -0.023507361859083177, -0.022467431922753654, -0.02142750198642413, -0.020387572050094605, -0.019347642113765082, -0.01830771217743556, -0.017267782241106033]}, "dense_bias_0_image": {"_type": "images/separated", "width": 1, "height": 2, "format": "png", "count": 1, "filenames": ["media/images/dense_bias_0_image_2_8d994cf362504173484c.png"]}, "dense_1/kernel_0/histogram": {"_type": "histogram", "values": [1.0, 0.0, 3.0, 4.0, 1.0, 6.0, 7.0, 11.0, 12.0, 23.0, 6.0, 17.0, 17.0, 13.0, 9.0, 16.0, 22.0, 11.0, 11.0, 6.0, 9.0, 5.0, 15.0, 51.0, 64.0, 63.0, 37.0, 47.0, 9.0, 4.0], "bins": [-0.37991470098495483, -0.364762669056654, -0.3496106371283531, -0.3344586052000523, -0.3193065732717514, -0.30415454134345055, -0.2890025094151497, -0.2738504774868488, -0.258698445558548, -0.24354641363024712, -0.22839438170194626, -0.2132423497736454, -0.19809031784534453, -0.18293828591704367, -0.16778625398874283, -0.15263422206044197, -0.1374821901321411, -0.12233015820384024, -0.10717812627553941, -0.09202609434723852, -0.07687406241893768, -0.06172203049063679, -0.04656999856233596, -0.03141796663403512, -0.01626593470573423, -0.0011139027774333954, 0.014038129150867495, 0.02919016107916833, 0.044342193007469166, 0.05949422493577006, 0.07464625686407089]}, "dense_1_kernel_0_image": {"_type": "images/separated", "width": 1, "height": 500, "format": "png", "count": 1, "filenames": ["media/images/dense_1_kernel_0_image_2_85fa44d0222b7ea97e86.png"]}, "dense_1/bias_0/histogram": {"_type": "histogram", "values": [4.0, 3.0, 7.0, 12.0, 9.0, 16.0, 12.0, 18.0, 15.0, 21.0, 26.0, 20.0, 28.0, 20.0, 19.0, 39.0, 20.0, 28.0, 41.0, 32.0, 44.0, 52.0, 7.0, 3.0, 0.0, 0.0, 1.0, 0.0, 0.0, 3.0], "bins": [-0.6260051131248474, -0.5888925780852635, -0.5517800430456797, -0.5146675080060958, -0.47755497296651206, -0.44044243792692817, -0.4033299028873443, -0.3662173678477605, -0.32910483280817665, -0.2919922977685928, -0.254879762729009, -0.21776722768942514, -0.18065469264984124, -0.1435421576102574, -0.10642962257067357, -0.06931708753108978, -0.03220455249150589, 0.004907982548078005, 0.04202051758766179, 0.07913305262724568, 0.11624558766682946, 0.15335812270641336, 0.19047065774599714, 0.22758319278558103, 0.26469572782516493, 0.3018082628647487, 0.3389207979043326, 0.3760333329439165, 0.4131458679835003, 0.45025840302308406, 0.48737093806266785]}, "dense_1_bias_0_image": {"_type": "images/separated", "width": 1, "height": 500, "format": "png", "count": 1, "filenames": ["media/images/dense_1_bias_0_image_2_972e3c0d05a20427366b.png"]}, "conv1d_transpose/kernel_0/histogram": {"_type": "histogram", "values": [2.0, 1.0, 2.0, 6.0, 7.0, 5.0, 12.0, 6.0, 20.0, 17.0, 27.0, 40.0, 34.0, 57.0, 52.0, 49.0, 62.0, 55.0, 64.0, 65.0, 60.0, 46.0, 41.0, 19.0, 10.0, 2.0, 2.0, 3.0, 1.0, 1.0], "bins": [-0.4668022096157074, -0.44063697159290316, -0.41447173357009887, -0.38830649554729463, -0.36214125752449033, -0.3359760195016861, -0.30981078147888186, -0.2836455434560776, -0.2574803054332733, -0.23131506741046906, -0.2051498293876648, -0.17898459136486056, -0.15281935334205632, -0.12665411531925203, -0.10048887729644779, -0.0743236392736435, -0.048158401250839256, -0.021993163228035018, 0.004172074794769276, 0.030337312817573514, 0.05650255084037781, 0.08266778886318205, 0.10883302688598628, 0.13499826490879052, 0.16116350293159476, 0.1873287409543991, 0.21349397897720335, 0.23965921700000758, 0.2658244550228118, 0.29198969304561606, 0.3181549310684204]}, "conv1d_transpose_kernel_0_image": {"_type": "images/separated", "width": 64, "height": 3, "format": "png", "count": 3, "filenames": ["media/images/conv1d_transpose_kernel_0_image_2_d970354aadcf0be74438.png", "media/images/conv1d_transpose_kernel_0_image_2_ef4597ac51d859cea127.png", "media/images/conv1d_transpose_kernel_0_image_2_73b7b96ba8ba4660a498.png"]}, "conv1d_transpose/bias_0/histogram": {"_type": "histogram", "values": [1.0, 0.0, 0.0, 0.0, 0.0, 1.0, 1.0, 1.0, 1.0, 1.0, 5.0, 3.0, 4.0, 7.0, 1.0, 2.0, 9.0, 4.0, 7.0, 1.0, 6.0, 1.0, 1.0, 0.0, 3.0, 1.0, 0.0, 1.0, 0.0, 2.0], "bins": [-0.24042697250843048, -0.22714176426331203, -0.21385655601819356, -0.20057134777307511, -0.18728613952795664, -0.1740009312828382, -0.16071572303771975, -0.14743051479260127, -0.1341453065474828, -0.12086009830236435, -0.10757489005724591, -0.09428968181212743, -0.08100447356700899, -0.06771926532189051, -0.05443405707677207, -0.041148848831653595, -0.02786364058653515, -0.014578432341416703, -0.0012932240962982289, 0.011991984148820245, 0.025277192393938663, 0.03856240063905714, 0.05184760888417561, 0.06513281712929408, 0.0784180253744125, 0.09170323361953098, 0.10498844186464945, 0.11827365010976787, 0.13155885835488634, 0.14484406660000482, 0.1581292748451233]}, "conv1d_transpose_bias_0_image": {"_type": "images/separated", "width": 1, "height": 64, "format": "png", "count": 1, "filenames": ["media/images/conv1d_transpose_bias_0_image_2_74785369434590d91106.png"]}, "conv1d_transpose_1/kernel_0/histogram": {"_type": "histogram", "values": [1.0, 0.0, 0.0, 0.0, 0.0, 1.0, 0.0, 0.0, 2.0, 1.0, 3.0, 5.0, 14.0, 22.0, 69.0, 219.0, 637.0, 839.0, 936.0, 893.0, 913.0, 853.0, 562.0, 113.0, 28.0, 12.0, 9.0, 4.0, 4.0, 4.0], "bins": [-0.836483895778656, -0.7943227390448252, -0.7521615823109945, -0.7100004255771637, -0.6678392688433329, -0.6256781121095021, -0.5835169553756714, -0.5413557986418406, -0.49919464190800983, -0.4570334851741791, -0.41487232844034827, -0.3727111717065175, -0.33055001497268677, -0.28838885823885596, -0.24622770150502515, -0.20406654477119446, -0.16190538803736365, -0.11974423130353284, -0.07758307456970215, -0.03542191783587134, 0.006739238897959465, 0.04890039563179016, 0.09106155236562097, 0.13322270909945177, 0.17538386583328247, 0.2175450225671134, 0.2597061793009441, 0.3018673360347748, 0.3440284927686057, 0.3861896495024364, 0.4283508062362671]}, "conv1d_transpose_1_kernel_0_image": {"_type": "images/separated", "width": 32, "height": 3, "format": "png", "count": 3, "filenames": ["media/images/conv1d_transpose_1_kernel_0_image_2_f0c4c58a44934e7b775d.png", "media/images/conv1d_transpose_1_kernel_0_image_2_687584a0aa966c826d9a.png", "media/images/conv1d_transpose_1_kernel_0_image_2_7d5fa2ed000b7f602ab2.png"]}, "conv1d_transpose_1/bias_0/histogram": {"_type": "histogram", "values": [2.0, 0.0, 0.0, 0.0, 0.0, 1.0, 0.0, 0.0, 1.0, 2.0, 1.0, 2.0, 4.0, 3.0, 3.0, 2.0, 2.0, 0.0, 0.0, 2.0, 2.0, 0.0, 0.0, 3.0, 1.0, 0.0, 0.0, 0.0, 0.0, 1.0], "bins": [-0.1862230747938156, -0.1769583523273468, -0.167693629860878, -0.15842890739440918, -0.14916418492794037, -0.13989946246147156, -0.13063473999500275, -0.12137001752853394, -0.11210529506206512, -0.10284057259559631, -0.0935758501291275, -0.08431112766265869, -0.07504640519618988, -0.06578168272972107, -0.05651696026325226, -0.04725223779678345, -0.037987515330314636, -0.028722792863845825, -0.019458070397377014, -0.010193347930908203, -0.0009286254644393921, 0.008336097002029419, 0.01760081946849823, 0.02686554193496704, 0.03613026440143585, 0.04539498686790466, 0.054659709334373474, 0.06392443180084229, 0.0731891542673111, 0.08245387673377991, 0.09171859920024872]}, "conv1d_transpose_1_bias_0_image": {"_type": "images/separated", "width": 1, "height": 32, "format": "png", "count": 1, "filenames": ["media/images/conv1d_transpose_1_bias_0_image_2_8d833636ac706199b248.png"]}, "conv1d_transpose_2/kernel_0/histogram": {"_type": "histogram", "values": [1.0, 0.0, 0.0, 0.0, 0.0, 1.0, 2.0, 3.0, 8.0, 16.0, 15.0, 15.0, 20.0, 17.0, 21.0, 26.0, 29.0, 19.0, 25.0, 33.0, 20.0, 11.0, 16.0, 19.0, 23.0, 13.0, 12.0, 11.0, 4.0, 4.0], "bins": [-0.4038757085800171, -0.381597434480985, -0.35931916038195294, -0.33704088628292084, -0.31476261218388873, -0.29248433808485663, -0.2702060639858246, -0.24792778988679248, -0.2256495157877604, -0.20337124168872833, -0.18109296758969623, -0.15881469349066415, -0.13653641939163208, -0.11425814529259998, -0.09197987119356787, -0.06970159709453583, -0.047423322995503725, -0.025145048896471622, -0.002866774797439575, 0.019411499301592527, 0.04168977340062463, 0.06396804749965668, 0.08624632159868878, 0.10852459569772088, 0.13080286979675293, 0.1530811438957851, 0.17535941799481713, 0.19763769209384918, 0.21991596619288134, 0.2421942402919134, 0.26447251439094543]}, "conv1d_transpose_2_kernel_0_image": {"_type": "images/separated", "width": 4, "height": 3, "format": "png", "count": 3, "filenames": ["media/images/conv1d_transpose_2_kernel_0_image_2_fd419350c7e76bf604c1.png", "media/images/conv1d_transpose_2_kernel_0_image_2_1af7547d34ff3faa00ca.png", "media/images/conv1d_transpose_2_kernel_0_image_2_d9c257f1ad1bd7484e10.png"]}, "conv1d_transpose_2/bias_0/histogram": {"_type": "histogram", "values": [2.0, 0.0, 0.0, 0.0, 0.0, 0.0, 0.0, 0.0, 0.0, 0.0, 0.0, 0.0, 0.0, 0.0, 0.0, 0.0, 0.0, 0.0, 0.0, 0.0, 0.0, 0.0, 0.0, 0.0, 0.0, 0.0, 0.0, 0.0, 0.0, 2.0], "bins": [-0.12459705024957657, -0.11589639360706011, -0.10719573696454365, -0.09849508032202721, -0.08979442367951075, -0.0810937670369943, -0.07239311039447785, -0.06369245375196139, -0.054991797109444934, -0.046291140466928477, -0.03759048382441202, -0.028889827181895575, -0.020189170539379117, -0.01148851389686266, -0.0027878572543462155, 0.005912799388170242, 0.0146134560306867, 0.023314112673203158, 0.032014769315719616, 0.04071542595823607, 0.04941608260075253, 0.05811673924326896, 0.06681739588578542, 0.07551805252830188, 0.08421870917081833, 0.09291936581333479, 0.10162002245585125, 0.11032067909836771, 0.11902133574088414, 0.1277219923834006, 0.13642264902591705]}, "conv1d_transpose_2_bias_0_image": {"_type": "images/separated", "width": 1, "height": 4, "format": "png", "count": 1, "filenames": ["media/images/conv1d_transpose_2_bias_0_image_2_418689be7c86221a20ed.png"]}, "_runtime": 238.57106590270996, "_step": 2}