{"global_step": 32, "_timestamp": 1688088172.728921, "epoch_loss": 1.3862156867980957, "epoch_lr": 9.99999883788405e-06, "pwm_conv/kernel_0/histogram": {"_type": "histogram", "values": [2.0, 1.0, 1.0, 36.0, 514.0, 96.0, 17.0, 408.0, 346.0, 324.0, 313.0, 421.0, 388.0, 425.0, 352.0, 473.0, 480.0, 575.0, 533.0, 580.0, 697.0, 739.0, 702.0, 701.0, 3864.0, 703.0, 709.0, 566.0, 577.0, 1417.0], "bins": [-5.521356105804443, -5.291306344668071, -5.061256583531698, -4.831206822395325, -4.601157061258952, -4.3711073001225795, -4.141057538986206, -3.911007777849833, -3.6809580167134603, -3.4509082555770876, -3.220858494440715, -2.9908087333043416, -2.760758972167969, -2.530709211031596, -2.300659449895223, -2.07060968875885, -1.8405599276224773, -1.6105101664861046, -1.3804604053497318, -1.150410644213359, -0.9203608830769863, -0.6903111219406126, -0.46026136080423985, -0.23021159966786708, -0.00016183853149431826, 0.22988792260487845, 0.4599376837412512, 0.689987444877624, 0.9200372060139976, 1.1500869671503704, 1.3801367282867432]}, "pwm_conv_kernel_0_image": {"_type": "images/separated", "width": 4, "height": 16, "format": "png", "count": 3, "filenames": ["media/images/pwm_conv_kernel_0_image_32_85f3ac3d3901ef7a9581.png", "media/images/pwm_conv_kernel_0_image_32_ff0166818b9ecb03dabe.png", "media/images/pwm_conv_kernel_0_image_32_5c3e85ae5e5c15d498f0.png"]}, "conv1d/kernel_0/histogram": {"_type": "histogram", "values": [429.0, 1052.0, 1766.0, 1755.0, 1795.0, 1697.0, 1777.0, 1828.0, 1742.0, 1778.0, 1762.0, 1793.0, 1774.0, 1807.0, 3372.0, 1728.0, 1677.0, 1772.0, 1734.0, 1802.0, 1764.0, 1665.0, 1691.0, 1728.0, 1788.0, 1718.0, 1743.0, 1701.0, 1351.0, 891.0], "bins": [-0.07718014717102051, -0.07167676364382108, -0.06617338011662166, -0.06066999658942222, -0.0551666130622228, -0.049663229535023376, -0.044159846007823945, -0.038656462480624515, -0.03315307895342509, -0.027649695426225668, -0.022146311899026237, -0.016642928371826807, -0.011139544844627383, -0.0056361613174279596, -0.0001327777902285221, 0.0053706057369709015, 0.010873989264170325, 0.01637737279136975, 0.021880756318569172, 0.02738413984576861, 0.03288752337296803, 0.03839090690016746, 0.043894290427366894, 0.04939767395456632, 0.05490105748176574, 0.060404441008965165, 0.06590782453616459, 0.07141120806336401, 0.07691459159056346, 0.08241797511776289, 0.08792135864496231]}, "conv1d_kernel_0_image": {"_type": "images/separated", "width": 265, "height": 3, "format": "png", "count": 3, "filenames": ["media/images/conv1d_kernel_0_image_32_4d082ce0f08e735cc361.png", "media/images/conv1d_kernel_0_image_32_ea81f3212cca11f15d82.png", "media/images/conv1d_kernel_0_image_32_83ec110e15232e4b491d.png"]}, "conv1d/bias_0/histogram": {"_type": "histogram", "values": [33.0, 0.0, 1.0, 0.0, 0.0, 0.0, 0.0, 0.0, 1.0, 0.0, 0.0, 0.0, 1.0, 1.0, 1.0, 1.0, 2.0, 3.0, 2.0, 4.0, 0.0, 1.0, 3.0, 4.0, 1.0, 2.0, 0.0, 1.0, 0.0, 2.0], "bins": [-0.009999913163483143, -0.00966658272470037, -0.0093332522859176, -0.008999921847134829, -0.008666591408352057, -0.008333260969569286, -0.007999930530786514, -0.007666600092003743, -0.007333269653220972, -0.0069999392144382, -0.006666608775655429, -0.006333278336872658, -0.005999947898089886, -0.005666617459307115, -0.005333287020524343, -0.004999956581741571, -0.0046666261429588, -0.004333295704176029, -0.003999965265393257, -0.003666634826610486, -0.003333304387827715, -0.002999973949044943, -0.0026666435102621717, -0.0023333130714794006, -0.0019999826326966286, -0.0016666521939138583, -0.0013333217551310863, -0.0009999913163483143, -0.000666660877565544, -0.000333330438782772, 0.0]}, "conv1d_bias_0_image": {"_type": "images/separated", "width": 1, "height": 64, "format": "png", "count": 1, "filenames": ["media/images/conv1d_bias_0_image_32_bb73d8645203240d9bf5.png"]}, "dense/kernel_0/histogram": {"_type": "histogram", "values": [7.0, 4.0, 2.0, 2.0, 5.0, 3.0, 3.0, 9.0, 3.0, 5.0, 0.0, 3.0, 2.0, 5.0, 9.0, 7.0, 4.0, 5.0, 6.0, 4.0, 5.0, 5.0, 2.0, 8.0, 2.0, 2.0, 2.0, 5.0, 7.0, 2.0], "bins": [-0.2986547350883484, -0.2787958711385727, -0.258937007188797, -0.2390781432390213, -0.21921927928924562, -0.1993604153394699, -0.1795015513896942, -0.15964268743991852, -0.13978382349014282, -0.11992495954036711, -0.10006609559059143, -0.08020723164081572, -0.06034836769104002, -0.04048950374126431, -0.02063063979148866, -0.0007717758417129517, 0.019087088108062755, 0.03894595205783846, 0.05880481600761417, 0.07866367995738982, 0.09852254390716553, 0.11838140785694123, 0.13824027180671694, 0.15809913575649265, 0.17795799970626835, 0.197816863656044, 0.21767572760581977, 0.23753459155559542, 0.25739345550537107, 0.27725231945514683, 0.2971111834049225]}, "dense_kernel_0_image": {"_type": "images/separated", "width": 64, "height": 2, "format": "png", "count": 1, "filenames": ["media/images/dense_kernel_0_image_32_5cc851ca3427f86c8170.png"]}, "dense/bias_0/histogram": {"_type": "histogram", "values": [1.0, 0.0, 0.0, 0.0, 0.0, 0.0, 0.0, 0.0, 0.0, 0.0, 0.0, 0.0, 0.0, 0.0, 0.0, 0.0, 0.0, 0.0, 0.0, 0.0, 0.0, 0.0, 0.0, 0.0, 0.0, 0.0, 0.0, 0.0, 0.0, 1.0], "bins": [-6.366820161929354e-05, 3.2290898040325064e-05, 0.00012824999769994367, 0.00022420909735956226, 0.0003201681970191809, 0.0004161272966787995, 0.0005120863963384181, 0.0006080454959980367, 0.0007040045956576553, 0.0007999636953172739, 0.0008959227949768925, 0.0009918818946365112, 0.0010878409942961297, 0.0011838000939557484, 0.001279759193615367, 0.0013757182932749856, 0.0014716773929346041, 0.0015676364925942226, 0.0016635955922538414, 0.0017595546919134599, 0.0018555137915730786, 0.0019514728912326971, 0.002047431990892316, 0.0021433910905519346, 0.002239350190211553, 0.0023353092898711716, 0.0024312683895307903, 0.0025272274891904086, 0.0026231865888500273, 0.002719145688509646, 0.002815104788169265]}, "dense_bias_0_image": {"_type": "images/separated", "width": 1, "height": 2, "format": "png", "count": 1, "filenames": ["media/images/dense_bias_0_image_32_8d994cf362504173484c.png"]}, "dense_1/kernel_0/histogram": {"_type": "histogram", "values": [1.0, 2.0, 1.0, 4.0, 3.0, 2.0, 6.0, 8.0, 10.0, 12.0, 15.0, 18.0, 12.0, 11.0, 16.0, 13.0, 18.0, 16.0, 18.0, 16.0, 10.0, 11.0, 266.0, 6.0, 3.0, 0.0, 0.0, 0.0, 1.0, 1.0], "bins": [-0.00041954853804782033, -0.0004010272828357605, -0.0003825060276237006, -0.00036398477241164076, -0.00034546351719958086, -0.000326942261987521, -0.0003084210067754612, -0.0002898997515634013, -0.0002713784963513414, -0.00025285724113928155, -0.00023433598592722168, -0.00021581473071516182, -0.00019729347550310198, -0.0001787722202910421, -0.00016025096507898224, -0.00014172970986692235, -0.0001232084546548625, -0.00010468719944280267, -8.616594423074277e-05, -6.764468901868293e-05, -4.912343380662304e-05, -3.06021785945632e-05, -1.2080923382503305e-05, 6.440331829556535e-06, 2.4961587041616375e-05, 4.348284225367627e-05, 6.200409746573611e-05, 8.052535267779595e-05, 9.904660788985584e-05, 0.00011756786310191574, 0.00013608911831397563]}, "dense_1_kernel_0_image": {"_type": "images/separated", "width": 1, "height": 500, "format": "png", "count": 1, "filenames": ["media/images/dense_1_kernel_0_image_32_5526b80dc252e6f13cc5.png"]}, "dense_1/bias_0/histogram": {"_type": "histogram", "values": [2.0, 0.0, 3.0, 0.0, 1.0, 5.0, 0.0, 4.0, 8.0, 4.0, 9.0, 12.0, 9.0, 17.0, 14.0, 12.0, 13.0, 18.0, 17.0, 16.0, 22.0, 18.0, 15.0, 270.0, 5.0, 4.0, 0.0, 0.0, 1.0, 1.0], "bins": [-7.833217750885524e-06, -7.506754764108337e-06, -7.180291777331149e-06, -6.853828790553962e-06, -6.527365803776774e-06, -6.200902816999587e-06, -5.8744398302224e-06, -5.547976843445213e-06, -5.2215138566680254e-06, -4.895050869890838e-06, -4.568587883113651e-06, -4.242124896336464e-06, -3.915661909559277e-06, -3.589198922782089e-06, -3.262735936004902e-06, -2.936272949227714e-06, -2.609809962450527e-06, -2.28334697567334e-06, -1.956883988896152e-06, -1.6304210021189652e-06, -1.3039580153417774e-06, -9.774950285645904e-07, -6.510320417874034e-07, -3.2456905501021555e-07, 1.8939317669705905e-09, 3.2835691854415927e-07, 6.548199053213463e-07, 9.812828920985332e-07, 1.3077458788757202e-06, 1.6342088656529072e-06, 1.960671852430096e-06]}, "dense_1_bias_0_image": {"_type": "images/separated", "width": 1, "height": 500, "format": "png", "count": 1, "filenames": ["media/images/dense_1_bias_0_image_32_5526b80dc252e6f13cc5.png"]}, "conv1d_transpose/kernel_0/histogram": {"_type": "histogram", "values": [2.0, 2.0, 2.0, 2.0, 5.0, 8.0, 11.0, 13.0, 19.0, 20.0, 25.0, 31.0, 40.0, 48.0, 81.0, 122.0, 168.0, 56.0, 38.0, 29.0, 14.0, 12.0, 7.0, 3.0, 5.0, 3.0, 0.0, 1.0, 0.0, 1.0], "bins": [-0.0005163805326446891, -0.00048420182041202984, -0.0004520231081793706, -0.0004198443959467113, -0.00038766568371405204, -0.0003554869714813928, -0.0003233082592487335, -0.00029112954701607425, -0.000258950834783415, -0.00022677212255075576, -0.00019459341031809651, -0.00016241469808543721, -0.00013023598585277797, -9.805727362011872e-05, -6.587856138745942e-05, -3.369984915480018e-05, -1.5211369221409306e-06, 3.0657575310518315e-05, 6.283628754317756e-05, 9.501499977583681e-05, 0.00012719371200849605, 0.0001593724242411554, 0.00019155113647381465, 0.0002237298487064739, 0.00025590856093913315, 0.0002880872731717924, 0.00032026598540445164, 0.0003524446976371109, 0.00038462340986977024, 0.0004168021221024295, 0.00044898083433508873]}, "conv1d_transpose_kernel_0_image": {"_type": "images/separated", "width": 64, "height": 3, "format": "png", "count": 3, "filenames": ["media/images/conv1d_transpose_kernel_0_image_32_b1b9b4f003c95d302bbe.png", "media/images/conv1d_transpose_kernel_0_image_32_b1b9b4f003c95d302bbe.png", "media/images/conv1d_transpose_kernel_0_image_32_b1b9b4f003c95d302bbe.png"]}, "conv1d_transpose/bias_0/histogram": {"_type": "histogram", "values": [1.0, 0.0, 1.0, 0.0, 0.0, 1.0, 1.0, 2.0, 0.0, 1.0, 1.0, 1.0, 0.0, 4.0, 0.0, 2.0, 0.0, 7.0, 5.0, 5.0, 10.0, 5.0, 4.0, 4.0, 1.0, 1.0, 3.0, 1.0, 2.0, 1.0], "bins": [-0.00036646390799432993, -0.0003489660244667903, -0.0003314681409392506, -0.00031397025741171093, -0.0002964723738841712, -0.0002789744903566316, -0.00026147660682909193, -0.00024397872330155225, -0.00022648083977401258, -0.0002089829562464729, -0.00019148507271893322, -0.00017398718919139358, -0.0001564893056638539, -0.00013899142213631422, -0.00012149353860877458, -0.00010399565508123487, -8.649777155369522e-05, -6.899988802615557e-05, -5.150200449861587e-05, -3.400412097107622e-05, -1.650623744353652e-05, 9.916460840031288e-07, 1.8489529611542778e-05, 3.598741313908248e-05, 5.348529666662213e-05, 7.098318019416178e-05, 8.848106372170148e-05, 0.00010597894724924113, 0.00012347683077678078, 0.00014097471430432043, 0.00015847259783186018]}, "conv1d_transpose_bias_0_image": {"_type": "images/separated", "width": 1, "height": 64, "format": "png", "count": 1, "filenames": ["media/images/conv1d_transpose_bias_0_image_32_bb73d8645203240d9bf5.png"]}, "conv1d_transpose_1/kernel_0/histogram": {"_type": "histogram", "values": [1.0, 0.0, 0.0, 0.0, 0.0, 2.0, 4.0, 8.0, 10.0, 23.0, 41.0, 79.0, 172.0, 361.0, 769.0, 3767.0, 622.0, 159.0, 49.0, 34.0, 20.0, 8.0, 1.0, 3.0, 4.0, 3.0, 1.0, 1.0, 1.0, 1.0], "bins": [-0.0009617430041544139, -0.0009007689252030105, -0.0008397948462516069, -0.0007788207673002035, -0.0007178466883487999, -0.0006568726093973964, -0.000595898530445993, -0.0005349244514945895, -0.00047395037254318597, -0.0004129762935917825, -0.00035200221464037895, -0.0002910281356889755, -0.00023005405673757204, -0.00016907997778616848, -0.00010810589883476502, -4.713181988336146e-05, 1.3842259068041997e-05, 7.481633801944545e-05, 0.0001357904169708489, 0.00019676449592225258, 0.00025773857487365603, 0.0003187126538250595, 0.00037968673277646295, 0.0004406608117278664, 0.0005016348906792699, 0.0005626089696306735, 0.000623583048582077, 0.0006845571275334804, 0.0007455312064848839, 0.0008065052854362873, 0.000867479364387691]}, "conv1d_transpose_1_kernel_0_image": {"_type": "images/separated", "width": 32, "height": 3, "format": "png", "count": 3, "filenames": ["media/images/conv1d_transpose_1_kernel_0_image_32_2347627157f53da5ad5e.png", "media/images/conv1d_transpose_1_kernel_0_image_32_2347627157f53da5ad5e.png", "media/images/conv1d_transpose_1_kernel_0_image_32_2347627157f53da5ad5e.png"]}, "conv1d_transpose_1/bias_0/histogram": {"_type": "histogram", "values": [1.0, 0.0, 0.0, 0.0, 3.0, 2.0, 0.0, 2.0, 0.0, 1.0, 2.0, 3.0, 2.0, 3.0, 0.0, 9.0, 0.0, 0.0, 0.0, 0.0, 1.0, 0.0, 1.0, 0.0, 0.0, 0.0, 0.0, 0.0, 0.0, 2.0], "bins": [-0.0008422722457908094, -0.0007892447193929305, -0.0007362171929950515, -0.0006831896665971726, -0.0006301621401992937, -0.0005771346138014148, -0.0005241070874035358, -0.0004710795610056569, -0.000418052034607778, -0.00036502450820989906, -0.0003119969818120202, -0.00025896945541414125, -0.00020594192901626231, -0.00015291440261838338, -9.988687622050445e-05, -4.685934982262552e-05, 6.168176575253414e-06, 5.919570297313235e-05, 0.00011222322937101128, 0.0001652507557688902, 0.00021827828216676903, 0.0002713058085646481, 0.0003243333349625269, 0.00037736086136040594, 0.00043038838775828476, 0.0004834159141561638, 0.0005364434405540426, 0.0005894709669519217, 0.0006424984933498005, 0.0006955260197476795, 0.0007485535461455584]}, "conv1d_transpose_1_bias_0_image": {"_type": "images/separated", "width": 1, "height": 32, "format": "png", "count": 1, "filenames": ["media/images/conv1d_transpose_1_bias_0_image_32_867170f26db453b27bf2.png"]}, "conv1d_transpose_2/kernel_0/histogram": {"_type": "histogram", "values": [1.0, 0.0, 0.0, 0.0, 0.0, 0.0, 0.0, 1.0, 1.0, 2.0, 3.0, 1.0, 3.0, 1.0, 7.0, 11.0, 19.0, 33.0, 44.0, 73.0, 69.0, 44.0, 25.0, 24.0, 10.0, 3.0, 4.0, 1.0, 1.0, 3.0], "bins": [-0.0020147154573351145, -0.001912175704880307, -0.0018096359524254998, -0.0017070961999706923, -0.001604556447515885, -0.0015020166950610776, -0.0013994769426062701, -0.001296937190151463, -0.0011943974376966556, -0.0010918576852418482, -0.0009893179327870407, -0.0008867781803322335, -0.000784238427877426, -0.0006816986754226188, -0.0005791589229678113, -0.00047661917051300406, -0.0003740794180581966, -0.00027153966560338914, -0.0001689999131485819, -6.646016069377443e-05, 3.607959176103303e-05, 0.00013861934421584027, 0.00024115909667064752, 0.00034369884912545477, 0.00044623860158026244, 0.0005487783540350697, 0.0006513181064898769, 0.0007538578589446846, 0.0008563976113994919, 0.0009589373638542991, 0.0010614771163091063]}, "conv1d_transpose_2_kernel_0_image": {"_type": "images/separated", "width": 4, "height": 3, "format": "png", "count": 3, "filenames": ["media/images/conv1d_transpose_2_kernel_0_image_32_9864fe5ac8f86a93618a.png", "media/images/conv1d_transpose_2_kernel_0_image_32_9864fe5ac8f86a93618a.png", "media/images/conv1d_transpose_2_kernel_0_image_32_9864fe5ac8f86a93618a.png"]}, "conv1d_transpose_2/bias_0/histogram": {"_type": "histogram", "values": [2.0, 0.0, 0.0, 0.0, 0.0, 0.0, 0.0, 0.0, 0.0, 0.0, 0.0, 0.0, 0.0, 0.0, 0.0, 0.0, 0.0, 0.0, 0.0, 0.0, 0.0, 0.0, 0.0, 0.0, 0.0, 0.0, 0.0, 0.0, 0.0, 2.0], "bins": [-0.13026995956897736, -0.12163092990716298, -0.11299190024534861, -0.10435287058353424, -0.09571384092171986, -0.08707481125990549, -0.07843578159809113, -0.06979675193627675, -0.06115772227446238, -0.05251869261264801, -0.043879662950833634, -0.03524063328901926, -0.0266016036272049, -0.017962573965390527, -0.009323544303576153, -0.0006845146417617798, 0.007954515020052594, 0.016593544681866967, 0.02523257434368134, 0.033871604005495715, 0.04251063366731009, 0.05114966332912446, 0.059788692990938835, 0.06842772265275321, 0.07706675231456755, 0.08570578197638193, 0.0943448116381963, 0.10298384130001068, 0.11162287096182505, 0.12026190062363945, 0.1289009302854538]}, "conv1d_transpose_2_bias_0_image": {"_type": "images/separated", "width": 1, "height": 4, "format": "png", "count": 1, "filenames": ["media/images/conv1d_transpose_2_bias_0_image_32_ce832abb5908d4bc081a.png"]}, "_runtime": 4194.403441905975, "_step": 32, "_wandb": {"runtime": 4193}}