{"global_step": 10, "_timestamp": 1688065660.136931, "epoch_loss": 735801216.0, "epoch_lr": 1.0000000656873453e-05, "pwm_conv/kernel_0/histogram": {"_type": "histogram", "values": [2.0, 1.0, 1.0, 36.0, 514.0, 96.0, 17.0, 408.0, 346.0, 324.0, 313.0, 421.0, 388.0, 425.0, 352.0, 473.0, 480.0, 575.0, 533.0, 580.0, 697.0, 739.0, 702.0, 701.0, 3864.0, 703.0, 709.0, 566.0, 577.0, 1417.0], "bins": [-5.521356105804443, -5.291306344668071, -5.061256583531698, -4.831206822395325, -4.601157061258952, -4.3711073001225795, -4.141057538986206, -3.911007777849833, -3.6809580167134603, -3.4509082555770876, -3.220858494440715, -2.9908087333043416, -2.760758972167969, -2.530709211031596, -2.300659449895223, -2.07060968875885, -1.8405599276224773, -1.6105101664861046, -1.3804604053497318, -1.150410644213359, -0.9203608830769863, -0.6903111219406126, -0.46026136080423985, -0.23021159966786708, -0.00016183853149431826, 0.22988792260487845, 0.4599376837412512, 0.689987444877624, 0.9200372060139976, 1.1500869671503704, 1.3801367282867432]}, "pwm_conv_kernel_0_image": {"_type": "images/separated", "width": 4, "height": 16, "format": "png", "count": 3, "filenames": ["media/images/pwm_conv_kernel_0_image_10_85f3ac3d3901ef7a9581.png", "media/images/pwm_conv_kernel_0_image_10_ff0166818b9ecb03dabe.png", "media/images/pwm_conv_kernel_0_image_10_5c3e85ae5e5c15d498f0.png"]}, "conv1d/kernel_0/histogram": {"_type": "histogram", "values": [3.0, 0.0, 3.0, 1.0, 2.0, 0.0, 2.0, 1.0, 3.0, 1.0, 5.0, 12.0, 22.0, 690.0, 26194.0, 23252.0, 442.0, 99.0, 61.0, 32.0, 18.0, 14.0, 12.0, 5.0, 0.0, 2.0, 1.0, 1.0, 1.0, 1.0], "bins": [-1.5128440856933594, -1.4122123559316, -1.3115806261698406, -1.210948896408081, -1.1103171666463216, -1.0096854368845622, -0.9090537071228028, -0.8084219773610433, -0.7077902475992839, -0.6071585178375245, -0.5065267880757651, -0.4058950583140055, -0.30526332855224614, -0.20463159879048676, -0.10399986902872715, -0.0033681392669677734, 0.09726359049479161, 0.197895320256551, 0.29852705001831037, 0.39915877978006997, 0.49979050954182913, 0.600422239303589, 0.7010539690653483, 0.8016856988271077, 0.9023174285888671, 1.0029491583506265, 1.1035808881123859, 1.2042126178741452, 1.304844347635905, 1.4054760773976644, 1.5061078071594238]}, "conv1d_kernel_0_image": {"_type": "images/separated", "width": 265, "height": 3, "format": "png", "count": 3, "filenames": ["media/images/conv1d_kernel_0_image_10_bb29d6c0a92aa091371c.png", "media/images/conv1d_kernel_0_image_10_638f872dac32390a8512.png", "media/images/conv1d_kernel_0_image_10_e93470132c033cfa8d09.png"]}, "conv1d/bias_0/histogram": {"_type": "histogram", "values": [1.0, 0.0, 0.0, 0.0, 0.0, 0.0, 1.0, 24.0, 1.0, 6.0, 1.0, 1.0, 1.0, 3.0, 0.0, 0.0, 0.0, 0.0, 0.0, 3.0, 20.0, 0.0, 0.0, 0.0, 0.0, 0.0, 0.0, 0.0, 0.0, 2.0], "bins": [-0.02914428524672985, -0.026002997097869712, -0.022861708949009577, -0.019720420800149442, -0.016579132651289304, -0.013437844502429165, -0.01029655635356903, -0.007155268204708895, -0.0040139800558487565, -0.000872691906988618, 0.0022685962418715205, 0.005409884390731652, 0.00855117253959179, 0.01169246068845193, 0.01483374883731206, 0.0179750369861722, 0.021116325135032338, 0.024257613283892476, 0.027398901432752615, 0.030540189581612746, 0.03368147773047289, 0.036822765879333016, 0.039964054028193155, 0.043105342177053294, 0.04624663032591343, 0.04938791847477357, 0.05252920662363371, 0.05567049477249385, 0.05881178292135397, 0.06195307107021411, 0.06509435921907425]}, "conv1d_bias_0_image": {"_type": "images/separated", "width": 1, "height": 64, "format": "png", "count": 1, "filenames": ["media/images/conv1d_bias_0_image_10_10c2d16860736b50ea12.png"]}, "dense/kernel_0/histogram": {"_type": "histogram", "values": [4.0, 6.0, 4.0, 7.0, 2.0, 9.0, 5.0, 6.0, 14.0, 10.0, 8.0, 9.0, 7.0, 9.0, 4.0, 5.0, 4.0, 3.0, 3.0, 6.0, 0.0, 0.0, 1.0, 0.0, 0.0, 0.0, 1.0, 0.0, 0.0, 1.0], "bins": [-0.27934303879737854, -0.2517630308866501, -0.22418302297592163, -0.19660301506519318, -0.16902300715446472, -0.14144299924373627, -0.11386299133300781, -0.08628298342227936, -0.0587029755115509, -0.03112296760082245, -0.003542959690093994, 0.02403704822063446, 0.051617056131362915, 0.07919706404209137, 0.10677707195281982, 0.13435707986354828, 0.16193708777427673, 0.1895170956850052, 0.21709710359573364, 0.2446771115064621, 0.27225711941719055, 0.299837127327919, 0.32741713523864746, 0.3549971431493759, 0.38257715106010437, 0.4101571589708328, 0.4377371668815613, 0.46531717479228973, 0.4928971827030182, 0.5204771906137466, 0.5480571985244751]}, "dense_kernel_0_image": {"_type": "images/separated", "width": 64, "height": 2, "format": "png", "count": 1, "filenames": ["media/images/dense_kernel_0_image_10_3892c4619f8cc82f0fa0.png"]}, "dense/bias_0/histogram": {"_type": "histogram", "values": [1.0, 0.0, 0.0, 0.0, 0.0, 0.0, 0.0, 0.0, 0.0, 0.0, 0.0, 0.0, 0.0, 0.0, 0.0, 0.0, 0.0, 0.0, 0.0, 0.0, 0.0, 0.0, 0.0, 0.0, 0.0, 0.0, 0.0, 0.0, 0.0, 1.0], "bins": [-0.07969566434621811, -0.07821770012378693, -0.07673973590135574, -0.07526177167892456, -0.07378380745649338, -0.0723058432340622, -0.07082787901163101, -0.06934991478919983, -0.06787195056676865, -0.06639398634433746, -0.06491602212190628, -0.0634380578994751, -0.061960093677043915, -0.06048212945461273, -0.05900416523218155, -0.057526201009750366, -0.05604823678731918, -0.054570272564888, -0.05309230834245682, -0.051614344120025635, -0.05013637989759445, -0.04865841567516327, -0.047180451452732086, -0.0457024872303009, -0.04422452300786972, -0.04274655878543854, -0.041268594563007355, -0.03979063034057617, -0.03831266611814499, -0.036834701895713806, -0.03535673767328262]}, "dense_bias_0_image": {"_type": "images/separated", "width": 1, "height": 2, "format": "png", "count": 1, "filenames": ["media/images/dense_bias_0_image_10_8d994cf362504173484c.png"]}, "dense_1/kernel_0/histogram": {"_type": "histogram", "values": [3.0, 7.0, 12.0, 14.0, 14.0, 17.0, 16.0, 19.0, 19.0, 25.0, 19.0, 15.0, 22.0, 35.0, 49.0, 59.0, 34.0, 4.0, 7.0, 6.0, 6.0, 6.0, 11.0, 10.0, 20.0, 13.0, 15.0, 10.0, 7.0, 6.0], "bins": [-0.12438706308603287, -0.1156006949643294, -0.10681432684262593, -0.09802795872092247, -0.089241590599219, -0.08045522247751553, -0.07166885435581208, -0.06288248623410861, -0.05409611811240514, -0.04530974999070167, -0.0365233818689982, -0.027737013747294745, -0.018950645625591275, -0.010164277503887806, -0.0013779093821843502, 0.007408458739519119, 0.01619482686122259, 0.024981194982926058, 0.03376756310462953, 0.042553931226333, 0.05134029934803647, 0.06012666746973991, 0.06891303559144338, 0.07769940371314685, 0.08648577183485032, 0.09527213995655379, 0.10405850807825726, 0.11284487619996073, 0.12163124432166417, 0.13041761244336764, 0.1392039805650711]}, "dense_1_kernel_0_image": {"_type": "images/separated", "width": 1, "height": 500, "format": "png", "count": 1, "filenames": ["media/images/dense_1_kernel_0_image_10_8c5e9fe3b9573c80d41a.png"]}, "dense_1/bias_0/histogram": {"_type": "histogram", "values": [3.0, 1.0, 0.0, 2.0, 3.0, 5.0, 2.0, 21.0, 18.0, 24.0, 20.0, 29.0, 38.0, 37.0, 63.0, 57.0, 60.0, 38.0, 33.0, 24.0, 10.0, 6.0, 3.0, 1.0, 0.0, 1.0, 0.0, 0.0, 0.0, 1.0], "bins": [-0.48731404542922974, -0.45894906322161355, -0.43058408101399737, -0.40221909880638124, -0.37385411659876505, -0.34548913439114887, -0.31712415218353274, -0.28875916997591655, -0.26039418776830037, -0.23202920556068418, -0.203664223353068, -0.17529924114545187, -0.14693425893783568, -0.1185692767302195, -0.09020429452260337, -0.06183931231498718, -0.033474330107371, -0.0051093478997548125, 0.023255634307861373, 0.05162061651547756, 0.07998559872309374, 0.10835058093070982, 0.136715563138326, 0.1650805453459422, 0.19344552755355837, 0.22181050976117456, 0.25017549196879074, 0.2785404741764069, 0.306905456384023, 0.3352704385916392, 0.36363542079925537]}, "dense_1_bias_0_image": {"_type": "images/separated", "width": 1, "height": 500, "format": "png", "count": 1, "filenames": ["media/images/dense_1_bias_0_image_10_9bc8f149b9fbb4150329.png"]}, "conv1d_transpose/kernel_0/histogram": {"_type": "histogram", "values": [2.0, 1.0, 3.0, 3.0, 2.0, 2.0, 7.0, 11.0, 11.0, 20.0, 40.0, 54.0, 66.0, 55.0, 78.0, 77.0, 77.0, 63.0, 45.0, 60.0, 27.0, 18.0, 21.0, 10.0, 4.0, 6.0, 0.0, 0.0, 0.0, 5.0], "bins": [-0.44318887591362, -0.41607687473297117, -0.3889648735523224, -0.3618528723716736, -0.3347408711910248, -0.307628870010376, -0.28051686882972715, -0.2534048676490783, -0.22629286646842955, -0.19918086528778076, -0.17206886410713196, -0.14495686292648313, -0.1178448617458343, -0.09073286056518554, -0.06362085938453671, -0.03650885820388794, -0.009396857023239114, 0.017715144157409712, 0.04482714533805848, 0.07193914651870725, 0.09905114769935608, 0.1261631488800049, 0.15327515006065373, 0.18038715124130256, 0.20749915242195138, 0.2346111536026001, 0.2617231547832489, 0.28883515596389775, 0.3159471571445466, 0.3430591583251954, 0.3701711595058441]}, "conv1d_transpose_kernel_0_image": {"_type": "images/separated", "width": 64, "height": 3, "format": "png", "count": 3, "filenames": ["media/images/conv1d_transpose_kernel_0_image_10_411533f712a250a70350.png", "media/images/conv1d_transpose_kernel_0_image_10_861fb551c285582fc495.png", "media/images/conv1d_transpose_kernel_0_image_10_84865cd81335edd26edd.png"]}, "conv1d_transpose/bias_0/histogram": {"_type": "histogram", "values": [2.0, 0.0, 1.0, 0.0, 1.0, 1.0, 1.0, 2.0, 2.0, 2.0, 1.0, 1.0, 2.0, 1.0, 0.0, 1.0, 1.0, 2.0, 3.0, 0.0, 1.0, 5.0, 4.0, 7.0, 4.0, 6.0, 5.0, 6.0, 1.0, 1.0], "bins": [-0.2071719914674759, -0.19747292349735895, -0.18777385552724202, -0.17807478755712508, -0.16837571958700814, -0.1586766516168912, -0.1489775836467743, -0.13927851567665736, -0.12957944770654042, -0.11988037973642349, -0.11018131176630655, -0.10048224379618963, -0.09078317582607269, -0.08108410785595577, -0.07138503988583883, -0.06168597191572189, -0.051986903945604956, -0.04228783597548802, -0.03258876800537108, -0.022889700035254146, -0.013190632065137209, -0.0034915640950202997, 0.006207503875096637, 0.015906571845213574, 0.02560563981533051, 0.03530470778544745, 0.04500377575556436, 0.054702843725681294, 0.06440191169579823, 0.07410097966591517, 0.0838000476360321]}, "conv1d_transpose_bias_0_image": {"_type": "images/separated", "width": 1, "height": 64, "format": "png", "count": 1, "filenames": ["media/images/conv1d_transpose_bias_0_image_10_72a979d4b82916ff5b03.png"]}, "conv1d_transpose_1/kernel_0/histogram": {"_type": "histogram", "values": [2.0, 0.0, 3.0, 0.0, 4.0, 6.0, 2.0, 33.0, 58.0, 187.0, 468.0, 676.0, 713.0, 736.0, 758.0, 749.0, 732.0, 509.0, 291.0, 108.0, 44.0, 23.0, 14.0, 5.0, 10.0, 3.0, 4.0, 3.0, 0.0, 3.0], "bins": [-0.48211559653282166, -0.44924640556176504, -0.4163772145907084, -0.38350802361965175, -0.3506388326485952, -0.3177696416775385, -0.2849004507064819, -0.2520312597354253, -0.21916206876436867, -0.18629287779331205, -0.15342368682225543, -0.12055449585119882, -0.08768530488014215, -0.05481611390908553, -0.021946922938028912, 0.010922268033027704, 0.04379145900408432, 0.076660649975141, 0.10952984094619755, 0.14239903191725423, 0.1752682228883108, 0.20813741385936746, 0.24100660483042402, 0.2738757958014807, 0.30674498677253736, 0.3396141777435939, 0.3724833687146506, 0.40535255968570716, 0.43822175065676383, 0.4710909416278204, 0.503960132598877]}, "conv1d_transpose_1_kernel_0_image": {"_type": "images/separated", "width": 32, "height": 3, "format": "png", "count": 3, "filenames": ["media/images/conv1d_transpose_1_kernel_0_image_10_8cbdbf5ebad6011dec56.png", "media/images/conv1d_transpose_1_kernel_0_image_10_605e7daa0989e7b8f911.png", "media/images/conv1d_transpose_1_kernel_0_image_10_f49128ae2937392a373d.png"]}, "conv1d_transpose_1/bias_0/histogram": {"_type": "histogram", "values": [2.0, 0.0, 0.0, 1.0, 0.0, 1.0, 0.0, 2.0, 3.0, 1.0, 1.0, 0.0, 2.0, 3.0, 1.0, 1.0, 0.0, 0.0, 4.0, 0.0, 1.0, 1.0, 0.0, 3.0, 1.0, 1.0, 1.0, 0.0, 0.0, 2.0], "bins": [-0.19828854501247406, -0.19016408858199915, -0.18203963215152422, -0.1739151757210493, -0.1657907192905744, -0.1576662628600995, -0.14954180642962456, -0.14141734999914965, -0.13329289356867474, -0.1251684371381998, -0.1170439807077249, -0.10891952427724998, -0.10079506784677505, -0.09267061141630015, -0.08454615498582523, -0.07642169855535032, -0.0682972421248754, -0.06017278569440049, -0.05204832926392555, -0.043923872833450645, -0.03579941640297574, -0.0276749599725008, -0.019550503542025893, -0.011426047111550985, -0.00330159068107605, 0.004822865749398858, 0.012947322179873766, 0.021071778610348674, 0.02919623504082361, 0.03732069147129852, 0.04544514790177345]}, "conv1d_transpose_1_bias_0_image": {"_type": "images/separated", "width": 1, "height": 32, "format": "png", "count": 1, "filenames": ["media/images/conv1d_transpose_1_bias_0_image_10_fdc1d19145b4fdf1eef7.png"]}, "conv1d_transpose_2/kernel_0/histogram": {"_type": "histogram", "values": [1.0, 0.0, 1.0, 1.0, 2.0, 2.0, 2.0, 5.0, 10.0, 11.0, 13.0, 20.0, 31.0, 21.0, 17.0, 24.0, 18.0, 35.0, 26.0, 21.0, 21.0, 12.0, 15.0, 18.0, 21.0, 13.0, 11.0, 5.0, 4.0, 3.0], "bins": [-0.38392162322998047, -0.36153300702571867, -0.3391443908214569, -0.3167557746171951, -0.29436715841293337, -0.27197854220867157, -0.24958992600440977, -0.227201309800148, -0.20481269359588622, -0.18242407739162445, -0.16003546118736267, -0.13764684498310087, -0.11525822877883907, -0.09286961257457732, -0.07048099637031552, -0.04809238016605377, -0.02570376396179197, -0.003315147757530168, 0.01907346844673158, 0.04146208465099338, 0.06385070085525513, 0.08623931705951693, 0.10862793326377873, 0.13101654946804053, 0.15340516567230233, 0.17579378187656403, 0.19818239808082583, 0.22057101428508763, 0.24295963048934943, 0.26534824669361123, 0.2877368628978729]}, "conv1d_transpose_2_kernel_0_image": {"_type": "images/separated", "width": 4, "height": 3, "format": "png", "count": 3, "filenames": ["media/images/conv1d_transpose_2_kernel_0_image_10_b8d79018f8265a74b64e.png", "media/images/conv1d_transpose_2_kernel_0_image_10_112de2e468a99091c3a1.png", "media/images/conv1d_transpose_2_kernel_0_image_10_1219ebcc8d95372ae84a.png"]}, "conv1d_transpose_2/bias_0/histogram": {"_type": "histogram", "values": [1.0, 0.0, 0.0, 0.0, 0.0, 0.0, 0.0, 0.0, 0.0, 0.0, 0.0, 1.0, 0.0, 0.0, 0.0, 0.0, 0.0, 0.0, 0.0, 0.0, 0.0, 0.0, 0.0, 1.0, 0.0, 0.0, 0.0, 0.0, 0.0, 1.0], "bins": [-0.11906202137470245, -0.11161076625188192, -0.10415951112906138, -0.09670825600624085, -0.08925700088342031, -0.08180574576059976, -0.07435449063777924, -0.06690323551495869, -0.059451980392138164, -0.05200072526931762, -0.044549470146497086, -0.03709821502367655, -0.029646959900856015, -0.02219570477803548, -0.014744449655214945, -0.007293194532394409, 0.0001580605904261262, 0.0076093157132466616, 0.01506057083606721, 0.022511825958887732, 0.02996308108170828, 0.0374143362045288, 0.04486559132734935, 0.052316846450169874, 0.05976810157299042, 0.06721935669581094, 0.0746706118186315, 0.08212186694145202, 0.08957312206427256, 0.09702437718709309, 0.10447563230991364]}, "conv1d_transpose_2_bias_0_image": {"_type": "images/separated", "width": 1, "height": 4, "format": "png", "count": 1, "filenames": ["media/images/conv1d_transpose_2_bias_0_image_10_03981996bfe3f4e4a831.png"]}, "_runtime": 830.483500957489, "_step": 10}