{"global_step": 19, "_timestamp": 1688063107.797038, "epoch_loss": 1.3806930780410767, "epoch_lr": 1.0000000656873453e-05, "pwm_conv/kernel_0/histogram": {"_type": "histogram", "values": [2.0, 1.0, 1.0, 36.0, 514.0, 96.0, 17.0, 408.0, 346.0, 324.0, 313.0, 421.0, 388.0, 425.0, 352.0, 473.0, 480.0, 575.0, 533.0, 580.0, 697.0, 739.0, 702.0, 701.0, 3864.0, 703.0, 709.0, 566.0, 577.0, 1417.0], "bins": [-5.521356105804443, -5.291306344668071, -5.061256583531698, -4.831206822395325, -4.601157061258952, -4.3711073001225795, -4.141057538986206, -3.911007777849833, -3.6809580167134603, -3.4509082555770876, -3.220858494440715, -2.9908087333043416, -2.760758972167969, -2.530709211031596, -2.300659449895223, -2.07060968875885, -1.8405599276224773, -1.6105101664861046, -1.3804604053497318, -1.150410644213359, -0.9203608830769863, -0.6903111219406126, -0.46026136080423985, -0.23021159966786708, -0.00016183853149431826, 0.22988792260487845, 0.4599376837412512, 0.689987444877624, 0.9200372060139976, 1.1500869671503704, 1.3801367282867432]}, "pwm_conv_kernel_0_image": {"_type": "images/separated", "width": 4, "height": 16, "format": "png", "count": 3, "filenames": ["media/images/pwm_conv_kernel_0_image_19_85f3ac3d3901ef7a9581.png", "media/images/pwm_conv_kernel_0_image_19_ff0166818b9ecb03dabe.png", "media/images/pwm_conv_kernel_0_image_19_5c3e85ae5e5c15d498f0.png"]}, "conv1d/kernel_0/histogram": {"_type": "histogram", "values": [1.0, 0.0, 2.0, 1.0, 2.0, 7.0, 18.0, 64.0, 365.0, 2240.0, 2740.0, 3034.0, 3154.0, 3256.0, 3244.0, 3267.0, 3247.0, 3241.0, 3310.0, 3173.0, 3260.0, 3156.0, 3109.0, 3190.0, 2588.0, 786.0, 320.0, 88.0, 16.0, 1.0], "bins": [-0.12614567577838898, -0.11850007151563963, -0.11085446725289028, -0.10320886299014091, -0.09556325872739156, -0.08791765446464221, -0.08027205020189285, -0.0726264459391435, -0.06498084167639415, -0.057335237413644796, -0.049689633150895446, -0.04204402888814608, -0.03439842462539673, -0.02675282036264738, -0.019107216099898017, -0.011461611837148666, -0.003816007574399316, 0.0038295966883500343, 0.011475200951099385, 0.019120805213848735, 0.026766409476598085, 0.03441201373934746, 0.042057618002096814, 0.049703222264846164, 0.057348826527595514, 0.06499443079034486, 0.07264003505309422, 0.08028563931584357, 0.08793124357859294, 0.0955768478413423, 0.10322245210409164]}, "conv1d_kernel_0_image": {"_type": "images/separated", "width": 265, "height": 3, "format": "png", "count": 3, "filenames": ["media/images/conv1d_kernel_0_image_19_51085d89ba107f6905c3.png", "media/images/conv1d_kernel_0_image_19_6650f9066dc635cfa37e.png", "media/images/conv1d_kernel_0_image_19_330f5058ebed5a43a789.png"]}, "conv1d/bias_0/histogram": {"_type": "histogram", "values": [2.0, 0.0, 0.0, 0.0, 0.0, 0.0, 0.0, 0.0, 0.0, 1.0, 2.0, 1.0, 1.0, 1.0, 0.0, 0.0, 0.0, 0.0, 1.0, 0.0, 0.0, 2.0, 0.0, 2.0, 4.0, 15.0, 6.0, 8.0, 12.0, 6.0], "bins": [-0.028405409306287766, -0.027458562329411507, -0.02651171535253525, -0.025564868375658988, -0.02461802139878273, -0.02367117442190647, -0.022724327445030213, -0.021777480468153955, -0.020830633491277693, -0.01988378651440144, -0.018936939537525177, -0.01799009256064892, -0.01704324558377266, -0.0160963986068964, -0.015149551630020143, -0.014202704653143883, -0.013255857676267625, -0.012309010699391366, -0.011362163722515108, -0.010415316745638847, -0.009468469768762589, -0.00852162279188633, -0.007574775815010072, -0.006627928838133814, -0.005681081861257556, -0.004734234884381294, -0.003787387907505036, -0.002840540930628778, -0.0018936939537525198, -0.0009468469768762616, 0.0]}, "conv1d_bias_0_image": {"_type": "images/separated", "width": 1, "height": 64, "format": "png", "count": 1, "filenames": ["media/images/conv1d_bias_0_image_19_bb73d8645203240d9bf5.png"]}, "dense/kernel_0/histogram": {"_type": "histogram", "values": [2.0, 4.0, 4.0, 3.0, 2.0, 2.0, 1.0, 2.0, 2.0, 3.0, 5.0, 5.0, 3.0, 11.0, 21.0, 10.0, 3.0, 5.0, 1.0, 6.0, 5.0, 3.0, 7.0, 3.0, 5.0, 1.0, 3.0, 2.0, 3.0, 1.0], "bins": [-0.2198360562324524, -0.20491551260153454, -0.18999496897061666, -0.1750744253396988, -0.16015388170878092, -0.14523333807786307, -0.1303127944469452, -0.11539225081602733, -0.10047170718510946, -0.0855511635541916, -0.07063061992327374, -0.05571007629235586, -0.040789532661438005, -0.025868989030520123, -0.010948445399602269, 0.003972098231315613, 0.018892641862233467, 0.03381318549315132, 0.0487337291240692, 0.06365427275498708, 0.07857481638590491, 0.09349536001682279, 0.10841590364774067, 0.12333644727865856, 0.13825699090957638, 0.15317753454049426, 0.16809807817141215, 0.18301862180232997, 0.19793916543324785, 0.21285970906416574, 0.22778025269508362]}, "dense_kernel_0_image": {"_type": "images/separated", "width": 64, "height": 2, "format": "png", "count": 1, "filenames": ["media/images/dense_kernel_0_image_19_353c657a0493531d3c57.png"]}, "dense/bias_0/histogram": {"_type": "histogram", "values": [1.0, 0.0, 0.0, 0.0, 0.0, 0.0, 0.0, 0.0, 0.0, 0.0, 0.0, 0.0, 0.0, 0.0, 0.0, 0.0, 0.0, 0.0, 0.0, 0.0, 0.0, 0.0, 0.0, 0.0, 0.0, 0.0, 0.0, 0.0, 0.0, 1.0], "bins": [-5.392851107899332e-06, -5.140141593074077e-06, -4.8874320782488215e-06, -4.634722563423565e-06, -4.38201304859831e-06, -4.129303533773054e-06, -3.876594018947799e-06, -3.6238845041225435e-06, -3.3711749892972876e-06, -3.118465474472032e-06, -2.8657559596467763e-06, -2.613046444821521e-06, -2.3603369299962654e-06, -2.1076274151710096e-06, -1.8549179003457541e-06, -1.6022083855204983e-06, -1.3494988706952428e-06, -1.0967893558699874e-06, -8.440798410447319e-07, -5.913703262194757e-07, -3.386608113942202e-07, -8.595129656896478e-08, 1.6675821825629066e-07, 4.194677330815461e-07, 6.721772479068015e-07, 9.248867627320578e-07, 1.1775962775573133e-06, 1.4303057923825687e-06, 1.6830153072078242e-06, 1.9357248220330796e-06, 2.188434336858336e-06]}, "dense_bias_0_image": {"_type": "images/separated", "width": 1, "height": 2, "format": "png", "count": 1, "filenames": ["media/images/dense_bias_0_image_19_8d994cf362504173484c.png"]}, "dense_1/kernel_0/histogram": {"_type": "histogram", "values": [1.0, 1.0, 0.0, 1.0, 3.0, 3.0, 11.0, 20.0, 55.0, 119.0, 114.0, 36.0, 27.0, 27.0, 18.0, 18.0, 10.0, 5.0, 8.0, 8.0, 3.0, 3.0, 1.0, 3.0, 2.0, 2.0, 0.0, 0.0, 0.0, 1.0], "bins": [-0.07849811017513275, -0.07070280065139135, -0.06290749112764994, -0.055112181603908544, -0.04731687208016713, -0.039521562556425735, -0.03172625303268433, -0.023930943508942926, -0.01613563398520152, -0.008340324461460116, -0.0005450149377187186, 0.007250294586022693, 0.01504560410976409, 0.022840913633505502, 0.0306362231572469, 0.03843153268098831, 0.04622684220472971, 0.05402215172847111, 0.06181746125221252, 0.06961277077595393, 0.07740808029969531, 0.08520338982343673, 0.09299869934717814, 0.10079400887091955, 0.10858931839466093, 0.11638462791840234, 0.12417993744214376, 0.13197524696588514, 0.13977055648962655, 0.14756586601336796, 0.15536117553710938]}, "dense_1_kernel_0_image": {"_type": "images/separated", "width": 1, "height": 500, "format": "png", "count": 1, "filenames": ["media/images/dense_1_kernel_0_image_19_72b772f2dedfffd14bfb.png"]}, "dense_1/bias_0/histogram": {"_type": "histogram", "values": [10.0, 23.0, 39.0, 58.0, 77.0, 53.0, 53.0, 47.0, 17.0, 17.0, 13.0, 6.0, 9.0, 8.0, 13.0, 12.0, 12.0, 7.0, 8.0, 6.0, 6.0, 0.0, 3.0, 0.0, 1.0, 0.0, 0.0, 0.0, 1.0, 1.0], "bins": [-0.12256217747926712, -0.1075676364203294, -0.0925730953613917, -0.077578554302454, -0.06258401324351628, -0.04758947218457857, -0.032594931125640866, -0.017600390066703164, -0.0026058490077654484, 0.012388692051172268, 0.027383233110109984, 0.04237777416904767, 0.05737231522798539, 0.0723668562869231, 0.08736139734586079, 0.10235593840479851, 0.11735047946373622, 0.13234502052267394, 0.14733956158161166, 0.16233410264054937, 0.1773286436994871, 0.19232318475842475, 0.20731772581736246, 0.22231226687630018, 0.2373068079352379, 0.2523013489941756, 0.2672958900531133, 0.28229043111205104, 0.2972849721709887, 0.3122795132299264, 0.32727405428886414]}, "dense_1_bias_0_image": {"_type": "images/separated", "width": 1, "height": 500, "format": "png", "count": 1, "filenames": ["media/images/dense_1_bias_0_image_19_43eb6d7dddc93d474d70.png"]}, "conv1d_transpose/kernel_0/histogram": {"_type": "histogram", "values": [3.0, 3.0, 5.0, 1.0, 5.0, 7.0, 11.0, 28.0, 43.0, 54.0, 45.0, 61.0, 50.0, 76.0, 45.0, 66.0, 68.0, 52.0, 41.0, 40.0, 27.0, 11.0, 8.0, 6.0, 3.0, 1.0, 4.0, 2.0, 1.0, 1.0], "bins": [-0.30693069100379944, -0.2874686002731323, -0.2680065095424652, -0.2485444188117981, -0.229082328081131, -0.20962023735046387, -0.19015814661979674, -0.17069605588912964, -0.15123396515846252, -0.1317718744277954, -0.1123097836971283, -0.09284769296646117, -0.07338560223579405, -0.05392351150512692, -0.03446142077445985, -0.014999330043792725, 0.004462760686874401, 0.023924851417541526, 0.04338694214820865, 0.06284903287887572, 0.08231112360954285, 0.10177321434020997, 0.1212353050708771, 0.14069739580154422, 0.16015948653221135, 0.17962157726287842, 0.1990836679935456, 0.21854575872421267, 0.23800784945487974, 0.2574699401855469, 0.276932030916214]}, "conv1d_transpose_kernel_0_image": {"_type": "images/separated", "width": 64, "height": 3, "format": "png", "count": 3, "filenames": ["media/images/conv1d_transpose_kernel_0_image_19_f5f6a2bbc4a951dd4a93.png", "media/images/conv1d_transpose_kernel_0_image_19_b198c4a12c60cbabb251.png", "media/images/conv1d_transpose_kernel_0_image_19_ef63628404c7f21d95fd.png"]}, "conv1d_transpose/bias_0/histogram": {"_type": "histogram", "values": [2.0, 3.0, 3.0, 4.0, 3.0, 2.0, 5.0, 4.0, 7.0, 5.0, 6.0, 5.0, 4.0, 1.0, 1.0, 2.0, 1.0, 0.0, 0.0, 0.0, 1.0, 0.0, 0.0, 2.0, 0.0, 0.0, 0.0, 0.0, 0.0, 3.0], "bins": [-0.07560630142688751, -0.07013247683644294, -0.06465865224599839, -0.059184827655553815, -0.05371100306510925, -0.04823717847466469, -0.04276335388422012, -0.037289529293775554, -0.03181570470333099, -0.026341880112886427, -0.020868055522441864, -0.015394230931997294, -0.009920406341552723, -0.004446581751108167, 0.0010272428393364036, 0.00650106742978096, 0.01197489202022553, 0.0174487166106701, 0.022922541201114657, 0.028396365791559228, 0.033870190382003784, 0.039344014972448355, 0.044817839562892925, 0.050291664153337495, 0.055765488743782066, 0.06123931333422661, 0.06671313792467118, 0.07218696251511575, 0.07766078710556032, 0.08313461169600489, 0.08860843628644943]}, "conv1d_transpose_bias_0_image": {"_type": "images/separated", "width": 1, "height": 64, "format": "png", "count": 1, "filenames": ["media/images/conv1d_transpose_bias_0_image_19_eb42dd6a454e9d62fae3.png"]}, "conv1d_transpose_1/kernel_0/histogram": {"_type": "histogram", "values": [2.0, 0.0, 3.0, 1.0, 4.0, 1.0, 2.0, 8.0, 12.0, 24.0, 77.0, 258.0, 575.0, 635.0, 628.0, 666.0, 642.0, 648.0, 657.0, 614.0, 414.0, 216.0, 29.0, 15.0, 8.0, 2.0, 1.0, 0.0, 1.0, 1.0], "bins": [-0.39965882897377014, -0.3761390695969264, -0.3526193102200826, -0.32909955084323883, -0.3055797914663951, -0.2820600320895513, -0.2585402727127075, -0.23502051333586377, -0.21150075395902, -0.1879809945821762, -0.16446123520533246, -0.1409414758284887, -0.1174217164516449, -0.09390195707480115, -0.0703821976979574, -0.046862438321113586, -0.023342678944269835, 0.00017708043257391726, 0.023696839809417725, 0.047216599186261476, 0.07073635856310523, 0.09425611793994904, 0.11777587731679273, 0.14129563669363654, 0.16481539607048035, 0.18833515544732404, 0.21185491482416785, 0.23537467420101166, 0.25889443357785535, 0.28241419295469916, 0.30593395233154297]}, "conv1d_transpose_1_kernel_0_image": {"_type": "images/separated", "width": 32, "height": 3, "format": "png", "count": 3, "filenames": ["media/images/conv1d_transpose_1_kernel_0_image_19_c7c23adf583e356e6e2a.png", "media/images/conv1d_transpose_1_kernel_0_image_19_6921916139be02aac17d.png", "media/images/conv1d_transpose_1_kernel_0_image_19_3b5a2af875f9310d0e07.png"]}, "conv1d_transpose_1/bias_0/histogram": {"_type": "histogram", "values": [2.0, 1.0, 1.0, 0.0, 2.0, 1.0, 1.0, 2.0, 2.0, 2.0, 2.0, 4.0, 0.0, 2.0, 0.0, 2.0, 1.0, 1.0, 0.0, 0.0, 0.0, 0.0, 1.0, 1.0, 1.0, 0.0, 1.0, 0.0, 0.0, 2.0], "bins": [-0.07306154072284698, -0.07060494579491206, -0.06814835086697713, -0.0656917559390422, -0.06323516101110727, -0.060778566083172336, -0.058321971155237406, -0.05586537622730248, -0.05340878129936755, -0.05095218637143262, -0.04849559144349769, -0.04603899651556276, -0.04358240158762783, -0.0411258066596929, -0.03866921173175797, -0.03621261680382304, -0.03375602187588811, -0.03129942694795318, -0.02884283202001825, -0.02638623709208332, -0.02392964216414839, -0.02147304723621346, -0.01901645230827853, -0.0165598573803436, -0.014103262452408671, -0.011646667524473742, -0.009190072596538812, -0.006733477668603882, -0.0042768827406689525, -0.0018202878127340227, 0.000636307115200907]}, "conv1d_transpose_1_bias_0_image": {"_type": "images/separated", "width": 1, "height": 32, "format": "png", "count": 1, "filenames": ["media/images/conv1d_transpose_1_bias_0_image_19_867170f26db453b27bf2.png"]}, "conv1d_transpose_2/kernel_0/histogram": {"_type": "histogram", "values": [1.0, 0.0, 1.0, 11.0, 10.0, 17.0, 19.0, 18.0, 20.0, 14.0, 14.0, 16.0, 23.0, 18.0, 24.0, 17.0, 12.0, 22.0, 21.0, 16.0, 21.0, 23.0, 20.0, 11.0, 5.0, 3.0, 2.0, 4.0, 0.0, 1.0], "bins": [-0.22093059122562408, -0.20579107999801635, -0.19065156877040862, -0.17551205754280091, -0.16037254631519318, -0.14523303508758545, -0.13009352385997772, -0.11495401263237, -0.09981450140476227, -0.08467499017715455, -0.06953547894954681, -0.05439596772193908, -0.03925645649433135, -0.024116945266723616, -0.008977434039115911, 0.006162077188491821, 0.021301588416099554, 0.036441099643707286, 0.05158061087131499, 0.06672012209892275, 0.08185963332653046, 0.09699914455413822, 0.11213865578174592, 0.12727816700935363, 0.1424176782369614, 0.1575571894645691, 0.17269670069217685, 0.18783621191978456, 0.20297572314739226, 0.21811523437500002, 0.23325474560260773]}, "conv1d_transpose_2_kernel_0_image": {"_type": "images/separated", "width": 4, "height": 3, "format": "png", "count": 3, "filenames": ["media/images/conv1d_transpose_2_kernel_0_image_19_8bfff38544bed929a749.png", "media/images/conv1d_transpose_2_kernel_0_image_19_305e50f0984294fe0731.png", "media/images/conv1d_transpose_2_kernel_0_image_19_b45a929a15cb4462c0e7.png"]}, "conv1d_transpose_2/bias_0/histogram": {"_type": "histogram", "values": [2.0, 0.0, 0.0, 0.0, 0.0, 0.0, 0.0, 0.0, 0.0, 0.0, 0.0, 0.0, 0.0, 0.0, 0.0, 0.0, 0.0, 0.0, 0.0, 0.0, 0.0, 0.0, 0.0, 0.0, 0.0, 0.0, 0.0, 0.0, 0.0, 2.0], "bins": [-0.1586858332157135, -0.1459977169831594, -0.13330960075060527, -0.12062148451805114, -0.10793336828549703, -0.09524525205294292, -0.08255713582038879, -0.06986901958783467, -0.05718090335528056, -0.044492787122726446, -0.03180467089017233, -0.019116554657618218, -0.006428438425064076, 0.006259677807490038, 0.018947794040044152, 0.03163591027259827, 0.04432402650515238, 0.057012142737706495, 0.06970025897026061, 0.08238837520281472, 0.09507649143536884, 0.10776460766792295, 0.12045272390047707, 0.13314084013303118, 0.14582895636558535, 0.15851707259813946, 0.17120518883069358, 0.1838933050632477, 0.1965814212958018, 0.20926953752835592, 0.22195765376091003]}, "conv1d_transpose_2_bias_0_image": {"_type": "images/separated", "width": 1, "height": 4, "format": "png", "count": 1, "filenames": ["media/images/conv1d_transpose_2_bias_0_image_19_107192f09a345f97f97a.png"]}, "_runtime": 1543.0343551635742, "_step": 19, "_wandb": {"runtime": 1544}}