{"global_step": 15, "_timestamp": 1688257698.472449, "epoch_loss": 1.3811346292495728, "epoch_lr": 1.0000001111620804e-06, "pwm_conv/kernel_0/histogram": {"_type": "histogram", "values": [2.0, 1.0, 1.0, 36.0, 514.0, 96.0, 17.0, 408.0, 346.0, 324.0, 313.0, 421.0, 388.0, 425.0, 352.0, 473.0, 480.0, 575.0, 533.0, 580.0, 697.0, 739.0, 702.0, 701.0, 3864.0, 703.0, 709.0, 566.0, 577.0, 1417.0], "bins": [-5.521356105804443, -5.291306344668071, -5.061256583531698, -4.831206822395325, -4.601157061258952, -4.3711073001225795, -4.141057538986206, -3.911007777849833, -3.6809580167134603, -3.4509082555770876, -3.220858494440715, -2.9908087333043416, -2.760758972167969, -2.530709211031596, -2.300659449895223, -2.07060968875885, -1.8405599276224773, -1.6105101664861046, -1.3804604053497318, -1.150410644213359, -0.9203608830769863, -0.6903111219406126, -0.46026136080423985, -0.23021159966786708, -0.00016183853149431826, 0.22988792260487845, 0.4599376837412512, 0.689987444877624, 0.9200372060139976, 1.1500869671503704, 1.3801367282867432]}, "pwm_conv_kernel_0_image": {"_type": "images/separated", "width": 4, "height": 16, "format": "png", "count": 3, "filenames": ["media/images/pwm_conv_kernel_0_image_15_85f3ac3d3901ef7a9581.png", "media/images/pwm_conv_kernel_0_image_15_ff0166818b9ecb03dabe.png", "media/images/pwm_conv_kernel_0_image_15_5c3e85ae5e5c15d498f0.png"]}, "batch_normalization/gamma_0/histogram": {"_type": "histogram", "values": [2.0, 1.0, 0.0, 4.0, 2.0, 1.0, 8.0, 8.0, 12.0, 20.0, 19.0, 18.0, 22.0, 29.0, 27.0, 25.0, 26.0, 11.0, 14.0, 5.0, 3.0, 3.0, 1.0, 1.0, 0.0, 0.0, 0.0, 1.0, 1.0, 1.0], "bins": [0.12731894850730896, 0.16849487125873566, 0.20967079401016236, 0.25084671676158904, 0.29202263951301577, 0.33319856226444244, 0.3743744850158691, 0.41555040776729585, 0.4567263305187225, 0.4979022532701492, 0.5390781760215759, 0.5802540987730026, 0.6214300215244293, 0.662605944275856, 0.7037818670272827, 0.7449577897787094, 0.7861337125301361, 0.8273096352815628, 0.8684855580329894, 0.9096614807844162, 0.9508374035358429, 0.9920133262872696, 1.0331892490386962, 1.0743651717901228, 1.1155410945415496, 1.1567170172929764, 1.197892940044403, 1.2390688627958297, 1.2802447855472565, 1.321420708298683, 1.3625966310501099]}, "batch_normalization_gamma_0_image": {"_type": "images/separated", "width": 1, "height": 265, "format": "png", "count": 1, "filenames": ["media/images/batch_normalization_gamma_0_image_15_e1f92419d48c0f228d2a.png"]}, "batch_normalization/beta_0/histogram": {"_type": "histogram", "values": [1.0, 2.0, 2.0, 3.0, 8.0, 12.0, 3.0, 9.0, 11.0, 12.0, 8.0, 1.0, 3.0, 1.0, 3.0, 11.0, 9.0, 9.0, 13.0, 33.0, 17.0, 26.0, 15.0, 22.0, 9.0, 7.0, 7.0, 3.0, 3.0, 2.0], "bins": [-1.099735140800476, -1.0197927276293437, -0.9398503144582113, -0.8599079012870788, -0.7799654881159465, -0.7000230749448141, -0.6200806617736816, -0.5401382486025492, -0.46019583543141684, -0.38025342226028447, -0.3003110090891521, -0.2203685959180196, -0.14042618274688723, -0.06048376957575474, 0.019458643595377634, 0.09940105676651001, 0.17934346993764239, 0.25928588310877476, 0.33922829627990714, 0.4191707094510395, 0.4991131226221719, 0.5790555357933045, 0.6589979489644369, 0.7389403621355692, 0.8188827753067016, 0.898825188477834, 0.9787676016489666, 1.058710014820099, 1.1386524279912313, 1.2185948411623637, 1.298537254333496]}, "batch_normalization_beta_0_image": {"_type": "images/separated", "width": 1, "height": 265, "format": "png", "count": 1, "filenames": ["media/images/batch_normalization_beta_0_image_15_8072e80c0309007591c5.png"]}, "batch_normalization/moving_mean_0/histogram": {"_type": "histogram", "values": [1.0, 0.0, 0.0, 0.0, 1.0, 1.0, 3.0, 5.0, 2.0, 2.0, 9.0, 6.0, 5.0, 11.0, 15.0, 15.0, 12.0, 10.0, 12.0, 22.0, 25.0, 14.0, 27.0, 17.0, 16.0, 12.0, 9.0, 3.0, 9.0, 1.0], "bins": [-17.756698608398438, -17.220400416851042, -16.68410222530365, -16.147804033756255, -15.611505842208862, -15.075207650661469, -14.538909459114075, -14.002611267566682, -13.466313076019286, -12.930014884471895, -12.3937166929245, -11.857418501377106, -11.321120309829713, -10.784822118282317, -10.248523926734926, -9.71222573518753, -9.175927543640137, -8.639629352092744, -8.10333116054535, -7.567032968997955, -7.0307347774505615, -6.494436585903168, -5.958138394355775, -5.421840202808381, -4.885542011260988, -4.3492438197135925, -3.812945628166199, -3.2766474366188056, -2.740349245071412, -2.2040510535240188, -1.6677528619766235]}, "batch_normalization_moving_mean_0_image": {"_type": "images/separated", "width": 1, "height": 265, "format": "png", "count": 1, "filenames": ["media/images/batch_normalization_moving_mean_0_image_15_33c86070b749851d6717.png"]}, "batch_normalization/moving_variance_0/histogram": {"_type": "histogram", "values": [5.0, 6.0, 12.0, 22.0, 21.0, 26.0, 21.0, 21.0, 24.0, 22.0, 20.0, 19.0, 5.0, 12.0, 7.0, 6.0, 2.0, 1.0, 1.0, 4.0, 1.0, 4.0, 1.0, 0.0, 1.0, 0.0, 0.0, 0.0, 0.0, 1.0], "bins": [5.556572914123535, 7.256884543100993, 8.95719617207845, 10.657507801055907, 12.357819430033366, 14.058131059010822, 15.75844268798828, 17.458754316965738, 19.159065945943198, 20.859377574920654, 22.55968920389811, 24.26000083287557, 25.960312461853025, 27.660624090830485, 29.36093571980794, 31.0612473487854, 32.76155897776286, 34.46187060674031, 36.16218223571777, 37.86249386469523, 39.562805493672684, 41.263117122650144, 42.9634287516276, 44.66374038060506, 46.364052009582515, 48.064363638559975, 49.764675267537434, 51.46498689651489, 53.16529852549235, 54.865610154469806, 56.565921783447266]}, "batch_normalization_moving_variance_0_image": {"_type": "images/separated", "width": 1, "height": 265, "format": "png", "count": 1, "filenames": ["media/images/batch_normalization_moving_variance_0_image_15_d68e280870fe2b62fed4.png"]}, "conv1d/kernel_0/histogram": {"_type": "histogram", "values": [2.0, 0.0, 0.0, 1.0, 1.0, 3.0, 13.0, 31.0, 90.0, 310.0, 859.0, 2029.0, 3799.0, 6343.0, 8791.0, 10922.0, 12370.0, 12793.0, 12467.0, 11013.0, 8598.0, 5751.0, 3140.0, 1542.0, 586.0, 208.0, 73.0, 18.0, 6.0, 1.0], "bins": [-0.3029855489730835, -0.2853975067536036, -0.26780946453412374, -0.25022142231464384, -0.232633380095164, -0.21504533787568408, -0.1974572956562042, -0.17986925343672433, -0.16228121121724445, -0.14469316899776458, -0.1271051267782847, -0.10951708455880482, -0.09192904233932492, -0.07434100011984504, -0.056752957900365164, -0.039164915680885315, -0.02157687346140541, -0.003988831241925506, 0.013599210977554343, 0.031187253197034248, 0.0487752954165141, 0.066363337635994, 0.08395137985547385, 0.10153942207495376, 0.11912746429443366, 0.1367155065139135, 0.15430354873339341, 0.17189159095287326, 0.18947963317235317, 0.20706767539183302, 0.22465571761131287]}, "conv1d_kernel_0_image": {"_type": "images/separated", "width": 265, "height": 3, "format": "png", "count": 3, "filenames": ["media/images/conv1d_kernel_0_image_15_d95c434bc6aa36ba9de4.png", "media/images/conv1d_kernel_0_image_15_1e94b5f6838f3d6289b0.png", "media/images/conv1d_kernel_0_image_15_cda6b2cc543d39b58788.png"]}, "conv1d/bias_0/histogram": {"_type": "histogram", "values": [2.0, 0.0, 2.0, 9.0, 9.0, 16.0, 20.0, 4.0, 4.0, 0.0, 0.0, 4.0, 3.0, 9.0, 6.0, 4.0, 2.0, 4.0, 5.0, 6.0, 6.0, 2.0, 1.0, 2.0, 1.0, 4.0, 2.0, 0.0, 0.0, 1.0], "bins": [-0.1841457486152649, -0.16162075797716777, -0.13909576733907064, -0.1165707767009735, -0.09404578606287638, -0.07152079542477925, -0.04899580478668211, -0.026470814148584987, -0.003945823510487861, 0.018579167127609264, 0.04110415776570639, 0.06362914840380351, 0.08615413904190067, 0.10867912967999777, 0.13120412031809492, 0.15372911095619202, 0.17625410159428917, 0.19877909223238632, 0.22130408287048342, 0.24382907350858057, 0.26635406414667767, 0.2888790547847748, 0.3114040454228719, 0.333929036060969, 0.35645402669906623, 0.3789790173371633, 0.4015040079752604, 0.42402899861335763, 0.44655398925145473, 0.46907897988955183, 0.4916039705276489]}, "conv1d_bias_0_image": {"_type": "images/separated", "width": 1, "height": 128, "format": "png", "count": 1, "filenames": ["media/images/conv1d_bias_0_image_15_dd68dfc2841c018799dc.png"]}, "batch_normalization_1/gamma_0/histogram": {"_type": "histogram", "values": [1.0, 1.0, 0.0, 0.0, 1.0, 1.0, 0.0, 2.0, 2.0, 0.0, 4.0, 2.0, 2.0, 1.0, 1.0, 2.0, 1.0, 1.0, 8.0, 3.0, 5.0, 0.0, 6.0, 8.0, 17.0, 11.0, 14.0, 16.0, 14.0, 4.0], "bins": [0.20463450253009796, 0.228723772863547, 0.25281304319699605, 0.2769023135304451, 0.30099158386389413, 0.32508085419734317, 0.3491701245307922, 0.3732593948642413, 0.3973486651976903, 0.4214379355311394, 0.4455272058645884, 0.4696164761980375, 0.4937057465314865, 0.5177950168649356, 0.5418842871983847, 0.5659735575318336, 0.5900628278652826, 0.6141520981987317, 0.6382413685321808, 0.6623306388656298, 0.6864199091990788, 0.7105091795325279, 0.734598449865977, 0.758687720199426, 0.7827769905328751, 0.8068662608663241, 0.8309555311997732, 0.8550448015332222, 0.8791340718666713, 0.9032233422001202, 0.9273126125335693]}, "batch_normalization_1_gamma_0_image": {"_type": "images/separated", "width": 1, "height": 128, "format": "png", "count": 1, "filenames": ["media/images/batch_normalization_1_gamma_0_image_15_065b9f2ca19c76cc20b9.png"]}, "batch_normalization_1/beta_0/histogram": {"_type": "histogram", "values": [1.0, 0.0, 0.0, 1.0, 2.0, 0.0, 1.0, 2.0, 3.0, 3.0, 2.0, 5.0, 5.0, 2.0, 3.0, 4.0, 5.0, 2.0, 5.0, 6.0, 7.0, 2.0, 0.0, 1.0, 17.0, 25.0, 12.0, 9.0, 1.0, 2.0], "bins": [-0.6814679503440857, -0.6520518546303113, -0.622635758916537, -0.5932196632027626, -0.5638035674889883, -0.534387471775214, -0.5049713760614395, -0.47555528034766514, -0.4461391846338908, -0.41672308892011645, -0.3873069932063421, -0.3578908974925677, -0.32847480177879335, -0.299058706065019, -0.2696426103512446, -0.24022651463747025, -0.2108104189236959, -0.18139432320992155, -0.1519782274961472, -0.12256213178237285, -0.0931460360685985, -0.06372994035482404, -0.034313844641049696, -0.004897748927275347, 0.024518346786499, 0.05393444250027335, 0.0833505382140477, 0.11276663392782205, 0.1421827296415965, 0.17159882535537085, 0.2010149210691452]}, "batch_normalization_1_beta_0_image": {"_type": "images/separated", "width": 1, "height": 128, "format": "png", "count": 1, "filenames": ["media/images/batch_normalization_1_beta_0_image_15_3df0b1447d0c0c7cf13f.png"]}, "batch_normalization_1/moving_mean_0/histogram": {"_type": "histogram", "values": [66.0, 0.0, 0.0, 0.0, 0.0, 0.0, 0.0, 0.0, 0.0, 0.0, 0.0, 0.0, 0.0, 0.0, 3.0, 1.0, 0.0, 1.0, 1.0, 0.0, 1.0, 2.0, 4.0, 2.0, 13.0, 10.0, 12.0, 8.0, 0.0, 4.0], "bins": [0.0010834438726305962, 0.8692803104408086, 1.7374771770089865, 2.6056740435771646, 3.4738709101453424, 4.34206777671352, 5.210264643281699, 6.078461509849876, 6.946658376418054, 7.814855242986233, 8.68305210955441, 9.551248976122588, 10.419445842690767, 11.287642709258945, 12.155839575827121, 13.0240364423953, 13.892233308963478, 14.760430175531656, 15.628627042099835, 16.496823908668013, 17.36502077523619, 18.23321764180437, 19.101414508372546, 19.969611374940722, 20.837808241508903, 21.70600510807708, 22.57420197464526, 23.442398841213436, 24.310595707781612, 25.178792574349792, 26.04698944091797]}, "batch_normalization_1_moving_mean_0_image": {"_type": "images/separated", "width": 1, "height": 128, "format": "png", "count": 1, "filenames": ["media/images/batch_normalization_1_moving_mean_0_image_15_e597ade9df19e622c443.png"]}, "batch_normalization_1/moving_variance_0/histogram": {"_type": "histogram", "values": [66.0, 0.0, 0.0, 0.0, 0.0, 0.0, 0.0, 0.0, 1.0, 3.0, 0.0, 1.0, 0.0, 1.0, 2.0, 1.0, 2.0, 2.0, 3.0, 3.0, 8.0, 10.0, 5.0, 7.0, 3.0, 2.0, 4.0, 1.0, 1.0, 2.0], "bins": [0.0021419785916805267, 3.4637862775474786, 6.925430576503277, 10.387074875459074, 13.848719174414873, 17.31036347337067, 20.772007772326468, 24.23365207128227, 27.695296370238065, 31.15694066919386, 34.61858496814966, 38.08022926710546, 41.541873566061255, 45.00351786501705, 48.465162163972856, 51.92680646292865, 55.38845076188445, 58.850095060840246, 62.31173935979604, 65.77338365875184, 69.23502795770764, 72.69667225666343, 76.15831655561924, 79.61996085457504, 83.08160515353083, 86.54324945248663, 90.00489375144242, 93.46653805039823, 96.92818234935403, 100.38982664830982, 103.85147094726562]}, "batch_normalization_1_moving_variance_0_image": {"_type": "images/separated", "width": 1, "height": 128, "format": "png", "count": 1, "filenames": ["media/images/batch_normalization_1_moving_variance_0_image_15_33995b5fcb7582d41c76.png"]}, "conv1d_1/kernel_0/histogram": {"_type": "histogram", "values": [3.0, 3.0, 4.0, 2.0, 15.0, 37.0, 176.0, 608.0, 1167.0, 1565.0, 1692.0, 1764.0, 1824.0, 1755.0, 1799.0, 1882.0, 1861.0, 1690.0, 1696.0, 1649.0, 1520.0, 1154.0, 546.0, 120.0, 22.0, 8.0, 9.0, 4.0, 0.0, 1.0], "bins": [-0.19626384973526, -0.18333236525456112, -0.1704008807738622, -0.1574693962931633, -0.1445379118124644, -0.1316064273317655, -0.1186749428510666, -0.1057434583703677, -0.09281197388966879, -0.07988048940896988, -0.066949004928271, -0.054017520447572076, -0.041086035966873186, -0.028154551486174267, -0.015223067005475377, -0.0022915825247764587, 0.010639901955922432, 0.023571386436621322, 0.03650287091732024, 0.04943435539801913, 0.06236583987871802, 0.07529732435941694, 0.08822880884011586, 0.10116029332081478, 0.11409177780151364, 0.12702326228221256, 0.13995474676291147, 0.15288623124361034, 0.16581771572430926, 0.17874920020500817, 0.1916806846857071]}, "conv1d_1_kernel_0_image": {"_type": "images/separated", "width": 128, "height": 3, "format": "png", "count": 3, "filenames": ["media/images/conv1d_1_kernel_0_image_15_cdc8203472a205825ca0.png", "media/images/conv1d_1_kernel_0_image_15_6c119e5145b6c828a9a5.png", "media/images/conv1d_1_kernel_0_image_15_97daca568f674c208214.png"]}, "conv1d_1/bias_0/histogram": {"_type": "histogram", "values": [1.0, 0.0, 0.0, 1.0, 0.0, 0.0, 0.0, 0.0, 0.0, 0.0, 1.0, 1.0, 1.0, 0.0, 0.0, 0.0, 1.0, 0.0, 0.0, 0.0, 0.0, 0.0, 0.0, 1.0, 5.0, 3.0, 17.0, 20.0, 10.0, 2.0], "bins": [-0.07474903017282486, -0.0720989781897515, -0.06944892620667815, -0.0667988742236048, -0.06414882224053145, -0.06149877025745809, -0.05884871827438474, -0.056198666291311386, -0.05354861430823803, -0.05089856232516468, -0.04824851034209132, -0.04559845835901797, -0.04294840637594462, -0.040298354392871265, -0.037648302409797905, -0.03499825042672455, -0.0323481984436512, -0.02969814646057785, -0.027048094477504496, -0.024398042494431137, -0.021747990511357784, -0.019097938528284432, -0.01644788654521108, -0.013797834562137727, -0.011147782579064375, -0.008497730595991015, -0.00584767861291767, -0.0031976266298443107, -0.0005475746467709514, 0.002102477336302394, 0.004752529319375753]}, "conv1d_1_bias_0_image": {"_type": "images/separated", "width": 1, "height": 64, "format": "png", "count": 1, "filenames": ["media/images/conv1d_1_bias_0_image_15_b61eb294ac1c791473de.png"]}, "dense/kernel_0/histogram": {"_type": "histogram", "values": [4.0, 2.0, 0.0, 3.0, 1.0, 2.0, 1.0, 2.0, 1.0, 0.0, 2.0, 3.0, 0.0, 4.0, 1.0, 73.0, 2.0, 2.0, 1.0, 0.0, 2.0, 1.0, 2.0, 3.0, 3.0, 3.0, 3.0, 4.0, 2.0, 1.0], "bins": [-0.2534037232398987, -0.2366434395313263, -0.21988315582275392, -0.2031228721141815, -0.18636258840560913, -0.16960230469703674, -0.15284202098846433, -0.13608173727989195, -0.11932145357131957, -0.10256116986274719, -0.0858008861541748, -0.0690406024456024, -0.05228031873703001, -0.03552003502845763, -0.01875975131988522, -0.001999467611312866, 0.014760816097259544, 0.031521099805831954, 0.04828138351440431, 0.06504166722297672, 0.08180195093154907, 0.09856223464012148, 0.11532251834869389, 0.13208280205726625, 0.14884308576583866, 0.16560336947441107, 0.18236365318298342, 0.19912393689155583, 0.21588422060012824, 0.2326445043087006, 0.24940478801727295]}, "dense_kernel_0_image": {"_type": "images/separated", "width": 64, "height": 2, "format": "png", "count": 1, "filenames": ["media/images/dense_kernel_0_image_15_0ddba897b7a37f94554d.png"]}, "dense/bias_0/histogram": {"_type": "histogram", "values": [1.0, 0.0, 0.0, 0.0, 0.0, 0.0, 0.0, 0.0, 0.0, 0.0, 0.0, 0.0, 0.0, 0.0, 0.0, 0.0, 0.0, 0.0, 0.0, 0.0, 0.0, 0.0, 0.0, 0.0, 0.0, 0.0, 0.0, 0.0, 0.0, 1.0], "bins": [-0.005337304901331663, -0.005159619864358925, -0.004981934827386189, -0.004804249790413451, -0.004626564753440713, -0.004448879716467975, -0.004271194679495239, -0.004093509642522501, -0.003915824605549763, -0.003738139568577026, -0.0035604545316042886, -0.003382769494631551, -0.0032050844576588136, -0.003027399420686076, -0.0028497143837133386, -0.002672029346740601, -0.0024943443097678636, -0.0023166592727951263, -0.0021389742358223886, -0.0019612891988496513, -0.0017836041618769136, -0.0016059191249041763, -0.0014282340879314386, -0.001250549050958701, -0.001072864013985964, -0.0008951789770132263, -0.0007174939400404886, -0.0005398089030677518, -0.00036212386609501407, -0.00018443882912227635, -6.75379214953864e-06]}, "dense_bias_0_image": {"_type": "images/separated", "width": 1, "height": 2, "format": "png", "count": 1, "filenames": ["media/images/dense_bias_0_image_15_8d994cf362504173484c.png"]}, "dense_1/kernel_0/histogram": {"_type": "histogram", "values": [3.0, 2.0, 6.0, 1.0, 8.0, 8.0, 26.0, 117.0, 174.0, 63.0, 30.0, 13.0, 7.0, 12.0, 3.0, 4.0, 4.0, 0.0, 2.0, 3.0, 5.0, 2.0, 2.0, 0.0, 2.0, 0.0, 0.0, 1.0, 0.0, 2.0], "bins": [-0.11241801828145981, -0.09905551051100095, -0.08569300274054209, -0.07233049497008323, -0.05896798719962438, -0.04560547942916553, -0.03224297165870667, -0.01888046388824781, -0.00551795611778895, 0.00784455165266991, 0.021207059423128755, 0.034569567193587614, 0.04793207496404647, 0.06129458273450533, 0.07465709050496419, 0.08801959827542305, 0.10138210604588191, 0.11474461381634077, 0.12810712158679963, 0.1414696293572585, 0.15483213712771732, 0.1681946448981762, 0.18155715266863504, 0.19491966043909392, 0.20828216820955275, 0.22164467598001164, 0.23500718375047047, 0.24836969152092936, 0.2617321992913882, 0.2750947070618471, 0.2884572148323059]}, "dense_1_kernel_0_image": {"_type": "images/separated", "width": 1, "height": 500, "format": "png", "count": 1, "filenames": ["media/images/dense_1_kernel_0_image_15_3946ec8c1ecb62aacef1.png"]}, "dense_1/bias_0/histogram": {"_type": "histogram", "values": [10.0, 9.0, 13.0, 19.0, 27.0, 53.0, 49.0, 71.0, 56.0, 85.0, 30.0, 13.0, 12.0, 10.0, 8.0, 6.0, 7.0, 5.0, 4.0, 2.0, 1.0, 0.0, 3.0, 0.0, 1.0, 2.0, 2.0, 1.0, 0.0, 1.0], "bins": [-0.1348492056131363, -0.12213776409626007, -0.10942632257938385, -0.09671488106250763, -0.08400343954563141, -0.07129199802875519, -0.05858055651187896, -0.04586911499500275, -0.03315767347812652, -0.020446231961250297, -0.0077347904443740845, 0.004976651072502142, 0.017688092589378368, 0.030399534106254594, 0.04311097562313079, 0.05582241714000702, 0.06853385865688325, 0.08124530017375947, 0.0939567416906357, 0.1066681832075119, 0.11937962472438812, 0.13209106624126438, 0.14480250775814058, 0.15751394927501677, 0.17022539079189303, 0.18293683230876923, 0.19564827382564548, 0.20835971534252168, 0.22107115685939788, 0.23378259837627413, 0.24649403989315033]}, "dense_1_bias_0_image": {"_type": "images/separated", "width": 1, "height": 500, "format": "png", "count": 1, "filenames": ["media/images/dense_1_bias_0_image_15_3c43ae430c0abebc43f2.png"]}, "conv1d_transpose/kernel_0/histogram": {"_type": "histogram", "values": [1.0, 0.0, 0.0, 1.0, 0.0, 2.0, 7.0, 6.0, 18.0, 41.0, 32.0, 33.0, 42.0, 40.0, 50.0, 48.0, 36.0, 45.0, 56.0, 57.0, 54.0, 41.0, 56.0, 30.0, 30.0, 24.0, 10.0, 5.0, 2.0, 1.0], "bins": [-0.3129662871360779, -0.2954559917251269, -0.2779456963141759, -0.2604354009032249, -0.24292510549227397, -0.22541481008132297, -0.207904514670372, -0.19039421925942102, -0.17288392384847004, -0.15537362843751906, -0.13786333302656809, -0.12035303761561711, -0.1028427422046661, -0.08533244679371513, -0.06782215138276415, -0.0503118559718132, -0.0328015605608622, -0.015291265149911193, 0.002219030261039756, 0.01972932567199076, 0.03723962108294171, 0.054749916493892714, 0.07226021190484366, 0.08977050731579467, 0.10728080272674567, 0.12479109813769662, 0.14230139354864763, 0.15981168895959857, 0.17732198437054958, 0.19483227978150053, 0.21234257519245148]}, "conv1d_transpose_kernel_0_image": {"_type": "images/separated", "width": 64, "height": 3, "format": "png", "count": 3, "filenames": ["media/images/conv1d_transpose_kernel_0_image_15_ad133a919c7512cdf309.png", "media/images/conv1d_transpose_kernel_0_image_15_a1e29328e6fede516451.png", "media/images/conv1d_transpose_kernel_0_image_15_5212427df4ee876c853a.png"]}, "conv1d_transpose/bias_0/histogram": {"_type": "histogram", "values": [2.0, 0.0, 0.0, 3.0, 1.0, 3.0, 4.0, 4.0, 3.0, 3.0, 3.0, 2.0, 5.0, 5.0, 2.0, 3.0, 4.0, 3.0, 3.0, 1.0, 0.0, 2.0, 0.0, 2.0, 0.0, 1.0, 4.0, 0.0, 0.0, 1.0], "bins": [-0.15548332035541534, -0.14919049528737863, -0.1428976702193419, -0.1366048451513052, -0.13031202008326848, -0.12401919501523176, -0.11772636994719506, -0.11143354487915834, -0.10514071981112162, -0.0988478947430849, -0.09255506967504819, -0.08626224460701147, -0.07996941953897477, -0.07367659447093805, -0.06738376940290133, -0.061090944334864616, -0.0547981192668279, -0.04850529419879118, -0.042212469130754465, -0.03591964406271775, -0.02962681899468103, -0.023333993926644314, -0.017041168858607597, -0.01074834379057088, -0.004455518722534191, 0.0018373063455025263, 0.008130131413539243, 0.01442295648157596, 0.020715781549612677, 0.027008606617649394, 0.03330143168568611]}, "conv1d_transpose_bias_0_image": {"_type": "images/separated", "width": 1, "height": 64, "format": "png", "count": 1, "filenames": ["media/images/conv1d_transpose_bias_0_image_15_6acfa9d6fdcc8db74199.png"]}, "batch_normalization_2/gamma_0/histogram": {"_type": "histogram", "values": [1.0, 0.0, 0.0, 0.0, 0.0, 1.0, 1.0, 3.0, 3.0, 3.0, 2.0, 5.0, 3.0, 3.0, 5.0, 3.0, 6.0, 4.0, 3.0, 1.0, 5.0, 3.0, 1.0, 0.0, 2.0, 1.0, 3.0, 0.0, 1.0, 1.0], "bins": [0.8397248387336731, 0.8486791590849558, 0.8576334794362386, 0.8665877997875213, 0.8755421201388042, 0.8844964404900869, 0.8934507608413697, 0.9024050811926524, 0.9113594015439351, 0.9203137218952179, 0.9292680422465006, 0.9382223625977835, 0.9471766829490662, 0.956131003300349, 0.9650853236516317, 0.9740396440029144, 0.9829939643541972, 0.9919482847054799, 1.0009026050567627, 1.0098569254080454, 1.0188112457593281, 1.0277655661106109, 1.0367198864618938, 1.0456742068131766, 1.0546285271644593, 1.063582847515742, 1.0725371678670248, 1.0814914882183075, 1.0904458085695903, 1.099400128920873, 1.1083544492721558]}, "batch_normalization_2_gamma_0_image": {"_type": "images/separated", "width": 1, "height": 64, "format": "png", "count": 1, "filenames": ["media/images/batch_normalization_2_gamma_0_image_15_5842522f5ba45d72d1f8.png"]}, "batch_normalization_2/beta_0/histogram": {"_type": "histogram", "values": [5.0, 4.0, 4.0, 2.0, 5.0, 3.0, 2.0, 4.0, 6.0, 8.0, 0.0, 3.0, 2.0, 0.0, 1.0, 0.0, 2.0, 0.0, 3.0, 2.0, 2.0, 1.0, 0.0, 0.0, 0.0, 3.0, 1.0, 0.0, 0.0, 1.0], "bins": [-0.1781778335571289, -0.16575468132893245, -0.153331529100736, -0.14090837687253951, -0.12848522464434306, -0.1160620724161466, -0.10363892018795014, -0.09121576795975367, -0.07879261573155721, -0.06636946350336076, -0.05394631127516429, -0.04152315904696782, -0.029100006818771368, -0.016676854590574913, -0.004253702362378431, 0.008169449865818024, 0.02059260209401448, 0.03301575432221093, 0.04543890655040739, 0.05786205877860387, 0.07028521100680032, 0.0827083632349968, 0.09513151546319326, 0.10755466769138972, 0.11997781991958617, 0.13240097214778263, 0.14482412437597908, 0.15724727660417553, 0.16967042883237204, 0.1820935810605685, 0.19451673328876495]}, "batch_normalization_2_beta_0_image": {"_type": "images/separated", "width": 1, "height": 64, "format": "png", "count": 1, "filenames": ["media/images/batch_normalization_2_beta_0_image_15_b77086bc6e2069a56d7f.png"]}, "batch_normalization_2/moving_mean_0/histogram": {"_type": "histogram", "values": [58.0, 0.0, 0.0, 0.0, 0.0, 1.0, 0.0, 2.0, 0.0, 0.0, 1.0, 0.0, 0.0, 1.0, 0.0, 0.0, 0.0, 0.0, 0.0, 0.0, 0.0, 0.0, 0.0, 0.0, 0.0, 0.0, 0.0, 0.0, 0.0, 1.0], "bins": [6.622812649854926e-13, 0.0010135517151598648, 0.0020271034296574487, 0.0030406551441550323, 0.0040542068586526155, 0.0050677585731501995, 0.006081310287647783, 0.007094862002145366, 0.00810841371664295, 0.009121965431140534, 0.010135517145638118, 0.0111490688601357, 0.012162620574633284, 0.013176172289130868, 0.01418972400362845, 0.015203275718126035, 0.01621682743262362, 0.017230379147121205, 0.01824393086161879, 0.019257482576116373, 0.020271034290613957, 0.021284586005111537, 0.02229813771960912, 0.023311689434106705, 0.02432524114860429, 0.025338792863101874, 0.026352344577599458, 0.02736589629209704, 0.028379448006594622, 0.029392999721092206, 0.03040655143558979]}, "batch_normalization_2_moving_mean_0_image": {"_type": "images/separated", "width": 1, "height": 64, "format": "png", "count": 1, "filenames": ["media/images/batch_normalization_2_moving_mean_0_image_15_5797b4619547087b3bbe.png"]}, "batch_normalization_2/moving_variance_0/histogram": {"_type": "histogram", "values": [55.0, 1.0, 1.0, 0.0, 0.0, 0.0, 0.0, 0.0, 1.0, 0.0, 0.0, 0.0, 0.0, 0.0, 0.0, 2.0, 1.0, 0.0, 0.0, 0.0, 0.0, 0.0, 1.0, 0.0, 0.0, 0.0, 0.0, 0.0, 0.0, 2.0], "bins": [6.007137544895001e-16, 1.6822457843213446e-06, 3.364491568041975e-06, 5.046737351762607e-06, 6.728983135483237e-06, 8.411228919203868e-06, 1.0093474702924499e-05, 1.1775720486645129e-05, 1.345796627036576e-05, 1.5140212054086392e-05, 1.682245783780702e-05, 1.850470362152765e-05, 2.0186949405248282e-05, 2.1869195188968914e-05, 2.3551440972689542e-05, 2.5233686756410173e-05, 2.6915932540130805e-05, 2.8598178323851436e-05, 3.0280424107572068e-05, 3.19626698912927e-05, 3.364491567501333e-05, 3.5327161458733965e-05, 3.700940724245459e-05, 3.869165302617522e-05, 4.0373898809895856e-05, 4.2056144593616484e-05, 4.373839037733712e-05, 4.542063616105775e-05, 4.7102881944778375e-05, 4.878512772849901e-05, 5.046737351221964e-05]}, "batch_normalization_2_moving_variance_0_image": {"_type": "images/separated", "width": 1, "height": 64, "format": "png", "count": 1, "filenames": ["media/images/batch_normalization_2_moving_variance_0_image_15_bb73d8645203240d9bf5.png"]}, "conv1d_transpose_1/kernel_0/histogram": {"_type": "histogram", "values": [1.0, 5.0, 15.0, 25.0, 60.0, 71.0, 154.0, 259.0, 401.0, 518.0, 616.0, 781.0, 828.0, 837.0, 910.0, 961.0, 1017.0, 924.0, 889.0, 795.0, 674.0, 539.0, 413.0, 283.0, 169.0, 77.0, 40.0, 18.0, 4.0, 4.0], "bins": [-0.2808554172515869, -0.2619827757279078, -0.24311013420422872, -0.2242374926805496, -0.20536485115687053, -0.1864922096331914, -0.1676195681095123, -0.14874692658583322, -0.12987428506215412, -0.11100164353847503, -0.09212900201479593, -0.07325636049111683, -0.05438371896743771, -0.035511077443758615, -0.01663843592007952, 0.0022342056035995483, 0.021106847127278672, 0.039979488650957795, 0.05885213017463686, 0.07772477169831599, 0.09659741322199505, 0.11547005474567418, 0.13434269626935325, 0.15321533779303237, 0.1720879793167115, 0.19096062084039056, 0.20983326236406968, 0.2287059038877488, 0.24757854541142787, 0.26645118693510694, 0.285323828458786]}, "conv1d_transpose_1_kernel_0_image": {"_type": "images/separated", "width": 64, "height": 3, "format": "png", "count": 3, "filenames": ["media/images/conv1d_transpose_1_kernel_0_image_15_59e46147dfa282a7954c.png", "media/images/conv1d_transpose_1_kernel_0_image_15_9e2feecdfd807d440f14.png", "media/images/conv1d_transpose_1_kernel_0_image_15_b0c7740b66b7fee0c4ae.png"]}, "conv1d_transpose_1/bias_0/histogram": {"_type": "histogram", "values": [1.0, 1.0, 2.0, 1.0, 0.0, 3.0, 4.0, 3.0, 5.0, 10.0, 1.0, 2.0, 3.0, 1.0, 3.0, 4.0, 0.0, 2.0, 0.0, 7.0, 1.0, 4.0, 1.0, 2.0, 1.0, 0.0, 0.0, 0.0, 1.0, 1.0], "bins": [-0.2768647074699402, -0.2620262145996094, -0.24718772172927855, -0.23234922885894777, -0.21751073598861695, -0.20267224311828613, -0.18783375024795532, -0.1729952573776245, -0.1581567645072937, -0.1433182716369629, -0.12847977876663208, -0.11364128589630126, -0.09880279302597045, -0.08396430015563963, -0.06912580728530884, -0.05428731441497803, -0.03944882154464721, -0.024610328674316395, -0.009771835803985607, 0.005066657066345237, 0.019905149936676025, 0.03474364280700687, 0.04958213567733766, 0.06442062854766845, 0.07925912141799929, 0.09409761428833008, 0.10893610715866092, 0.12377460002899171, 0.1386130928993225, 0.15345158576965334, 0.16829007863998413]}, "conv1d_transpose_1_bias_0_image": {"_type": "images/separated", "width": 1, "height": 64, "format": "png", "count": 1, "filenames": ["media/images/conv1d_transpose_1_bias_0_image_15_7085b147e9286906859e.png"]}, "batch_normalization_3/gamma_0/histogram": {"_type": "histogram", "values": [1.0, 0.0, 1.0, 0.0, 0.0, 1.0, 1.0, 3.0, 2.0, 2.0, 1.0, 8.0, 5.0, 6.0, 1.0, 4.0, 1.0, 7.0, 2.0, 2.0, 5.0, 0.0, 2.0, 2.0, 2.0, 4.0, 0.0, 0.0, 0.0, 1.0], "bins": [0.7977152466773987, 0.8129775186379751, 0.8282397905985515, 0.8435020625591279, 0.8587643345197041, 0.8740266064802805, 0.8892888784408569, 0.9045511504014333, 0.9198134223620097, 0.9350756943225861, 0.9503379662831624, 0.9656002382437388, 0.9808625102043151, 0.9961247821648915, 1.011387054125468, 1.0266493260860443, 1.0419115980466207, 1.057173870007197, 1.0724361419677735, 1.0876984139283499, 1.102960685888926, 1.1182229578495027, 1.1334852298100788, 1.1487475017706554, 1.1640097737312316, 1.179272045691808, 1.1945343176523844, 1.2097965896129608, 1.2250588615735372, 1.2403211335341136, 1.25558340549469]}, "batch_normalization_3_gamma_0_image": {"_type": "images/separated", "width": 1, "height": 64, "format": "png", "count": 1, "filenames": ["media/images/batch_normalization_3_gamma_0_image_15_ced5e3df2a3eaa40967f.png"]}, "batch_normalization_3/beta_0/histogram": {"_type": "histogram", "values": [4.0, 0.0, 4.0, 1.0, 2.0, 1.0, 3.0, 3.0, 3.0, 1.0, 3.0, 5.0, 3.0, 1.0, 4.0, 5.0, 2.0, 1.0, 3.0, 3.0, 1.0, 0.0, 1.0, 3.0, 1.0, 1.0, 0.0, 2.0, 2.0, 1.0], "bins": [-0.19149942696094513, -0.18256708855430284, -0.17363475014766058, -0.1647024117410183, -0.155770073334376, -0.14683773492773372, -0.13790539652109146, -0.12897305811444917, -0.1200407197078069, -0.11110838130116463, -0.10217604289452234, -0.09324370448788007, -0.08431136608123779, -0.0753790276745955, -0.06644668926795322, -0.05751435086131096, -0.04858201245466867, -0.039649674048026384, -0.030717335641384125, -0.021784997234741837, -0.01285265882809955, -0.003920320421457291, 0.005012017985184997, 0.013944356391827284, 0.022876694798469543, 0.03180903320511183, 0.04074137161175412, 0.049673710018396405, 0.05860604842503869, 0.06753838683168095, 0.07647072523832321]}, "batch_normalization_3_beta_0_image": {"_type": "images/separated", "width": 1, "height": 64, "format": "png", "count": 1, "filenames": ["media/images/batch_normalization_3_beta_0_image_15_f6165b8e7eb4687ea5ee.png"]}, "batch_normalization_3/moving_mean_0/histogram": {"_type": "histogram", "values": [44.0, 0.0, 0.0, 0.0, 2.0, 3.0, 1.0, 1.0, 2.0, 1.0, 0.0, 1.0, 1.0, 0.0, 2.0, 1.0, 0.0, 0.0, 0.0, 1.0, 0.0, 0.0, 1.0, 0.0, 0.0, 1.0, 0.0, 1.0, 0.0, 1.0], "bins": [4.8888388846535236e-05, 0.017359080157136, 0.03466927192542547, 0.051979463693714936, 0.0692896554620044, 0.08659984723029386, 0.10391003899858334, 0.1212202307668728, 0.13853042253516226, 0.15584061430345172, 0.1731508060717412, 0.19046099784003065, 0.20777118960832014, 0.2250813813766096, 0.24239157314489906, 0.2597017649131885, 0.277011956681478, 0.29432214844976745, 0.3116323402180569, 0.3289425319863464, 0.34625272375463584, 0.3635629155229253, 0.38087310729121476, 0.3981832990595042, 0.41549349082779374, 0.4328036825960832, 0.45011387436437267, 0.46742406613266213, 0.4847342579009516, 0.502044449669241, 0.5193546414375305]}, "batch_normalization_3_moving_mean_0_image": {"_type": "images/separated", "width": 1, "height": 64, "format": "png", "count": 1, "filenames": ["media/images/batch_normalization_3_moving_mean_0_image_15_655a241185afe74dcf5f.png"]}, "batch_normalization_3/moving_variance_0/histogram": {"_type": "histogram", "values": [44.0, 5.0, 2.0, 2.0, 2.0, 0.0, 1.0, 1.0, 0.0, 1.0, 1.0, 1.0, 0.0, 0.0, 1.0, 0.0, 0.0, 0.0, 1.0, 0.0, 0.0, 0.0, 0.0, 1.0, 0.0, 0.0, 0.0, 0.0, 0.0, 1.0], "bins": [8.279472240246832e-05, 0.006534965104462268, 0.012987135486522068, 0.019439305868581867, 0.025891476250641667, 0.032343646632701464, 0.038795817014761265, 0.045247987396821066, 0.051700157778880866, 0.05815232816094067, 0.06460449854300046, 0.07105666892506027, 0.07750883930712006, 0.08396100968917987, 0.09041318007123966, 0.09686535045329947, 0.10331752083535926, 0.10976969121741906, 0.11622186159947887, 0.12267403198153866, 0.12912620236359845, 0.13557837274565826, 0.14203054312771807, 0.14848271350977787, 0.15493488389183765, 0.16138705427389746, 0.16783922465595727, 0.17429139503801705, 0.18074356542007686, 0.18719573580213666, 0.19364790618419647]}, "batch_normalization_3_moving_variance_0_image": {"_type": "images/separated", "width": 1, "height": 64, "format": "png", "count": 1, "filenames": ["media/images/batch_normalization_3_moving_variance_0_image_15_7f5b994f73b27e83b36c.png"]}, "conv1d_transpose_2/kernel_0/histogram": {"_type": "histogram", "values": [3.0, 5.0, 13.0, 30.0, 78.0, 159.0, 287.0, 444.0, 624.0, 800.0, 874.0, 970.0, 1006.0, 1005.0, 1031.0, 984.0, 946.0, 869.0, 688.0, 528.0, 377.0, 226.0, 154.0, 91.0, 60.0, 16.0, 10.0, 5.0, 3.0, 2.0], "bins": [-0.27205413579940796, -0.25161746541659036, -0.23118079503377278, -0.2107441246509552, -0.1903074542681376, -0.16987078388532, -0.14943411350250244, -0.12899744311968486, -0.10856077273686726, -0.08812410235404966, -0.06768743197123209, -0.047250761588414514, -0.026814091205596913, -0.006377420822779312, 0.014059249560038234, 0.034495919942855835, 0.054932590325673436, 0.07536926070849104, 0.09580593109130864, 0.11624260147412618, 0.13667927185694378, 0.15711594223976139, 0.17755261262257893, 0.19798928300539653, 0.21842595338821413, 0.23886262377103173, 0.25929929415384934, 0.27973596453666694, 0.3001726349194844, 0.32060930530230203, 0.34104597568511963]}, "conv1d_transpose_2_kernel_0_image": {"_type": "images/separated", "width": 64, "height": 3, "format": "png", "count": 3, "filenames": ["media/images/conv1d_transpose_2_kernel_0_image_15_f548020aab6f2ff84014.png", "media/images/conv1d_transpose_2_kernel_0_image_15_818f5e16568043b5c7e0.png", "media/images/conv1d_transpose_2_kernel_0_image_15_16bf76d4dc31637e9ff2.png"]}, "conv1d_transpose_2/bias_0/histogram": {"_type": "histogram", "values": [3.0, 0.0, 2.0, 2.0, 3.0, 2.0, 4.0, 7.0, 6.0, 1.0, 6.0, 3.0, 6.0, 3.0, 2.0, 0.0, 1.0, 3.0, 0.0, 2.0, 0.0, 1.0, 1.0, 2.0, 0.0, 1.0, 1.0, 0.0, 1.0, 1.0], "bins": [-0.18817390501499176, -0.17527687152226765, -0.16237983802954356, -0.14948280453681945, -0.13658577104409536, -0.12368873755137125, -0.11079170405864715, -0.09789467056592305, -0.08499763707319895, -0.07210060358047485, -0.059203570087750734, -0.04630653659502665, -0.033409503102302535, -0.02051246960957845, -0.007615436116854335, 0.005281597375869751, 0.018178630868593865, 0.03107566436131798, 0.043972697854042064, 0.05686973134676618, 0.06976676483949029, 0.08266379833221438, 0.09556083182493846, 0.10845786531766255, 0.12135489881038669, 0.13425193230311078, 0.14714896579583486, 0.160045999288559, 0.1729430327812831, 0.18584006627400718, 0.19873709976673126]}, "conv1d_transpose_2_bias_0_image": {"_type": "images/separated", "width": 1, "height": 64, "format": "png", "count": 1, "filenames": ["media/images/conv1d_transpose_2_bias_0_image_15_0c1f970582b240583457.png"]}, "batch_normalization_4/gamma_0/histogram": {"_type": "histogram", "values": [1.0, 0.0, 0.0, 1.0, 0.0, 0.0, 1.0, 2.0, 2.0, 1.0, 3.0, 2.0, 8.0, 5.0, 5.0, 3.0, 4.0, 3.0, 5.0, 4.0, 2.0, 3.0, 2.0, 0.0, 2.0, 1.0, 2.0, 1.0, 0.0, 1.0], "bins": [0.7809985280036926, 0.7947418391704559, 0.8084851503372192, 0.8222284615039825, 0.8359717726707458, 0.8497150838375092, 0.8634583950042725, 0.8772017061710358, 0.8909450173377991, 0.9046883285045624, 0.9184316396713257, 0.932174950838089, 0.9459182620048523, 0.9596615731716156, 0.9734048843383789, 0.9871481955051422, 1.0008915066719055, 1.0146348178386688, 1.0283781290054321, 1.0421214401721954, 1.0558647513389587, 1.069608062505722, 1.0833513736724854, 1.0970946848392487, 1.110837996006012, 1.1245813071727753, 1.1383246183395386, 1.1520679295063019, 1.1658112406730652, 1.1795545518398285, 1.1932978630065918]}, "batch_normalization_4_gamma_0_image": {"_type": "images/separated", "width": 1, "height": 64, "format": "png", "count": 1, "filenames": ["media/images/batch_normalization_4_gamma_0_image_15_526daf5902db2a24e11b.png"]}, "batch_normalization_4/beta_0/histogram": {"_type": "histogram", "values": [2.0, 0.0, 5.0, 4.0, 4.0, 5.0, 3.0, 7.0, 5.0, 3.0, 4.0, 3.0, 1.0, 2.0, 4.0, 1.0, 1.0, 1.0, 1.0, 2.0, 1.0, 2.0, 0.0, 0.0, 2.0, 0.0, 0.0, 0.0, 0.0, 1.0], "bins": [-0.2719559669494629, -0.2535916169484456, -0.23522726694742838, -0.21686291694641113, -0.19849856694539386, -0.18013421694437662, -0.16176986694335938, -0.1434055169423421, -0.12504116694132486, -0.10667681694030762, -0.08831246693929035, -0.0699481169382731, -0.05158376693725586, -0.03321941693623859, -0.014855066935221317, 0.0035092830657958984, 0.02187363306681317, 0.04023798306783044, 0.058602333068847656, 0.07696668306986493, 0.0953310330708822, 0.11369538307189941, 0.13205973307291669, 0.15042408307393396, 0.16878843307495117, 0.18715278307596844, 0.20551713307698571, 0.22388148307800299, 0.24224583307902026, 0.26061018308003747, 0.2789745330810547]}, "batch_normalization_4_beta_0_image": {"_type": "images/separated", "width": 1, "height": 64, "format": "png", "count": 1, "filenames": ["media/images/batch_normalization_4_beta_0_image_15_7385259b2b84978d6711.png"]}, "batch_normalization_4/moving_mean_0/histogram": {"_type": "histogram", "values": [35.0, 0.0, 3.0, 1.0, 0.0, 7.0, 3.0, 1.0, 1.0, 1.0, 1.0, 2.0, 0.0, 0.0, 0.0, 1.0, 0.0, 1.0, 1.0, 0.0, 1.0, 1.0, 1.0, 0.0, 0.0, 1.0, 1.0, 0.0, 0.0, 1.0], "bins": [0.003938645124435425, 0.07155893941720327, 0.13917923370997112, 0.20679952800273899, 0.2744198222955068, 0.34204011658827466, 0.40966041088104255, 0.4772807051738104, 0.5449009994665782, 0.612521293759346, 0.6801415880521139, 0.7477618823448817, 0.8153821766376497, 0.8830024709304175, 0.9506227652231853, 1.018243059515953, 1.085863353808721, 1.153483648101489, 1.2211039423942567, 1.2887242366870246, 1.3563445309797924, 1.4239648252725603, 1.491585119565328, 1.559205413858096, 1.626825708150864, 1.6944460024436316, 1.7620662967363996, 1.8296865910291673, 1.8973068853219353, 1.964927179614703, 2.0325474739074707]}, "batch_normalization_4_moving_mean_0_image": {"_type": "images/separated", "width": 1, "height": 64, "format": "png", "count": 1, "filenames": ["media/images/batch_normalization_4_moving_mean_0_image_15_bade15fbe7f7dc8bb198.png"]}, "batch_normalization_4/moving_variance_0/histogram": {"_type": "histogram", "values": [3.0, 1.0, 2.0, 0.0, 1.0, 0.0, 0.0, 1.0, 2.0, 6.0, 2.0, 5.0, 3.0, 2.0, 5.0, 4.0, 3.0, 2.0, 1.0, 5.0, 6.0, 1.0, 2.0, 2.0, 1.0, 1.0, 1.0, 0.0, 1.0, 1.0], "bins": [0.20836974680423737, 0.34010338634252546, 0.4718370258808136, 0.6035706654191018, 0.7353043049573899, 0.867037944495678, 0.9987715840339662, 1.1305052235722544, 1.2622388631105423, 1.3939725026488305, 1.5257061421871185, 1.6574397817254067, 1.789173421263695, 1.920907060801983, 2.0526407003402714, 2.184374339878559, 2.3161079794168473, 2.4478416189551355, 2.5795752584934237, 2.7113088980317115, 2.8430425375699997, 2.974776177108288, 3.106509816646576, 3.2382434561848643, 3.3699770957231525, 3.5017107352614403, 3.6334443747997285, 3.7651780143380167, 3.896911653876305, 4.028645293414593, 4.160378932952881]}, "batch_normalization_4_moving_variance_0_image": {"_type": "images/separated", "width": 1, "height": 64, "format": "png", "count": 1, "filenames": ["media/images/batch_normalization_4_moving_variance_0_image_15_98379d34ef1d28d4d35c.png"]}, "conv1d_transpose_3/kernel_0/histogram": {"_type": "histogram", "values": [1.0, 1.0, 2.0, 8.0, 11.0, 13.0, 29.0, 74.0, 138.0, 272.0, 497.0, 667.0, 822.0, 1048.0, 1033.0, 1136.0, 1135.0, 1150.0, 1120.0, 989.0, 783.0, 545.0, 369.0, 199.0, 119.0, 69.0, 30.0, 13.0, 11.0, 4.0], "bins": [-0.37698090076446533, -0.35309101045131686, -0.3292011201381683, -0.30531122982501985, -0.2814213395118713, -0.25753144919872284, -0.23364155888557436, -0.20975166857242586, -0.18586177825927735, -0.16197188794612885, -0.13808199763298035, -0.11419210731983187, -0.0903022170066834, -0.06641232669353486, -0.042522436380386386, -0.018632546067237854, 0.005257344245910622, 0.0291472345590591, 0.05303712487220763, 0.0769270151853561, 0.10081690549850464, 0.12470679581165312, 0.1485966861248016, 0.17248657643795007, 0.19637646675109854, 0.22026635706424713, 0.2441562473773956, 0.2680461376905441, 0.29193602800369256, 0.31582591831684104, 0.3397158086299896]}, "conv1d_transpose_3_kernel_0_image": {"_type": "images/separated", "width": 64, "height": 3, "format": "png", "count": 3, "filenames": ["media/images/conv1d_transpose_3_kernel_0_image_15_9c3fec441cea10211ce0.png", "media/images/conv1d_transpose_3_kernel_0_image_15_c2e17a5fa886916be813.png", "media/images/conv1d_transpose_3_kernel_0_image_15_b7e037ce6c9c856b6040.png"]}, "conv1d_transpose_3/bias_0/histogram": {"_type": "histogram", "values": [1.0, 0.0, 4.0, 0.0, 11.0, 12.0, 6.0, 6.0, 5.0, 3.0, 3.0, 3.0, 0.0, 1.0, 0.0, 0.0, 1.0, 2.0, 1.0, 2.0, 0.0, 0.0, 0.0, 1.0, 0.0, 0.0, 0.0, 0.0, 1.0, 1.0], "bins": [-0.20606864988803864, -0.18108072727918625, -0.15609280467033387, -0.13110488206148146, -0.10611695945262908, -0.0811290368437767, -0.056141114234924294, -0.031153191626071913, -0.006165269017219532, 0.01882265359163285, 0.04381057620048523, 0.06879849880933764, 0.09378642141819005, 0.1187743440270424, 0.1437622666358948, 0.16875018924474716, 0.19373811185359957, 0.21872603446245198, 0.24371395707130433, 0.26870187968015674, 0.2936898022890091, 0.3186777248978615, 0.3436656475067139, 0.3686535701155663, 0.39364149272441873, 0.418629415333271, 0.44361733794212344, 0.46860526055097584, 0.49359318315982825, 0.5185811057686807, 0.543569028377533]}, "conv1d_transpose_3_bias_0_image": {"_type": "images/separated", "width": 1, "height": 64, "format": "png", "count": 1, "filenames": ["media/images/conv1d_transpose_3_bias_0_image_15_46402002fce99a912299.png"]}, "batch_normalization_5/gamma_0/histogram": {"_type": "histogram", "values": [1.0, 0.0, 0.0, 2.0, 2.0, 1.0, 0.0, 1.0, 1.0, 4.0, 7.0, 1.0, 3.0, 1.0, 3.0, 6.0, 3.0, 1.0, 2.0, 4.0, 4.0, 5.0, 2.0, 1.0, 3.0, 3.0, 2.0, 0.0, 0.0, 1.0], "bins": [0.7131235599517822, 0.7311410784721375, 0.7491585969924927, 0.7671761155128479, 0.7851936340332031, 0.8032111525535583, 0.8212286710739136, 0.8392461895942688, 0.857263708114624, 0.8752812266349792, 0.8932987451553345, 0.9113162636756897, 0.9293337821960449, 0.9473513007164002, 0.9653688192367553, 0.9833863377571106, 1.0014038562774659, 1.0194213747978211, 1.0374388933181762, 1.0554564118385314, 1.0734739303588867, 1.091491448879242, 1.1095089673995973, 1.1275264859199523, 1.1455440044403076, 1.1635615229606628, 1.181579041481018, 1.1995965600013734, 1.2176140785217284, 1.2356315970420837, 1.253649115562439]}, "batch_normalization_5_gamma_0_image": {"_type": "images/separated", "width": 1, "height": 64, "format": "png", "count": 1, "filenames": ["media/images/batch_normalization_5_gamma_0_image_15_8f5c9d731256806d9337.png"]}, "batch_normalization_5/beta_0/histogram": {"_type": "histogram", "values": [2.0, 4.0, 3.0, 3.0, 6.0, 9.0, 4.0, 5.0, 2.0, 4.0, 5.0, 3.0, 0.0, 2.0, 4.0, 1.0, 2.0, 2.0, 0.0, 0.0, 0.0, 1.0, 1.0, 0.0, 0.0, 0.0, 0.0, 0.0, 0.0, 1.0], "bins": [-0.1295311003923416, -0.1109921192129453, -0.09245313803354899, -0.07391415685415269, -0.055375175674756374, -0.03683619449536006, -0.018297213315963762, 0.00024176786343255152, 0.018780749042828865, 0.03731973022222518, 0.05585871140162149, 0.0743976925810178, 0.09293667376041409, 0.1114756549398104, 0.13001463611920672, 0.14855361729860306, 0.16709259847799934, 0.18563157965739563, 0.20417056083679197, 0.22270954201618826, 0.2412485231955846, 0.2597875043749809, 0.2783264855543772, 0.2968654667337735, 0.3154044479131698, 0.33394342909256614, 0.3524824102719624, 0.3710213914513587, 0.38956037263075505, 0.4080993538101514, 0.42663833498954773]}, "batch_normalization_5_beta_0_image": {"_type": "images/separated", "width": 1, "height": 64, "format": "png", "count": 1, "filenames": ["media/images/batch_normalization_5_beta_0_image_15_433a7507d9e7cc183ce1.png"]}, "batch_normalization_5/moving_mean_0/histogram": {"_type": "histogram", "values": [46.0, 1.0, 3.0, 1.0, 3.0, 0.0, 1.0, 0.0, 0.0, 0.0, 0.0, 0.0, 0.0, 1.0, 0.0, 0.0, 1.0, 0.0, 0.0, 2.0, 0.0, 1.0, 1.0, 2.0, 0.0, 0.0, 0.0, 0.0, 0.0, 1.0], "bins": [0.015198426321148872, 0.12729894152532023, 0.23939945672949156, 0.3514999719336629, 0.46360048713783425, 0.5757010023420056, 0.6878015175461769, 0.7999020327503483, 0.9120025479545196, 1.024103063158691, 1.1362035783628623, 1.2483040935670338, 1.360404608771205, 1.4725051239753764, 1.5846056391795478, 1.696706154383719, 1.8088066695878904, 1.9209071847920618, 2.033007699996233, 2.1451082152004046, 2.257208730404576, 2.369309245608747, 2.4814097608129186, 2.59351027601709, 2.705610791221261, 2.8177113064254327, 2.929811821629604, 3.041912336833775, 3.1540128520379467, 3.266113367242118, 3.378213882446289]}, "batch_normalization_5_moving_mean_0_image": {"_type": "images/separated", "width": 1, "height": 64, "format": "png", "count": 1, "filenames": ["media/images/batch_normalization_5_moving_mean_0_image_15_09d5c9ebc42b86fb3ec5.png"]}, "batch_normalization_5/moving_variance_0/histogram": {"_type": "histogram", "values": [2.0, 3.0, 4.0, 2.0, 3.0, 4.0, 2.0, 3.0, 3.0, 8.0, 3.0, 3.0, 3.0, 3.0, 4.0, 1.0, 2.0, 1.0, 2.0, 1.0, 0.0, 2.0, 0.0, 0.0, 2.0, 0.0, 0.0, 2.0, 0.0, 1.0], "bins": [2.553959846496582, 4.129676977793376, 5.70539410909017, 7.281111240386963, 8.856828371683758, 10.43254550298055, 12.008262634277344, 13.583979765574139, 15.159696896870932, 16.735414028167725, 18.31113115946452, 19.886848290761314, 21.462565422058105, 23.0382825533549, 24.613999684651695, 26.189716815948486, 27.76543394724528, 29.341151078542076, 30.916868209838867, 32.492585341135666, 34.06830247243246, 35.64401960372925, 37.219736735026046, 38.79545386632284, 40.37117099761963, 41.94688812891643, 43.52260526021322, 45.09832239151001, 46.67403952280681, 48.2497566541036, 49.82547378540039]}, "batch_normalization_5_moving_variance_0_image": {"_type": "images/separated", "width": 1, "height": 64, "format": "png", "count": 1, "filenames": ["media/images/batch_normalization_5_moving_variance_0_image_15_3fcf993b7efdf21a8b11.png"]}, "conv1d_transpose_4/kernel_0/histogram": {"_type": "histogram", "values": [4.0, 3.0, 20.0, 34.0, 72.0, 115.0, 193.0, 250.0, 310.0, 352.0, 422.0, 463.0, 474.0, 537.0, 511.0, 509.0, 460.0, 417.0, 319.0, 252.0, 163.0, 105.0, 67.0, 38.0, 24.0, 12.0, 8.0, 5.0, 1.0, 4.0], "bins": [-0.2820519804954529, -0.259395632147789, -0.23673928380012513, -0.21408293545246124, -0.19142658710479737, -0.16877023875713348, -0.1461138904094696, -0.12345754206180573, -0.10080119371414184, -0.07814484536647795, -0.05548849701881409, -0.032832148671150196, -0.010175800323486306, 0.012480548024177585, 0.03513689637184142, 0.05779324471950531, 0.0804495930671692, 0.10310594141483309, 0.12576228976249698, 0.14841863811016082, 0.1710749864578247, 0.1937313348054886, 0.2163876831531525, 0.23904403150081632, 0.26170037984848027, 0.2843567281961441, 0.30701307654380805, 0.3296694248914719, 0.3523257732391357, 0.37498212158679967, 0.3976384699344635]}, "conv1d_transpose_4_kernel_0_image": {"_type": "images/separated", "width": 32, "height": 3, "format": "png", "count": 3, "filenames": ["media/images/conv1d_transpose_4_kernel_0_image_15_0b443fab5f9cc2abc455.png", "media/images/conv1d_transpose_4_kernel_0_image_15_47d4e97dc1fb891f3975.png", "media/images/conv1d_transpose_4_kernel_0_image_15_6cbe78ed5a0bb97b3d8d.png"]}, "conv1d_transpose_4/bias_0/histogram": {"_type": "histogram", "values": [5.0, 4.0, 0.0, 1.0, 2.0, 3.0, 6.0, 2.0, 1.0, 1.0, 1.0, 0.0, 0.0, 1.0, 1.0, 0.0, 0.0, 0.0, 0.0, 0.0, 0.0, 0.0, 0.0, 0.0, 1.0, 1.0, 1.0, 0.0, 0.0, 1.0], "bins": [-0.08925418555736542, -0.06822843303283055, -0.047202680508295694, -0.02617692798376084, -0.005151175459225971, 0.015874577065308898, 0.03690032958984374, 0.05792608211437861, 0.07895183463891348, 0.09997758716344834, 0.12100333968798321, 0.14202909221251805, 0.1630548447370529, 0.18408059726158776, 0.20510634978612263, 0.2261321023106575, 0.24715785483519237, 0.26818360735972724, 0.2892093598842621, 0.310235112408797, 0.33126086493333184, 0.35228661745786666, 0.3733123699824015, 0.3943381225069364, 0.4153638750314712, 0.4363896275560061, 0.45741538008054095, 0.4784411326050758, 0.4994668851296107, 0.5204926376541456, 0.5415183901786804]}, "conv1d_transpose_4_bias_0_image": {"_type": "images/separated", "width": 1, "height": 32, "format": "png", "count": 1, "filenames": ["media/images/conv1d_transpose_4_bias_0_image_15_df84f9d153c175d79fc1.png"]}, "batch_normalization_6/gamma_0/histogram": {"_type": "histogram", "values": [1.0, 0.0, 0.0, 1.0, 0.0, 0.0, 0.0, 0.0, 0.0, 0.0, 0.0, 0.0, 0.0, 0.0, 1.0, 0.0, 0.0, 1.0, 0.0, 1.0, 0.0, 1.0, 5.0, 1.0, 5.0, 6.0, 3.0, 2.0, 2.0, 2.0], "bins": [0.5542798638343811, 0.5663404802481333, 0.5784010966618855, 0.5904617130756378, 0.6025223294893901, 0.6145829459031423, 0.6266435623168946, 0.6387041787306468, 0.650764795144399, 0.6628254115581512, 0.6748860279719034, 0.6869466443856558, 0.699007260799408, 0.7110678772131602, 0.7231284936269124, 0.7351891100406647, 0.7472497264544169, 0.7593103428681691, 0.7713709592819213, 0.7834315756956737, 0.7954921921094259, 0.8075528085231781, 0.8196134249369303, 0.8316740413506826, 0.8437346577644349, 0.8557952741781871, 0.8678558905919393, 0.8799165070056916, 0.8919771234194438, 0.904037739833196, 0.9160983562469482]}, "batch_normalization_6_gamma_0_image": {"_type": "images/separated", "width": 1, "height": 32, "format": "png", "count": 1, "filenames": ["media/images/batch_normalization_6_gamma_0_image_15_23a63b3a47a6b15176e4.png"]}, "batch_normalization_6/beta_0/histogram": {"_type": "histogram", "values": [3.0, 0.0, 0.0, 0.0, 0.0, 1.0, 0.0, 2.0, 0.0, 1.0, 0.0, 2.0, 1.0, 6.0, 4.0, 5.0, 2.0, 1.0, 0.0, 0.0, 2.0, 0.0, 0.0, 0.0, 0.0, 0.0, 0.0, 0.0, 0.0, 2.0], "bins": [-0.19103877246379852, -0.17793808082739512, -0.16483738919099172, -0.15173669755458832, -0.13863600591818492, -0.1255353142817815, -0.11243462264537811, -0.09933393100897471, -0.08623323937257131, -0.07313254773616791, -0.0600318560997645, -0.0469311644633611, -0.0338304728269577, -0.020729781190554297, -0.007629089554150897, 0.0054716020822525024, 0.018572293718655902, 0.0316729853550593, 0.0447736769914627, 0.0578743686278661, 0.07097506026426953, 0.0840757519006729, 0.09717644353707633, 0.1102771351734797, 0.12337782680988313, 0.1364785184462865, 0.14957921008268993, 0.1626799017190933, 0.17578059335549673, 0.1888812849919001, 0.20198197662830353]}, "batch_normalization_6_beta_0_image": {"_type": "images/separated", "width": 1, "height": 32, "format": "png", "count": 1, "filenames": ["media/images/batch_normalization_6_beta_0_image_15_07571facef2ec2697f5a.png"]}, "batch_normalization_6/moving_mean_0/histogram": {"_type": "histogram", "values": [11.0, 7.0, 1.0, 1.0, 0.0, 0.0, 0.0, 0.0, 2.0, 1.0, 1.0, 0.0, 1.0, 0.0, 1.0, 0.0, 0.0, 0.0, 0.0, 0.0, 0.0, 1.0, 0.0, 1.0, 0.0, 0.0, 1.0, 1.0, 0.0, 2.0], "bins": [0.030414631590247154, 0.09530481590578953, 0.1601950002213319, 0.22508518453687426, 0.28997536885241665, 0.35486555316795904, 0.41975573748350137, 0.48464592179904376, 0.5495361061145861, 0.6144262904301285, 0.6793164747456709, 0.7442066590612133, 0.8090968433767556, 0.873987027692298, 0.9388772120078404, 1.0037673963233829, 1.0686575806389251, 1.1335477649544674, 1.19843794927001, 1.2633281335855522, 1.3282183179010947, 1.393108502216637, 1.4579986865321795, 1.5228888708477217, 1.587779055163264, 1.6526692394788065, 1.7175594237943488, 1.7824496081098913, 1.8473397924254336, 1.912229976740976, 1.9771201610565186]}, "batch_normalization_6_moving_mean_0_image": {"_type": "images/separated", "width": 1, "height": 32, "format": "png", "count": 1, "filenames": ["media/images/batch_normalization_6_moving_mean_0_image_15_9405d5c593e1cc738db1.png"]}, "batch_normalization_6/moving_variance_0/histogram": {"_type": "histogram", "values": [4.0, 0.0, 0.0, 0.0, 1.0, 2.0, 0.0, 2.0, 2.0, 1.0, 3.0, 0.0, 1.0, 2.0, 0.0, 0.0, 1.0, 3.0, 1.0, 0.0, 1.0, 1.0, 0.0, 1.0, 3.0, 0.0, 0.0, 1.0, 1.0, 1.0], "bins": [3.104764938354492, 6.082826169331868, 9.060887400309245, 12.03894863128662, 15.017009862263997, 17.99507109324137, 20.97313232421875, 23.951193555196127, 26.9292547861735, 29.907316017150876, 32.88537724812825, 35.86343847910563, 38.841499710083006, 41.81956094106038, 44.79762217203776, 47.77568340301514, 50.75374463399251, 53.731805864969886, 56.70986709594726, 59.68792832692464, 62.665989557902016, 65.64405078887938, 68.62211201985677, 71.60017325083415, 74.57823448181152, 77.5562957127889, 80.53435694376627, 83.51241817474364, 86.49047940572103, 89.4685406366984, 92.44660186767578]}, "batch_normalization_6_moving_variance_0_image": {"_type": "images/separated", "width": 1, "height": 32, "format": "png", "count": 1, "filenames": ["media/images/batch_normalization_6_moving_variance_0_image_15_77b8840a5e9233f7b6c2.png"]}, "conv1d_transpose_5/kernel_0/histogram": {"_type": "histogram", "values": [2.0, 0.0, 4.0, 5.0, 7.0, 10.0, 19.0, 16.0, 10.0, 22.0, 13.0, 24.0, 27.0, 26.0, 15.0, 18.0, 16.0, 15.0, 17.0, 9.0, 19.0, 17.0, 15.0, 17.0, 17.0, 9.0, 7.0, 4.0, 2.0, 2.0], "bins": [-0.23992720246315002, -0.22405274113019308, -0.20817827979723613, -0.19230381846427919, -0.17642935713132224, -0.1605548957983653, -0.14468043446540832, -0.12880597313245137, -0.11293151179949443, -0.09705705046653748, -0.08118258913358053, -0.06530812780062359, -0.049433666467666615, -0.03355920513470967, -0.017684743801752723, -0.0018102824687957764, 0.01406417886416117, 0.029938640197118116, 0.04581310153007506, 0.06168756286303201, 0.07756202419598895, 0.0934364855289459, 0.10931094686190285, 0.1251854081948598, 0.1410598695278168, 0.15693433086077374, 0.1728087921937307, 0.18868325352668763, 0.20455771485964458, 0.22043217619260153, 0.23630663752555847]}, "conv1d_transpose_5_kernel_0_image": {"_type": "images/separated", "width": 4, "height": 3, "format": "png", "count": 3, "filenames": ["media/images/conv1d_transpose_5_kernel_0_image_15_8b4e2e0d75d3c46af80b.png", "media/images/conv1d_transpose_5_kernel_0_image_15_567f994e2fc3578b8189.png", "media/images/conv1d_transpose_5_kernel_0_image_15_fa14ddf13776245ad443.png"]}, "conv1d_transpose_5/bias_0/histogram": {"_type": "histogram", "values": [1.0, 0.0, 1.0, 0.0, 0.0, 0.0, 0.0, 0.0, 0.0, 0.0, 0.0, 0.0, 0.0, 0.0, 0.0, 0.0, 0.0, 0.0, 0.0, 0.0, 0.0, 0.0, 0.0, 0.0, 0.0, 0.0, 0.0, 1.0, 0.0, 1.0], "bins": [-0.1380910724401474, -0.12959053019682568, -0.12108998795350392, -0.1125894457101822, -0.10408890346686045, -0.09558836122353873, -0.08708781898021699, -0.07858727673689525, -0.07008673449357351, -0.061586192250251776, -0.05308565000693004, -0.0445851077636083, -0.03608456552028658, -0.02758402327696484, -0.0190834810336431, -0.01058293879032135, -0.0020823965469996264, 0.006418145696322097, 0.014918687939643849, 0.023419230182965572, 0.031919772426287324, 0.04042031466960905, 0.0489208569129308, 0.05742139915625252, 0.06592194139957425, 0.074422483642896, 0.08292302588621772, 0.09142356812953947, 0.0999241103728612, 0.10842465261618295, 0.1169251948595047]}, "conv1d_transpose_5_bias_0_image": {"_type": "images/separated", "width": 1, "height": 4, "format": "png", "count": 1, "filenames": ["media/images/conv1d_transpose_5_bias_0_image_15_53c1ff7119778de12189.png"]}, "_runtime": 11435.223924160004, "_step": 15, "_wandb": {"runtime": 11434}}