{"global_step": 24, "_timestamp": 1688058661.445393, "epoch_loss": 1.3821356296539307, "epoch_lr": 0.00010000000474974513, "pwm_conv/kernel_0/histogram": {"_type": "histogram", "values": [2.0, 1.0, 1.0, 36.0, 514.0, 96.0, 17.0, 408.0, 346.0, 324.0, 313.0, 421.0, 388.0, 425.0, 352.0, 473.0, 480.0, 575.0, 533.0, 580.0, 697.0, 739.0, 702.0, 701.0, 3864.0, 703.0, 709.0, 566.0, 577.0, 1417.0], "bins": [-5.521356105804443, -5.291306344668071, -5.061256583531698, -4.831206822395325, -4.601157061258952, -4.3711073001225795, -4.141057538986206, -3.911007777849833, -3.6809580167134603, -3.4509082555770876, -3.220858494440715, -2.9908087333043416, -2.760758972167969, -2.530709211031596, -2.300659449895223, -2.07060968875885, -1.8405599276224773, -1.6105101664861046, -1.3804604053497318, -1.150410644213359, -0.9203608830769863, -0.6903111219406126, -0.46026136080423985, -0.23021159966786708, -0.00016183853149431826, 0.22988792260487845, 0.4599376837412512, 0.689987444877624, 0.9200372060139976, 1.1500869671503704, 1.3801367282867432]}, "pwm_conv_kernel_0_image": {"_type": "images/separated", "width": 4, "height": 16, "format": "png", "count": 3, "filenames": ["media/images/pwm_conv_kernel_0_image_24_85f3ac3d3901ef7a9581.png", "media/images/pwm_conv_kernel_0_image_24_ff0166818b9ecb03dabe.png", "media/images/pwm_conv_kernel_0_image_24_5c3e85ae5e5c15d498f0.png"]}, "conv1d/kernel_0/histogram": {"_type": "histogram", "values": [1.0, 0.0, 0.0, 0.0, 0.0, 1.0, 0.0, 1.0, 4.0, 46.0, 665.0, 4118.0, 4580.0, 4522.0, 4527.0, 4572.0, 4566.0, 4556.0, 4544.0, 4485.0, 4407.0, 3936.0, 1332.0, 15.0, 1.0, 0.0, 0.0, 0.0, 0.0, 1.0], "bins": [-0.2253795862197876, -0.211712309718132, -0.19804503321647643, -0.18437775671482087, -0.1707104802131653, -0.1570432037115097, -0.14337592720985412, -0.12970865070819854, -0.11604137420654297, -0.10237409770488738, -0.08870682120323181, -0.07503954470157623, -0.06137226819992064, -0.04770499169826506, -0.0340377151966095, -0.02037043869495392, -0.006703162193298334, 0.00696411430835725, 0.020631390810012834, 0.03429866731166842, 0.047965943813323975, 0.061633220314979587, 0.07530049681663514, 0.0889677733182907, 0.10263504981994631, 0.11630232632160187, 0.12996960282325748, 0.14363687932491304, 0.1573041558265686, 0.1709714323282242, 0.18463870882987976]}, "conv1d_kernel_0_image": {"_type": "images/separated", "width": 265, "height": 3, "format": "png", "count": 3, "filenames": ["media/images/conv1d_kernel_0_image_24_a5d6dc397559c2b1f6d2.png", "media/images/conv1d_kernel_0_image_24_368f9d4cbdb6d7e76d12.png", "media/images/conv1d_kernel_0_image_24_3c522164a07d0b0897a4.png"]}, "conv1d/bias_0/histogram": {"_type": "histogram", "values": [3.0, 0.0, 0.0, 1.0, 0.0, 2.0, 1.0, 1.0, 2.0, 7.0, 1.0, 0.0, 4.0, 2.0, 0.0, 0.0, 1.0, 2.0, 1.0, 3.0, 2.0, 10.0, 0.0, 0.0, 0.0, 1.0, 2.0, 0.0, 3.0, 15.0], "bins": [-0.004831853788346052, -0.004648927081143483, -0.004466000373940915, -0.004283073666738346, -0.004100146959535778, -0.003917220252333209, -0.0037342935451306404, -0.003551366837928072, -0.003368440130725503, -0.0031855134235229347, -0.0030025867163203657, -0.002819660009117797, -0.0026367333019152285, -0.00245380659471266, -0.002270879887510091, -0.0020879531803075224, -0.0019050264731049539, -0.0017220997659023853, -0.0015391730586998167, -0.0013562463514972477, -0.0011733196442946792, -0.0009903929370921106, -0.000807466229889542, -0.000624539522686973, -0.0004416128154844049, -0.0002586861082818359, -7.575940107926778e-05, 0.00010716730612330121, 0.0002900940133258702, 0.00047302072052843834, 0.0006559474277310073]}, "conv1d_bias_0_image": {"_type": "images/separated", "width": 1, "height": 64, "format": "png", "count": 1, "filenames": ["media/images/conv1d_bias_0_image_24_bb73d8645203240d9bf5.png"]}, "dense/kernel_0/histogram": {"_type": "histogram", "values": [2.0, 5.0, 2.0, 4.0, 1.0, 4.0, 0.0, 2.0, 4.0, 1.0, 3.0, 0.0, 4.0, 3.0, 49.0, 7.0, 5.0, 2.0, 5.0, 0.0, 0.0, 1.0, 4.0, 3.0, 4.0, 4.0, 0.0, 2.0, 5.0, 2.0], "bins": [-0.2891455292701721, -0.26985549529393515, -0.2505654613176982, -0.23127542734146117, -0.2119853933652242, -0.19269535938898724, -0.17340532541275025, -0.15411529143651326, -0.1348252574602763, -0.11553522348403933, -0.09624518950780234, -0.07695515553156534, -0.05766512155532838, -0.038375087579091416, -0.019085053602854396, 0.00020498037338256836, 0.019495014349619533, 0.0387850483258565, 0.05807508230209346, 0.07736511627833048, 0.09665515025456745, 0.11594518423080441, 0.13523521820704143, 0.1545252521832784, 0.17381528615951536, 0.19310532013575232, 0.2123953541119893, 0.23168538808822625, 0.2509754220644633, 0.2702654560407003, 0.28955549001693726]}, "dense_kernel_0_image": {"_type": "images/separated", "width": 64, "height": 2, "format": "png", "count": 1, "filenames": ["media/images/dense_kernel_0_image_24_3daf5b3c790c889ce595.png"]}, "dense/bias_0/histogram": {"_type": "histogram", "values": [1.0, 0.0, 0.0, 0.0, 0.0, 0.0, 0.0, 0.0, 0.0, 0.0, 0.0, 0.0, 0.0, 0.0, 0.0, 0.0, 0.0, 0.0, 0.0, 0.0, 0.0, 0.0, 0.0, 0.0, 0.0, 0.0, 0.0, 0.0, 0.0, 1.0], "bins": [-0.05897758901119232, -0.05703567409655079, -0.055093759181909265, -0.05315184426726773, -0.05120992935262621, -0.049268014437984675, -0.04732609952334314, -0.04538418460870162, -0.043442269694060086, -0.04150035477941856, -0.03955843986477703, -0.037616524950135496, -0.03567461003549397, -0.033732695120852446, -0.031790780206210914, -0.029848865291569382, -0.027906950376927853, -0.025965035462286325, -0.024023120547644793, -0.022081205633003267, -0.020139290718361735, -0.01819737580372021, -0.016255460889078678, -0.014313545974437146, -0.01237163105979562, -0.010429716145154089, -0.008487801230512564, -0.0065458863158710315, -0.004603971401229499, -0.0026620564865879742, -0.0007201415719464421]}, "dense_bias_0_image": {"_type": "images/separated", "width": 1, "height": 2, "format": "png", "count": 1, "filenames": ["media/images/dense_bias_0_image_24_8d994cf362504173484c.png"]}, "dense_1/kernel_0/histogram": {"_type": "histogram", "values": [3.0, 1.0, 1.0, 2.0, 6.0, 6.0, 3.0, 5.0, 7.0, 8.0, 8.0, 8.0, 19.0, 26.0, 121.0, 69.0, 39.0, 27.0, 21.0, 12.0, 15.0, 22.0, 16.0, 17.0, 12.0, 12.0, 6.0, 6.0, 1.0, 1.0], "bins": [-0.10872743278741837, -0.10140459363659222, -0.0940817544857661, -0.08675891533493996, -0.07943607618411382, -0.07211323703328767, -0.06479039788246155, -0.05746755873163541, -0.05014471958080927, -0.04282188042998314, -0.035499041279157, -0.028176202128330857, -0.02085336297750473, -0.01353052382667859, -0.006207684675852448, 0.0011151544749736786, 0.00843799362579982, 0.01576083277662596, 0.023083671927452087, 0.030406511078278242, 0.03772935022910437, 0.045052189379930496, 0.05237502853075665, 0.05969786768158278, 0.0670207068324089, 0.07434354598323506, 0.08166638513406119, 0.08898922428488731, 0.09631206343571347, 0.1036349025865396, 0.11095774173736572]}, "dense_1_kernel_0_image": {"_type": "images/separated", "width": 1, "height": 500, "format": "png", "count": 1, "filenames": ["media/images/dense_1_kernel_0_image_24_470a4f2c255dafad02f4.png"]}, "dense_1/bias_0/histogram": {"_type": "histogram", "values": [3.0, 7.0, 9.0, 7.0, 10.0, 12.0, 15.0, 13.0, 14.0, 17.0, 12.0, 13.0, 17.0, 17.0, 20.0, 18.0, 21.0, 32.0, 54.0, 58.0, 11.0, 18.0, 21.0, 42.0, 15.0, 6.0, 3.0, 6.0, 7.0, 2.0], "bins": [-0.7125576734542847, -0.676518460114797, -0.6404792467753092, -0.6044400334358215, -0.5684008200963339, -0.5323616067568462, -0.4963223934173584, -0.4602831800778707, -0.424243966738383, -0.38820475339889526, -0.3521655400594076, -0.31612632671991986, -0.28008711338043213, -0.24404790004094445, -0.20800868670145678, -0.171969473361969, -0.13593026002248132, -0.09989104668299364, -0.06385183334350586, -0.027812620004018185, 0.00822659333546949, 0.044265806674957275, 0.08030502001444495, 0.11634423335393262, 0.1523834466934204, 0.18842266003290808, 0.22446187337239576, 0.26050108671188343, 0.2965403000513711, 0.3325795133908589, 0.3686187267303467]}, "dense_1_bias_0_image": {"_type": "images/separated", "width": 1, "height": 500, "format": "png", "count": 1, "filenames": ["media/images/dense_1_bias_0_image_24_094ee324f3cd8d464e20.png"]}, "conv1d_transpose/kernel_0/histogram": {"_type": "histogram", "values": [1.0, 0.0, 0.0, 3.0, 1.0, 1.0, 2.0, 1.0, 2.0, 6.0, 12.0, 43.0, 28.0, 45.0, 49.0, 62.0, 59.0, 77.0, 59.0, 62.0, 66.0, 57.0, 53.0, 35.0, 18.0, 8.0, 5.0, 3.0, 6.0, 4.0], "bins": [-0.44363147020339966, -0.4183986663818359, -0.3931658625602722, -0.3679330587387085, -0.3427002549171448, -0.31746745109558105, -0.2922346472740173, -0.2670018434524536, -0.2417690396308899, -0.21653623580932616, -0.19130343198776245, -0.16607062816619872, -0.140837824344635, -0.11560502052307126, -0.09037221670150758, -0.06513941287994385, -0.039906609058380116, -0.014673805236816384, 0.010558998584747348, 0.035791802406311024, 0.061024606227874756, 0.08625741004943854, 0.11149021387100222, 0.1367230176925659, 0.16195582151412968, 0.18718862533569336, 0.21242142915725715, 0.23765423297882082, 0.2628870368003845, 0.2881198406219483, 0.31335264444351196]}, "conv1d_transpose_kernel_0_image": {"_type": "images/separated", "width": 64, "height": 3, "format": "png", "count": 3, "filenames": ["media/images/conv1d_transpose_kernel_0_image_24_92d3b8f7d29b63a68ca0.png", "media/images/conv1d_transpose_kernel_0_image_24_daad7092e877c89250b3.png", "media/images/conv1d_transpose_kernel_0_image_24_1fd92a3cddfc0b86efd2.png"]}, "conv1d_transpose/bias_0/histogram": {"_type": "histogram", "values": [1.0, 1.0, 0.0, 1.0, 1.0, 1.0, 3.0, 7.0, 3.0, 2.0, 2.0, 4.0, 2.0, 0.0, 0.0, 1.0, 3.0, 17.0, 4.0, 3.0, 0.0, 2.0, 2.0, 1.0, 0.0, 0.0, 2.0, 0.0, 0.0, 1.0], "bins": [-0.17816120386123657, -0.1664233813683192, -0.1546855588754018, -0.14294773638248442, -0.13120991388956704, -0.11947209139664967, -0.1077342689037323, -0.09599644641081492, -0.08425862391789754, -0.07252080142498016, -0.060782978932062776, -0.04904515643914539, -0.03730733394622804, -0.025569511453310656, -0.013831688960393274, -0.002093866467475891, 0.009643956025441491, 0.021381778518358874, 0.033119601011276256, 0.04485742350419364, 0.05659524599711102, 0.06833306849002838, 0.08007089098294579, 0.09180871347586317, 0.1035465359687805, 0.11528435846169788, 0.12702218095461526, 0.13876000344753264, 0.15049782594045003, 0.1622356484333674, 0.1739734709262848]}, "conv1d_transpose_bias_0_image": {"_type": "images/separated", "width": 1, "height": 64, "format": "png", "count": 1, "filenames": ["media/images/conv1d_transpose_bias_0_image_24_a54d4fabbef06b359c23.png"]}, "conv1d_transpose_1/kernel_0/histogram": {"_type": "histogram", "values": [1.0, 0.0, 3.0, 1.0, 1.0, 3.0, 5.0, 10.0, 16.0, 27.0, 52.0, 89.0, 208.0, 595.0, 713.0, 782.0, 703.0, 744.0, 732.0, 677.0, 556.0, 142.0, 44.0, 17.0, 8.0, 9.0, 4.0, 0.0, 1.0, 1.0], "bins": [-0.599364697933197, -0.5643634766340255, -0.5293622553348541, -0.49436103403568266, -0.4593598127365112, -0.4243585914373398, -0.3893573701381683, -0.35435614883899685, -0.3193549275398254, -0.284353706240654, -0.24935248494148254, -0.21435126364231105, -0.17935004234313962, -0.14434882104396818, -0.10934759974479669, -0.0743463784456253, -0.03934515714645381, -0.004343935847282321, 0.03065728545188906, 0.06565850675106055, 0.10065972805023193, 0.13566094934940343, 0.17066217064857492, 0.2056633919477463, 0.2406646132469178, 0.2756658345460893, 0.31066705584526066, 0.34566827714443216, 0.38066949844360365, 0.41567071974277514, 0.4506719410419464]}, "conv1d_transpose_1_kernel_0_image": {"_type": "images/separated", "width": 32, "height": 3, "format": "png", "count": 3, "filenames": ["media/images/conv1d_transpose_1_kernel_0_image_24_d1ebecf66ef8561334d7.png", "media/images/conv1d_transpose_1_kernel_0_image_24_465c1e7b2110900abfe3.png", "media/images/conv1d_transpose_1_kernel_0_image_24_14cd5050f7f54dc7b9ce.png"]}, "conv1d_transpose_1/bias_0/histogram": {"_type": "histogram", "values": [3.0, 0.0, 1.0, 1.0, 1.0, 2.0, 2.0, 1.0, 1.0, 1.0, 0.0, 0.0, 2.0, 0.0, 1.0, 2.0, 2.0, 1.0, 1.0, 2.0, 1.0, 0.0, 0.0, 1.0, 1.0, 1.0, 1.0, 1.0, 0.0, 2.0], "bins": [-0.0743878036737442, -0.06844941476980845, -0.0625110258658727, -0.05657263696193695, -0.0506342480580012, -0.04469585915406545, -0.0387574702501297, -0.03281908134619395, -0.0268806924422582, -0.02094230353832245, -0.015003914634386703, -0.009065525730450955, -0.003127136826515192, 0.0028112520774205563, 0.008749640981356305, 0.014688029885292053, 0.0206264187892278, 0.02656480769316355, 0.0325031965970993, 0.03844158550103505, 0.044379974404970796, 0.05031836330890656, 0.05625675221284229, 0.06219514111677804, 0.06813353002071382, 0.07407191892464957, 0.08001030782858531, 0.08594869673252106, 0.09188708563645681, 0.09782547454039256, 0.10376386344432831]}, "conv1d_transpose_1_bias_0_image": {"_type": "images/separated", "width": 1, "height": 32, "format": "png", "count": 1, "filenames": ["media/images/conv1d_transpose_1_bias_0_image_24_070f22ab29920e7b2fcc.png"]}, "conv1d_transpose_2/kernel_0/histogram": {"_type": "histogram", "values": [1.0, 0.0, 1.0, 0.0, 1.0, 1.0, 1.0, 10.0, 18.0, 24.0, 33.0, 27.0, 28.0, 35.0, 32.0, 23.0, 27.0, 19.0, 18.0, 32.0, 23.0, 10.0, 6.0, 6.0, 2.0, 3.0, 1.0, 0.0, 1.0, 1.0], "bins": [-0.4845496714115143, -0.4521709481875102, -0.41979222496350604, -0.38741350173950195, -0.3550347785154978, -0.3226560552914937, -0.2902773320674896, -0.2578986088434855, -0.22551988561948139, -0.1931411623954773, -0.16076243917147315, -0.12838371594746906, -0.09600499272346497, -0.06362626949946082, -0.031247546275456728, 0.0011311769485474188, 0.03350990017255151, 0.06588862339655566, 0.09826734662055969, 0.13064606984456384, 0.16302479306856799, 0.19540351629257202, 0.22778223951657617, 0.2601609627405803, 0.29253968596458435, 0.3249184091885885, 0.35729713241259264, 0.3896758556365968, 0.4220545788606008, 0.454433302084605, 0.486812025308609]}, "conv1d_transpose_2_kernel_0_image": {"_type": "images/separated", "width": 4, "height": 3, "format": "png", "count": 3, "filenames": ["media/images/conv1d_transpose_2_kernel_0_image_24_2bf312ca398dfc89bf86.png", "media/images/conv1d_transpose_2_kernel_0_image_24_bd152690be43ff40b36e.png", "media/images/conv1d_transpose_2_kernel_0_image_24_250545fe87d26092563c.png"]}, "conv1d_transpose_2/bias_0/histogram": {"_type": "histogram", "values": [1.0, 0.0, 0.0, 0.0, 0.0, 0.0, 1.0, 0.0, 0.0, 0.0, 0.0, 0.0, 0.0, 0.0, 0.0, 0.0, 0.0, 0.0, 0.0, 0.0, 0.0, 0.0, 1.0, 0.0, 0.0, 0.0, 0.0, 0.0, 0.0, 1.0], "bins": [-0.031423624604940414, -0.02871470923225085, -0.026005793859561283, -0.02329687848687172, -0.020587963114182154, -0.017879047741492588, -0.015170132368803026, -0.01246121699611346, -0.009752301623423894, -0.007043386250734328, -0.004334470878044762, -0.0016255555053551994, 0.001083359867334363, 0.003792275240023929, 0.006501190612713495, 0.009210105985403061, 0.011919021358092627, 0.014627936730782193, 0.01733685210347176, 0.020045767476161325, 0.02275468284885089, 0.02546359822154045, 0.028172513594230016, 0.03088142896691958, 0.03359034433960914, 0.036299259712298707, 0.03900817508498827, 0.04171709045767784, 0.044426005830367404, 0.04713492120305697, 0.049843836575746536]}, "conv1d_transpose_2_bias_0_image": {"_type": "images/separated", "width": 1, "height": 4, "format": "png", "count": 1, "filenames": ["media/images/conv1d_transpose_2_bias_0_image_24_1dd9491a921f2a99d5e6.png"]}, "_runtime": 1827.4899690151215, "_step": 24}