{"global_step": 59, "_timestamp": 1688072773.464961, "epoch_loss": 1.4869534969329834, "epoch_lr": 0.0010000000474974513, "pwm_conv/kernel_0/histogram": {"_type": "histogram", "values": [2.0, 1.0, 1.0, 36.0, 514.0, 96.0, 17.0, 408.0, 346.0, 324.0, 313.0, 421.0, 388.0, 425.0, 352.0, 473.0, 480.0, 575.0, 533.0, 580.0, 697.0, 739.0, 702.0, 701.0, 3864.0, 703.0, 709.0, 566.0, 577.0, 1417.0], "bins": [-5.521356105804443, -5.291306344668071, -5.061256583531698, -4.831206822395325, -4.601157061258952, -4.3711073001225795, -4.141057538986206, -3.911007777849833, -3.6809580167134603, -3.4509082555770876, -3.220858494440715, -2.9908087333043416, -2.760758972167969, -2.530709211031596, -2.300659449895223, -2.07060968875885, -1.8405599276224773, -1.6105101664861046, -1.3804604053497318, -1.150410644213359, -0.9203608830769863, -0.6903111219406126, -0.46026136080423985, -0.23021159966786708, -0.00016183853149431826, 0.22988792260487845, 0.4599376837412512, 0.689987444877624, 0.9200372060139976, 1.1500869671503704, 1.3801367282867432]}, "pwm_conv_kernel_0_image": {"_type": "images/separated", "width": 4, "height": 16, "format": "png", "count": 3, "filenames": ["media/images/pwm_conv_kernel_0_image_59_85f3ac3d3901ef7a9581.png", "media/images/pwm_conv_kernel_0_image_59_ff0166818b9ecb03dabe.png", "media/images/pwm_conv_kernel_0_image_59_5c3e85ae5e5c15d498f0.png"]}, "conv1d/kernel_0/histogram": {"_type": "histogram", "values": [2.0, 11.0, 57.0, 259.0, 1093.0, 2025.0, 2294.0, 2277.0, 2408.0, 2293.0, 2314.0, 2334.0, 2200.0, 2359.0, 2390.0, 2315.0, 2313.0, 2373.0, 2320.0, 2250.0, 2315.0, 2254.0, 2384.0, 2297.0, 2191.0, 1934.0, 1311.0, 272.0, 31.0, 4.0], "bins": [-0.1079971119761467, -0.1010481225947539, -0.09409913321336111, -0.08715014383196831, -0.08020115445057552, -0.07325216506918272, -0.06630317568778991, -0.05935418630639712, -0.052405196925004324, -0.04545620754361153, -0.038507218162218734, -0.03155822878082594, -0.02460923939943313, -0.017660250018040335, -0.01071126063664754, -0.0037622712552547455, 0.0031867181261380495, 0.010135707507530844, 0.01708469688892364, 0.024033686270316434, 0.03098267565170923, 0.037931665033102024, 0.04488065441449482, 0.051829643795887614, 0.05877863317728044, 0.06572762255867323, 0.07267661194006603, 0.07962560132145882, 0.08657459070285162, 0.09352358008424441, 0.10047256946563721]}, "conv1d_kernel_0_image": {"_type": "images/separated", "width": 265, "height": 3, "format": "png", "count": 3, "filenames": ["media/images/conv1d_kernel_0_image_59_70b0d3b765451682ff80.png", "media/images/conv1d_kernel_0_image_59_56ac0086343c3419725b.png", "media/images/conv1d_kernel_0_image_59_672008bbdc093bbe6204.png"]}, "conv1d/bias_0/histogram": {"_type": "histogram", "values": [1.0, 0.0, 0.0, 1.0, 1.0, 0.0, 2.0, 2.0, 1.0, 0.0, 0.0, 2.0, 3.0, 0.0, 2.0, 2.0, 7.0, 5.0, 4.0, 4.0, 1.0, 3.0, 2.0, 2.0, 1.0, 6.0, 4.0, 6.0, 0.0, 2.0], "bins": [-0.0024351999163627625, -0.0023217119528756787, -0.002208223989388595, -0.0020947360259015112, -0.0019812480624144275, -0.0018677600989273437, -0.0017542721354402602, -0.0016407841719531765, -0.0015272962084660927, -0.001413808244979009, -0.0013003202814919252, -0.0011868323180048415, -0.001073344354517758, -0.0009598563910306742, -0.0008463684275435905, -0.0007328804640565068, -0.000619392500569423, -0.0005059045370823393, -0.0003924165735952555, -0.0002789286101081718, -0.00016544064662108804, -5.19526831340043e-05, 6.153528035307944e-05, 0.00017502324384016318, 0.0002885112073272465, 0.00040199917081433023, 0.000515487134301414, 0.0006289750977884977, 0.0007424630612755815, 0.0008559510247626652, 0.0009694389882497489]}, "conv1d_bias_0_image": {"_type": "images/separated", "width": 1, "height": 64, "format": "png", "count": 1, "filenames": ["media/images/conv1d_bias_0_image_59_bb73d8645203240d9bf5.png"]}, "dense/kernel_0/histogram": {"_type": "histogram", "values": [2.0, 4.0, 6.0, 3.0, 2.0, 5.0, 3.0, 6.0, 4.0, 2.0, 4.0, 7.0, 6.0, 5.0, 5.0, 6.0, 4.0, 6.0, 7.0, 3.0, 5.0, 1.0, 3.0, 2.0, 2.0, 6.0, 3.0, 4.0, 8.0, 4.0], "bins": [-0.2991976737976074, -0.27954295178254446, -0.2598882297674815, -0.24023350775241853, -0.22057878573735556, -0.2009240637222926, -0.1812693417072296, -0.16161461969216664, -0.14195989767710368, -0.12230517566204072, -0.10265045364697775, -0.08299573163191479, -0.0633410096168518, -0.04368628760178883, -0.024031565586725867, -0.004376843571662903, 0.015277878443400061, 0.034932600458463026, 0.05458732247352599, 0.07424204448858895, 0.09389676650365192, 0.11355148851871488, 0.13320621053377785, 0.1528609325488408, 0.17251565456390383, 0.1921703765789668, 0.21182509859402976, 0.23147982060909267, 0.2511345426241557, 0.2707892646392186, 0.2904439866542816]}, "dense_kernel_0_image": {"_type": "images/separated", "width": 64, "height": 2, "format": "png", "count": 1, "filenames": ["media/images/dense_kernel_0_image_59_2056f98cbb08a990a502.png"]}, "dense/bias_0/histogram": {"_type": "histogram", "values": [1.0, 0.0, 0.0, 0.0, 0.0, 0.0, 0.0, 0.0, 0.0, 0.0, 0.0, 0.0, 0.0, 0.0, 0.0, 0.0, 0.0, 0.0, 0.0, 0.0, 0.0, 0.0, 0.0, 0.0, 0.0, 0.0, 0.0, 0.0, 0.0, 1.0], "bins": [-0.00011278666352154687, -0.00010874928927175157, -0.00010471191502195627, -0.00010067454077216098, -9.663716652236568e-05, -9.259979227257038e-05, -8.85624180227751e-05, -8.45250437729798e-05, -8.04876695231845e-05, -7.64502952733892e-05, -7.24129210235939e-05, -6.837554677379861e-05, -6.433817252400331e-05, -6.030079827420801e-05, -5.6263424024412716e-05, -5.222604977461742e-05, -4.818867552482212e-05, -4.415130127502682e-05, -4.011392702523152e-05, -3.6076552775436235e-05, -3.2039178525640935e-05, -2.8001804275845635e-05, -2.396443002605035e-05, -1.9927055776255048e-05, -1.5889681526459748e-05, -1.1852307276664448e-05, -7.814933026869148e-06, -3.777558777073861e-06, 2.5981547272143897e-07, 4.297189722516739e-06, 8.334563972312026e-06]}, "dense_bias_0_image": {"_type": "images/separated", "width": 1, "height": 2, "format": "png", "count": 1, "filenames": ["media/images/dense_bias_0_image_59_8d994cf362504173484c.png"]}, "dense_1/kernel_0/histogram": {"_type": "histogram", "values": [18.0, 14.0, 16.0, 16.0, 23.0, 22.0, 17.0, 21.0, 21.0, 25.0, 18.0, 18.0, 11.0, 17.0, 17.0, 21.0, 14.0, 15.0, 15.0, 17.0, 16.0, 12.0, 11.0, 16.0, 15.0, 12.0, 16.0, 17.0, 13.0, 16.0], "bins": [-0.10880058258771896, -0.10156921322147051, -0.09433784385522206, -0.08710647448897361, -0.07987510512272517, -0.07264373575647673, -0.06541236639022827, -0.05818099702397982, -0.050949627657731374, -0.04371825829148293, -0.03648688892523448, -0.029255519558986032, -0.022024150192737582, -0.014792780826489133, -0.007561411460240683, -0.0003300420939922333, 0.006901327272256216, 0.014132696638504666, 0.0213640660047531, 0.028595435371001565, 0.03582680473725, 0.043058174103498464, 0.0502895434697469, 0.057520912835995364, 0.0647522822022438, 0.07198365156849226, 0.0792150209347407, 0.08644639030098916, 0.0936777596672376, 0.10090912903348606, 0.1081404983997345]}, "dense_1_kernel_0_image": {"_type": "images/separated", "width": 1, "height": 500, "format": "png", "count": 1, "filenames": ["media/images/dense_1_kernel_0_image_59_011801a770733ebec0fa.png"]}, "dense_1/bias_0/histogram": {"_type": "histogram", "values": [1.0, 0.0, 1.0, 0.0, 3.0, 4.0, 4.0, 7.0, 10.0, 18.0, 29.0, 19.0, 34.0, 32.0, 41.0, 53.0, 49.0, 34.0, 50.0, 44.0, 19.0, 22.0, 14.0, 6.0, 3.0, 1.0, 1.0, 0.0, 0.0, 1.0], "bins": [-0.0005834520561620593, -0.0005558440500559906, -0.0005282360439499219, -0.0005006280378438532, -0.00047302003173778454, -0.00044541202563171584, -0.0004178040195256472, -0.0003901960134195785, -0.0003625880073135098, -0.00033498000120744107, -0.00030737199510137236, -0.0002797639889953037, -0.000252155982889235, -0.0002245479767831663, -0.00019693997067709765, -0.00016933196457102895, -0.00014172395846496024, -0.00011411595235889154, -8.650794625282283e-05, -5.889994014675413e-05, -3.129193404068542e-05, -3.683927934616826e-06, 2.392407817145188e-05, 5.1532084277520584e-05, 7.914009038358929e-05, 0.000106748096489658, 0.0001343561025957267, 0.0001619641087017954, 0.000189572114807864, 0.0002171801209139327, 0.0002447881270200014]}, "dense_1_bias_0_image": {"_type": "images/separated", "width": 1, "height": 500, "format": "png", "count": 1, "filenames": ["media/images/dense_1_bias_0_image_59_5526b80dc252e6f13cc5.png"]}, "conv1d_transpose/kernel_0/histogram": {"_type": "histogram", "values": [33.0, 19.0, 21.0, 22.0, 30.0, 24.0, 34.0, 26.0, 24.0, 36.0, 24.0, 23.0, 16.0, 24.0, 29.0, 28.0, 23.0, 18.0, 33.0, 29.0, 30.0, 23.0, 25.0, 13.0, 32.0, 31.0, 23.0, 28.0, 22.0, 25.0], "bins": [-0.17154774069786072, -0.16015078375736871, -0.14875382681687674, -0.13735686987638474, -0.12595991293589273, -0.11456295599540074, -0.10316599905490875, -0.09176904211441675, -0.08037208517392476, -0.06897512823343277, -0.057578171292940766, -0.04618121435244876, -0.03478425741195679, -0.023387300471464784, -0.01199034353097278, -0.0005933865904808044, 0.010803570350011199, 0.022200527290503203, 0.03359748423099518, 0.04499444117148718, 0.056391398111979185, 0.06778835505247116, 0.07918531199296319, 0.09058226893345517, 0.10197922587394714, 0.11337618281443917, 0.12477313975493115, 0.13617009669542313, 0.14756705363591516, 0.15896401057640713, 0.1703609675168991]}, "conv1d_transpose_kernel_0_image": {"_type": "images/separated", "width": 64, "height": 3, "format": "png", "count": 3, "filenames": ["media/images/conv1d_transpose_kernel_0_image_59_6c192cab9f572c23f948.png", "media/images/conv1d_transpose_kernel_0_image_59_2f8297be5a7c7ec44a16.png", "media/images/conv1d_transpose_kernel_0_image_59_6ce9898208062b09d5a0.png"]}, "conv1d_transpose/bias_0/histogram": {"_type": "histogram", "values": [1.0, 1.0, 0.0, 3.0, 2.0, 2.0, 2.0, 2.0, 3.0, 2.0, 3.0, 6.0, 5.0, 6.0, 3.0, 2.0, 4.0, 3.0, 1.0, 2.0, 0.0, 2.0, 4.0, 0.0, 1.0, 0.0, 2.0, 0.0, 1.0, 1.0], "bins": [-0.021092308685183525, -0.019592131984730563, -0.018091955284277598, -0.016591778583824636, -0.01509160188337167, -0.013591425182918709, -0.012091248482465745, -0.010591071782012781, -0.009090895081559818, -0.007590718381106854, -0.0060905416806538906, -0.004590364980200927, -0.003090188279747965, -0.0015900115792949997, -8.983487884203778e-05, 0.0014103418216109276, 0.0029105185220638895, 0.004410695222516851, 0.005910871922969817, 0.007411048623422779, 0.008911225323875744, 0.010411402024328706, 0.011911578724781671, 0.013411755425234637, 0.014911932125687595, 0.01641210882614056, 0.017912285526593526, 0.019412462227046484, 0.02091263892749945, 0.022412815627952415, 0.02391299232840538]}, "conv1d_transpose_bias_0_image": {"_type": "images/separated", "width": 1, "height": 64, "format": "png", "count": 1, "filenames": ["media/images/conv1d_transpose_bias_0_image_59_106c1eaabb2857428317.png"]}, "conv1d_transpose_1/kernel_0/histogram": {"_type": "histogram", "values": [182.0, 228.0, 203.0, 224.0, 219.0, 200.0, 191.0, 204.0, 210.0, 189.0, 217.0, 199.0, 204.0, 200.0, 205.0, 187.0, 210.0, 208.0, 194.0, 215.0, 196.0, 180.0, 227.0, 214.0, 198.0, 208.0, 214.0, 237.0, 218.0, 163.0], "bins": [-0.14522556960582733, -0.13554533421993256, -0.1258650988340378, -0.11618486344814301, -0.10650462806224822, -0.09682439267635345, -0.08714415729045868, -0.0774639219045639, -0.06778368651866913, -0.05810345113277436, -0.04842321574687958, -0.03874298036098481, -0.029062744975090038, -0.019382509589195268, -0.00970227420330047, -2.2038817405700684e-05, 0.00965819656848907, 0.01933843195438384, 0.02901866734027861, 0.038698902726173406, 0.048379138112068176, 0.058059373497962946, 0.06773960888385772, 0.07741984426975249, 0.08710007965564726, 0.09678031504154205, 0.1064605504274368, 0.11614078581333159, 0.1258210211992264, 0.13550125658512113, 0.14518149197101593]}, "conv1d_transpose_1_kernel_0_image": {"_type": "images/separated", "width": 32, "height": 3, "format": "png", "count": 3, "filenames": ["media/images/conv1d_transpose_1_kernel_0_image_59_5d778c5d2970d1437bab.png", "media/images/conv1d_transpose_1_kernel_0_image_59_1947ad11db9f1a27ab14.png", "media/images/conv1d_transpose_1_kernel_0_image_59_3c794f6a70fff5ad1eb9.png"]}, "conv1d_transpose_1/bias_0/histogram": {"_type": "histogram", "values": [1.0, 0.0, 0.0, 4.0, 3.0, 3.0, 1.0, 2.0, 2.0, 2.0, 4.0, 0.0, 1.0, 0.0, 0.0, 1.0, 1.0, 1.0, 2.0, 0.0, 0.0, 0.0, 1.0, 0.0, 1.0, 0.0, 0.0, 1.0, 0.0, 1.0], "bins": [-0.03363746032118797, -0.030184285466869673, -0.026731110612551373, -0.02327793575823307, -0.01982476090391477, -0.01637158604959647, -0.012918411195278166, -0.009465236340959866, -0.006012061486641566, -0.0025588866323232665, 0.0008942882219950335, 0.0043474630763133335, 0.00780063793063164, 0.01125381278494994, 0.01470698763926824, 0.01816016249358654, 0.02161333734790484, 0.02506651220222314, 0.02851968705654144, 0.03197286191085974, 0.03542603676517804, 0.03887921161949634, 0.04233238647381464, 0.04578556132813294, 0.049238736182451254, 0.052691911036769554, 0.056145085891087854, 0.059598260745406154, 0.06305143559972445, 0.06650461045404275, 0.06995778530836105]}, "conv1d_transpose_1_bias_0_image": {"_type": "images/separated", "width": 1, "height": 32, "format": "png", "count": 1, "filenames": ["media/images/conv1d_transpose_1_bias_0_image_59_3edbc69d8df703bfc17d.png"]}, "conv1d_transpose_2/kernel_0/histogram": {"_type": "histogram", "values": [15.0, 18.0, 14.0, 10.0, 10.0, 7.0, 16.0, 9.0, 13.0, 8.0, 10.0, 8.0, 9.0, 11.0, 5.0, 24.0, 12.0, 8.0, 12.0, 17.0, 15.0, 14.0, 18.0, 15.0, 16.0, 13.0, 11.0, 16.0, 18.0, 12.0], "bins": [-0.235512375831604, -0.21975493381420771, -0.20399749179681143, -0.1882400497794151, -0.17248260776201885, -0.15672516574462253, -0.14096772372722624, -0.12521028170982995, -0.10945283969243366, -0.09369539767503737, -0.07793795565764108, -0.062180513640244794, -0.04642307162284848, -0.030665629605452188, -0.014908187588055899, 0.0008492544293403903, 0.01660669644673668, 0.032364138464133, 0.04812158048152926, 0.06387902249892558, 0.07963646451632184, 0.09539390653371815, 0.11115134855111442, 0.12690879056851073, 0.14266623258590705, 0.1584236746033033, 0.17418111662069963, 0.1899385586380959, 0.2056960006554922, 0.22145344267288847, 0.23721088469028473]}, "conv1d_transpose_2_kernel_0_image": {"_type": "images/separated", "width": 4, "height": 3, "format": "png", "count": 3, "filenames": ["media/images/conv1d_transpose_2_kernel_0_image_59_2a13fd510bff4f26c0a1.png", "media/images/conv1d_transpose_2_kernel_0_image_59_c69286444e31b3db4687.png", "media/images/conv1d_transpose_2_kernel_0_image_59_cf72a0cc27fca3a8259d.png"]}, "conv1d_transpose_2/bias_0/histogram": {"_type": "histogram", "values": [1.0, 0.0, 0.0, 1.0, 0.0, 0.0, 0.0, 0.0, 0.0, 0.0, 0.0, 0.0, 0.0, 0.0, 0.0, 0.0, 0.0, 0.0, 0.0, 0.0, 0.0, 0.0, 0.0, 0.0, 0.0, 0.0, 1.0, 0.0, 0.0, 1.0], "bins": [-0.06609179824590683, -0.061693675071001056, -0.057295551896095274, -0.0528974287211895, -0.04849930554628372, -0.044101182371377945, -0.03970305919647217, -0.0353049360215664, -0.030906812846660615, -0.02650868967175484, -0.02211056649684906, -0.017712443321943286, -0.013314320147037512, -0.00891619697213173, -0.004518073797225956, -0.00011995062232017517, 0.004278172552585599, 0.008676295727491373, 0.013074418902397147, 0.017472542077302936, 0.02187066525220871, 0.026268788427114484, 0.030666911602020258, 0.03506503477692603, 0.039463157951831807, 0.043861281126737595, 0.04825940430164337, 0.05265752747654914, 0.05705565065145492, 0.06145377382636069, 0.06585189700126648]}, "conv1d_transpose_2_bias_0_image": {"_type": "images/separated", "width": 1, "height": 4, "format": "png", "count": 1, "filenames": ["media/images/conv1d_transpose_2_bias_0_image_59_c1b0f8b208d25442a46b.png"]}, "_runtime": 4558.618739128113, "_step": 59}