{"global_step": 11, "_timestamp": 1688056637.005822, "epoch_loss": 1.602921485900879, "epoch_lr": 0.0010000000474974513, "pwm_conv/kernel_0/histogram": {"_type": "histogram", "values": [2.0, 1.0, 1.0, 36.0, 514.0, 96.0, 17.0, 408.0, 346.0, 324.0, 313.0, 421.0, 388.0, 425.0, 352.0, 473.0, 480.0, 575.0, 533.0, 580.0, 697.0, 739.0, 702.0, 701.0, 3864.0, 703.0, 709.0, 566.0, 577.0, 1417.0], "bins": [-5.521356105804443, -5.291306344668071, -5.061256583531698, -4.831206822395325, -4.601157061258952, -4.3711073001225795, -4.141057538986206, -3.911007777849833, -3.6809580167134603, -3.4509082555770876, -3.220858494440715, -2.9908087333043416, -2.760758972167969, -2.530709211031596, -2.300659449895223, -2.07060968875885, -1.8405599276224773, -1.6105101664861046, -1.3804604053497318, -1.150410644213359, -0.9203608830769863, -0.6903111219406126, -0.46026136080423985, -0.23021159966786708, -0.00016183853149431826, 0.22988792260487845, 0.4599376837412512, 0.689987444877624, 0.9200372060139976, 1.1500869671503704, 1.3801367282867432]}, "pwm_conv_kernel_0_image": {"_type": "images/separated", "width": 4, "height": 16, "format": "png", "count": 3, "filenames": ["media/images/pwm_conv_kernel_0_image_11_85f3ac3d3901ef7a9581.png", "media/images/pwm_conv_kernel_0_image_11_ff0166818b9ecb03dabe.png", "media/images/pwm_conv_kernel_0_image_11_5c3e85ae5e5c15d498f0.png"]}, "conv1d/kernel_0/histogram": {"_type": "histogram", "values": [6.0, 3317.0, 11076.0, 11172.0, 11110.0, 10772.0, 3420.0, 2.0, 1.0, 1.0, 1.0, 0.0, 0.0, 0.0, 1.0, 0.0, 0.0, 0.0, 0.0, 0.0, 0.0, 0.0, 0.0, 0.0, 0.0, 0.0, 0.0, 0.0, 0.0, 1.0], "bins": [-0.1332400143146515, -0.09972706735134125, -0.06621412038803101, -0.03270117342472077, 0.0008117735385894664, 0.03432472050189972, 0.06783766746520994, 0.10135061442852017, 0.13486356139183042, 0.16837650835514067, 0.20188945531845093, 0.23540240228176113, 0.2689153492450714, 0.30242829620838163, 0.33594124317169183, 0.36945419013500214, 0.40296713709831233, 0.43648008406162253, 0.46999303102493284, 0.503505977988243, 0.5370189249515533, 0.5705318719148635, 0.6040448188781737, 0.637557765841484, 0.6710707128047942, 0.7045836597681044, 0.7380966067314148, 0.771609553694725, 0.8051225006580351, 0.8386354476213455, 0.8721483945846558]}, "conv1d_kernel_0_image": {"_type": "images/separated", "width": 265, "height": 3, "format": "png", "count": 3, "filenames": ["media/images/conv1d_kernel_0_image_11_19b5c9a329592dbbf397.png", "media/images/conv1d_kernel_0_image_11_1624eb23e8cecfcfd956.png", "media/images/conv1d_kernel_0_image_11_78a850a9ccbc9c4151ca.png"]}, "conv1d/bias_0/histogram": {"_type": "histogram", "values": [1.0, 0.0, 0.0, 1.0, 3.0, 1.0, 14.0, 2.0, 2.0, 3.0, 11.0, 3.0, 10.0, 11.0, 0.0, 0.0, 1.0, 0.0, 0.0, 0.0, 0.0, 0.0, 0.0, 0.0, 0.0, 0.0, 0.0, 0.0, 0.0, 1.0], "bins": [-0.006685181986540556, -0.006127728257949154, -0.005570274529357751, -0.0050128208007663485, -0.004455367072174947, -0.0038979133435835442, -0.003340459614992142, -0.0027830058864007396, -0.002225552157809337, -0.0016680984292179353, -0.0011106447006265325, -0.0005531909720351297, 4.26275655627216e-06, 0.0005617164851476741, 0.0011191702137390768, 0.0016766239423304796, 0.0022340776709218815, 0.0027915313995132834, 0.0033489851281046853, 0.003906438856696089, 0.004463892585287491, 0.005021346313878893, 0.0055788000424702965, 0.006136253771061698, 0.0066937074996531, 0.007251161228244502, 0.007808614956835904, 0.008366068685427308, 0.00892352241401871, 0.009480976142610113, 0.010038429871201515]}, "conv1d_bias_0_image": {"_type": "images/separated", "width": 1, "height": 64, "format": "png", "count": 1, "filenames": ["media/images/conv1d_bias_0_image_11_bd102ff6c4d85f94aa17.png"]}, "dense/kernel_0/histogram": {"_type": "histogram", "values": [2.0, 2.0, 4.0, 2.0, 2.0, 3.0, 1.0, 0.0, 1.0, 1.0, 3.0, 1.0, 3.0, 9.0, 58.0, 4.0, 4.0, 2.0, 1.0, 1.0, 3.0, 2.0, 2.0, 3.0, 1.0, 3.0, 3.0, 3.0, 1.0, 3.0], "bins": [-0.29037460684776306, -0.27082206110159557, -0.2512695153554281, -0.23171696960926055, -0.21216442386309306, -0.19261187811692557, -0.17305933237075805, -0.15350678662459055, -0.13395424087842306, -0.11440169513225557, -0.09484914938608807, -0.07529660363992055, -0.05574405789375306, -0.036191512147585536, -0.016638966401418043, 0.0029135793447494507, 0.022466125090916944, 0.04201867083708444, 0.06157121658325193, 0.08112376232941942, 0.10067630807558692, 0.12022885382175447, 0.13978139956792196, 0.15933394531408945, 0.17888649106025695, 0.19843903680642444, 0.217991582552592, 0.23754412829875948, 0.257096674044927, 0.27664921979109447, 0.29620176553726196]}, "dense_kernel_0_image": {"_type": "images/separated", "width": 64, "height": 2, "format": "png", "count": 1, "filenames": ["media/images/dense_kernel_0_image_11_6e62ba2b3a86e2cdb5ad.png"]}, "dense/bias_0/histogram": {"_type": "histogram", "values": [1.0, 0.0, 0.0, 0.0, 0.0, 0.0, 0.0, 0.0, 0.0, 0.0, 0.0, 0.0, 0.0, 0.0, 0.0, 0.0, 0.0, 0.0, 0.0, 0.0, 0.0, 0.0, 0.0, 0.0, 0.0, 0.0, 0.0, 0.0, 0.0, 1.0], "bins": [-0.04686783254146576, -0.045327273181950054, -0.04378671382243435, -0.04224615446291864, -0.040705595103402936, -0.039165035743887223, -0.03762447638437152, -0.03608391702485581, -0.034543357665340106, -0.0330027983058244, -0.031462238946308695, -0.029921679586792985, -0.02838112022727728, -0.026840560867761574, -0.025300001508245865, -0.02375944214873016, -0.022218882789214453, -0.020678323429698747, -0.01913776407018304, -0.017597204710667332, -0.016056645351151626, -0.014516085991635917, -0.012975526632120211, -0.011434967272604506, -0.0098944079130888, -0.008353848553573094, -0.006813289194057388, -0.005272729834541683, -0.00373217047502597, -0.002191611115510264, -0.0006510517559945583]}, "dense_bias_0_image": {"_type": "images/separated", "width": 1, "height": 2, "format": "png", "count": 1, "filenames": ["media/images/dense_bias_0_image_11_8d994cf362504173484c.png"]}, "dense_1/kernel_0/histogram": {"_type": "histogram", "values": [1.0, 0.0, 1.0, 1.0, 4.0, 7.0, 7.0, 9.0, 12.0, 8.0, 22.0, 36.0, 54.0, 41.0, 49.0, 44.0, 42.0, 37.0, 19.0, 14.0, 17.0, 16.0, 23.0, 17.0, 13.0, 4.0, 1.0, 0.0, 0.0, 1.0], "bins": [-0.38527652621269226, -0.3591668059428533, -0.33305708567301434, -0.30694736540317535, -0.28083764513333637, -0.2547279248634974, -0.22861820459365845, -0.20250848432381946, -0.1763987640539805, -0.15028904378414154, -0.12417932351430255, -0.09806960324446357, -0.07195988297462463, -0.045850162704785646, -0.01974044243494666, 0.006369277834892273, 0.03247899810473126, 0.05858871837457025, 0.08469843864440918, 0.11080815891424817, 0.13691787918408715, 0.1630275994539261, 0.18913731972376513, 0.21524703999360406, 0.241356760263443, 0.26746648053328204, 0.29357620080312097, 0.3196859210729599, 0.34579564134279894, 0.3719053616126379, 0.3980150818824768]}, "dense_1_kernel_0_image": {"_type": "images/separated", "width": 1, "height": 500, "format": "png", "count": 1, "filenames": ["media/images/dense_1_kernel_0_image_11_f10971596e2ceb5a4e62.png"]}, "dense_1/bias_0/histogram": {"_type": "histogram", "values": [2.0, 6.0, 10.0, 12.0, 12.0, 13.0, 13.0, 13.0, 27.0, 31.0, 32.0, 60.0, 64.0, 44.0, 31.0, 24.0, 26.0, 12.0, 13.0, 14.0, 7.0, 13.0, 6.0, 1.0, 7.0, 2.0, 2.0, 0.0, 2.0, 1.0], "bins": [-0.713909387588501, -0.6698899149894715, -0.6258704423904419, -0.5818509697914124, -0.5378314971923828, -0.49381202459335327, -0.4497925519943238, -0.4057730793952942, -0.36175360679626467, -0.3177341341972351, -0.27371466159820557, -0.22969518899917607, -0.18567571640014657, -0.14165624380111697, -0.09763677120208747, -0.05361729860305786, -0.009597826004028365, 0.03442164659500113, 0.07844111919403074, 0.12246059179306024, 0.16648006439208984, 0.21049953699111934, 0.25451900959014884, 0.29853848218917833, 0.34255795478820783, 0.38657742738723755, 0.43059689998626705, 0.47461637258529654, 0.518635845184326, 0.5626553177833555, 0.6066747903823853]}, "dense_1_bias_0_image": {"_type": "images/separated", "width": 1, "height": 500, "format": "png", "count": 1, "filenames": ["media/images/dense_1_bias_0_image_11_5a378f9cbc8f9e5d76fe.png"]}, "conv1d_transpose/kernel_0/histogram": {"_type": "histogram", "values": [1.0, 0.0, 0.0, 0.0, 0.0, 0.0, 1.0, 0.0, 5.0, 1.0, 2.0, 9.0, 21.0, 17.0, 50.0, 64.0, 88.0, 109.0, 89.0, 109.0, 80.0, 64.0, 33.0, 15.0, 5.0, 3.0, 0.0, 1.0, 0.0, 1.0], "bins": [-0.619455099105835, -0.5869318654139837, -0.5544086317221324, -0.5218853980302811, -0.4893621643384298, -0.4568389306465785, -0.42431569695472715, -0.39179246326287587, -0.3592692295710246, -0.3267459958791733, -0.294222762187322, -0.2616995284954707, -0.2291762948036194, -0.1966530611117681, -0.16412982741991677, -0.1316065937280655, -0.09908336003621421, -0.06656012634436292, -0.03403689265251164, -0.0015136589606603579, 0.031009574731190925, 0.06353280842304232, 0.0960560421148936, 0.12857927580674489, 0.16110250949859617, 0.19362574319044745, 0.22614897688229874, 0.25867221057415, 0.2911954442660014, 0.3237186779578527, 0.356241911649704]}, "conv1d_transpose_kernel_0_image": {"_type": "images/separated", "width": 64, "height": 3, "format": "png", "count": 3, "filenames": ["media/images/conv1d_transpose_kernel_0_image_11_380d2d10e5409c29d53d.png", "media/images/conv1d_transpose_kernel_0_image_11_d58bb872be5d8ca95b22.png", "media/images/conv1d_transpose_kernel_0_image_11_da4bbb2b99d1694ef23d.png"]}, "conv1d_transpose/bias_0/histogram": {"_type": "histogram", "values": [1.0, 0.0, 0.0, 0.0, 0.0, 1.0, 0.0, 0.0, 1.0, 1.0, 1.0, 2.0, 1.0, 2.0, 3.0, 1.0, 2.0, 1.0, 2.0, 6.0, 6.0, 7.0, 10.0, 1.0, 6.0, 5.0, 0.0, 0.0, 1.0, 3.0], "bins": [-0.18739183247089386, -0.17857204601168633, -0.1697522595524788, -0.16093247309327124, -0.15211268663406372, -0.14329290017485619, -0.13447311371564866, -0.12565332725644113, -0.11683354079723358, -0.10801375433802606, -0.09919396787881851, -0.09037418141961098, -0.08155439496040345, -0.07273460850119591, -0.06391482204198838, -0.05509503558278084, -0.04627524912357331, -0.03745546266436578, -0.02863567620515825, -0.019815889745950693, -0.010996103286743164, -0.002176316827535635, 0.006643469631671894, 0.015463256090879424, 0.024283042550086953, 0.03310282900929451, 0.04192261546850204, 0.05074240192770957, 0.0595621883869171, 0.06838197484612463, 0.07720176130533218]}, "conv1d_transpose_bias_0_image": {"_type": "images/separated", "width": 1, "height": 64, "format": "png", "count": 1, "filenames": ["media/images/conv1d_transpose_bias_0_image_11_198d01a6cc64879bf8b5.png"]}, "conv1d_transpose_1/kernel_0/histogram": {"_type": "histogram", "values": [1.0, 0.0, 1.0, 0.0, 1.0, 2.0, 6.0, 15.0, 51.0, 235.0, 706.0, 1034.0, 1103.0, 1181.0, 963.0, 604.0, 173.0, 34.0, 10.0, 10.0, 4.0, 0.0, 3.0, 1.0, 0.0, 1.0, 1.0, 0.0, 1.0, 3.0], "bins": [-0.667633593082428, -0.6175182203451792, -0.5674028476079305, -0.5172874748706817, -0.467172102133433, -0.41705672939618427, -0.36694135665893557, -0.3168259839216868, -0.26671061118443806, -0.2165952384471893, -0.16647986570994056, -0.1163644929726918, -0.06624912023544316, -0.016133747498194406, 0.03398162523905435, 0.0840969979763031, 0.13421237071355185, 0.1843277434508006, 0.23444311618804936, 0.2845584889252981, 0.33467386166254687, 0.3847892343997956, 0.4349046071370444, 0.48501997987429313, 0.5351353526115417, 0.5852507253487904, 0.6353660980860392, 0.6854814708232879, 0.7355968435605367, 0.7857122162977854, 0.8358275890350342]}, "conv1d_transpose_1_kernel_0_image": {"_type": "images/separated", "width": 32, "height": 3, "format": "png", "count": 3, "filenames": ["media/images/conv1d_transpose_1_kernel_0_image_11_d84d1fc6d1b5d39a87d0.png", "media/images/conv1d_transpose_1_kernel_0_image_11_7b0f38f55b4a8b82c1a0.png", "media/images/conv1d_transpose_1_kernel_0_image_11_6bd4742e1f85b0d04ba9.png"]}, "conv1d_transpose_1/bias_0/histogram": {"_type": "histogram", "values": [1.0, 1.0, 0.0, 1.0, 1.0, 0.0, 3.0, 2.0, 4.0, 5.0, 2.0, 2.0, 2.0, 1.0, 0.0, 2.0, 0.0, 0.0, 0.0, 3.0, 0.0, 0.0, 1.0, 0.0, 0.0, 0.0, 0.0, 0.0, 0.0, 1.0], "bins": [-0.09847410768270493, -0.08855304792523384, -0.07863198816776276, -0.06871092841029167, -0.058789868652820584, -0.0488688088953495, -0.038947749137878414, -0.029026689380407325, -0.019105629622936243, -0.009184569865465161, 0.0007364898920059204, 0.010657549649477016, 0.020578609406948098, 0.03049966916441918, 0.040420728921890275, 0.05034178867936134, 0.06026284843683244, 0.07018390819430353, 0.0801049679517746, 0.0900260277092457, 0.09994708746671677, 0.10986814722418786, 0.11978920698165896, 0.12971026673913003, 0.13963132649660112, 0.14955238625407222, 0.15947344601154329, 0.16939450576901438, 0.17931556552648548, 0.18923662528395657, 0.1991576850414276]}, "conv1d_transpose_1_bias_0_image": {"_type": "images/separated", "width": 1, "height": 32, "format": "png", "count": 1, "filenames": ["media/images/conv1d_transpose_1_bias_0_image_11_50b0b6b156be84ed424d.png"]}, "conv1d_transpose_2/kernel_0/histogram": {"_type": "histogram", "values": [1.0, 3.0, 4.0, 9.0, 11.0, 12.0, 18.0, 24.0, 26.0, 21.0, 36.0, 24.0, 20.0, 27.0, 25.0, 18.0, 32.0, 27.0, 22.0, 12.0, 7.0, 2.0, 1.0, 0.0, 1.0, 0.0, 0.0, 0.0, 0.0, 1.0], "bins": [-0.2827836871147156, -0.2584996978441874, -0.23421570857365925, -0.2099317193031311, -0.18564773003260293, -0.16136374076207477, -0.13707975149154664, -0.11279576222101848, -0.08851177295049031, -0.06422778367996215, -0.03994379440943399, -0.015659805138905858, 0.008624184131622303, 0.032908173402150465, 0.057192162672678626, 0.08147615194320679, 0.10576014121373495, 0.1300441304842631, 0.15432811975479127, 0.17861210902531943, 0.2028960982958476, 0.22718008756637575, 0.25146407683690386, 0.2757480661074321, 0.3000320553779602, 0.3243160446484884, 0.3486000339190165, 0.3728840231895447, 0.39716801246007283, 0.42145200173060104, 0.44573599100112915]}, "conv1d_transpose_2_kernel_0_image": {"_type": "images/separated", "width": 4, "height": 3, "format": "png", "count": 3, "filenames": ["media/images/conv1d_transpose_2_kernel_0_image_11_ed976942045587f2df34.png", "media/images/conv1d_transpose_2_kernel_0_image_11_c51325a6a09c7655e167.png", "media/images/conv1d_transpose_2_kernel_0_image_11_58f58cde4c5da16f57a1.png"]}, "conv1d_transpose_2/bias_0/histogram": {"_type": "histogram", "values": [1.0, 0.0, 0.0, 1.0, 0.0, 0.0, 0.0, 0.0, 0.0, 0.0, 0.0, 0.0, 0.0, 0.0, 0.0, 0.0, 0.0, 0.0, 0.0, 0.0, 0.0, 0.0, 0.0, 1.0, 0.0, 0.0, 0.0, 0.0, 0.0, 1.0], "bins": [-0.07314255833625793, -0.06797374834616979, -0.06280493835608164, -0.0576361283659935, -0.052467318375905354, -0.04729850838581721, -0.04212969839572907, -0.03696088840564092, -0.031792078415552774, -0.026623268425464627, -0.02145445843537648, -0.01628564844528834, -0.011116838455200194, -0.005948028465112054, -0.0007792184750239073, 0.0043895915150642395, 0.009558401505152386, 0.014727211495240533, 0.01989602148532868, 0.025064831475416827, 0.030233641465504973, 0.035402451455593106, 0.04057126144568125, 0.0457400714357694, 0.05090888142585755, 0.05607769141594568, 0.061246501406033826, 0.06641531139612197, 0.07158412138621012, 0.07675293137629827, 0.08192174136638641]}, "conv1d_transpose_2_bias_0_image": {"_type": "images/separated", "width": 1, "height": 4, "format": "png", "count": 1, "filenames": ["media/images/conv1d_transpose_2_bias_0_image_11_3a913ef37e8bee460df9.png"]}, "_runtime": 909.184711933136, "_step": 11}