{"global_step": 22, "_timestamp": 1688067675.221666, "epoch_loss": 1.3817044496536255, "epoch_lr": 1.0000000656873453e-05, "pwm_conv/kernel_0/histogram": {"_type": "histogram", "values": [2.0, 1.0, 1.0, 36.0, 514.0, 96.0, 17.0, 408.0, 346.0, 324.0, 313.0, 421.0, 388.0, 425.0, 352.0, 473.0, 480.0, 575.0, 533.0, 580.0, 697.0, 739.0, 702.0, 701.0, 3864.0, 703.0, 709.0, 566.0, 577.0, 1417.0], "bins": [-5.521356105804443, -5.291306344668071, -5.061256583531698, -4.831206822395325, -4.601157061258952, -4.3711073001225795, -4.141057538986206, -3.911007777849833, -3.6809580167134603, -3.4509082555770876, -3.220858494440715, -2.9908087333043416, -2.760758972167969, -2.530709211031596, -2.300659449895223, -2.07060968875885, -1.8405599276224773, -1.6105101664861046, -1.3804604053497318, -1.150410644213359, -0.9203608830769863, -0.6903111219406126, -0.46026136080423985, -0.23021159966786708, -0.00016183853149431826, 0.22988792260487845, 0.4599376837412512, 0.689987444877624, 0.9200372060139976, 1.1500869671503704, 1.3801367282867432]}, "pwm_conv_kernel_0_image": {"_type": "images/separated", "width": 4, "height": 16, "format": "png", "count": 3, "filenames": ["media/images/pwm_conv_kernel_0_image_22_85f3ac3d3901ef7a9581.png", "media/images/pwm_conv_kernel_0_image_22_ff0166818b9ecb03dabe.png", "media/images/pwm_conv_kernel_0_image_22_5c3e85ae5e5c15d498f0.png"]}, "conv1d/kernel_0/histogram": {"_type": "histogram", "values": [5.0, 1.0, 1.0, 8.0, 30.0, 91.0, 742.0, 2422.0, 3392.0, 3886.0, 3997.0, 3954.0, 4040.0, 3844.0, 4058.0, 3976.0, 4000.0, 3973.0, 3743.0, 2960.0, 1256.0, 481.0, 9.0, 4.0, 3.0, 2.0, 1.0, 0.0, 0.0, 1.0], "bins": [-0.10674993693828583, -0.09842438946167628, -0.09009884198506674, -0.08177329450845719, -0.07344774703184764, -0.0651221995552381, -0.05679665207862854, -0.04847110460201899, -0.040145557125409445, -0.0318200096487999, -0.023494462172190353, -0.015168914695580807, -0.006843367218971247, 0.0014821802576382992, 0.009807727734247845, 0.01813327521085739, 0.026458822687466937, 0.034784370164076484, 0.04310991764068603, 0.051435465117295576, 0.05976101259390512, 0.06808656007051467, 0.07641210754712421, 0.08473765502373376, 0.09306320250034333, 0.10138874997695288, 0.10971429745356243, 0.11803984493017197, 0.12636539240678152, 0.13469093988339106, 0.1430164873600006]}, "conv1d_kernel_0_image": {"_type": "images/separated", "width": 265, "height": 3, "format": "png", "count": 3, "filenames": ["media/images/conv1d_kernel_0_image_22_fb59900aa0ac1ba14b08.png", "media/images/conv1d_kernel_0_image_22_57c83c8a5ff07fc35a37.png", "media/images/conv1d_kernel_0_image_22_4c4c98b81560e69def44.png"]}, "conv1d/bias_0/histogram": {"_type": "histogram", "values": [4.0, 2.0, 0.0, 5.0, 5.0, 1.0, 2.0, 0.0, 1.0, 0.0, 0.0, 0.0, 0.0, 0.0, 0.0, 0.0, 0.0, 0.0, 1.0, 0.0, 2.0, 1.0, 12.0, 8.0, 5.0, 3.0, 7.0, 2.0, 1.0, 2.0], "bins": [-0.019480301067233086, -0.018801101537731787, -0.018121902008230488, -0.01744270247872919, -0.01676350294922789, -0.01608430341972659, -0.015405103890225291, -0.014725904360723992, -0.014046704831222693, -0.013367505301721394, -0.012688305772220096, -0.012009106242718795, -0.011329906713217496, -0.010650707183716197, -0.009971507654214899, -0.0092923081247136, -0.0086131085952123, -0.007933909065711002, -0.007254709536209703, -0.006575510006708404, -0.0058963104772071055, -0.005217110947705805, -0.004537911418204506, -0.0038587118887032073, -0.0031795123592019067, -0.002500312829700608, -0.001821113300199309, -0.0011419137706980102, -0.0004627142411967114, 0.00021648528830458744, 0.0008956848178058863]}, "conv1d_bias_0_image": {"_type": "images/separated", "width": 1, "height": 64, "format": "png", "count": 1, "filenames": ["media/images/conv1d_bias_0_image_22_bb73d8645203240d9bf5.png"]}, "dense/kernel_0/histogram": {"_type": "histogram", "values": [2.0, 2.0, 1.0, 2.0, 1.0, 2.0, 3.0, 2.0, 5.0, 1.0, 2.0, 3.0, 6.0, 10.0, 23.0, 10.0, 10.0, 5.0, 7.0, 2.0, 1.0, 3.0, 3.0, 6.0, 5.0, 1.0, 1.0, 5.0, 1.0, 3.0], "bins": [-0.2020365446805954, -0.18823805550734202, -0.17443956633408864, -0.16064107716083526, -0.14684258798758187, -0.1330440988143285, -0.11924560964107514, -0.10544712046782176, -0.09164863129456838, -0.077850142121315, -0.06405165294806162, -0.050253163774808235, -0.03645467460155488, -0.0226561854283015, -0.00885769625504812, 0.004940792918205261, 0.018739282091458642, 0.03253777126471202, 0.046336260437965404, 0.060134749611218785, 0.07393323878447217, 0.08773172795772555, 0.10153021713097893, 0.11532870630423231, 0.12912719547748563, 0.14292568465073902, 0.1567241738239924, 0.17052266299724578, 0.18432115217049916, 0.19811964134375254, 0.21191813051700592]}, "dense_kernel_0_image": {"_type": "images/separated", "width": 64, "height": 2, "format": "png", "count": 1, "filenames": ["media/images/dense_kernel_0_image_22_e280fc2a36d99229b149.png"]}, "dense/bias_0/histogram": {"_type": "histogram", "values": [1.0, 0.0, 0.0, 0.0, 0.0, 0.0, 0.0, 0.0, 0.0, 0.0, 0.0, 0.0, 0.0, 0.0, 0.0, 0.0, 0.0, 0.0, 0.0, 0.0, 0.0, 0.0, 0.0, 0.0, 0.0, 0.0, 0.0, 0.0, 0.0, 1.0], "bins": [1.0965386036342511e-36, 8.764655490267615e-09, 1.752931098053523e-08, 2.6293966470802845e-08, 3.505862196107046e-08, 4.382327745133807e-08, 5.258793294160569e-08, 6.135258843187331e-08, 7.011724392214092e-08, 7.888189941240853e-08, 8.764655490267614e-08, 9.641121039294377e-08, 1.0517586588321138e-07, 1.1394052137347899e-07, 1.2270517686374662e-07, 1.3146983235401422e-07, 1.4023448784428184e-07, 1.4899914333454947e-07, 1.5776379882481706e-07, 1.665284543150847e-07, 1.752931098053523e-07, 1.840577652956199e-07, 1.9282242078588754e-07, 2.0158707627615514e-07, 2.1035173176642276e-07, 2.1911638725669039e-07, 2.2788104274695798e-07, 2.366456982372256e-07, 2.4541035372749323e-07, 2.5417500921776086e-07, 2.6293966470802843e-07]}, "dense_bias_0_image": {"_type": "images/separated", "width": 1, "height": 2, "format": "png", "count": 1, "filenames": ["media/images/dense_bias_0_image_22_8d994cf362504173484c.png"]}, "dense_1/kernel_0/histogram": {"_type": "histogram", "values": [1.0, 0.0, 1.0, 1.0, 1.0, 1.0, 2.0, 1.0, 1.0, 3.0, 6.0, 65.0, 281.0, 100.0, 22.0, 9.0, 3.0, 0.0, 1.0, 0.0, 0.0, 0.0, 0.0, 0.0, 0.0, 0.0, 0.0, 0.0, 0.0, 1.0], "bins": [-0.1473132222890854, -0.1357244521379471, -0.12413568198680877, -0.11254691183567048, -0.10095814168453217, -0.08936937153339386, -0.07778060138225557, -0.06619183123111726, -0.05460306107997895, -0.04301429092884064, -0.03142552077770233, -0.019836750626564037, -0.008247980475425742, 0.00334078967571258, 0.014929559826850874, 0.026518329977989197, 0.03810710012912749, 0.049695870280265786, 0.06128464043140411, 0.0728734105825424, 0.08446218073368073, 0.09605095088481902, 0.10763972103595731, 0.11922849118709561, 0.1308172613382339, 0.14240603148937225, 0.15399480164051055, 0.16558357179164884, 0.17717234194278714, 0.18876111209392543, 0.20034988224506378]}, "dense_1_kernel_0_image": {"_type": "images/separated", "width": 1, "height": 500, "format": "png", "count": 1, "filenames": ["media/images/dense_1_kernel_0_image_22_d3b5bee4773ef0aa868e.png"]}, "dense_1/bias_0/histogram": {"_type": "histogram", "values": [10.0, 15.0, 46.0, 59.0, 101.0, 118.0, 102.0, 1.0, 0.0, 0.0, 0.0, 1.0, 1.0, 0.0, 1.0, 1.0, 0.0, 3.0, 2.0, 6.0, 7.0, 7.0, 6.0, 6.0, 4.0, 1.0, 0.0, 1.0, 0.0, 1.0], "bins": [-0.1661306917667389, -0.14202917516231536, -0.11792765855789185, -0.09382614195346833, -0.0697246253490448, -0.04562310874462128, -0.021521592140197776, 0.0025799244642257524, 0.02668144106864928, 0.05078295767307281, 0.07488447427749634, 0.09898599088191984, 0.12308750748634334, 0.1471890240907669, 0.1712905406951904, 0.19539205729961395, 0.21949357390403745, 0.24359509050846095, 0.2676966071128845, 0.291798123717308, 0.31589964032173157, 0.34000115692615507, 0.36410267353057857, 0.38820419013500207, 0.41230570673942557, 0.4364072233438492, 0.4605087399482727, 0.4846102565526962, 0.5087117731571197, 0.5328132897615432, 0.5569148063659668]}, "dense_1_bias_0_image": {"_type": "images/separated", "width": 1, "height": 500, "format": "png", "count": 1, "filenames": ["media/images/dense_1_bias_0_image_22_1a853c6beb4a46f67612.png"]}, "conv1d_transpose/kernel_0/histogram": {"_type": "histogram", "values": [2.0, 2.0, 8.0, 6.0, 16.0, 11.0, 13.0, 10.0, 23.0, 38.0, 37.0, 80.0, 79.0, 93.0, 75.0, 78.0, 72.0, 65.0, 36.0, 13.0, 1.0, 1.0, 0.0, 2.0, 1.0, 3.0, 1.0, 0.0, 1.0, 1.0], "bins": [-0.41831380128860474, -0.39180175960063934, -0.36528971791267395, -0.33877767622470856, -0.31226563453674316, -0.28575359284877777, -0.2592415511608124, -0.23272950947284698, -0.2062174677848816, -0.1797054260969162, -0.1531933844089508, -0.1266813427209854, -0.10016930103302002, -0.07365725934505463, -0.04714521765708923, -0.02063317596912384, 0.005878865718841553, 0.032390907406806946, 0.05890294909477234, 0.08541499078273773, 0.11192703247070312, 0.13843907415866852, 0.1649511158466339, 0.1914631575345993, 0.2179751992225647, 0.2444872409105301, 0.2709992825984955, 0.2975113242864609, 0.32402336597442627, 0.35053540766239166, 0.37704744935035706]}, "conv1d_transpose_kernel_0_image": {"_type": "images/separated", "width": 64, "height": 3, "format": "png", "count": 3, "filenames": ["media/images/conv1d_transpose_kernel_0_image_22_0601980d3f09bcd2188d.png", "media/images/conv1d_transpose_kernel_0_image_22_e7cd6f79d8d1ed983a48.png", "media/images/conv1d_transpose_kernel_0_image_22_d05efae79862c7c2bfac.png"]}, "conv1d_transpose/bias_0/histogram": {"_type": "histogram", "values": [1.0, 0.0, 0.0, 0.0, 3.0, 0.0, 1.0, 1.0, 5.0, 3.0, 5.0, 3.0, 4.0, 6.0, 3.0, 2.0, 2.0, 6.0, 3.0, 6.0, 4.0, 2.0, 3.0, 0.0, 0.0, 0.0, 0.0, 0.0, 0.0, 1.0], "bins": [-0.1390170454978943, -0.13287317790091038, -0.12672931030392648, -0.12058544270694256, -0.11444157510995864, -0.10829770751297474, -0.10215383991599084, -0.09600997231900693, -0.08986610472202301, -0.0837222371250391, -0.07757836952805519, -0.07143450193107129, -0.06529063433408738, -0.059146766737103465, -0.05300289914011956, -0.04685903154313564, -0.04071516394615174, -0.034571296349167835, -0.028427428752183917, -0.022283561155200013, -0.016139693558216095, -0.009995825961232191, -0.003851958364248287, 0.002291909232735617, 0.008435776829719521, 0.014579644426703453, 0.020723512023687357, 0.02686737962067126, 0.033011247217655165, 0.03915511481463907, 0.045298982411623]}, "conv1d_transpose_bias_0_image": {"_type": "images/separated", "width": 1, "height": 64, "format": "png", "count": 1, "filenames": ["media/images/conv1d_transpose_bias_0_image_22_24ee3eef1efbad524d11.png"]}, "conv1d_transpose_1/kernel_0/histogram": {"_type": "histogram", "values": [2.0, 1.0, 1.0, 3.0, 5.0, 7.0, 7.0, 20.0, 27.0, 80.0, 182.0, 538.0, 637.0, 663.0, 674.0, 700.0, 653.0, 650.0, 594.0, 475.0, 166.0, 31.0, 7.0, 6.0, 9.0, 4.0, 1.0, 0.0, 0.0, 1.0], "bins": [-0.34096089005470276, -0.3194160689910253, -0.2978712479273478, -0.27632642686367037, -0.25478160579999287, -0.23323678473631543, -0.21169196367263796, -0.19014714260896048, -0.168602321545283, -0.14705750048160554, -0.12551267941792807, -0.1039678583542506, -0.08242303729057315, -0.060878216226895654, -0.03933339516321821, -0.01778857409954071, 0.0037562469641367335, 0.025301068027814178, 0.04684588909149168, 0.06839071015516912, 0.08993553121884662, 0.11148035228252406, 0.13302517334620156, 0.154569994409879, 0.17611481547355645, 0.19765963653723395, 0.21920445760091145, 0.24074927866458884, 0.26229409972826634, 0.28383892079194384, 0.30538374185562134]}, "conv1d_transpose_1_kernel_0_image": {"_type": "images/separated", "width": 32, "height": 3, "format": "png", "count": 3, "filenames": ["media/images/conv1d_transpose_1_kernel_0_image_22_1504fbdc18832e1ce9c3.png", "media/images/conv1d_transpose_1_kernel_0_image_22_bd3728e1f1513bc83271.png", "media/images/conv1d_transpose_1_kernel_0_image_22_893c816b35242a17eb55.png"]}, "conv1d_transpose_1/bias_0/histogram": {"_type": "histogram", "values": [1.0, 0.0, 0.0, 0.0, 0.0, 0.0, 0.0, 1.0, 0.0, 0.0, 1.0, 0.0, 0.0, 0.0, 0.0, 0.0, 1.0, 2.0, 2.0, 2.0, 1.0, 4.0, 0.0, 0.0, 3.0, 3.0, 3.0, 2.0, 4.0, 2.0], "bins": [-0.16521991789340973, -0.16120082115133602, -0.15718172440926234, -0.15316262766718863, -0.14914353092511495, -0.14512443418304125, -0.14110533744096757, -0.13708624069889386, -0.13306714395682018, -0.12904804721474647, -0.1250289504726728, -0.12100985373059908, -0.11699075698852539, -0.1129716602464517, -0.108952563504378, -0.1049334667623043, -0.10091437002023061, -0.09689527327815692, -0.09287617653608322, -0.08885707979400953, -0.08483798305193584, -0.08081888630986214, -0.07679978956778845, -0.07278069282571475, -0.06876159608364105, -0.06474249934156735, -0.06072340259949366, -0.056704305857419965, -0.05268520911534627, -0.04866611237327258, -0.04464701563119888]}, "conv1d_transpose_1_bias_0_image": {"_type": "images/separated", "width": 1, "height": 32, "format": "png", "count": 1, "filenames": ["media/images/conv1d_transpose_1_bias_0_image_22_867170f26db453b27bf2.png"]}, "conv1d_transpose_2/kernel_0/histogram": {"_type": "histogram", "values": [4.0, 2.0, 1.0, 10.0, 9.0, 13.0, 17.0, 17.0, 17.0, 15.0, 16.0, 20.0, 26.0, 16.0, 19.0, 18.0, 13.0, 23.0, 18.0, 22.0, 13.0, 14.0, 17.0, 15.0, 7.0, 7.0, 6.0, 5.0, 2.0, 2.0], "bins": [-0.198659285902977, -0.18493598947922388, -0.1712126930554708, -0.15748939663171768, -0.14376610020796457, -0.13004280378421146, -0.11631950736045837, -0.10259621093670526, -0.08887291451295216, -0.07514961808919907, -0.061426321665445954, -0.04770302524169284, -0.03397972881793976, -0.020256432394186646, -0.0065331359704335346, 0.0071901604533195496, 0.02091345687707266, 0.03463675330082577, 0.04836004972457886, 0.062083346148332, 0.07580664257208508, 0.08952993899583817, 0.1032532354195913, 0.11697653184334439, 0.13069982826709747, 0.1444231246908506, 0.1581464211146037, 0.17186971753835678, 0.18559301396210992, 0.199316310385863, 0.2130396068096161]}, "conv1d_transpose_2_kernel_0_image": {"_type": "images/separated", "width": 4, "height": 3, "format": "png", "count": 3, "filenames": ["media/images/conv1d_transpose_2_kernel_0_image_22_600ef4355921fd6045b1.png", "media/images/conv1d_transpose_2_kernel_0_image_22_c00fd2795b38d125bb6f.png", "media/images/conv1d_transpose_2_kernel_0_image_22_e21c0550c576160508c8.png"]}, "conv1d_transpose_2/bias_0/histogram": {"_type": "histogram", "values": [2.0, 0.0, 0.0, 0.0, 0.0, 0.0, 0.0, 0.0, 0.0, 0.0, 0.0, 0.0, 0.0, 0.0, 0.0, 0.0, 0.0, 0.0, 0.0, 0.0, 0.0, 0.0, 0.0, 0.0, 0.0, 0.0, 0.0, 0.0, 0.0, 2.0], "bins": [-0.10211635380983353, -0.09226792926589648, -0.08241950472195943, -0.07257108017802238, -0.06272265563408533, -0.052874231090148285, -0.04302580654621124, -0.033177382002274186, -0.023328957458337143, -0.0134805329144001, -0.003632108370463044, 0.0062163161734739986, 0.01606474071741104, 0.025913165261348098, 0.035761589805285154, 0.04561001434922218, 0.05545843889315924, 0.0653068634370963, 0.07515528798103333, 0.08500371252497038, 0.09485213706890744, 0.10470056161284447, 0.11454898615678152, 0.12439741070071858, 0.1342458352446556, 0.14409425978859267, 0.15394268433252972, 0.16379110887646675, 0.17363953342040384, 0.18348795796434086, 0.1933363825082779]}, "conv1d_transpose_2_bias_0_image": {"_type": "images/separated", "width": 1, "height": 4, "format": "png", "count": 1, "filenames": ["media/images/conv1d_transpose_2_bias_0_image_22_b7de15dc6ea487db7d75.png"]}, "_runtime": 1768.2785761356354, "_step": 22}