{"global_step": 16, "_timestamp": 1688243825.331781, "epoch_loss": 1.382077932357788, "epoch_lr": 1.0000001111620804e-06, "pwm_conv/kernel_0/histogram": {"_type": "histogram", "values": [2.0, 1.0, 1.0, 36.0, 514.0, 96.0, 17.0, 408.0, 346.0, 324.0, 313.0, 421.0, 388.0, 425.0, 352.0, 473.0, 480.0, 575.0, 533.0, 580.0, 697.0, 739.0, 702.0, 701.0, 3864.0, 703.0, 709.0, 566.0, 577.0, 1417.0], "bins": [-5.521356105804443, -5.291306344668071, -5.061256583531698, -4.831206822395325, -4.601157061258952, -4.3711073001225795, -4.141057538986206, -3.911007777849833, -3.6809580167134603, -3.4509082555770876, -3.220858494440715, -2.9908087333043416, -2.760758972167969, -2.530709211031596, -2.300659449895223, -2.07060968875885, -1.8405599276224773, -1.6105101664861046, -1.3804604053497318, -1.150410644213359, -0.9203608830769863, -0.6903111219406126, -0.46026136080423985, -0.23021159966786708, -0.00016183853149431826, 0.22988792260487845, 0.4599376837412512, 0.689987444877624, 0.9200372060139976, 1.1500869671503704, 1.3801367282867432]}, "pwm_conv_kernel_0_image": {"_type": "images/separated", "width": 4, "height": 16, "format": "png", "count": 3, "filenames": ["media/images/pwm_conv_kernel_0_image_16_85f3ac3d3901ef7a9581.png", "media/images/pwm_conv_kernel_0_image_16_ff0166818b9ecb03dabe.png", "media/images/pwm_conv_kernel_0_image_16_5c3e85ae5e5c15d498f0.png"]}, "batch_normalization/gamma_0/histogram": {"_type": "histogram", "values": [4.0, 0.0, 2.0, 5.0, 5.0, 11.0, 16.0, 17.0, 19.0, 17.0, 30.0, 20.0, 25.0, 16.0, 18.0, 10.0, 15.0, 9.0, 8.0, 7.0, 2.0, 1.0, 1.0, 1.0, 1.0, 1.0, 2.0, 0.0, 1.0, 1.0], "bins": [0.3116393983364105, 0.3457622478405635, 0.37988509734471637, 0.4140079468488693, 0.4481307963530222, 0.4822536458571752, 0.5163764953613281, 0.550499344865481, 0.5846221943696339, 0.6187450438737869, 0.6528678933779398, 0.6869907428820927, 0.7211135923862457, 0.7552364418903986, 0.7893592913945515, 0.8234821408987045, 0.8576049904028574, 0.8917278399070103, 0.9258506894111633, 0.9599735389153162, 0.9940963884194691, 1.0282192379236221, 1.062342087427775, 1.096464936931928, 1.130587786436081, 1.1647106359402337, 1.1988334854443867, 1.2329563349485397, 1.2670791844526925, 1.3012020339568455, 1.3353248834609985]}, "batch_normalization_gamma_0_image": {"_type": "images/separated", "width": 1, "height": 265, "format": "png", "count": 1, "filenames": ["media/images/batch_normalization_gamma_0_image_16_4f31fe92a1dca8f7510d.png"]}, "batch_normalization/beta_0/histogram": {"_type": "histogram", "values": [2.0, 0.0, 4.0, 5.0, 7.0, 24.0, 19.0, 21.0, 27.0, 17.0, 17.0, 10.0, 7.0, 8.0, 4.0, 3.0, 6.0, 0.0, 3.0, 5.0, 7.0, 6.0, 10.0, 16.0, 10.0, 16.0, 5.0, 3.0, 1.0, 2.0], "bins": [-1.1769732236862183, -1.1043869256973267, -1.031800627708435, -0.9592143297195435, -0.8866280317306519, -0.8140417337417603, -0.7414554357528687, -0.668869137763977, -0.5962828397750854, -0.5236965417861938, -0.45111024379730225, -0.37852394580841064, -0.30593764781951904, -0.23335134983062744, -0.16076505184173584, -0.08817875385284424, -0.015592455863952637, 0.056993842124938965, 0.12958014011383057, 0.20216643810272217, 0.27475273609161377, 0.34733903408050537, 0.419925332069397, 0.4925116300582886, 0.5650979280471802, 0.6376842260360718, 0.7102705240249634, 0.782856822013855, 0.8554431200027466, 0.9280294179916382, 1.0006157159805298]}, "batch_normalization_beta_0_image": {"_type": "images/separated", "width": 1, "height": 265, "format": "png", "count": 1, "filenames": ["media/images/batch_normalization_beta_0_image_16_8ce410a60b92e672e7e1.png"]}, "batch_normalization/moving_mean_0/histogram": {"_type": "histogram", "values": [1.0, 0.0, 0.0, 0.0, 1.0, 1.0, 3.0, 5.0, 2.0, 2.0, 9.0, 6.0, 5.0, 11.0, 15.0, 16.0, 11.0, 10.0, 13.0, 21.0, 25.0, 14.0, 27.0, 17.0, 16.0, 12.0, 9.0, 3.0, 9.0, 1.0], "bins": [-17.75053596496582, -17.21446301937103, -16.678390073776246, -16.142317128181457, -15.60624418258667, -15.070171236991882, -14.534098291397095, -13.998025345802308, -13.461952400207519, -12.925879454612733, -12.389806509017944, -11.853733563423157, -11.31766061782837, -10.78158767223358, -10.245514726638795, -9.709441781044006, -9.173368835449219, -8.637295889854432, -8.101222944259645, -7.565149998664856, -7.029077053070068, -6.493004107475281, -5.956931161880494, -5.420858216285707, -4.884785270690919, -4.34871232509613, -3.812639379501343, -3.276566433906556, -2.7404934883117686, -2.2044205427169814, -1.6683475971221924]}, "batch_normalization_moving_mean_0_image": {"_type": "images/separated", "width": 1, "height": 265, "format": "png", "count": 1, "filenames": ["media/images/batch_normalization_moving_mean_0_image_16_33c86070b749851d6717.png"]}, "batch_normalization/moving_variance_0/histogram": {"_type": "histogram", "values": [5.0, 6.0, 12.0, 22.0, 21.0, 26.0, 21.0, 21.0, 24.0, 23.0, 19.0, 19.0, 5.0, 12.0, 7.0, 6.0, 2.0, 1.0, 1.0, 4.0, 1.0, 5.0, 0.0, 0.0, 1.0, 0.0, 0.0, 0.0, 0.0, 1.0], "bins": [5.559134483337402, 7.260069878896077, 8.961005274454752, 10.66194067001343, 12.362876065572102, 14.06381146113078, 15.764746856689454, 17.46568225224813, 19.166617647806802, 20.86755304336548, 22.568488438924156, 24.26942383448283, 25.970359230041506, 27.67129462560018, 29.372230021158856, 31.07316541671753, 32.7741008122762, 34.47503620783488, 36.175971603393556, 37.87690699895223, 39.57784239451091, 41.27877779006958, 42.979713185628256, 44.68064858118693, 46.38158397674561, 48.08251937230428, 49.783454767862956, 51.48439016342164, 53.18532555898031, 54.88626095453898, 56.587196350097656]}, "batch_normalization_moving_variance_0_image": {"_type": "images/separated", "width": 1, "height": 265, "format": "png", "count": 1, "filenames": ["media/images/batch_normalization_moving_variance_0_image_16_d68e280870fe2b62fed4.png"]}, "conv1d/kernel_0/histogram": {"_type": "histogram", "values": [20.0, 54.0, 93.0, 137.0, 222.0, 410.0, 657.0, 1167.0, 1782.0, 2743.0, 3786.0, 4863.0, 6300.0, 7641.0, 8749.0, 9465.0, 9360.0, 9271.0, 8547.0, 7758.0, 6291.0, 4808.0, 3423.0, 2122.0, 1130.0, 576.0, 266.0, 87.0, 31.0, 1.0], "bins": [-0.18920595943927765, -0.17691674828529358, -0.1646275371313095, -0.15233832597732544, -0.14004911482334137, -0.1277599036693573, -0.11547069251537323, -0.10318148136138916, -0.09089227020740509, -0.07860305905342102, -0.06631384789943695, -0.05402463674545288, -0.04173542559146881, -0.02944621443748474, -0.01715700328350067, -0.0048677921295166016, 0.007421419024467468, 0.019710630178451538, 0.03199984133243561, 0.04428905248641968, 0.05657826364040375, 0.06886747479438782, 0.08115668594837189, 0.09344589710235596, 0.10573510825634003, 0.1180243194103241, 0.13031353056430817, 0.14260274171829224, 0.1548919528722763, 0.16718116402626038, 0.17947037518024445]}, "conv1d_kernel_0_image": {"_type": "images/separated", "width": 265, "height": 3, "format": "png", "count": 3, "filenames": ["media/images/conv1d_kernel_0_image_16_ceb5b16936af96edaf72.png", "media/images/conv1d_kernel_0_image_16_6bc650c96873a8765c35.png", "media/images/conv1d_kernel_0_image_16_fb9c01bc8362d3387247.png"]}, "conv1d/bias_0/histogram": {"_type": "histogram", "values": [1.0, 1.0, 9.0, 6.0, 11.0, 24.0, 13.0, 1.0, 1.0, 0.0, 0.0, 0.0, 0.0, 0.0, 0.0, 1.0, 1.0, 3.0, 6.0, 3.0, 6.0, 5.0, 4.0, 6.0, 7.0, 9.0, 3.0, 3.0, 1.0, 3.0], "bins": [-0.18292301893234253, -0.15942005713780721, -0.1359170953432719, -0.11241413354873657, -0.08891117175420125, -0.06540820995966594, -0.04190524816513061, -0.018402286370595294, 0.005100675423940021, 0.028603637218475336, 0.05210659901301065, 0.075609560807546, 0.09911252260208131, 0.12261548439661663, 0.14611844619115194, 0.16962140798568726, 0.19312436978022257, 0.2166273315747579, 0.2401302933692932, 0.2636332551638285, 0.28713621695836383, 0.31063917875289915, 0.3341421405474345, 0.3576451023419698, 0.38114806413650515, 0.4046510259310404, 0.4281539877255758, 0.45165694952011104, 0.4751599113146464, 0.49866287310918167, 0.522165834903717]}, "conv1d_bias_0_image": {"_type": "images/separated", "width": 1, "height": 128, "format": "png", "count": 1, "filenames": ["media/images/conv1d_bias_0_image_16_86be5a41e87899999013.png"]}, "batch_normalization_1/gamma_0/histogram": {"_type": "histogram", "values": [1.0, 0.0, 2.0, 0.0, 3.0, 1.0, 2.0, 7.0, 4.0, 5.0, 2.0, 4.0, 3.0, 2.0, 2.0, 1.0, 5.0, 3.0, 8.0, 4.0, 5.0, 8.0, 3.0, 7.0, 8.0, 9.0, 8.0, 10.0, 7.0, 4.0], "bins": [0.22789455950260162, 0.24963733007510502, 0.2713801006476084, 0.2931228712201118, 0.3148656417926152, 0.3366084123651186, 0.3583511829376221, 0.3800939535101255, 0.4018367240826289, 0.4235794946551323, 0.4453222652276357, 0.46706503580013914, 0.48880780637264254, 0.5105505769451459, 0.5322933475176493, 0.5540361180901527, 0.5757788886626561, 0.5975216592351595, 0.6192644298076629, 0.6410072003801663, 0.6627499709526697, 0.6844927415251731, 0.7062355120976767, 0.7279782826701799, 0.7497210532426835, 0.7714638238151869, 0.7932065943876903, 0.8149493649601937, 0.8366921355326971, 0.8584349061052005, 0.8801776766777039]}, "batch_normalization_1_gamma_0_image": {"_type": "images/separated", "width": 1, "height": 128, "format": "png", "count": 1, "filenames": ["media/images/batch_normalization_1_gamma_0_image_16_6c978a449d30c119b0ee.png"]}, "batch_normalization_1/beta_0/histogram": {"_type": "histogram", "values": [1.0, 0.0, 0.0, 0.0, 2.0, 2.0, 5.0, 7.0, 3.0, 5.0, 2.0, 9.0, 5.0, 3.0, 3.0, 6.0, 0.0, 2.0, 3.0, 2.0, 1.0, 0.0, 0.0, 0.0, 0.0, 9.0, 21.0, 24.0, 9.0, 4.0], "bins": [-0.667352557182312, -0.6395721117655436, -0.6117916663487752, -0.5840112209320069, -0.5562307755152385, -0.5284503300984701, -0.5006698846817017, -0.47288943926493326, -0.4451089938481649, -0.4173285484313965, -0.3895481030146281, -0.3617676575978597, -0.3339872121810913, -0.3062067667643229, -0.2784263213475545, -0.25064587593078613, -0.22286543051401775, -0.19508498509724936, -0.16730453968048098, -0.1395240942637126, -0.11174364884694421, -0.08396320343017583, -0.05618275801340744, -0.028402312596639057, -0.0006218671798705611, 0.027158578236897823, 0.05493902365366621, 0.08271946907043459, 0.11049991448720298, 0.13828035990397136, 0.16606080532073975]}, "batch_normalization_1_beta_0_image": {"_type": "images/separated", "width": 1, "height": 128, "format": "png", "count": 1, "filenames": ["media/images/batch_normalization_1_beta_0_image_16_db8eda142994412f5fb7.png"]}, "batch_normalization_1/moving_mean_0/histogram": {"_type": "histogram", "values": [67.0, 0.0, 0.0, 0.0, 0.0, 0.0, 0.0, 0.0, 0.0, 0.0, 0.0, 0.0, 0.0, 0.0, 0.0, 0.0, 0.0, 0.0, 0.0, 0.0, 0.0, 0.0, 0.0, 0.0, 0.0, 5.0, 8.0, 18.0, 15.0, 15.0], "bins": [0.005532509181648493, 0.5306399165497472, 1.0557473239178459, 1.5808547312859447, 2.1059621386540432, 2.631069546022142, 3.156176953390241, 3.6812843607583394, 4.206391768126438, 4.731499175494537, 5.256606582862635, 5.781713990230734, 6.306821397598833, 6.831928804966932, 7.35703621233503, 7.882143619703129, 8.407251027071228, 8.932358434439326, 9.457465841807425, 9.982573249175523, 10.507680656543622, 11.03278806391172, 11.557895471279819, 12.083002878647918, 12.608110286016018, 13.133217693384116, 13.658325100752215, 14.183432508120314, 14.708539915488412, 15.23364732285651, 15.75875473022461]}, "batch_normalization_1_moving_mean_0_image": {"_type": "images/separated", "width": 1, "height": 128, "format": "png", "count": 1, "filenames": ["media/images/batch_normalization_1_moving_mean_0_image_16_7829e591b6b8f13207dd.png"]}, "batch_normalization_1/moving_variance_0/histogram": {"_type": "histogram", "values": [67.0, 0.0, 0.0, 0.0, 0.0, 0.0, 0.0, 0.0, 0.0, 0.0, 0.0, 0.0, 0.0, 0.0, 0.0, 0.0, 0.0, 0.0, 0.0, 0.0, 0.0, 0.0, 5.0, 1.0, 6.0, 14.0, 14.0, 9.0, 8.0, 4.0], "bins": [0.01471067313104868, 0.9341926099422078, 1.8536745467533668, 2.773156483564526, 3.692638420375685, 4.6121203571868445, 5.531602293998003, 6.451084230809162, 7.370566167620321, 8.29004810443148, 9.20953004124264, 10.129011978053798, 11.048493914864958, 11.967975851676117, 12.887457788487275, 13.806939725298434, 14.726421662109594, 15.645903598920754, 16.565385535731913, 17.484867472543073, 18.404349409354232, 19.323831346165388, 20.243313282976548, 21.162795219787707, 22.082277156598867, 23.001759093410026, 23.921241030221186, 24.840722967032345, 25.7602049038435, 26.67968684065466, 27.59916877746582]}, "batch_normalization_1_moving_variance_0_image": {"_type": "images/separated", "width": 1, "height": 128, "format": "png", "count": 1, "filenames": ["media/images/batch_normalization_1_moving_variance_0_image_16_e459aeaf4dbcf675e5e4.png"]}, "conv1d_1/kernel_0/histogram": {"_type": "histogram", "values": [3.0, 5.0, 20.0, 70.0, 189.0, 458.0, 854.0, 1119.0, 1300.0, 1326.0, 1382.0, 1368.0, 1451.0, 1419.0, 1487.0, 1409.0, 1378.0, 1415.0, 1402.0, 1346.0, 1282.0, 1238.0, 1069.0, 834.0, 462.0, 212.0, 60.0, 12.0, 3.0, 3.0], "bins": [-0.15216460824012756, -0.14217287997404734, -0.13218115170796713, -0.12218942344188691, -0.11219769517580669, -0.10220596690972647, -0.09221423864364624, -0.08222251037756602, -0.0722307821114858, -0.06223905384540558, -0.05224732557932536, -0.042255597313245144, -0.03226386904716491, -0.022272140781084693, -0.012280412515004474, -0.0022886842489242554, 0.007703044017155963, 0.017694772283236182, 0.0276865005493164, 0.03767822881539662, 0.04766995708147684, 0.05766168534755706, 0.06765341361363728, 0.0776451418797175, 0.08763687014579774, 0.09762859841187796, 0.10762032667795818, 0.11761205494403837, 0.12760378321011862, 0.1375955114761988, 0.14758723974227905]}, "conv1d_1_kernel_0_image": {"_type": "images/separated", "width": 128, "height": 3, "format": "png", "count": 3, "filenames": ["media/images/conv1d_1_kernel_0_image_16_33cc379eb36ec095185c.png", "media/images/conv1d_1_kernel_0_image_16_14538d1fa652350fbd39.png", "media/images/conv1d_1_kernel_0_image_16_667d1b9f559e3d683508.png"]}, "conv1d_1/bias_0/histogram": {"_type": "histogram", "values": [1.0, 0.0, 0.0, 0.0, 0.0, 0.0, 0.0, 0.0, 0.0, 1.0, 0.0, 0.0, 1.0, 2.0, 1.0, 3.0, 1.0, 7.0, 7.0, 5.0, 12.0, 5.0, 5.0, 4.0, 2.0, 2.0, 3.0, 0.0, 1.0, 1.0], "bins": [-0.016504954546689987, -0.015799729494998853, -0.015094504443307719, -0.014389279391616583, -0.013684054339925448, -0.012978829288234314, -0.012273604236543178, -0.011568379184852044, -0.01086315413316091, -0.010157929081469775, -0.00945270402977864, -0.008747478978087505, -0.00804225392639637, -0.007337028874705236, -0.0066318038230141, -0.005926578771322966, -0.005221353719631831, -0.004516128667940697, -0.0038109036162495627, -0.0031056785645584267, -0.0024004535128672923, -0.001695228461176158, -0.000990003409485022, -0.0002847783577938877, 0.0004204466938972466, 0.001125671745588381, 0.0018308967972795152, 0.0025361218489706495, 0.0032413469006617873, 0.003946571952352922, 0.004651797004044056]}, "conv1d_1_bias_0_image": {"_type": "images/separated", "width": 1, "height": 64, "format": "png", "count": 1, "filenames": ["media/images/conv1d_1_bias_0_image_16_320e41cb3904aa97de99.png"]}, "dense/kernel_0/histogram": {"_type": "histogram", "values": [1.0, 2.0, 3.0, 5.0, 3.0, 5.0, 7.0, 5.0, 5.0, 7.0, 1.0, 3.0, 6.0, 5.0, 4.0, 6.0, 3.0, 9.0, 3.0, 4.0, 5.0, 7.0, 2.0, 2.0, 6.0, 6.0, 4.0, 4.0, 3.0, 2.0], "bins": [-0.2705259919166565, -0.2526211400826772, -0.23471628824869792, -0.21681143641471862, -0.19890658458073934, -0.18100173274676007, -0.16309688091278077, -0.14519202907880147, -0.1272871772448222, -0.10938232541084292, -0.09147747357686362, -0.07357262174288431, -0.05566776990890504, -0.037762918074925766, -0.019858066240946437, -0.001953214406967163, 0.01595163742701211, 0.033856489260991385, 0.05176134109497066, 0.06966619292894999, 0.08757104476292926, 0.10547589659690854, 0.12338074843088787, 0.14128560026486714, 0.1591904520988464, 0.1770953039328257, 0.19500015576680496, 0.2129050076007843, 0.23080985943476362, 0.2487147112687429, 0.26661956310272217]}, "dense_kernel_0_image": {"_type": "images/separated", "width": 64, "height": 2, "format": "png", "count": 1, "filenames": ["media/images/dense_kernel_0_image_16_a5f9f5324290c803f624.png"]}, "dense/bias_0/histogram": {"_type": "histogram", "values": [1.0, 0.0, 0.0, 0.0, 0.0, 0.0, 0.0, 0.0, 0.0, 0.0, 0.0, 0.0, 0.0, 0.0, 0.0, 0.0, 0.0, 0.0, 0.0, 0.0, 0.0, 0.0, 0.0, 0.0, 0.0, 0.0, 0.0, 0.0, 0.0, 1.0], "bins": [-8.514679393556435e-06, -8.403626376699927e-06, -8.292573359843422e-06, -8.181520342986914e-06, -8.070467326130407e-06, -7.959414309273901e-06, -7.848361292417394e-06, -7.737308275560887e-06, -7.62625525870438e-06, -7.515202241847874e-06, -7.404149224991367e-06, -7.293096208134861e-06, -7.182043191278353e-06, -7.070990174421847e-06, -6.95993715756534e-06, -6.848884140708833e-06, -6.7378311238523265e-06, -6.62677810699582e-06, -6.515725090139313e-06, -6.404672073282806e-06, -6.2936190564263e-06, -6.182566039569792e-06, -6.071513022713286e-06, -5.960460005856779e-06, -5.849406989000272e-06, -5.7383539721437655e-06, -5.627300955287259e-06, -5.516247938430752e-06, -5.405194921574245e-06, -5.294141904717739e-06, -5.183088887861231e-06]}, "dense_bias_0_image": {"_type": "images/separated", "width": 1, "height": 2, "format": "png", "count": 1, "filenames": ["media/images/dense_bias_0_image_16_8d994cf362504173484c.png"]}, "dense_1/kernel_0/histogram": {"_type": "histogram", "values": [1.0, 1.0, 1.0, 0.0, 2.0, 2.0, 3.0, 3.0, 11.0, 15.0, 9.0, 9.0, 15.0, 30.0, 45.0, 54.0, 81.0, 82.0, 57.0, 27.0, 11.0, 9.0, 7.0, 5.0, 6.0, 3.0, 4.0, 5.0, 0.0, 2.0], "bins": [-0.10741057246923447, -0.10097856571276982, -0.09454655895630519, -0.08811455219984055, -0.0816825454433759, -0.07525053868691126, -0.06881853193044662, -0.06238652517398198, -0.05595451841751734, -0.049522511661052704, -0.04309050490458806, -0.036658498148123414, -0.030226491391658783, -0.023794484635194138, -0.017362477878729493, -0.010930471122264862, -0.004498464365800217, 0.0019335423906644278, 0.008365549147129059, 0.014797555903593704, 0.02122956266005835, 0.02766156941652298, 0.03409357617298764, 0.04052558292945227, 0.0469575896859169, 0.05338959644238156, 0.05982160319884619, 0.06625360995531082, 0.07268561671177548, 0.07911762346824011, 0.08554963022470474]}, "dense_1_kernel_0_image": {"_type": "images/separated", "width": 1, "height": 500, "format": "png", "count": 1, "filenames": ["media/images/dense_1_kernel_0_image_16_d0ce58248aeb512e1855.png"]}, "dense_1/bias_0/histogram": {"_type": "histogram", "values": [12.0, 24.0, 38.0, 54.0, 58.0, 58.0, 57.0, 64.0, 12.0, 11.0, 11.0, 15.0, 9.0, 10.0, 17.0, 8.0, 7.0, 10.0, 4.0, 4.0, 7.0, 2.0, 5.0, 1.0, 1.0, 0.0, 0.0, 0.0, 0.0, 1.0], "bins": [-0.10831974446773529, -0.09469305525223415, -0.08106636603673299, -0.06743967682123184, -0.053812987605730694, -0.04018629839022955, -0.026559609174728396, -0.01293291995922724, 0.0006937692562739017, 0.014320458471775044, 0.027947147687276186, 0.041573836902777356, 0.0552005261182785, 0.06882721533377964, 0.08245390454928081, 0.09608059376478195, 0.1097072829802831, 0.12333397219578424, 0.13696066141128538, 0.15058735062678652, 0.16421403984228766, 0.17784072905778886, 0.19146741827329, 0.20509410748879114, 0.2187207967042923, 0.23234748591979343, 0.24597417513529457, 0.2596008643507957, 0.2732275535662969, 0.28685424278179805, 0.3004809319972992]}, "dense_1_bias_0_image": {"_type": "images/separated", "width": 1, "height": 500, "format": "png", "count": 1, "filenames": ["media/images/dense_1_bias_0_image_16_aef82f45442daa4988cc.png"]}, "conv1d_transpose/kernel_0/histogram": {"_type": "histogram", "values": [1.0, 0.0, 1.0, 2.0, 10.0, 25.0, 30.0, 35.0, 35.0, 36.0, 34.0, 27.0, 24.0, 28.0, 27.0, 38.0, 42.0, 41.0, 37.0, 36.0, 39.0, 34.0, 35.0, 29.0, 47.0, 31.0, 27.0, 9.0, 5.0, 3.0], "bins": [-0.24439074099063873, -0.2306874359647433, -0.21698413093884786, -0.20328082591295243, -0.18957752088705698, -0.17587421586116156, -0.16217091083526614, -0.14846760580937068, -0.13476430078347523, -0.12106099575757981, -0.10735769073168439, -0.09365438570578893, -0.07995108067989351, -0.06624777565399806, -0.052544470628102635, -0.038841165602207184, -0.02513786057631176, -0.011434555550416337, 0.002268749475479115, 0.015972054501374566, 0.029675359527269962, 0.043378664553165414, 0.057081969579060865, 0.07078527460495632, 0.08448857963085171, 0.09819188465674716, 0.11189518968264262, 0.125598494708538, 0.13930179973443346, 0.1530051047603289, 0.16670840978622437]}, "conv1d_transpose_kernel_0_image": {"_type": "images/separated", "width": 64, "height": 3, "format": "png", "count": 3, "filenames": ["media/images/conv1d_transpose_kernel_0_image_16_5c76207a9995596a1f40.png", "media/images/conv1d_transpose_kernel_0_image_16_c358ff0aedf109efa37f.png", "media/images/conv1d_transpose_kernel_0_image_16_7a86ab761c1fe2c730e0.png"]}, "conv1d_transpose/bias_0/histogram": {"_type": "histogram", "values": [3.0, 0.0, 2.0, 0.0, 1.0, 7.0, 0.0, 2.0, 2.0, 1.0, 4.0, 9.0, 7.0, 3.0, 4.0, 4.0, 5.0, 3.0, 2.0, 0.0, 1.0, 0.0, 0.0, 0.0, 1.0, 1.0, 0.0, 1.0, 0.0, 1.0], "bins": [-0.08586296439170837, -0.08336217928056916, -0.08086139416942993, -0.07836060905829072, -0.0758598239471515, -0.07335903883601229, -0.07085825372487306, -0.06835746861373385, -0.06585668350259463, -0.06335589839145542, -0.06085511328031619, -0.058354328169176975, -0.055853543058037754, -0.05335275794689854, -0.05085197283575932, -0.048351187724620104, -0.04585040261348088, -0.04334961750234166, -0.04084883239120245, -0.038348047280063226, -0.03584726216892401, -0.03334647705778479, -0.030845691946645576, -0.028344906835506355, -0.025844121724367133, -0.02334333661322792, -0.020842551502088705, -0.018341766390949477, -0.015840981279810262, -0.013340196168671048, -0.010839411057531834]}, "conv1d_transpose_bias_0_image": {"_type": "images/separated", "width": 1, "height": 64, "format": "png", "count": 1, "filenames": ["media/images/conv1d_transpose_bias_0_image_16_bb73d8645203240d9bf5.png"]}, "batch_normalization_2/gamma_0/histogram": {"_type": "histogram", "values": [1.0, 0.0, 0.0, 0.0, 0.0, 0.0, 0.0, 0.0, 0.0, 0.0, 1.0, 1.0, 0.0, 0.0, 0.0, 0.0, 1.0, 0.0, 0.0, 1.0, 0.0, 0.0, 3.0, 4.0, 5.0, 5.0, 10.0, 13.0, 11.0, 8.0], "bins": [0.775821328163147, 0.7830330729484558, 0.7902448177337646, 0.7974565625190735, 0.8046683073043823, 0.8118800520896912, 0.819091796875, 0.8263035416603088, 0.8335152864456177, 0.8407270312309265, 0.8479387760162354, 0.8551505208015442, 0.862362265586853, 0.8695740103721619, 0.8767857551574707, 0.8839974999427795, 0.8912092447280884, 0.8984209895133972, 0.905632734298706, 0.9128444790840149, 0.9200562238693237, 0.9272679686546326, 0.9344797134399414, 0.9416914582252502, 0.9489032030105591, 0.9561149477958679, 0.9633266925811768, 0.9705384373664856, 0.9777501821517944, 0.9849619269371033, 0.9921736717224121]}, "batch_normalization_2_gamma_0_image": {"_type": "images/separated", "width": 1, "height": 64, "format": "png", "count": 1, "filenames": ["media/images/batch_normalization_2_gamma_0_image_16_a12bf14a49932a4c2840.png"]}, "batch_normalization_2/beta_0/histogram": {"_type": "histogram", "values": [1.0, 0.0, 0.0, 0.0, 0.0, 0.0, 0.0, 0.0, 0.0, 0.0, 2.0, 1.0, 1.0, 3.0, 3.0, 7.0, 7.0, 10.0, 5.0, 2.0, 5.0, 3.0, 3.0, 3.0, 4.0, 2.0, 0.0, 1.0, 0.0, 1.0], "bins": [-0.06568346172571182, -0.062007076914111774, -0.058330692102511725, -0.054654307290911676, -0.05097792247931163, -0.04730153766771157, -0.04362515285611153, -0.03994876804451147, -0.03627238323291143, -0.032595998421311376, -0.028919613609711327, -0.025243228798111278, -0.02156684398651123, -0.01789045917491118, -0.014214074363311131, -0.010537689551711082, -0.006861304740111034, -0.0031849199285109847, 0.0004914648830890711, 0.004167849694689113, 0.007844234506289169, 0.01152061931788921, 0.015197004129489267, 0.01887338894108931, 0.022549773752689364, 0.026226158564289406, 0.029902543375889462, 0.033578928187489504, 0.03725531299908956, 0.0409316978106896, 0.04460808262228966]}, "batch_normalization_2_beta_0_image": {"_type": "images/separated", "width": 1, "height": 64, "format": "png", "count": 1, "filenames": ["media/images/batch_normalization_2_beta_0_image_16_e35073bd488f49c40c59.png"]}, "batch_normalization_2/moving_mean_0/histogram": {"_type": "histogram", "values": [63.0, 0.0, 0.0, 0.0, 0.0, 0.0, 0.0, 0.0, 0.0, 0.0, 0.0, 0.0, 0.0, 0.0, 0.0, 0.0, 0.0, 0.0, 0.0, 0.0, 0.0, 0.0, 0.0, 0.0, 0.0, 0.0, 0.0, 0.0, 0.0, 1.0], "bins": [1.1637681955897157e-36, 2.9939685191493483e-06, 5.987937038298697e-06, 8.981905557448046e-06, 1.1975874076597393e-05, 1.496984259574674e-05, 1.796381111489609e-05, 2.095777963404544e-05, 2.3951748153194786e-05, 2.6945716672344134e-05, 2.993968519149348e-05, 3.293365371064283e-05, 3.592762222979218e-05, 3.892159074894153e-05, 4.191555926809088e-05, 4.490952778724022e-05, 4.790349630638957e-05, 5.0897464825538924e-05, 5.389143334468827e-05, 5.688540186383762e-05, 5.987937038298696e-05, 6.287333890213631e-05, 6.586730742128566e-05, 6.886127594043502e-05, 7.185524445958437e-05, 7.48492129787337e-05, 7.784318149788305e-05, 8.08371500170324e-05, 8.383111853618176e-05, 8.682508705533111e-05, 8.981905557448044e-05]}, "batch_normalization_2_moving_mean_0_image": {"_type": "images/separated", "width": 1, "height": 64, "format": "png", "count": 1, "filenames": ["media/images/batch_normalization_2_moving_mean_0_image_16_bb73d8645203240d9bf5.png"]}, "batch_normalization_2/moving_variance_0/histogram": {"_type": "histogram", "values": [63.0, 0.0, 0.0, 0.0, 0.0, 0.0, 0.0, 0.0, 0.0, 0.0, 0.0, 0.0, 0.0, 0.0, 0.0, 0.0, 0.0, 0.0, 0.0, 0.0, 0.0, 0.0, 0.0, 0.0, 0.0, 0.0, 0.0, 0.0, 0.0, 1.0], "bins": [1.1641489003565035e-36, 6.557676594335741e-08, 1.3115353188671483e-07, 1.9673029783007223e-07, 2.6230706377342966e-07, 3.278838297167871e-07, 3.9346059566014446e-07, 4.590373616035019e-07, 5.246141275468593e-07, 5.901908934902167e-07, 6.557676594335742e-07, 7.213444253769316e-07, 7.869211913202889e-07, 8.524979572636464e-07, 9.180747232070038e-07, 9.836514891503612e-07, 1.0492282550937186e-06, 1.1148050210370761e-06, 1.1803817869804334e-06, 1.2459585529237909e-06, 1.3115353188671484e-06, 1.3771120848105056e-06, 1.442688850753863e-06, 1.5082656166972206e-06, 1.5738423826405779e-06, 1.6394191485839353e-06, 1.7049959145272928e-06, 1.7705726804706503e-06, 1.8361494464140076e-06, 1.901726212357365e-06, 1.9673029783007223e-06]}, "batch_normalization_2_moving_variance_0_image": {"_type": "images/separated", "width": 1, "height": 64, "format": "png", "count": 1, "filenames": ["media/images/batch_normalization_2_moving_variance_0_image_16_bb73d8645203240d9bf5.png"]}, "conv1d_transpose_1/kernel_0/histogram": {"_type": "histogram", "values": [2.0, 1.0, 1.0, 4.0, 10.0, 25.0, 69.0, 130.0, 201.0, 276.0, 303.0, 367.0, 360.0, 426.0, 398.0, 354.0, 413.0, 397.0, 423.0, 364.0, 392.0, 364.0, 280.0, 244.0, 172.0, 93.0, 43.0, 21.0, 8.0, 3.0], "bins": [-0.28510013222694397, -0.26777304063240687, -0.25044594903786976, -0.23311885744333266, -0.21579176584879556, -0.19846467425425846, -0.18113758265972138, -0.16381049106518428, -0.14648339947064717, -0.12915630787611007, -0.11182921628157297, -0.09450212468703587, -0.07717503309249879, -0.05984794149796169, -0.042520849903424585, -0.02519375830888748, -0.007866666714350379, 0.009460424880186724, 0.026787516474723827, 0.04411460806926093, 0.06144169966379803, 0.07876879125833514, 0.09609588285287224, 0.11342297444740934, 0.1307500660419464, 0.1480771576364835, 0.1654042492310206, 0.1827313408255577, 0.2000584324200948, 0.21738552401463196, 0.234712615609169]}, "conv1d_transpose_1_kernel_0_image": {"_type": "images/separated", "width": 32, "height": 3, "format": "png", "count": 3, "filenames": ["media/images/conv1d_transpose_1_kernel_0_image_16_a0dc72469e1bcc95cd42.png", "media/images/conv1d_transpose_1_kernel_0_image_16_e7ff335f60a3f7f1e9a6.png", "media/images/conv1d_transpose_1_kernel_0_image_16_ee6928cdf4bfaea384f0.png"]}, "conv1d_transpose_1/bias_0/histogram": {"_type": "histogram", "values": [1.0, 0.0, 0.0, 0.0, 0.0, 1.0, 0.0, 0.0, 2.0, 1.0, 1.0, 0.0, 2.0, 4.0, 3.0, 6.0, 1.0, 0.0, 1.0, 0.0, 2.0, 1.0, 0.0, 1.0, 0.0, 1.0, 0.0, 2.0, 0.0, 2.0], "bins": [-0.12246069312095642, -0.1154068743189176, -0.10835305551687877, -0.10129923671483994, -0.09424541791280111, -0.08719159911076227, -0.08013778030872346, -0.07308396150668461, -0.0660301427046458, -0.05897632390260696, -0.05192250510056813, -0.0448686862985293, -0.037814867496490476, -0.030761048694451648, -0.02370722989241282, -0.016653411090373993, -0.009599592288335165, -0.0025457734862963377, 0.004508045315742504, 0.011561864117781318, 0.01861568291982016, 0.025669501721858973, 0.032723320523897814, 0.03977713932593663, 0.04683095812797547, 0.05388477693001428, 0.060938595732053125, 0.06799241453409194, 0.07504623333613078, 0.0821000521381696, 0.08915387094020844]}, "conv1d_transpose_1_bias_0_image": {"_type": "images/separated", "width": 1, "height": 32, "format": "png", "count": 1, "filenames": ["media/images/conv1d_transpose_1_bias_0_image_16_014ff43b7b981c921609.png"]}, "conv1d_transpose_2/kernel_0/histogram": {"_type": "histogram", "values": [2.0, 4.0, 5.0, 9.0, 9.0, 8.0, 16.0, 16.0, 10.0, 18.0, 25.0, 16.0, 13.0, 24.0, 17.0, 11.0, 19.0, 15.0, 19.0, 20.0, 14.0, 12.0, 15.0, 18.0, 8.0, 22.0, 10.0, 6.0, 2.0, 1.0], "bins": [-0.2810867130756378, -0.26272676785786947, -0.24436682264010112, -0.22600687742233277, -0.20764693220456443, -0.18928698698679608, -0.1709270417690277, -0.15256709655125936, -0.134207151333491, -0.11584720611572266, -0.09748726089795431, -0.07912731568018597, -0.06076737046241759, -0.042407425244649244, -0.024047480026880896, -0.005687534809112549, 0.012672410408655799, 0.031032355626424146, 0.049392300844192494, 0.06775224606196084, 0.08611219127972919, 0.10447213649749754, 0.12283208171526588, 0.14119202693303423, 0.15955197215080263, 0.17791191736857098, 0.19627186258633933, 0.21463180780410768, 0.23299175302187602, 0.2513516982396443, 0.2697116434574127]}, "conv1d_transpose_2_kernel_0_image": {"_type": "images/separated", "width": 4, "height": 3, "format": "png", "count": 3, "filenames": ["media/images/conv1d_transpose_2_kernel_0_image_16_7062ec776cce769bdad2.png", "media/images/conv1d_transpose_2_kernel_0_image_16_7811c9a56493112d88ac.png", "media/images/conv1d_transpose_2_kernel_0_image_16_6a7ca2b435ecfe610f41.png"]}, "conv1d_transpose_2/bias_0/histogram": {"_type": "histogram", "values": [1.0, 0.0, 1.0, 0.0, 0.0, 0.0, 0.0, 0.0, 0.0, 0.0, 0.0, 0.0, 0.0, 0.0, 0.0, 0.0, 0.0, 0.0, 0.0, 0.0, 0.0, 0.0, 0.0, 0.0, 0.0, 0.0, 0.0, 0.0, 0.0, 2.0], "bins": [-0.10068129003047943, -0.0946126679579417, -0.08854404588540395, -0.08247542381286621, -0.07640680174032848, -0.07033817966779074, -0.06426955759525299, -0.058200935522715255, -0.05213231345017751, -0.04606369137763977, -0.039995069305102035, -0.0339264472325643, -0.02785782516002655, -0.021789203087488815, -0.01572058101495108, -0.00965195894241333, -0.0035833368698755946, 0.002485285202662141, 0.00855390727519989, 0.014622529347737626, 0.02069115142027536, 0.02675977349281311, 0.03282839556535083, 0.03889701763788858, 0.04496563971042633, 0.05103426178296405, 0.0571028838555018, 0.06317150592803955, 0.06924012800057727, 0.07530875007311502, 0.08137737214565277]}, "conv1d_transpose_2_bias_0_image": {"_type": "images/separated", "width": 1, "height": 4, "format": "png", "count": 1, "filenames": ["media/images/conv1d_transpose_2_bias_0_image_16_e3367caacd5a25b5e658.png"]}, "_runtime": 4449.5621428489685, "_step": 16, "_wandb": {"runtime": 4448}}