{"global_step": 7, "_timestamp": 1688082137.949393, "epoch_loss": 1.0864406195568185e+28, "epoch_lr": 9.999999747378752e-05, "pwm_conv/kernel_0/histogram": {"_type": "histogram", "values": [2.0, 1.0, 1.0, 36.0, 514.0, 96.0, 17.0, 408.0, 346.0, 324.0, 313.0, 421.0, 388.0, 425.0, 352.0, 473.0, 480.0, 575.0, 533.0, 580.0, 697.0, 739.0, 702.0, 701.0, 3864.0, 703.0, 709.0, 566.0, 577.0, 1417.0], "bins": [-5.521356105804443, -5.291306344668071, -5.061256583531698, -4.831206822395325, -4.601157061258952, -4.3711073001225795, -4.141057538986206, -3.911007777849833, -3.6809580167134603, -3.4509082555770876, -3.220858494440715, -2.9908087333043416, -2.760758972167969, -2.530709211031596, -2.300659449895223, -2.07060968875885, -1.8405599276224773, -1.6105101664861046, -1.3804604053497318, -1.150410644213359, -0.9203608830769863, -0.6903111219406126, -0.46026136080423985, -0.23021159966786708, -0.00016183853149431826, 0.22988792260487845, 0.4599376837412512, 0.689987444877624, 0.9200372060139976, 1.1500869671503704, 1.3801367282867432]}, "pwm_conv_kernel_0_image": {"_type": "images/separated", "width": 4, "height": 16, "format": "png", "count": 3, "filenames": ["media/images/pwm_conv_kernel_0_image_7_85f3ac3d3901ef7a9581.png", "media/images/pwm_conv_kernel_0_image_7_ff0166818b9ecb03dabe.png", "media/images/pwm_conv_kernel_0_image_7_5c3e85ae5e5c15d498f0.png"]}, "conv1d/kernel_0/histogram": {"_type": "histogram", "values": [1663.0, 1663.0, 1708.0, 1689.0, 1687.0, 1741.0, 1701.0, 1695.0, 1720.0, 1711.0, 1680.0, 1713.0, 1682.0, 1693.0, 1712.0, 1618.0, 1722.0, 1732.0, 1702.0, 1663.0, 1699.0, 1725.0, 1734.0, 1627.0, 1693.0, 1751.0, 1670.0, 1693.0, 1656.0, 1737.0], "bins": [-0.07796447724103928, -0.07276682977875074, -0.0675691823164622, -0.06237153485417366, -0.05717388739188512, -0.05197623992959658, -0.04677859246730805, -0.04158094500501951, -0.036383297542730966, -0.031185650080442426, -0.025988002618153885, -0.020790355155865352, -0.015592707693576811, -0.010395060231288278, -0.005197412768999737, 2.3469328880310059e-07, 0.0051978821555773436, 0.010395529617865884, 0.015593177080154424, 0.020790824542442965, 0.025988472004731505, 0.031186119467020032, 0.03638376692930857, 0.04158141439159711, 0.04677906185388565, 0.05197670931617418, 0.05717435677846272, 0.06237200424075126, 0.0675696517030398, 0.07276729916532834, 0.07796494662761688]}, "conv1d_kernel_0_image": {"_type": "images/separated", "width": 265, "height": 3, "format": "png", "count": 3, "filenames": ["media/images/conv1d_kernel_0_image_7_5880478c678a1341ad8c.png", "media/images/conv1d_kernel_0_image_7_9c73b182e972e5a362e5.png", "media/images/conv1d_kernel_0_image_7_af5f2d54025edf079d37.png"]}, "conv1d/bias_0/histogram": {"_type": "histogram", "values": [0.0, 0.0, 0.0, 0.0, 0.0, 0.0, 0.0, 0.0, 0.0, 0.0, 0.0, 0.0, 0.0, 0.0, 0.0, 0.0, 0.0, 0.0, 0.0, 0.0, 0.0, 0.0, 0.0, 0.0, 0.0, 0.0, 0.0, 0.0, 0.0, 64.0], "bins": [0.0, 0.0, 0.0, 0.0, 0.0, 0.0, 0.0, 0.0, 0.0, 0.0, 0.0, 0.0, 0.0, 0.0, 0.0, 0.0, 0.0, 0.0, 0.0, 0.0, 0.0, 0.0, 0.0, 0.0, 0.0, 0.0, 0.0, 0.0, 0.0, 0.0, 0.0]}, "conv1d_bias_0_image": {"_type": "images/separated", "width": 1, "height": 64, "format": "png", "count": 1, "filenames": ["media/images/conv1d_bias_0_image_7_bb73d8645203240d9bf5.png"]}, "dense/kernel_0/histogram": {"_type": "histogram", "values": [2.0, 3.0, 7.0, 2.0, 5.0, 5.0, 5.0, 4.0, 5.0, 4.0, 5.0, 5.0, 6.0, 6.0, 4.0, 11.0, 5.0, 0.0, 3.0, 4.0, 7.0, 3.0, 2.0, 2.0, 1.0, 4.0, 7.0, 6.0, 1.0, 4.0], "bins": [-0.292765349149704, -0.2721283803383509, -0.2514914115269979, -0.23085444271564481, -0.2102174739042918, -0.18958050509293872, -0.16894353628158568, -0.14830656747023263, -0.12766959865887959, -0.10703262984752654, -0.0863956610361735, -0.06575869222482045, -0.045121723413467374, -0.024484754602114356, -0.0038477857907612822, 0.016789183020591736, 0.03742615183194481, 0.05806312064329788, 0.0787000894546509, 0.09933705826600397, 0.11997402707735699, 0.14061099588871007, 0.16124796470006308, 0.18188493351141616, 0.20252190232276923, 0.22315887113412225, 0.24379583994547527, 0.2644328087568284, 0.2850697775681814, 0.30570674637953443, 0.32634371519088745]}, "dense_kernel_0_image": {"_type": "images/separated", "width": 64, "height": 2, "format": "png", "count": 1, "filenames": ["media/images/dense_kernel_0_image_7_4733845f5c96f8498fcd.png"]}, "dense/bias_0/histogram": {"_type": "histogram", "values": [1.0, 0.0, 0.0, 0.0, 0.0, 0.0, 0.0, 0.0, 0.0, 0.0, 0.0, 0.0, 0.0, 0.0, 0.0, 0.0, 0.0, 0.0, 0.0, 0.0, 0.0, 0.0, 0.0, 0.0, 0.0, 0.0, 0.0, 0.0, 0.0, 1.0], "bins": [0.0, 0.0011391380180915196, 0.0022782760361830393, 0.003417414054274559, 0.004556552072366079, 0.005695690090457598, 0.006834828108549118, 0.007973966126640638, 0.009113104144732157, 0.010252242162823676, 0.011391380180915196, 0.012530518199006717, 0.013669656217098236, 0.014808794235189755, 0.015947932253281276, 0.017087070271372795, 0.018226208289464314, 0.019365346307555834, 0.020504484325647353, 0.021643622343738872, 0.02278276036183039, 0.023921898379921914, 0.025061036398013433, 0.026200174416104952, 0.02733931243419647, 0.02847845045228799, 0.02961758847037951, 0.03075672648847103, 0.03189586450656255, 0.03303500252465407, 0.03417414054274559]}, "dense_bias_0_image": {"_type": "images/separated", "width": 1, "height": 2, "format": "png", "count": 1, "filenames": ["media/images/dense_bias_0_image_7_4c5adad2f7d7ba0854f3.png"]}, "dense_1/kernel_0/histogram": {"_type": "histogram", "values": [1.0, 3.0, 12.0, 14.0, 22.0, 18.0, 30.0, 22.0, 21.0, 25.0, 21.0, 21.0, 26.0, 18.0, 28.0, 21.0, 18.0, 18.0, 22.0, 27.0, 17.0, 11.0, 15.0, 15.0, 19.0, 11.0, 13.0, 8.0, 2.0, 1.0], "bins": [-0.10623084008693695, -0.09906671742598215, -0.09190259476502737, -0.08473847210407257, -0.07757434944311778, -0.07041022678216298, -0.06324610412120818, -0.056081981460253394, -0.0489178587992986, -0.04175373613834381, -0.03458961347738901, -0.027425490816434223, -0.020261368155479423, -0.013097245494524637, -0.005933122833569837, 0.0012309998273849487, 0.008395122488339749, 0.015559245149294548, 0.022723367810249334, 0.02988749047120412, 0.037051613132158934, 0.04421573579311372, 0.051379858454068505, 0.05854398111502329, 0.0657081037759781, 0.07287222643693289, 0.08003634909788768, 0.08720047175884249, 0.09436459441979728, 0.10152871708075206, 0.10869283974170685]}, "dense_1_kernel_0_image": {"_type": "images/separated", "width": 1, "height": 500, "format": "png", "count": 1, "filenames": ["media/images/dense_1_kernel_0_image_7_388e5bc4a138618bab76.png"]}, "dense_1/bias_0/histogram": {"_type": "histogram", "values": [1.0, 0.0, 1.0, 2.0, 1.0, 4.0, 6.0, 4.0, 8.0, 7.0, 13.0, 18.0, 21.0, 28.0, 29.0, 25.0, 39.0, 42.0, 34.0, 51.0, 50.0, 38.0, 35.0, 24.0, 9.0, 6.0, 1.0, 1.0, 1.0, 1.0], "bins": [-0.001297834562137723, -0.0012386061464591573, -0.0011793777307805915, -0.0011201493151020258, -0.00106092089942346, -0.0010016924837448944, -0.0009424640680663288, -0.0008832356523877631, -0.0008240072367091974, -0.0007647788210306316, -0.0007055504053520659, -0.0006463219896735002, -0.0005870935739949346, -0.0005278651583163689, -0.00046863674263780317, -0.00040940832695923746, -0.00035017991128067174, -0.000290951495602106, -0.0002317230799235403, -0.0001724946642449746, -0.00011326624856640888, -5.4037832887843164e-05, 5.190582790722551e-06, 6.441899846928827e-05, 0.00012364741414785376, 0.00018287582982641948, 0.0002421042455049852, 0.0003013326611835509, 0.0003605610768621166, 0.00041978949254068234, 0.00047901790821924806]}, "dense_1_bias_0_image": {"_type": "images/separated", "width": 1, "height": 500, "format": "png", "count": 1, "filenames": ["media/images/dense_1_bias_0_image_7_5526b80dc252e6f13cc5.png"]}, "conv1d_transpose/kernel_0/histogram": {"_type": "histogram", "values": [3.0, 6.0, 19.0, 29.0, 29.0, 26.0, 30.0, 17.0, 30.0, 25.0, 26.0, 39.0, 32.0, 25.0, 30.0, 30.0, 27.0, 41.0, 32.0, 21.0, 33.0, 27.0, 23.0, 33.0, 35.0, 27.0, 28.0, 33.0, 7.0, 5.0], "bins": [-0.18678225576877594, -0.1744688575466474, -0.16215545932451883, -0.1498420611023903, -0.13752866288026175, -0.1252152646581332, -0.11290186643600464, -0.1005884682138761, -0.08827506999174754, -0.07596167176961899, -0.06364827354749045, -0.051334875325361906, -0.03902147710323334, -0.026708078881104796, -0.014394680658976255, -0.0020812824368476868, 0.010232115785280854, 0.022545514007409395, 0.034858912229537964, 0.047172310451666505, 0.059485708673795046, 0.07179910689592361, 0.08411250511805213, 0.0964259033401807, 0.10873930156230927, 0.12105269978443778, 0.13336609800656635, 0.14567949622869492, 0.15799289445082343, 0.170306292672952, 0.18261969089508057]}, "conv1d_transpose_kernel_0_image": {"_type": "images/separated", "width": 64, "height": 3, "format": "png", "count": 3, "filenames": ["media/images/conv1d_transpose_kernel_0_image_7_ae1c6d341fcecab178f3.png", "media/images/conv1d_transpose_kernel_0_image_7_d46bb48c05b9a60e3be2.png", "media/images/conv1d_transpose_kernel_0_image_7_075f3d3d182658ff7288.png"]}, "conv1d_transpose/bias_0/histogram": {"_type": "histogram", "values": [2.0, 0.0, 0.0, 1.0, 4.0, 1.0, 3.0, 2.0, 3.0, 3.0, 1.0, 0.0, 7.0, 3.0, 6.0, 6.0, 4.0, 0.0, 5.0, 2.0, 0.0, 1.0, 2.0, 1.0, 0.0, 2.0, 1.0, 1.0, 2.0, 1.0], "bins": [-0.017930570989847183, -0.0167799673974514, -0.01562936380505562, -0.014478760212659836, -0.013328156620264053, -0.012177553027868271, -0.011026949435472489, -0.009876345843076706, -0.008725742250680924, -0.007575138658285142, -0.0064245350658893585, -0.005273931473493577, -0.004123327881097795, -0.0029727242887020115, -0.001822120696306228, -0.0006715171039104462, 0.0004790864884853356, 0.0016296900808811174, 0.002780293673276899, 0.003930897265672684, 0.005081500858068466, 0.006232104450464248, 0.00738270804286003, 0.008533311635255812, 0.009683915227651593, 0.010834518820047379, 0.01198512241244316, 0.013135726004838942, 0.014286329597234727, 0.015436933189630506, 0.01658753678202629]}, "conv1d_transpose_bias_0_image": {"_type": "images/separated", "width": 1, "height": 64, "format": "png", "count": 1, "filenames": ["media/images/conv1d_transpose_bias_0_image_7_94f16b5683764e6541cb.png"]}, "conv1d_transpose_1/kernel_0/histogram": {"_type": "histogram", "values": [22.0, 93.0, 183.0, 216.0, 218.0, 239.0, 265.0, 236.0, 263.0, 226.0, 267.0, 242.0, 253.0, 237.0, 222.0, 252.0, 246.0, 219.0, 232.0, 233.0, 249.0, 218.0, 224.0, 244.0, 255.0, 261.0, 186.0, 98.0, 41.0, 4.0], "bins": [-0.16409391164779663, -0.15296396017074584, -0.14183400869369506, -0.1307040572166443, -0.11957410573959351, -0.10844415426254272, -0.09731420278549194, -0.08618425130844116, -0.07505429983139038, -0.06392434835433959, -0.05279439687728882, -0.04166444540023803, -0.030534493923187245, -0.019404542446136458, -0.008274590969085699, 0.002855360507965088, 0.013985311985015875, 0.02511526346206666, 0.03624521493911745, 0.04737516641616821, 0.058505117893218994, 0.06963506937026978, 0.08076502084732057, 0.09189497232437133, 0.10302492380142214, 0.1141548752784729, 0.12528482675552371, 0.13641477823257447, 0.14754472970962523, 0.15867468118667605, 0.1698046326637268]}, "conv1d_transpose_1_kernel_0_image": {"_type": "images/separated", "width": 32, "height": 3, "format": "png", "count": 3, "filenames": ["media/images/conv1d_transpose_1_kernel_0_image_7_b1683e55c4a93796054e.png", "media/images/conv1d_transpose_1_kernel_0_image_7_026c1be29f49415842d5.png", "media/images/conv1d_transpose_1_kernel_0_image_7_44e8d5ebfea597b28303.png"]}, "conv1d_transpose_1/bias_0/histogram": {"_type": "histogram", "values": [1.0, 2.0, 2.0, 0.0, 2.0, 0.0, 1.0, 1.0, 1.0, 1.0, 2.0, 1.0, 2.0, 1.0, 1.0, 0.0, 0.0, 3.0, 2.0, 0.0, 0.0, 1.0, 1.0, 1.0, 0.0, 2.0, 1.0, 2.0, 0.0, 1.0], "bins": [-0.022900372743606567, -0.02146931110570828, -0.020038249467809993, -0.01860718782991171, -0.017176126192013422, -0.015745064554115135, -0.01431400291621685, -0.012882941278318565, -0.011451879640420277, -0.01002081800252199, -0.008589756364623705, -0.00715869472672542, -0.0057276330888271325, -0.004296571450928845, -0.0028655098130305617, -0.0014344481751322746, -3.386537233987519e-06, 0.0014276751006642996, 0.0028587367385625867, 0.00428979837646087, 0.0057208600143591574, 0.0071519216522574446, 0.008582983290155728, 0.010014044928054015, 0.011445106565952302, 0.01287616820385059, 0.014307229841748877, 0.015738291479647164, 0.017169353117545444, 0.01860041475544373, 0.020031476393342018]}, "conv1d_transpose_1_bias_0_image": {"_type": "images/separated", "width": 1, "height": 32, "format": "png", "count": 1, "filenames": ["media/images/conv1d_transpose_1_bias_0_image_7_41afebeaae7ad3b580d5.png"]}, "conv1d_transpose_2/kernel_0/histogram": {"_type": "histogram", "values": [18.0, 12.0, 10.0, 13.0, 9.0, 14.0, 9.0, 12.0, 11.0, 11.0, 19.0, 18.0, 8.0, 13.0, 15.0, 12.0, 11.0, 19.0, 11.0, 10.0, 13.0, 13.0, 17.0, 22.0, 17.0, 14.0, 13.0, 10.0, 9.0, 1.0], "bins": [-0.2270692139863968, -0.21125587026278178, -0.19544252653916677, -0.17962918281555174, -0.16381583909193675, -0.14800249536832172, -0.1321891516447067, -0.1163758079210917, -0.10056246419747669, -0.08474912047386168, -0.06893577675024667, -0.053122433026631666, -0.03730908930301663, -0.02149574557940162, -0.005682401855786612, 0.010130941867828397, 0.025944285591443406, 0.04175762931505844, 0.05757097303867342, 0.07338431676228846, 0.08919766048590344, 0.10501100420951848, 0.12082434793313346, 0.1366376916567485, 0.15245103538036353, 0.1682643791039785, 0.18407772282759355, 0.19989106655120853, 0.21570441027482357, 0.23151775399843855, 0.24733109772205353]}, "conv1d_transpose_2_kernel_0_image": {"_type": "images/separated", "width": 4, "height": 3, "format": "png", "count": 3, "filenames": ["media/images/conv1d_transpose_2_kernel_0_image_7_5b53472e0dc2de488a94.png", "media/images/conv1d_transpose_2_kernel_0_image_7_a4acaf2a9c151d5aee37.png", "media/images/conv1d_transpose_2_kernel_0_image_7_74cacbefe5aba9941089.png"]}, "conv1d_transpose_2/bias_0/histogram": {"_type": "histogram", "values": [1.0, 1.0, 0.0, 0.0, 0.0, 0.0, 0.0, 1.0, 0.0, 0.0, 0.0, 0.0, 0.0, 0.0, 0.0, 0.0, 0.0, 0.0, 0.0, 0.0, 0.0, 0.0, 0.0, 0.0, 0.0, 0.0, 0.0, 0.0, 0.0, 1.0], "bins": [-0.009110238403081894, -0.008247701575358708, -0.007385164747635523, -0.006522627919912339, -0.005660091092189153, -0.004797554264465967, -0.003935017436742782, -0.0030724806090195976, -0.002209943781296412, -0.0013474069535732262, -0.00048487012585004055, 0.0003776667018731434, 0.001240203529596329, 0.0021027403573195148, 0.0029652771850426987, 0.0038278140127658844, 0.00469035084048907, 0.005552887668212256, 0.0064154244959354415, 0.007277961323658627, 0.008140498151381813, 0.009003034979104995, 0.00986557180682818, 0.010728108634551366, 0.011590645462274552, 0.012453182289997738, 0.013315719117720923, 0.01417825594544411, 0.015040792773167291, 0.015903329600890477, 0.016765866428613663]}, "conv1d_transpose_2_bias_0_image": {"_type": "images/separated", "width": 1, "height": 4, "format": "png", "count": 1, "filenames": ["media/images/conv1d_transpose_2_bias_0_image_7_57854992ff3bddf4b3a6.png"]}, "_runtime": 1039.8283610343933, "_step": 7}