{"global_step": 19, "_timestamp": 1688083574.193761, "epoch_loss": 1.3882310390472412, "epoch_lr": 9.999999747378752e-05, "pwm_conv/kernel_0/histogram": {"_type": "histogram", "values": [2.0, 1.0, 1.0, 36.0, 514.0, 96.0, 17.0, 408.0, 346.0, 324.0, 313.0, 421.0, 388.0, 425.0, 352.0, 473.0, 480.0, 575.0, 533.0, 580.0, 697.0, 739.0, 702.0, 701.0, 3864.0, 703.0, 709.0, 566.0, 577.0, 1417.0], "bins": [-5.521356105804443, -5.291306344668071, -5.061256583531698, -4.831206822395325, -4.601157061258952, -4.3711073001225795, -4.141057538986206, -3.911007777849833, -3.6809580167134603, -3.4509082555770876, -3.220858494440715, -2.9908087333043416, -2.760758972167969, -2.530709211031596, -2.300659449895223, -2.07060968875885, -1.8405599276224773, -1.6105101664861046, -1.3804604053497318, -1.150410644213359, -0.9203608830769863, -0.6903111219406126, -0.46026136080423985, -0.23021159966786708, -0.00016183853149431826, 0.22988792260487845, 0.4599376837412512, 0.689987444877624, 0.9200372060139976, 1.1500869671503704, 1.3801367282867432]}, "pwm_conv_kernel_0_image": {"_type": "images/separated", "width": 4, "height": 16, "format": "png", "count": 3, "filenames": ["media/images/pwm_conv_kernel_0_image_19_85f3ac3d3901ef7a9581.png", "media/images/pwm_conv_kernel_0_image_19_ff0166818b9ecb03dabe.png", "media/images/pwm_conv_kernel_0_image_19_5c3e85ae5e5c15d498f0.png"]}, "conv1d/kernel_0/histogram": {"_type": "histogram", "values": [1.0, 5.0, 15.0, 71.0, 341.0, 1347.0, 2329.0, 2518.0, 2585.0, 2535.0, 2571.0, 2658.0, 2601.0, 2608.0, 2595.0, 2579.0, 2506.0, 2580.0, 2583.0, 2565.0, 2524.0, 2559.0, 2515.0, 2393.0, 2034.0, 1085.0, 165.0, 11.0, 0.0, 1.0], "bins": [-0.1179327666759491, -0.1102534919977188, -0.10257421731948853, -0.09489494264125824, -0.08721566796302796, -0.07953639328479767, -0.07185711860656738, -0.06417784392833709, -0.05649856925010681, -0.04881929457187652, -0.04114001989364624, -0.03346074521541595, -0.025781470537185658, -0.01810219585895538, -0.01042292118072509, -0.002743646502494812, 0.004935628175735479, 0.01261490285396577, 0.02029417753219606, 0.027973452210426325, 0.035652726888656616, 0.04333200156688691, 0.0510112762451172, 0.05869055092334749, 0.06636982560157778, 0.07404910027980804, 0.08172837495803834, 0.08940764963626863, 0.09708692431449892, 0.10476619899272921, 0.11244547367095947]}, "conv1d_kernel_0_image": {"_type": "images/separated", "width": 265, "height": 3, "format": "png", "count": 3, "filenames": ["media/images/conv1d_kernel_0_image_19_66f4f391043e81123cd5.png", "media/images/conv1d_kernel_0_image_19_594be37898445d81ccf9.png", "media/images/conv1d_kernel_0_image_19_b4442055a91cb869c41c.png"]}, "conv1d/bias_0/histogram": {"_type": "histogram", "values": [1.0, 1.0, 0.0, 0.0, 1.0, 0.0, 1.0, 1.0, 0.0, 0.0, 5.0, 0.0, 0.0, 0.0, 1.0, 11.0, 12.0, 0.0, 1.0, 3.0, 2.0, 5.0, 17.0, 1.0, 0.0, 0.0, 0.0, 0.0, 0.0, 1.0], "bins": [-0.0026987199671566486, -0.002558635058812797, -0.0024185501504689457, -0.0022784652421250938, -0.0021383803337812423, -0.001998295425437391, -0.0018582105170935393, -0.0017181256087496876, -0.0015780407004058361, -0.0014379557920619847, -0.001297870883718133, -0.0011577859753742815, -0.00101770106703043, -0.0008776161586865783, -0.0007375312503427266, -0.0005974463419988751, -0.00045736143365502366, -0.0003172765253111722, -0.0001771916169673207, -3.710670862346879e-05, 0.00010297819972038269, 0.00024306310806423417, 0.00038314801640808565, 0.0005232329247519371, 0.0006633178330957886, 0.0008034027414396405, 0.000943487649783492, 0.0010835725581273435, 0.0012236574664711954, 0.0013637423748150464, 0.0015038272831588984]}, "conv1d_bias_0_image": {"_type": "images/separated", "width": 1, "height": 64, "format": "png", "count": 1, "filenames": ["media/images/conv1d_bias_0_image_19_bb73d8645203240d9bf5.png"]}, "dense/kernel_0/histogram": {"_type": "histogram", "values": [3.0, 4.0, 2.0, 1.0, 1.0, 0.0, 4.0, 2.0, 4.0, 0.0, 4.0, 5.0, 0.0, 8.0, 4.0, 40.0, 8.0, 4.0, 5.0, 2.0, 1.0, 4.0, 3.0, 2.0, 2.0, 3.0, 3.0, 1.0, 2.0, 6.0], "bins": [-0.2909570038318634, -0.2724418063958486, -0.25392660895983377, -0.23541141152381898, -0.21689621408780416, -0.19838101665178934, -0.17986581921577455, -0.16135062177975973, -0.1428354243437449, -0.12432022690773009, -0.10580502947171527, -0.08728983203570048, -0.06877463459968566, -0.050259437163670845, -0.031744239727656054, -0.013229042291641235, 0.005286155144373583, 0.023801352580388402, 0.04231655001640322, 0.06083174745241804, 0.07934694488843286, 0.09786214232444762, 0.11637733976046244, 0.13489253719647726, 0.15340773463249208, 0.1719229320685069, 0.1904381295045217, 0.20895332694053653, 0.2274685243765513, 0.24598372181256611, 0.26449891924858093]}, "dense_kernel_0_image": {"_type": "images/separated", "width": 64, "height": 2, "format": "png", "count": 1, "filenames": ["media/images/dense_kernel_0_image_19_35814ecc97c091613cb9.png"]}, "dense/bias_0/histogram": {"_type": "histogram", "values": [1.0, 0.0, 0.0, 0.0, 0.0, 0.0, 0.0, 0.0, 0.0, 0.0, 0.0, 0.0, 0.0, 0.0, 0.0, 0.0, 0.0, 0.0, 0.0, 0.0, 0.0, 0.0, 0.0, 0.0, 0.0, 0.0, 0.0, 0.0, 0.0, 1.0], "bins": [-0.0004269362543709576, -0.00036313110613264146, -0.00029932595789432525, -0.00023552080965600906, -0.00017171566141769288, -0.00010791051317937672, -4.410536494106051e-05, 1.96997832972557e-05, 8.350493153557186e-05, 0.00014731007977388801, 0.00021111522801220417, 0.00027492037625052044, 0.0003387255244888366, 0.00040253067272715275, 0.000466335820965469, 0.0005301409692037852, 0.0005939461174421013, 0.0006577512656804176, 0.0007215564139187336, 0.0007853615621570499, 0.000849166710395366, 0.0009129718586336822, 0.0009767770068719985, 0.0010405821551103145, 0.0011043873033486308, 0.001168192451586947, 0.0012319975998252631, 0.0012958027480635794, 0.0013596078963018956, 0.0014234130445402117, 0.0014872181927785277]}, "dense_bias_0_image": {"_type": "images/separated", "width": 1, "height": 2, "format": "png", "count": 1, "filenames": ["media/images/dense_bias_0_image_19_8d994cf362504173484c.png"]}, "dense_1/kernel_0/histogram": {"_type": "histogram", "values": [3.0, 0.0, 8.0, 4.0, 10.0, 15.0, 16.0, 37.0, 34.0, 37.0, 37.0, 41.0, 43.0, 34.0, 25.0, 27.0, 23.0, 18.0, 11.0, 16.0, 16.0, 10.0, 9.0, 5.0, 5.0, 7.0, 2.0, 1.0, 4.0, 2.0], "bins": [-0.07689136266708374, -0.07050570249557495, -0.06412004232406616, -0.05773438215255737, -0.05134872198104858, -0.044963061809539795, -0.038577401638031, -0.03219174146652221, -0.025806081295013425, -0.019420421123504637, -0.01303476095199585, -0.006649100780487055, -0.0002634406089782604, 0.00612221956253052, 0.012507879734039315, 0.018893539905548096, 0.02527920007705689, 0.031664860248565685, 0.038050520420074466, 0.04443618059158326, 0.05082184076309204, 0.057207500934600836, 0.06359316110610963, 0.06997882127761842, 0.07636448144912722, 0.08275014162063599, 0.08913580179214478, 0.09552146196365358, 0.10190712213516237, 0.10829278230667116, 0.11467844247817993]}, "dense_1_kernel_0_image": {"_type": "images/separated", "width": 1, "height": 500, "format": "png", "count": 1, "filenames": ["media/images/dense_1_kernel_0_image_19_777dd9c24e15157083ef.png"]}, "dense_1/bias_0/histogram": {"_type": "histogram", "values": [2.0, 2.0, 6.0, 12.0, 12.0, 17.0, 16.0, 8.0, 25.0, 33.0, 31.0, 41.0, 37.0, 28.0, 48.0, 39.0, 34.0, 14.0, 12.0, 13.0, 26.0, 17.0, 9.0, 9.0, 4.0, 2.0, 1.0, 1.0, 0.0, 1.0], "bins": [-0.2547074258327484, -0.23804136564334233, -0.22137530545393624, -0.2047092452645302, -0.1880431850751241, -0.17137712488571802, -0.15471106469631196, -0.13804500450690588, -0.12137894431749979, -0.10471288412809371, -0.08804682393868762, -0.07138076374928157, -0.05471470355987548, -0.0380486433704694, -0.02138258318106334, -0.004716522991657257, 0.011949537197748827, 0.028615597387154912, 0.045281657576560996, 0.06194771776596708, 0.07861377795537317, 0.0952798381447792, 0.11194589833418528, 0.12861195852359136, 0.14527801871299745, 0.16194407890240353, 0.17861013909180962, 0.1952761992812157, 0.21194225947062173, 0.22860831966002781, 0.2452743798494339]}, "dense_1_bias_0_image": {"_type": "images/separated", "width": 1, "height": 500, "format": "png", "count": 1, "filenames": ["media/images/dense_1_bias_0_image_19_8f62cb2c22ba5872223e.png"]}, "conv1d_transpose/kernel_0/histogram": {"_type": "histogram", "values": [5.0, 5.0, 4.0, 11.0, 22.0, 32.0, 23.0, 35.0, 38.0, 36.0, 33.0, 29.0, 38.0, 34.0, 39.0, 36.0, 30.0, 38.0, 36.0, 31.0, 41.0, 34.0, 37.0, 37.0, 23.0, 21.0, 12.0, 4.0, 2.0, 2.0], "bins": [-0.2051924765110016, -0.1909300039211909, -0.17666753133138022, -0.16240505874156952, -0.14814258615175882, -0.13388011356194812, -0.11961764097213745, -0.10535516838232675, -0.09109269579251607, -0.07683022320270538, -0.06256775061289468, -0.048305278023083986, -0.034042805433273315, -0.019780332843462617, -0.005517860253651918, 0.008744612336158752, 0.02300708492596945, 0.03726955751578015, 0.05153203010559082, 0.06579450269540155, 0.08005697528521222, 0.09431944787502289, 0.10858192046483361, 0.12284439305464429, 0.13710686564445496, 0.15136933823426568, 0.16563181082407635, 0.17989428341388702, 0.19415675600369775, 0.20841922859350842, 0.2226817011833191]}, "conv1d_transpose_kernel_0_image": {"_type": "images/separated", "width": 64, "height": 3, "format": "png", "count": 3, "filenames": ["media/images/conv1d_transpose_kernel_0_image_19_edbb6ce88865b47554e7.png", "media/images/conv1d_transpose_kernel_0_image_19_9fd11399bc11de96fe31.png", "media/images/conv1d_transpose_kernel_0_image_19_95a0c2cdafe205d00de5.png"]}, "conv1d_transpose/bias_0/histogram": {"_type": "histogram", "values": [2.0, 0.0, 0.0, 0.0, 0.0, 0.0, 0.0, 0.0, 0.0, 3.0, 2.0, 2.0, 0.0, 4.0, 7.0, 11.0, 4.0, 3.0, 5.0, 2.0, 4.0, 1.0, 1.0, 3.0, 1.0, 3.0, 1.0, 3.0, 1.0, 1.0], "bins": [-0.0921524316072464, -0.08465211987495422, -0.07715180814266205, -0.06965149641036987, -0.062151184678077696, -0.05465087294578552, -0.04715056121349334, -0.03965024948120117, -0.032149937748908994, -0.024649626016616813, -0.017149314284324646, -0.009649002552032465, -0.0021486908197402843, 0.005351620912551883, 0.012851932644844064, 0.02035224437713623, 0.02785255610942841, 0.03535286784172059, 0.04285317957401277, 0.050353491306304926, 0.05785380303859711, 0.06535411477088929, 0.07285442650318147, 0.08035473823547365, 0.08785504996776583, 0.09535536170005798, 0.10285567343235016, 0.11035598516464235, 0.11785629689693453, 0.1253566086292267, 0.13285692036151886]}, "conv1d_transpose_bias_0_image": {"_type": "images/separated", "width": 1, "height": 64, "format": "png", "count": 1, "filenames": ["media/images/conv1d_transpose_bias_0_image_19_75dad236ca81148d23aa.png"]}, "conv1d_transpose_1/kernel_0/histogram": {"_type": "histogram", "values": [5.0, 3.0, 18.0, 52.0, 134.0, 236.0, 340.0, 354.0, 335.0, 318.0, 352.0, 360.0, 393.0, 371.0, 360.0, 355.0, 335.0, 372.0, 343.0, 334.0, 316.0, 265.0, 124.0, 39.0, 19.0, 5.0, 1.0, 0.0, 2.0, 3.0], "bins": [-0.21898441016674042, -0.2024685059984525, -0.1859526018301646, -0.1694366976618767, -0.15292079349358878, -0.13640488932530087, -0.11988898515701293, -0.10337308098872502, -0.08685717682043712, -0.0703412726521492, -0.0538253684838613, -0.03730946431557339, -0.02079356014728545, -0.004277655978997541, 0.012238248189290368, 0.028754152357578278, 0.04527005652586619, 0.061785960694154096, 0.078301864862442, 0.09481776903072991, 0.11133367319901782, 0.12784957736730573, 0.14436548153559364, 0.16088138570388155, 0.17739728987216952, 0.19391319404045743, 0.21042909820874534, 0.22694500237703324, 0.24346090654532115, 0.25997681071360906, 0.276492714881897]}, "conv1d_transpose_1_kernel_0_image": {"_type": "images/separated", "width": 32, "height": 3, "format": "png", "count": 3, "filenames": ["media/images/conv1d_transpose_1_kernel_0_image_19_689d211e31f39810218b.png", "media/images/conv1d_transpose_1_kernel_0_image_19_22a79427fba5663c456b.png", "media/images/conv1d_transpose_1_kernel_0_image_19_33887421cc7b2d21971d.png"]}, "conv1d_transpose_1/bias_0/histogram": {"_type": "histogram", "values": [2.0, 0.0, 0.0, 0.0, 1.0, 0.0, 0.0, 1.0, 0.0, 1.0, 0.0, 3.0, 2.0, 3.0, 2.0, 4.0, 1.0, 1.0, 1.0, 1.0, 0.0, 0.0, 1.0, 0.0, 1.0, 2.0, 0.0, 1.0, 3.0, 1.0], "bins": [-0.06462986767292023, -0.05901548837622007, -0.05340110907951991, -0.047786729782819753, -0.042172350486119586, -0.03655797118941943, -0.030943591892719273, -0.025329212596019113, -0.019714833299318953, -0.014100454002618792, -0.008486074705918632, -0.002871695409218472, 0.002742683887481681, 0.008357063184181848, 0.013971442480882001, 0.01958582177758217, 0.025200201074282322, 0.030814580370982475, 0.03642895966768264, 0.042043338964382795, 0.04765771826108296, 0.053272097557783116, 0.05888647685448328, 0.06450085615118345, 0.07011523544788359, 0.07572961474458376, 0.08134399404128392, 0.08695837333798406, 0.09257275263468423, 0.0981871319313844, 0.10380151122808456]}, "conv1d_transpose_1_bias_0_image": {"_type": "images/separated", "width": 1, "height": 32, "format": "png", "count": 1, "filenames": ["media/images/conv1d_transpose_1_bias_0_image_19_d1ed1c7e2769758155d9.png"]}, "conv1d_transpose_2/kernel_0/histogram": {"_type": "histogram", "values": [1.0, 3.0, 3.0, 15.0, 7.0, 12.0, 16.0, 21.0, 24.0, 18.0, 19.0, 22.0, 16.0, 18.0, 12.0, 17.0, 13.0, 11.0, 14.0, 14.0, 15.0, 12.0, 16.0, 18.0, 14.0, 9.0, 9.0, 11.0, 1.0, 3.0], "bins": [-0.3132403492927551, -0.2926174213488897, -0.27199449340502424, -0.25137156546115874, -0.2307486375172933, -0.21012570957342785, -0.18950278162956238, -0.1688798536856969, -0.14825692574183147, -0.12763399779796603, -0.10701106985410055, -0.08638814191023508, -0.06576521396636964, -0.0451422860225042, -0.024519358078638698, -0.0038964301347732544, 0.01672649780909219, 0.03734942575295763, 0.057972353696823076, 0.07859528164068857, 0.09921820958455402, 0.11984113752841946, 0.14046406547228496, 0.1610869934161504, 0.18170992136001585, 0.2023328493038813, 0.22295577724774673, 0.24357870519161218, 0.26420163313547773, 0.2848245610793432, 0.3054474890232086]}, "conv1d_transpose_2_kernel_0_image": {"_type": "images/separated", "width": 4, "height": 3, "format": "png", "count": 3, "filenames": ["media/images/conv1d_transpose_2_kernel_0_image_19_df96dd7ffa3574f54020.png", "media/images/conv1d_transpose_2_kernel_0_image_19_4e1e7b6aac7cd5bb6795.png", "media/images/conv1d_transpose_2_kernel_0_image_19_f25e288c1582f550b876.png"]}, "conv1d_transpose_2/bias_0/histogram": {"_type": "histogram", "values": [1.0, 0.0, 1.0, 0.0, 0.0, 0.0, 0.0, 0.0, 0.0, 0.0, 0.0, 0.0, 0.0, 0.0, 0.0, 0.0, 0.0, 0.0, 0.0, 0.0, 0.0, 0.0, 0.0, 0.0, 0.0, 0.0, 0.0, 0.0, 0.0, 2.0], "bins": [-0.04796747863292694, -0.0439881960550944, -0.04000891347726186, -0.036029630899429316, -0.03205034832159678, -0.02807106574376424, -0.024091783165931697, -0.020112500588099158, -0.01613321801026662, -0.01215393543243408, -0.00817465285460154, -0.004195370276769, -0.00021608769893645408, 0.0037631948788960853, 0.007742477456728625, 0.011721760034561164, 0.015701042612393704, 0.01968032519022625, 0.023659607768058782, 0.02763889034589133, 0.03161817292372386, 0.03559745550155641, 0.03957673807938894, 0.043556020657221486, 0.04753530323505403, 0.051514585812886565, 0.05549386839071911, 0.059473150968551644, 0.06345243354638419, 0.06743171612421672, 0.07141099870204926]}, "conv1d_transpose_2_bias_0_image": {"_type": "images/separated", "width": 1, "height": 4, "format": "png", "count": 1, "filenames": ["media/images/conv1d_transpose_2_bias_0_image_19_359f9a909b1fa320d0c4.png"]}, "_runtime": 2502.6390800476074, "_step": 19}