{"global_step": 10, "_timestamp": 1688151735.996956, "epoch_loss": 1.3799711465835571, "epoch_lr": 1.0000000656873453e-05, "pwm_conv/kernel_0/histogram": {"_type": "histogram", "values": [2.0, 1.0, 1.0, 36.0, 514.0, 96.0, 17.0, 408.0, 346.0, 324.0, 313.0, 421.0, 388.0, 425.0, 352.0, 473.0, 480.0, 575.0, 533.0, 580.0, 697.0, 739.0, 702.0, 701.0, 3864.0, 703.0, 709.0, 566.0, 577.0, 1417.0], "bins": [-5.521356105804443, -5.291306344668071, -5.061256583531698, -4.831206822395325, -4.601157061258952, -4.3711073001225795, -4.141057538986206, -3.911007777849833, -3.6809580167134603, -3.4509082555770876, -3.220858494440715, -2.9908087333043416, -2.760758972167969, -2.530709211031596, -2.300659449895223, -2.07060968875885, -1.8405599276224773, -1.6105101664861046, -1.3804604053497318, -1.150410644213359, -0.9203608830769863, -0.6903111219406126, -0.46026136080423985, -0.23021159966786708, -0.00016183853149431826, 0.22988792260487845, 0.4599376837412512, 0.689987444877624, 0.9200372060139976, 1.1500869671503704, 1.3801367282867432]}, "pwm_conv_kernel_0_image": {"_type": "images/separated", "width": 4, "height": 16, "format": "png", "count": 3, "filenames": ["media/images/pwm_conv_kernel_0_image_10_85f3ac3d3901ef7a9581.png", "media/images/pwm_conv_kernel_0_image_10_ff0166818b9ecb03dabe.png", "media/images/pwm_conv_kernel_0_image_10_5c3e85ae5e5c15d498f0.png"]}, "batch_normalization/gamma_0/histogram": {"_type": "histogram", "values": [1.0, 2.0, 1.0, 0.0, 5.0, 3.0, 4.0, 2.0, 2.0, 3.0, 9.0, 5.0, 4.0, 3.0, 8.0, 8.0, 9.0, 14.0, 4.0, 17.0, 11.0, 26.0, 18.0, 19.0, 20.0, 19.0, 16.0, 17.0, 4.0, 11.0], "bins": [0.31399449706077576, 0.3342190831899643, 0.35444366931915283, 0.37466825544834137, 0.3948928415775299, 0.41511742770671844, 0.435342013835907, 0.4555665999650955, 0.47579118609428406, 0.4960157722234726, 0.5162403583526611, 0.5364649444818497, 0.5566895306110382, 0.5769141167402267, 0.5971387028694153, 0.6173632889986038, 0.6375878751277924, 0.6578124612569809, 0.6780370473861694, 0.698261633515358, 0.7184862196445465, 0.738710805773735, 0.7589353919029236, 0.7791599780321121, 0.7993845641613007, 0.8196091502904892, 0.8398337364196777, 0.8600583225488663, 0.8802829086780548, 0.9005074948072433, 0.9207320809364319]}, "batch_normalization_gamma_0_image": {"_type": "images/separated", "width": 1, "height": 265, "format": "png", "count": 1, "filenames": ["media/images/batch_normalization_gamma_0_image_10_7e53e2f8962198ac2d04.png"]}, "batch_normalization/beta_0/histogram": {"_type": "histogram", "values": [1.0, 0.0, 0.0, 0.0, 2.0, 0.0, 3.0, 3.0, 2.0, 8.0, 10.0, 16.0, 17.0, 17.0, 22.0, 26.0, 21.0, 17.0, 19.0, 21.0, 12.0, 16.0, 9.0, 5.0, 7.0, 2.0, 0.0, 4.0, 3.0, 2.0], "bins": [-0.18639108538627625, -0.1745588426788648, -0.16272659997145333, -0.1508943572640419, -0.13906211455663045, -0.127229871849219, -0.11539762914180755, -0.10356538643439611, -0.09173314372698466, -0.0799009010195732, -0.06806865831216176, -0.05623641560475032, -0.04440417289733886, -0.032571930189927406, -0.02073968748251598, -0.008907444775104523, 0.002924797932306933, 0.014757040639718388, 0.026589283347129844, 0.03842152605454127, 0.05025376876195273, 0.06208601146936418, 0.07391825417677561, 0.08575049688418707, 0.09758273959159852, 0.10941498229900998, 0.12124722500642143, 0.1330794677138329, 0.1449117104212443, 0.15674395312865574, 0.1685761958360672]}, "batch_normalization_beta_0_image": {"_type": "images/separated", "width": 1, "height": 265, "format": "png", "count": 1, "filenames": ["media/images/batch_normalization_beta_0_image_10_bd25c1ac473296d3ea67.png"]}, "batch_normalization/moving_mean_0/histogram": {"_type": "histogram", "values": [1.0, 0.0, 0.0, 0.0, 1.0, 1.0, 3.0, 5.0, 2.0, 2.0, 9.0, 5.0, 6.0, 11.0, 15.0, 16.0, 11.0, 10.0, 12.0, 22.0, 25.0, 14.0, 27.0, 17.0, 16.0, 12.0, 9.0, 3.0, 9.0, 1.0], "bins": [-17.755016326904297, -17.2187540769577, -16.68249182701111, -16.146229577064513, -15.60996732711792, -15.073705077171326, -14.537442827224732, -14.001180577278138, -13.464918327331542, -12.92865607738495, -12.392393827438354, -11.85613157749176, -11.319869327545167, -10.783607077598571, -10.247344827651979, -9.711082577705383, -9.17482032775879, -8.638558077812196, -8.102295827865602, -7.566033577919006, -7.029771327972412, -6.493509078025818, -5.957246828079224, -5.4209845781326305, -4.884722328186037, -4.348460078239441, -3.812197828292847, -3.275935578346253, -2.7396733283996593, -2.2034110784530654, -1.6671488285064697]}, "batch_normalization_moving_mean_0_image": {"_type": "images/separated", "width": 1, "height": 265, "format": "png", "count": 1, "filenames": ["media/images/batch_normalization_moving_mean_0_image_10_33c86070b749851d6717.png"]}, "batch_normalization/moving_variance_0/histogram": {"_type": "histogram", "values": [5.0, 6.0, 12.0, 22.0, 21.0, 26.0, 21.0, 21.0, 24.0, 22.0, 20.0, 19.0, 5.0, 11.0, 8.0, 6.0, 2.0, 1.0, 1.0, 4.0, 1.0, 4.0, 1.0, 0.0, 1.0, 0.0, 0.0, 0.0, 0.0, 1.0], "bins": [5.556931018829346, 7.2560815970102945, 8.955232175191243, 10.654382753372193, 12.353533331553141, 14.052683909734089, 15.751834487915039, 17.45098506609599, 19.150135644276936, 20.849286222457884, 22.548436800638832, 24.247587378819784, 25.94673795700073, 27.64588853518168, 29.34503911336263, 31.04418969154358, 32.74334026972453, 34.442490847905475, 36.14164142608642, 37.84079200426737, 39.53994258244832, 41.239093160629274, 42.93824373881022, 44.63739431699117, 46.33654489517212, 48.035695473353066, 49.734846051534014, 51.43399662971496, 53.13314720789592, 54.832297786076865, 56.53144836425781]}, "batch_normalization_moving_variance_0_image": {"_type": "images/separated", "width": 1, "height": 265, "format": "png", "count": 1, "filenames": ["media/images/batch_normalization_moving_variance_0_image_10_d68e280870fe2b62fed4.png"]}, "conv1d/kernel_0/histogram": {"_type": "histogram", "values": [1.0, 0.0, 2.0, 1.0, 2.0, 7.0, 21.0, 35.0, 133.0, 416.0, 1204.0, 2147.0, 3272.0, 4514.0, 5518.0, 6628.0, 6967.0, 6107.0, 4813.0, 3725.0, 2611.0, 1598.0, 769.0, 288.0, 63.0, 19.0, 12.0, 2.0, 1.0, 4.0], "bins": [-0.17160265147686005, -0.16105500608682632, -0.1505073606967926, -0.13995971530675888, -0.12941206991672516, -0.11886442452669144, -0.10831677913665771, -0.09776913374662399, -0.08722148835659027, -0.07667384296655655, -0.06612619757652283, -0.055578552186489105, -0.04503090679645538, -0.03448326140642166, -0.02393561601638794, -0.013387970626354218, -0.0028403252363204956, 0.007707320153713226, 0.018254965543746948, 0.02880261093378067, 0.03935025632381439, 0.049897901713848114, 0.060445547103881836, 0.07099319249391556, 0.08154083788394928, 0.092088483273983, 0.10263612866401672, 0.11318377405405045, 0.12373141944408417, 0.1342790648341179, 0.1448267102241516]}, "conv1d_kernel_0_image": {"_type": "images/separated", "width": 265, "height": 3, "format": "png", "count": 3, "filenames": ["media/images/conv1d_kernel_0_image_10_dc154602e1a365537379.png", "media/images/conv1d_kernel_0_image_10_8d31826ce22bfe009610.png", "media/images/conv1d_kernel_0_image_10_9af99fec8dee560f98b7.png"]}, "conv1d/bias_0/histogram": {"_type": "histogram", "values": [2.0, 2.0, 0.0, 0.0, 0.0, 0.0, 0.0, 0.0, 2.0, 2.0, 1.0, 1.0, 0.0, 3.0, 4.0, 3.0, 5.0, 4.0, 3.0, 6.0, 7.0, 0.0, 1.0, 1.0, 1.0, 1.0, 4.0, 2.0, 2.0, 7.0], "bins": [-0.148884579539299, -0.14349198530738552, -0.13809939107547203, -0.13270679684355854, -0.12731420261164506, -0.12192160837973157, -0.11652901414781809, -0.1111364199159046, -0.10574382568399111, -0.10035123145207762, -0.09495863722016414, -0.08956604298825066, -0.08417344875633717, -0.07878085452442368, -0.0733882602925102, -0.0679956660605967, -0.06260307182868322, -0.05721047759676973, -0.05181788336485624, -0.04642528913294275, -0.04103269490102926, -0.035640100669115785, -0.030247506437202296, -0.024854912205288807, -0.01946231797337533, -0.014069723741461843, -0.008677129509548354, -0.0032845352776348646, 0.0021080589542786243, 0.007500653186192113, 0.012893247418105602]}, "conv1d_bias_0_image": {"_type": "images/separated", "width": 1, "height": 64, "format": "png", "count": 1, "filenames": ["media/images/conv1d_bias_0_image_10_f248c18843e86c7cadf5.png"]}, "dense/kernel_0/histogram": {"_type": "histogram", "values": [1.0, 0.0, 0.0, 1.0, 1.0, 1.0, 0.0, 1.0, 0.0, 1.0, 0.0, 1.0, 1.0, 3.0, 1.0, 1.0, 6.0, 2.0, 12.0, 18.0, 20.0, 18.0, 9.0, 8.0, 8.0, 3.0, 3.0, 3.0, 3.0, 2.0], "bins": [-2.4131011741701514e-05, -2.2971343241806608e-05, -2.1811674741911702e-05, -2.0652006242016796e-05, -1.949233774212189e-05, -1.8332669242226984e-05, -1.717300074233208e-05, -1.6013332242437173e-05, -1.4853663742542267e-05, -1.3693995242647361e-05, -1.2534326742752455e-05, -1.137465824285755e-05, -1.0214989742962644e-05, -9.055321243067738e-06, -7.895652743172832e-06, -6.735984243277926e-06, -5.57631574338302e-06, -4.416647243488114e-06, -3.2569787435932085e-06, -2.0973102436983027e-06, -9.376417438033968e-07, 2.2202675609150901e-07, 1.3816952559864148e-06, 2.5413637558813207e-06, 3.7010322557762265e-06, 4.860700755671132e-06, 6.020369255566038e-06, 7.180037755460944e-06, 8.33970625535585e-06, 9.499374755250756e-06, 1.0659043255145662e-05]}, "dense_kernel_0_image": {"_type": "images/separated", "width": 64, "height": 2, "format": "png", "count": 1, "filenames": ["media/images/dense_kernel_0_image_10_79125fbd8addf09d7ddb.png"]}, "dense/bias_0/histogram": {"_type": "histogram", "values": [1.0, 0.0, 0.0, 0.0, 0.0, 0.0, 0.0, 0.0, 0.0, 0.0, 0.0, 0.0, 0.0, 0.0, 0.0, 0.0, 0.0, 0.0, 0.0, 0.0, 0.0, 0.0, 0.0, 0.0, 0.0, 0.0, 0.0, 0.0, 0.0, 1.0], "bins": [3.779673306780751e-06, 3.817670244643523e-06, 3.855667182506295e-06, 3.893664120369067e-06, 3.931661058231839e-06, 3.969657996094611e-06, 4.007654933957383e-06, 4.045651871820155e-06, 4.083648809682927e-06, 4.121645747545699e-06, 4.159642685408471e-06, 4.197639623271243e-06, 4.2356365611340155e-06, 4.273633498996787e-06, 4.311630436859559e-06, 4.349627374722331e-06, 4.3876243125851035e-06, 4.425621250447876e-06, 4.463618188310647e-06, 4.501615126173419e-06, 4.5396120640361914e-06, 4.577609001898964e-06, 4.615605939761736e-06, 4.653602877624507e-06, 4.691599815487279e-06, 4.729596753350052e-06, 4.767593691212824e-06, 4.805590629075596e-06, 4.843587566938367e-06, 4.8815845048011395e-06, 4.919581442663912e-06]}, "dense_bias_0_image": {"_type": "images/separated", "width": 1, "height": 2, "format": "png", "count": 1, "filenames": ["media/images/dense_bias_0_image_10_8d994cf362504173484c.png"]}, "dense_1/kernel_0/histogram": {"_type": "histogram", "values": [3.0, 0.0, 3.0, 4.0, 3.0, 7.0, 0.0, 10.0, 8.0, 9.0, 11.0, 29.0, 30.0, 60.0, 80.0, 70.0, 56.0, 39.0, 31.0, 11.0, 8.0, 7.0, 5.0, 4.0, 2.0, 6.0, 1.0, 1.0, 1.0, 1.0], "bins": [-0.07150264084339142, -0.06676142935951551, -0.0620202178756396, -0.057279006391763684, -0.05253779490788778, -0.04779658342401187, -0.04305537194013596, -0.038314160456260044, -0.03357294897238414, -0.02883173748850823, -0.024090526004632316, -0.019349314520756403, -0.014608103036880496, -0.00986689155300459, -0.005125680069128669, -0.00038446858525276184, 0.004356742898623145, 0.009097954382499052, 0.013839165866374958, 0.01858037735025088, 0.023321588834126786, 0.028062800318002692, 0.03280401180187861, 0.03754522328575452, 0.04228643476963043, 0.04702764625350633, 0.05176885773738224, 0.05651006922125815, 0.06125128070513408, 0.06599249218900999, 0.0707337036728859]}, "dense_1_kernel_0_image": {"_type": "images/separated", "width": 1, "height": 500, "format": "png", "count": 1, "filenames": ["media/images/dense_1_kernel_0_image_10_a09a32d7466ed325d356.png"]}, "dense_1/bias_0/histogram": {"_type": "histogram", "values": [3.0, 8.0, 30.0, 42.0, 52.0, 77.0, 77.0, 72.0, 13.0, 15.0, 18.0, 16.0, 16.0, 13.0, 7.0, 10.0, 5.0, 9.0, 5.0, 5.0, 5.0, 0.0, 0.0, 1.0, 0.0, 0.0, 0.0, 0.0, 0.0, 1.0], "bins": [-0.11046789586544037, -0.09655736635128657, -0.08264683683713277, -0.06873630732297897, -0.05482577780882517, -0.04091524829467137, -0.027004718780517578, -0.01309418926636377, 0.0008163402477900233, 0.014726869761943817, 0.028637399276097625, 0.04254792879025143, 0.05645845830440521, 0.07036898781855902, 0.08427951733271283, 0.09819004684686661, 0.11210057636102042, 0.12601110587517422, 0.139921635389328, 0.15383216490348184, 0.16774269441763562, 0.1816532239317894, 0.19556375344594323, 0.209474282960097, 0.2233848124742508, 0.23729534198840463, 0.2512058715025584, 0.2651164010167122, 0.279026930530866, 0.2929374600450198, 0.3068479895591736]}, "dense_1_bias_0_image": {"_type": "images/separated", "width": 1, "height": 500, "format": "png", "count": 1, "filenames": ["media/images/dense_1_bias_0_image_10_0c73adf1d0f738a81bcd.png"]}, "conv1d_transpose/kernel_0/histogram": {"_type": "histogram", "values": [1.0, 4.0, 1.0, 12.0, 11.0, 21.0, 27.0, 32.0, 38.0, 40.0, 39.0, 38.0, 33.0, 40.0, 48.0, 37.0, 36.0, 37.0, 41.0, 34.0, 37.0, 35.0, 32.0, 35.0, 24.0, 15.0, 9.0, 9.0, 0.0, 2.0], "bins": [-0.25320079922676086, -0.23742406864960988, -0.2216473380724589, -0.20587060749530794, -0.19009387691815693, -0.17431714634100598, -0.158540415763855, -0.14276368518670401, -0.12698695460955303, -0.11121022403240205, -0.09543349345525107, -0.07965676287810008, -0.06388003230094913, -0.04810330172379815, -0.032326571146647165, -0.016549840569496183, -0.0007731099923452001, 0.015003620584805755, 0.030780351161956765, 0.04655708173910772, 0.06233381231625873, 0.07811054289340968, 0.0938872734705607, 0.10966400404771165, 0.1254407346248626, 0.14121746520201361, 0.15699419577916457, 0.17277092635631558, 0.18854765693346653, 0.20432438751061754, 0.22010111808776855]}, "conv1d_transpose_kernel_0_image": {"_type": "images/separated", "width": 64, "height": 3, "format": "png", "count": 3, "filenames": ["media/images/conv1d_transpose_kernel_0_image_10_d8d0fa93ea9d243be42f.png", "media/images/conv1d_transpose_kernel_0_image_10_869aa1d70343af4568ba.png", "media/images/conv1d_transpose_kernel_0_image_10_8863318acba6ddc3dae6.png"]}, "conv1d_transpose/bias_0/histogram": {"_type": "histogram", "values": [2.0, 0.0, 0.0, 1.0, 1.0, 1.0, 0.0, 2.0, 5.0, 1.0, 0.0, 1.0, 3.0, 4.0, 2.0, 2.0, 3.0, 4.0, 2.0, 3.0, 3.0, 6.0, 4.0, 6.0, 2.0, 1.0, 1.0, 1.0, 2.0, 1.0], "bins": [-0.04510044306516647, -0.04221092437704404, -0.03932140568892161, -0.036431887000799176, -0.03354236831267675, -0.030652849624554314, -0.027763330936431883, -0.02487381224830945, -0.02198429356018702, -0.01909477487206459, -0.016205256183942158, -0.013315737495819727, -0.010426218807697292, -0.007536700119574864, -0.00464718143145243, -0.0017576627433300018, 0.0011318559447924328, 0.0040213746329148675, 0.006910893321037295, 0.00980041200915973, 0.012689930697282158, 0.015579449385404592, 0.01846896807352702, 0.021358486761649448, 0.02424800544977189, 0.027137524137894317, 0.030027042826016745, 0.032916561514139187, 0.035806080202261614, 0.03869559889038404, 0.04158511757850647]}, "conv1d_transpose_bias_0_image": {"_type": "images/separated", "width": 1, "height": 64, "format": "png", "count": 1, "filenames": ["media/images/conv1d_transpose_bias_0_image_10_7b1eb2bce9dd3dd2f86d.png"]}, "conv1d_transpose_1/kernel_0/histogram": {"_type": "histogram", "values": [2.0, 5.0, 8.0, 34.0, 70.0, 150.0, 246.0, 319.0, 294.0, 358.0, 313.0, 310.0, 361.0, 369.0, 348.0, 315.0, 336.0, 350.0, 330.0, 357.0, 315.0, 321.0, 272.0, 182.0, 90.0, 58.0, 22.0, 3.0, 3.0, 3.0], "bins": [-0.24005647003650665, -0.2243065983057022, -0.20855672657489777, -0.19280685484409332, -0.17705698311328888, -0.16130711138248444, -0.14555723965168, -0.12980736792087555, -0.1140574961900711, -0.09830762445926666, -0.08255775272846222, -0.06680788099765778, -0.05105800926685333, -0.03530813753604889, -0.019558265805244446, -0.0038083940744400024, 0.011941477656364441, 0.027691349387168884, 0.04344122111797333, 0.05919109284877777, 0.07494096457958221, 0.09069083631038666, 0.1064407080411911, 0.12219057977199554, 0.1379404515028, 0.15369032323360443, 0.16944019496440887, 0.18519006669521332, 0.20093993842601776, 0.2166898101568222, 0.23243968188762665]}, "conv1d_transpose_1_kernel_0_image": {"_type": "images/separated", "width": 32, "height": 3, "format": "png", "count": 3, "filenames": ["media/images/conv1d_transpose_1_kernel_0_image_10_fab40b76ef8475a41013.png", "media/images/conv1d_transpose_1_kernel_0_image_10_8cc449351ebf0ad2b305.png", "media/images/conv1d_transpose_1_kernel_0_image_10_739230f1b118fd1da1e2.png"]}, "conv1d_transpose_1/bias_0/histogram": {"_type": "histogram", "values": [1.0, 0.0, 0.0, 2.0, 1.0, 2.0, 1.0, 1.0, 4.0, 2.0, 2.0, 1.0, 4.0, 0.0, 1.0, 0.0, 0.0, 0.0, 0.0, 1.0, 0.0, 0.0, 2.0, 0.0, 1.0, 2.0, 1.0, 1.0, 1.0, 1.0], "bins": [-0.03815926983952522, -0.03490973624090354, -0.03166020264228185, -0.028410669043660165, -0.02516113544503848, -0.02191160184641679, -0.018662068247795104, -0.015412534649173418, -0.012163001050551733, -0.008913467451930047, -0.0056639338533083575, -0.0024144002546866716, 0.0008351333439350142, 0.0040846669425567, 0.007334200541178386, 0.010583734139800072, 0.013833267738421758, 0.017082801337043443, 0.02033233493566513, 0.023581868534286815, 0.026831402132908508, 0.030080935731530187, 0.03333046933015188, 0.03658000292877356, 0.03982953652739525, 0.04307907012601693, 0.04632860372463862, 0.0495781373232603, 0.052827670921881995, 0.05607720452050367, 0.059326738119125366]}, "conv1d_transpose_1_bias_0_image": {"_type": "images/separated", "width": 1, "height": 32, "format": "png", "count": 1, "filenames": ["media/images/conv1d_transpose_1_bias_0_image_10_ee7a71815cfb01de0af3.png"]}, "conv1d_transpose_2/kernel_0/histogram": {"_type": "histogram", "values": [1.0, 2.0, 7.0, 13.0, 18.0, 15.0, 17.0, 21.0, 12.0, 16.0, 12.0, 13.0, 16.0, 13.0, 13.0, 17.0, 15.0, 12.0, 14.0, 16.0, 14.0, 10.0, 18.0, 16.0, 14.0, 17.0, 8.0, 11.0, 8.0, 5.0], "bins": [-0.2816454768180847, -0.2640689199169477, -0.24649236301581065, -0.2289158061146736, -0.21133924921353658, -0.19376269231239956, -0.17618613541126252, -0.15860957851012547, -0.14103302160898845, -0.12345646470785143, -0.10587990780671439, -0.08830335090557734, -0.07072679400444032, -0.0531502371033033, -0.03557368020216625, -0.017997123301029205, -0.000420566399892186, 0.017155990501244833, 0.03473254740238185, 0.05230910430351893, 0.06988566120465595, 0.08746221810579297, 0.10503877500693004, 0.12261533190806706, 0.14019188880920408, 0.1577684457103411, 0.17534500261147812, 0.1929215595126152, 0.2104981164137522, 0.2280746733148893, 0.2456512302160263]}, "conv1d_transpose_2_kernel_0_image": {"_type": "images/separated", "width": 4, "height": 3, "format": "png", "count": 3, "filenames": ["media/images/conv1d_transpose_2_kernel_0_image_10_059d6465d09c8dae3f31.png", "media/images/conv1d_transpose_2_kernel_0_image_10_980c57af8b8356421584.png", "media/images/conv1d_transpose_2_kernel_0_image_10_146b1d9532de4784c287.png"]}, "conv1d_transpose_2/bias_0/histogram": {"_type": "histogram", "values": [1.0, 0.0, 1.0, 0.0, 0.0, 0.0, 0.0, 0.0, 0.0, 0.0, 0.0, 0.0, 0.0, 0.0, 0.0, 0.0, 0.0, 0.0, 0.0, 0.0, 0.0, 0.0, 0.0, 0.0, 0.0, 0.0, 0.0, 0.0, 0.0, 2.0], "bins": [-0.07351674139499664, -0.06914678625762463, -0.0647768311202526, -0.060406875982880595, -0.05603692084550858, -0.05166696570813656, -0.04729701057076455, -0.04292705543339253, -0.03855710029602051, -0.03418714515864849, -0.029817190021276474, -0.025447234883904463, -0.021077279746532444, -0.016707324609160426, -0.012337369471788415, -0.00796741433441639, -0.003597459197044378, 0.0007724959403276332, 0.0051424510776996585, 0.00951240621507167, 0.013882361352443695, 0.018252316489815706, 0.022622271627187718, 0.026992226764559743, 0.031362181901931754, 0.035732137039303766, 0.04010209217667579, 0.0444720473140478, 0.048842002451419814, 0.053211957588791825, 0.057581912726163864]}, "conv1d_transpose_2_bias_0_image": {"_type": "images/separated", "width": 1, "height": 4, "format": "png", "count": 1, "filenames": ["media/images/conv1d_transpose_2_bias_0_image_10_333f8919eaba6b9fa0a4.png"]}, "_runtime": 2017.5241341590881, "_step": 10, "_wandb": {"runtime": 2016}}