{"global_step": 0, "_timestamp": 1688055427.650578, "epoch_loss": 333.229736328125, "epoch_lr": 0.0010000000474974513, "pwm_conv/kernel_0/histogram": {"_type": "histogram", "values": [2.0, 1.0, 1.0, 36.0, 514.0, 96.0, 17.0, 408.0, 346.0, 324.0, 313.0, 421.0, 388.0, 425.0, 352.0, 473.0, 480.0, 575.0, 533.0, 580.0, 697.0, 739.0, 702.0, 701.0, 3864.0, 703.0, 709.0, 566.0, 577.0, 1417.0], "bins": [-5.521356105804443, -5.291306344668071, -5.061256583531698, -4.831206822395325, -4.601157061258952, -4.3711073001225795, -4.141057538986206, -3.911007777849833, -3.6809580167134603, -3.4509082555770876, -3.220858494440715, -2.9908087333043416, -2.760758972167969, -2.530709211031596, -2.300659449895223, -2.07060968875885, -1.8405599276224773, -1.6105101664861046, -1.3804604053497318, -1.150410644213359, -0.9203608830769863, -0.6903111219406126, -0.46026136080423985, -0.23021159966786708, -0.00016183853149431826, 0.22988792260487845, 0.4599376837412512, 0.689987444877624, 0.9200372060139976, 1.1500869671503704, 1.3801367282867432]}, "pwm_conv_kernel_0_image": {"_type": "images/separated", "width": 4, "height": 16, "format": "png", "count": 3, "filenames": ["media/images/pwm_conv_kernel_0_image_0_85f3ac3d3901ef7a9581.png", "media/images/pwm_conv_kernel_0_image_0_ff0166818b9ecb03dabe.png", "media/images/pwm_conv_kernel_0_image_0_5c3e85ae5e5c15d498f0.png"]}, "conv1d/kernel_0/histogram": {"_type": "histogram", "values": [1.0, 2.0, 4.0, 1.0, 3.0, 3.0, 10.0, 7.0, 18.0, 22.0, 31.0, 40.0, 50.0, 901.0, 3214.0, 3284.0, 3201.0, 3353.0, 3299.0, 3299.0, 3249.0, 3380.0, 3393.0, 3393.0, 3189.0, 3382.0, 3246.0, 3361.0, 2894.0, 650.0], "bins": [-0.21878865361213684, -0.20859754582246146, -0.19840643803278604, -0.18821533024311066, -0.17802422245343527, -0.16783311466375989, -0.15764200687408447, -0.1474508990844091, -0.1372597912947337, -0.1270686835050583, -0.1168775757153829, -0.1066864679257075, -0.0964953601360321, -0.08630425234635672, -0.07611314455668133, -0.06592203676700592, -0.055730928977330535, -0.04553982118765515, -0.035348713397979736, -0.02515760560830435, -0.014966497818628965, -0.004775390028953552, 0.005415717760721833, 0.015606825550397219, 0.025797933340072632, 0.03598904112974799, 0.0461801489194234, 0.056371256709098816, 0.06656236449877417, 0.07675347228844959, 0.086944580078125]}, "conv1d_kernel_0_image": {"_type": "images/separated", "width": 265, "height": 3, "format": "png", "count": 3, "filenames": ["media/images/conv1d_kernel_0_image_0_c00789e9b681efd9b84d.png", "media/images/conv1d_kernel_0_image_0_636fbc898e4f356ee147.png", "media/images/conv1d_kernel_0_image_0_3080cbe4ecf6469353c3.png"]}, "conv1d/bias_0/histogram": {"_type": "histogram", "values": [29.0, 1.0, 2.0, 0.0, 1.0, 30.0, 0.0, 0.0, 0.0, 0.0, 0.0, 0.0, 0.0, 0.0, 0.0, 0.0, 0.0, 0.0, 0.0, 0.0, 0.0, 0.0, 0.0, 0.0, 0.0, 0.0, 0.0, 0.0, 0.0, 1.0], "bins": [-0.0030481668654829264, -0.0018526599820082386, -0.0006571530985335508, 0.0005383537849411369, 0.0017338606684158247, 0.002929367551890513, 0.0041248744353652, 0.0053203813188398875, 0.006515888202314576, 0.007711395085789264, 0.008906901969263952, 0.010102408852738639, 0.011297915736213327, 0.012493422619688015, 0.013688929503162701, 0.01488443638663739, 0.016079943270112078, 0.017275450153586766, 0.018470957037061454, 0.019666463920536142, 0.02086197080401083, 0.022057477687485515, 0.023252984570960204, 0.024448491454434892, 0.02564399833790958, 0.026839505221384268, 0.028035012104858956, 0.02923051898833364, 0.03042602587180833, 0.03162153275528302, 0.032817039638757706]}, "conv1d_bias_0_image": {"_type": "images/separated", "width": 1, "height": 64, "format": "png", "count": 1, "filenames": ["media/images/conv1d_bias_0_image_0_a99375f21cedb96471a2.png"]}, "dense/kernel_0/histogram": {"_type": "histogram", "values": [3.0, 4.0, 2.0, 2.0, 4.0, 6.0, 7.0, 3.0, 4.0, 4.0, 2.0, 11.0, 10.0, 3.0, 10.0, 4.0, 4.0, 5.0, 5.0, 3.0, 6.0, 4.0, 8.0, 3.0, 4.0, 1.0, 3.0, 2.0, 0.0, 1.0], "bins": [-0.29887479543685913, -0.27724995215733844, -0.2556251088778178, -0.23400026559829712, -0.21237542231877643, -0.19075057903925577, -0.1691257357597351, -0.14750089248021442, -0.12587604920069376, -0.1042512059211731, -0.0826263626416524, -0.061001519362131745, -0.039376676082611084, -0.017751832803090395, 0.003873010476430294, 0.025497853755950928, 0.04712269703547162, 0.0687475403149923, 0.09037238359451294, 0.11199722687403363, 0.13362207015355432, 0.15524691343307495, 0.17687175671259564, 0.19849659999211633, 0.22012144327163696, 0.2417462865511577, 0.26337112983067834, 0.284995973110199, 0.3066208163897197, 0.32824565966924035, 0.349870502948761]}, "dense_kernel_0_image": {"_type": "images/separated", "width": 64, "height": 2, "format": "png", "count": 1, "filenames": ["media/images/dense_kernel_0_image_0_c9a16f96ec3e5ba3b22f.png"]}, "dense/bias_0/histogram": {"_type": "histogram", "values": [1.0, 0.0, 0.0, 0.0, 0.0, 0.0, 0.0, 0.0, 0.0, 0.0, 0.0, 0.0, 0.0, 0.0, 0.0, 0.0, 0.0, 0.0, 0.0, 0.0, 0.0, 0.0, 0.0, 0.0, 0.0, 0.0, 0.0, 0.0, 0.0, 1.0], "bins": [-0.00302957184612751, -0.002609186743696531, -0.0021888016412655513, -0.0017684165388345719, -0.0013480314364035925, -0.0009276463339726133, -0.0005072612315416337, -8.687612911065408e-05, 0.0003335089733203251, 0.0007538940757513043, 0.0011742791781822835, 0.0015946642806132635, 0.0020150493830442427, 0.002435434485475222, 0.002855819587906202, 0.003276204690337181, 0.0036965897927681603, 0.0041169748951991395, 0.004537359997630119, 0.004957745100061098, 0.005378130202492077, 0.005798515304923058, 0.006218900407354037, 0.006639285509785016, 0.0070596706122159954, 0.007480055714646975, 0.007900440817077954, 0.008320825919508933, 0.008741211021939914, 0.009161596124370893, 0.009581981226801872]}, "dense_bias_0_image": {"_type": "images/separated", "width": 1, "height": 2, "format": "png", "count": 1, "filenames": ["media/images/dense_bias_0_image_0_a5c4351c8271c6ae3d61.png"]}, "dense_1/kernel_0/histogram": {"_type": "histogram", "values": [13.0, 16.0, 11.0, 12.0, 12.0, 17.0, 21.0, 20.0, 20.0, 17.0, 22.0, 31.0, 11.0, 14.0, 13.0, 11.0, 12.0, 13.0, 20.0, 11.0, 19.0, 24.0, 21.0, 16.0, 20.0, 21.0, 19.0, 23.0, 16.0, 4.0], "bins": [-0.10074655711650848, -0.09375213086605072, -0.08675770461559296, -0.07976327836513519, -0.07276885211467743, -0.06577442586421967, -0.0587799996137619, -0.05178557336330414, -0.044791147112846375, -0.03779672086238861, -0.030802294611930847, -0.023807868361473083, -0.01681344211101532, -0.009819015860557556, -0.0028245896100997925, 0.004169836640357971, 0.011164262890815735, 0.0181586891412735, 0.025153115391731262, 0.032147541642189026, 0.03914196789264679, 0.04613639414310455, 0.05313082039356232, 0.06012524664402008, 0.06711967289447784, 0.07411409914493561, 0.08110852539539337, 0.08810295164585114, 0.0950973778963089, 0.10209180414676666, 0.10908623039722443]}, "dense_1_kernel_0_image": {"_type": "images/separated", "width": 1, "height": 500, "format": "png", "count": 1, "filenames": ["media/images/dense_1_kernel_0_image_0_54db32ad38f16af99bbf.png"]}, "dense_1/bias_0/histogram": {"_type": "histogram", "values": [2.0, 3.0, 5.0, 4.0, 14.0, 9.0, 21.0, 8.0, 15.0, 12.0, 17.0, 13.0, 15.0, 16.0, 19.0, 14.0, 17.0, 15.0, 24.0, 25.0, 25.0, 39.0, 24.0, 43.0, 43.0, 23.0, 15.0, 13.0, 3.0, 4.0], "bins": [-0.5059091448783875, -0.4817753732204437, -0.4576416015625, -0.4335078299045563, -0.40937405824661255, -0.3852402865886688, -0.3611065149307251, -0.33697274327278137, -0.31283897161483765, -0.2887051999568939, -0.2645714282989502, -0.24043765664100647, -0.21630388498306274, -0.19217011332511902, -0.1680363416671753, -0.14390257000923157, -0.11976879835128784, -0.09563502669334412, -0.07150125503540039, -0.047367483377456665, -0.02323371171951294, 0.0009000599384307861, 0.02503383159637451, 0.04916760325431824, 0.07330137491226196, 0.09743514657020569, 0.12156891822814941, 0.14570268988609314, 0.16983646154403687, 0.1939702332019806, 0.21810400485992432]}, "dense_1_bias_0_image": {"_type": "images/separated", "width": 1, "height": 500, "format": "png", "count": 1, "filenames": ["media/images/dense_1_bias_0_image_0_717ea3176bdfbcff3ca3.png"]}, "conv1d_transpose/kernel_0/histogram": {"_type": "histogram", "values": [2.0, 1.0, 6.0, 30.0, 34.0, 26.0, 29.0, 36.0, 35.0, 40.0, 42.0, 31.0, 25.0, 37.0, 47.0, 33.0, 42.0, 40.0, 30.0, 38.0, 26.0, 39.0, 34.0, 35.0, 24.0, 3.0, 0.0, 1.0, 1.0, 1.0], "bins": [-0.21898774802684784, -0.203252612054348, -0.18751747608184816, -0.17178234010934829, -0.15604720413684844, -0.1403120681643486, -0.12457693219184875, -0.10884179621934889, -0.09310666024684905, -0.07737152427434921, -0.061636388301849365, -0.045901252329349496, -0.030166116356849654, -0.014430980384349812, 0.0013041555881500577, 0.0170392915606499, 0.03277442753314974, 0.04850956350564961, 0.06424469947814943, 0.0799798354506493, 0.09571497142314911, 0.11145010739564898, 0.12718524336814885, 0.14292037934064866, 0.15865551531314853, 0.1743906512856484, 0.19012578725814822, 0.20586092323064809, 0.22159605920314795, 0.23733119517564777, 0.2530663311481476]}, "conv1d_transpose_kernel_0_image": {"_type": "images/separated", "width": 64, "height": 3, "format": "png", "count": 3, "filenames": ["media/images/conv1d_transpose_kernel_0_image_0_66f36156fd95d803b2cc.png", "media/images/conv1d_transpose_kernel_0_image_0_3d013dcc9b17e7e30af1.png", "media/images/conv1d_transpose_kernel_0_image_0_99d5dd0f4410f23769ba.png"]}, "conv1d_transpose/bias_0/histogram": {"_type": "histogram", "values": [1.0, 0.0, 0.0, 0.0, 2.0, 2.0, 3.0, 4.0, 2.0, 3.0, 5.0, 6.0, 7.0, 6.0, 5.0, 2.0, 2.0, 1.0, 4.0, 1.0, 1.0, 1.0, 1.0, 1.0, 2.0, 0.0, 0.0, 0.0, 1.0, 1.0], "bins": [-0.10452676564455032, -0.09715043529868125, -0.0897741049528122, -0.08239777460694313, -0.07502144426107407, -0.067645113915205, -0.06026878356933593, -0.05289245322346687, -0.045516122877597806, -0.038139792531728736, -0.03076346218585968, -0.02338713183999061, -0.01601080149412154, -0.008634471148252484, -0.0012581408023834145, 0.0061181895434856415, 0.013494519889354711, 0.02087085023522378, 0.02824718058109285, 0.03562351092696189, 0.04299984127283096, 0.05037617161870003, 0.0577525019645691, 0.06512883231043817, 0.07250516265630724, 0.07988149300217628, 0.08725782334804535, 0.09463415369391442, 0.1020104840397835, 0.10938681438565256, 0.1167631447315216]}, "conv1d_transpose_bias_0_image": {"_type": "images/separated", "width": 1, "height": 64, "format": "png", "count": 1, "filenames": ["media/images/conv1d_transpose_bias_0_image_0_fa393130391f19761eaf.png"]}, "conv1d_transpose_1/kernel_0/histogram": {"_type": "histogram", "values": [1.0, 3.0, 3.0, 2.0, 4.0, 6.0, 11.0, 26.0, 193.0, 512.0, 566.0, 639.0, 570.0, 569.0, 591.0, 570.0, 608.0, 569.0, 535.0, 130.0, 19.0, 9.0, 5.0, 2.0, 0.0, 0.0, 0.0, 0.0, 0.0, 1.0], "bins": [-0.38500386476516724, -0.3573957403500875, -0.3297876159350077, -0.30217949151992796, -0.2745713671048482, -0.24696324268976846, -0.21935511827468873, -0.19174699385960897, -0.1641388694445292, -0.13653074502944945, -0.10892262061436969, -0.08131449619928993, -0.05370637178421023, -0.026098247369130467, 0.0015098770459492927, 0.029118001461029053, 0.05672612587610881, 0.08433425029118857, 0.11194237470626833, 0.1395504991213481, 0.16715862353642785, 0.1947667479515076, 0.22237487236658737, 0.24998299678166713, 0.2775911211967468, 0.30519924561182654, 0.3328073700269063, 0.36041549444198606, 0.3880236188570658, 0.4156317432721456, 0.44323986768722534]}, "conv1d_transpose_1_kernel_0_image": {"_type": "images/separated", "width": 32, "height": 3, "format": "png", "count": 3, "filenames": ["media/images/conv1d_transpose_1_kernel_0_image_0_2b8699901f028b387ec5.png", "media/images/conv1d_transpose_1_kernel_0_image_0_35ed22fd904e78801363.png", "media/images/conv1d_transpose_1_kernel_0_image_0_532c6497fe49d34ecfe2.png"]}, "conv1d_transpose_1/bias_0/histogram": {"_type": "histogram", "values": [2.0, 1.0, 1.0, 0.0, 0.0, 1.0, 1.0, 3.0, 2.0, 1.0, 0.0, 0.0, 2.0, 0.0, 1.0, 3.0, 3.0, 1.0, 1.0, 3.0, 0.0, 2.0, 0.0, 2.0, 0.0, 0.0, 0.0, 0.0, 1.0, 1.0], "bins": [-0.033733468502759933, -0.03009559797743956, -0.02645772745211919, -0.02281985692679882, -0.01918198640147845, -0.015544115876158077, -0.011906245350837709, -0.008268374825517337, -0.004630504300196965, -0.0009926337748765932, 0.0026452367504437788, 0.006283107275764151, 0.009920977801084516, 0.013558848326404888, 0.01719671885172526, 0.02083458937704563, 0.024472459902366003, 0.028110330427686375, 0.03174820095300675, 0.03538607147832712, 0.03902394200364749, 0.04266181252896786, 0.046299683054288235, 0.04993755357960861, 0.053575424104928965, 0.05721329463024934, 0.06085116515556971, 0.06448903568089008, 0.06812690620621045, 0.07176477673153082, 0.0754026472568512]}, "conv1d_transpose_1_bias_0_image": {"_type": "images/separated", "width": 1, "height": 32, "format": "png", "count": 1, "filenames": ["media/images/conv1d_transpose_1_bias_0_image_0_98f22e72fc8837174109.png"]}, "conv1d_transpose_2/kernel_0/histogram": {"_type": "histogram", "values": [1.0, 5.0, 20.0, 21.0, 23.0, 22.0, 14.0, 16.0, 18.0, 15.0, 19.0, 17.0, 11.0, 19.0, 9.0, 23.0, 20.0, 14.0, 13.0, 20.0, 15.0, 13.0, 16.0, 16.0, 3.0, 0.0, 0.0, 0.0, 0.0, 1.0], "bins": [-0.2721937894821167, -0.2513282189766566, -0.2304626484711965, -0.2095970779657364, -0.18873150746027628, -0.16786593695481616, -0.14700036644935607, -0.12613479594389598, -0.10526922543843586, -0.08440365493297575, -0.06353808442751566, -0.042672513922055566, -0.021806943416595448, -0.0009413729111353297, 0.019924197594324733, 0.04078976809978485, 0.06165533860524497, 0.08252090911070509, 0.1033864796161652, 0.12425205012162527, 0.1451176206270854, 0.1659831911325455, 0.18684876163800557, 0.20771433214346569, 0.2285799026489258, 0.24944547315438592, 0.27031104365984604, 0.29117661416530616, 0.31204218467076617, 0.3329077551762263, 0.3537733256816864]}, "conv1d_transpose_2_kernel_0_image": {"_type": "images/separated", "width": 4, "height": 3, "format": "png", "count": 3, "filenames": ["media/images/conv1d_transpose_2_kernel_0_image_0_db9fd7767eaebbe8fcc0.png", "media/images/conv1d_transpose_2_kernel_0_image_0_c121c08b9d85cc54b9ad.png", "media/images/conv1d_transpose_2_kernel_0_image_0_b2247b1c43c80dbebd15.png"]}, "conv1d_transpose_2/bias_0/histogram": {"_type": "histogram", "values": [1.0, 0.0, 0.0, 1.0, 0.0, 0.0, 0.0, 0.0, 1.0, 0.0, 0.0, 0.0, 0.0, 0.0, 0.0, 0.0, 0.0, 0.0, 0.0, 0.0, 0.0, 0.0, 0.0, 0.0, 0.0, 0.0, 0.0, 0.0, 0.0, 1.0], "bins": [-0.018949463963508606, -0.01709403432905674, -0.015238604694604873, -0.013383175060153008, -0.011527745425701142, -0.009672315791249275, -0.00781688615679741, -0.005961456522345544, -0.0041060268878936775, -0.0022505972534418127, -0.00039516761898994446, 0.0014602620154619203, 0.003315691649913785, 0.005171121284365653, 0.007026550918817518, 0.008881980553269386, 0.010737410187721251, 0.012592839822173116, 0.01444826945662498, 0.016303699091076852, 0.018159128725528717, 0.020014558359980582, 0.021869987994432447, 0.02372541762888431, 0.025580847263336176, 0.027436276897788048, 0.029291706532239913, 0.031147136166691777, 0.03300256580114364, 0.03485799543559551, 0.03671342507004738]}, "conv1d_transpose_2_bias_0_image": {"_type": "images/separated", "width": 1, "height": 4, "format": "png", "count": 1, "filenames": ["media/images/conv1d_transpose_2_bias_0_image_0_ad0b77884bd2529aa078.png"]}, "_runtime": 89.96841502189636, "_step": 0}