{"global_step": 1, "_timestamp": 1688058965.239054, "epoch_loss": 2.5554635524749756, "epoch_lr": 0.0010000000474974513, "pwm_conv/kernel_0/histogram": {"_type": "histogram", "values": [2.0, 1.0, 1.0, 36.0, 514.0, 96.0, 17.0, 408.0, 346.0, 324.0, 313.0, 421.0, 388.0, 425.0, 352.0, 473.0, 480.0, 575.0, 533.0, 580.0, 697.0, 739.0, 702.0, 701.0, 3864.0, 703.0, 709.0, 566.0, 577.0, 1417.0], "bins": [-5.521356105804443, -5.291306344668071, -5.061256583531698, -4.831206822395325, -4.601157061258952, -4.3711073001225795, -4.141057538986206, -3.911007777849833, -3.6809580167134603, -3.4509082555770876, -3.220858494440715, -2.9908087333043416, -2.760758972167969, -2.530709211031596, -2.300659449895223, -2.07060968875885, -1.8405599276224773, -1.6105101664861046, -1.3804604053497318, -1.150410644213359, -0.9203608830769863, -0.6903111219406126, -0.46026136080423985, -0.23021159966786708, -0.00016183853149431826, 0.22988792260487845, 0.4599376837412512, 0.689987444877624, 0.9200372060139976, 1.1500869671503704, 1.3801367282867432]}, "pwm_conv_kernel_0_image": {"_type": "images/separated", "width": 4, "height": 16, "format": "png", "count": 3, "filenames": ["media/images/pwm_conv_kernel_0_image_1_85f3ac3d3901ef7a9581.png", "media/images/pwm_conv_kernel_0_image_1_ff0166818b9ecb03dabe.png", "media/images/pwm_conv_kernel_0_image_1_5c3e85ae5e5c15d498f0.png"]}, "conv1d/kernel_0/histogram": {"_type": "histogram", "values": [1.0, 1.0, 1.0, 0.0, 1.0, 1.0, 2.0, 2.0, 0.0, 7.0, 15.0, 50.0, 398.0, 2641.0, 3265.0, 3296.0, 3372.0, 3371.0, 3269.0, 3398.0, 3258.0, 3337.0, 3366.0, 3259.0, 3348.0, 3293.0, 3339.0, 2940.0, 1610.0, 39.0], "bins": [-0.20760691165924072, -0.19756363878647487, -0.18752036591370902, -0.17747709304094314, -0.1674338201681773, -0.15739054729541144, -0.14734727442264556, -0.1373040015498797, -0.12726072867711385, -0.117217455804348, -0.10717418293158214, -0.09713091005881627, -0.08708763718605042, -0.07704436431328457, -0.06700109144051869, -0.05695781856775284, -0.04691454569498699, -0.036871272822221135, -0.026827999949455283, -0.016784727076689404, -0.0067414542039235525, 0.003301818668842299, 0.013345091541608178, 0.02338836441437403, 0.03343163728713988, 0.04347491015990573, 0.053518183032671585, 0.06356145590543744, 0.07360472877820334, 0.0836480016509692, 0.09369127452373505]}, "conv1d_kernel_0_image": {"_type": "images/separated", "width": 265, "height": 3, "format": "png", "count": 3, "filenames": ["media/images/conv1d_kernel_0_image_1_e9103590285d1e4e1689.png", "media/images/conv1d_kernel_0_image_1_2507936e4ff27ae25303.png", "media/images/conv1d_kernel_0_image_1_486e8961aad72b8412e6.png"]}, "conv1d/bias_0/histogram": {"_type": "histogram", "values": [2.0, 1.0, 4.0, 0.0, 2.0, 5.0, 4.0, 1.0, 3.0, 1.0, 0.0, 0.0, 0.0, 0.0, 1.0, 0.0, 3.0, 18.0, 17.0, 0.0, 0.0, 0.0, 0.0, 0.0, 0.0, 0.0, 0.0, 0.0, 0.0, 2.0], "bins": [-0.003601218108087778, -0.003405050025321543, -0.0032088819425553083, -0.0030127138597890735, -0.0028165457770228386, -0.0026203776942566037, -0.002424209611490369, -0.002228041528724134, -0.002031873445957899, -0.0018357053631916642, -0.0016395372804254293, -0.0014433691976591945, -0.0012472011148929596, -0.0010510330321267247, -0.0008548649493604898, -0.000658696866594255, -0.0004625287838280201, -0.0002663607010617852, -7.019261829555035e-05, 0.00012597546447068453, 0.0003221435472369194, 0.0005183116300031543, 0.0007144797127693892, 0.000910647795535624, 0.001106815878301859, 0.0013029839610680938, 0.0014991520438343287, 0.0016953201266005635, 0.0018914882093667984, 0.0020876562921330333, 0.002283824374899268]}, "conv1d_bias_0_image": {"_type": "images/separated", "width": 1, "height": 64, "format": "png", "count": 1, "filenames": ["media/images/conv1d_bias_0_image_1_bb73d8645203240d9bf5.png"]}, "dense/kernel_0/histogram": {"_type": "histogram", "values": [4.0, 1.0, 4.0, 4.0, 7.0, 6.0, 5.0, 7.0, 8.0, 3.0, 3.0, 5.0, 7.0, 4.0, 5.0, 3.0, 4.0, 5.0, 4.0, 2.0, 2.0, 7.0, 1.0, 6.0, 6.0, 4.0, 2.0, 3.0, 4.0, 2.0], "bins": [-0.2892557978630066, -0.2700387676556905, -0.25082173744837444, -0.23160470724105836, -0.21238767703374228, -0.1931706468264262, -0.1739536166191101, -0.15473658641179402, -0.13551955620447795, -0.11630252599716187, -0.0970854957898458, -0.07786846558252972, -0.05865143537521361, -0.039434405167897535, -0.020217374960581458, -0.0010003447532653809, 0.018216685454050696, 0.03743371566136677, 0.05665074586868285, 0.07586777607599893, 0.095084806283315, 0.11430183649063108, 0.13351886669794716, 0.15273589690526324, 0.17195292711257937, 0.19116995731989544, 0.21038698752721152, 0.22960401773452754, 0.24882104794184368, 0.2680380781491597, 0.28725510835647583]}, "dense_kernel_0_image": {"_type": "images/separated", "width": 64, "height": 2, "format": "png", "count": 1, "filenames": ["media/images/dense_kernel_0_image_1_ec2d455707d57ef2fc46.png"]}, "dense/bias_0/histogram": {"_type": "histogram", "values": [1.0, 0.0, 0.0, 0.0, 0.0, 0.0, 0.0, 0.0, 0.0, 0.0, 0.0, 0.0, 0.0, 0.0, 0.0, 0.0, 0.0, 0.0, 0.0, 0.0, 0.0, 0.0, 0.0, 0.0, 0.0, 0.0, 0.0, 0.0, 0.0, 1.0], "bins": [0.00024278118507936597, 0.00040899769907506804, 0.0005752142130707701, 0.0007414307270664722, 0.0009076472410621743, 0.0010738637550578765, 0.0012400802690535784, 0.0014062967830492804, 0.0015725132970449826, 0.0017387298110406848, 0.0019049463250363867, 0.0020711628390320887, 0.002237379353027791, 0.002403595867023493, 0.002569812381019195, 0.002736028895014897, 0.002902245409010599, 0.0030684619230063014, 0.0032346784370020035, 0.0034008949509977053, 0.0035671114649934075, 0.0037333279789891097, 0.0038995444929848114, 0.004065761006980514, 0.004231977520976216, 0.004398194034971918, 0.00456441054896762, 0.004730627062963322, 0.004896843576959024, 0.005063060090954726, 0.005229276604950428]}, "dense_bias_0_image": {"_type": "images/separated", "width": 1, "height": 2, "format": "png", "count": 1, "filenames": ["media/images/dense_bias_0_image_1_b77ff1aedfbfa82e5c35.png"]}, "dense_1/kernel_0/histogram": {"_type": "histogram", "values": [3.0, 2.0, 6.0, 2.0, 17.0, 11.0, 21.0, 25.0, 32.0, 24.0, 33.0, 24.0, 21.0, 22.0, 39.0, 33.0, 25.0, 24.0, 16.0, 10.0, 15.0, 22.0, 19.0, 11.0, 14.0, 14.0, 4.0, 7.0, 1.0, 3.0], "bins": [-0.10851017385721207, -0.1009055366118749, -0.09330089936653774, -0.08569626212120056, -0.0780916248758634, -0.07048698763052623, -0.06288235038518905, -0.055277713139851886, -0.04767307589451472, -0.04006843864917756, -0.03246380140384039, -0.024859164158503214, -0.01725452691316605, -0.009649889667828884, -0.0020452524224917057, 0.005559384822845459, 0.013164022068182624, 0.02076865931351979, 0.028373296558856953, 0.03597793380419412, 0.04358257104953128, 0.051187208294868475, 0.05879184554020564, 0.0663964827855428, 0.07400112003087997, 0.08160575727621713, 0.0892103945215543, 0.09681503176689146, 0.10441966901222866, 0.11202430625756582, 0.11962894350290298]}, "dense_1_kernel_0_image": {"_type": "images/separated", "width": 1, "height": 500, "format": "png", "count": 1, "filenames": ["media/images/dense_1_kernel_0_image_1_1f2fff22e1feb391a348.png"]}, "dense_1/bias_0/histogram": {"_type": "histogram", "values": [5.0, 6.0, 9.0, 18.0, 30.0, 33.0, 45.0, 41.0, 45.0, 65.0, 34.0, 35.0, 41.0, 25.0, 16.0, 22.0, 9.0, 6.0, 5.0, 3.0, 1.0, 3.0, 1.0, 0.0, 0.0, 0.0, 0.0, 1.0, 0.0, 1.0], "bins": [-0.17970989644527435, -0.16223247200250626, -0.14475504755973817, -0.12727762311697005, -0.10980019867420196, -0.09232277423143387, -0.07484534978866576, -0.05736792534589766, -0.03989050090312957, -0.022413076460361475, -0.004935652017593384, 0.012541772425174735, 0.030019196867942827, 0.04749662131071092, 0.06497404575347904, 0.0824514701962471, 0.09992889463901522, 0.11740631908178334, 0.1348837435245514, 0.15236116796731952, 0.16983859241008759, 0.1873160168528557, 0.20479344129562382, 0.2222708657383919, 0.23974829018116, 0.2572257146239281, 0.2747031390666962, 0.2921805635094643, 0.3096579879522324, 0.32713541239500055, 0.34461283683776855]}, "dense_1_bias_0_image": {"_type": "images/separated", "width": 1, "height": 500, "format": "png", "count": 1, "filenames": ["media/images/dense_1_bias_0_image_1_cd59ce8185e2f500c9fd.png"]}, "conv1d_transpose/kernel_0/histogram": {"_type": "histogram", "values": [2.0, 1.0, 4.0, 8.0, 7.0, 11.0, 30.0, 33.0, 33.0, 34.0, 47.0, 46.0, 32.0, 40.0, 41.0, 35.0, 32.0, 38.0, 28.0, 33.0, 35.0, 38.0, 26.0, 35.0, 35.0, 23.0, 23.0, 10.0, 7.0, 1.0], "bins": [-0.2485504150390625, -0.23337921996911368, -0.21820802489916483, -0.203036829829216, -0.18786563475926718, -0.17269443968931836, -0.1575232446193695, -0.14235204954942068, -0.12718085447947186, -0.11200965940952301, -0.09683846433957419, -0.08166726926962536, -0.06649607419967651, -0.05132487912972769, -0.03615368405977887, -0.020982488989830017, -0.005811293919881194, 0.009359901150067629, 0.02453109622001648, 0.039702291289965275, 0.054873486359914125, 0.07004468142986298, 0.08521587649981177, 0.10038707156976062, 0.11555826663970947, 0.13072946170965827, 0.14590065677960712, 0.16107185184955597, 0.17624304691950476, 0.19141424198945362, 0.20658543705940247]}, "conv1d_transpose_kernel_0_image": {"_type": "images/separated", "width": 64, "height": 3, "format": "png", "count": 3, "filenames": ["media/images/conv1d_transpose_kernel_0_image_1_57ff3c831149341039ff.png", "media/images/conv1d_transpose_kernel_0_image_1_d62eeee262d238b56b6d.png", "media/images/conv1d_transpose_kernel_0_image_1_e0adb240f20ed1fc2f8e.png"]}, "conv1d_transpose/bias_0/histogram": {"_type": "histogram", "values": [1.0, 0.0, 0.0, 1.0, 1.0, 0.0, 2.0, 3.0, 0.0, 3.0, 4.0, 3.0, 5.0, 3.0, 4.0, 6.0, 1.0, 1.0, 5.0, 3.0, 3.0, 7.0, 2.0, 2.0, 0.0, 1.0, 1.0, 1.0, 0.0, 1.0], "bins": [-0.051592063158750534, -0.048103969916701315, -0.0446158766746521, -0.041127783432602885, -0.03763969019055367, -0.03415159694850445, -0.03066350370645523, -0.027175410464406014, -0.023687317222356796, -0.02019922398030758, -0.016711130738258362, -0.013223037496209143, -0.009734944254159925, -0.006246851012110706, -0.0027587577700614943, 0.0007293354719877243, 0.004217428714036943, 0.0077055219560861615, 0.011193615198135373, 0.014681708440184599, 0.01816980168223381, 0.021657894924283036, 0.025145988166332248, 0.02863408140838146, 0.032122174650430685, 0.0356102678924799, 0.03909836113452912, 0.042586454376578334, 0.046074547618627545, 0.04956264086067677, 0.05305073410272598]}, "conv1d_transpose_bias_0_image": {"_type": "images/separated", "width": 1, "height": 64, "format": "png", "count": 1, "filenames": ["media/images/conv1d_transpose_bias_0_image_1_7e7e67f15cd3dd76c746.png"]}, "conv1d_transpose_1/kernel_0/histogram": {"_type": "histogram", "values": [1.0, 0.0, 0.0, 0.0, 1.0, 3.0, 20.0, 60.0, 221.0, 333.0, 392.0, 401.0, 385.0, 344.0, 382.0, 409.0, 403.0, 326.0, 360.0, 348.0, 376.0, 387.0, 355.0, 306.0, 232.0, 69.0, 22.0, 5.0, 2.0, 1.0], "bins": [-0.29340407252311707, -0.2759334698319435, -0.25846286714076994, -0.2409922644495964, -0.22352166175842286, -0.2060510590672493, -0.18858045637607573, -0.17110985368490217, -0.15363925099372863, -0.13616864830255507, -0.11869804561138153, -0.10122744292020797, -0.0837568402290344, -0.06628623753786086, -0.0488156348466873, -0.03134503215551376, -0.013874429464340199, 0.0035961732268333657, 0.02106677591800693, 0.03853737860918044, 0.056007981300354004, 0.07347858399152757, 0.09094918668270113, 0.1084197893738747, 0.12589039206504826, 0.14336099475622177, 0.16083159744739534, 0.1783022001385689, 0.19577280282974246, 0.21324340552091603, 0.23071400821208954]}, "conv1d_transpose_1_kernel_0_image": {"_type": "images/separated", "width": 32, "height": 3, "format": "png", "count": 3, "filenames": ["media/images/conv1d_transpose_1_kernel_0_image_1_ad81f53782ef13a4e586.png", "media/images/conv1d_transpose_1_kernel_0_image_1_73db3b69955838c5ca0d.png", "media/images/conv1d_transpose_1_kernel_0_image_1_2665ae159456faad5c35.png"]}, "conv1d_transpose_1/bias_0/histogram": {"_type": "histogram", "values": [1.0, 0.0, 1.0, 2.0, 0.0, 1.0, 0.0, 2.0, 2.0, 0.0, 3.0, 1.0, 3.0, 1.0, 2.0, 1.0, 1.0, 2.0, 0.0, 0.0, 1.0, 1.0, 1.0, 1.0, 0.0, 0.0, 1.0, 2.0, 1.0, 1.0], "bins": [-0.040812376886606216, -0.03765671576062838, -0.03450105463465055, -0.031345393508672714, -0.028189732382694878, -0.025034071256717045, -0.021878410130739212, -0.018722749004761376, -0.015567087878783543, -0.01241142675280571, -0.009255765626827873, -0.006100104500850037, -0.0029444433748722076, 0.00021121775110562874, 0.003366878877083465, 0.0065225400030612946, 0.009678201129039131, 0.012833862255016967, 0.015989523380994797, 0.019145184506972633, 0.02230084563295047, 0.0254565067589283, 0.028612167884906142, 0.03176782901088397, 0.0349234901368618, 0.038079151262839644, 0.041234812388817474, 0.0443904735147953, 0.04754613464077315, 0.050701795766750976, 0.053857456892728806]}, "conv1d_transpose_1_bias_0_image": {"_type": "images/separated", "width": 1, "height": 32, "format": "png", "count": 1, "filenames": ["media/images/conv1d_transpose_1_bias_0_image_1_da92b5dd2c93a5744aa7.png"]}, "conv1d_transpose_2/kernel_0/histogram": {"_type": "histogram", "values": [1.0, 1.0, 7.0, 13.0, 17.0, 12.0, 17.0, 16.0, 13.0, 14.0, 14.0, 19.0, 15.0, 11.0, 22.0, 11.0, 15.0, 12.0, 12.0, 10.0, 20.0, 14.0, 18.0, 11.0, 18.0, 8.0, 18.0, 15.0, 7.0, 3.0], "bins": [-0.2809544801712036, -0.26336933771769205, -0.2457841952641805, -0.22819905281066893, -0.21061391035715737, -0.19302876790364581, -0.17544362545013428, -0.15785848299662272, -0.14027334054311116, -0.1226881980895996, -0.10510305563608804, -0.08751791318257648, -0.06993277072906495, -0.05234762827555339, -0.03476248582204183, -0.017177343368530273, 0.00040779908498128625, 0.017992941538492846, 0.035578083992004406, 0.053163226445515965, 0.07074836889902753, 0.08833351135253908, 0.10591865380605064, 0.1235037962595622, 0.1410889387130737, 0.15867408116658527, 0.17625922362009683, 0.1938443660736084, 0.21142950852711995, 0.22901465098063156, 0.24659979343414307]}, "conv1d_transpose_2_kernel_0_image": {"_type": "images/separated", "width": 4, "height": 3, "format": "png", "count": 3, "filenames": ["media/images/conv1d_transpose_2_kernel_0_image_1_ec071c7fcde10c4ef60c.png", "media/images/conv1d_transpose_2_kernel_0_image_1_dc98178bf374d858a870.png", "media/images/conv1d_transpose_2_kernel_0_image_1_7357025bec27d29de0f4.png"]}, "conv1d_transpose_2/bias_0/histogram": {"_type": "histogram", "values": [2.0, 0.0, 0.0, 0.0, 0.0, 0.0, 0.0, 0.0, 0.0, 0.0, 0.0, 0.0, 0.0, 0.0, 0.0, 0.0, 0.0, 0.0, 0.0, 0.0, 0.0, 0.0, 0.0, 0.0, 0.0, 0.0, 0.0, 1.0, 0.0, 1.0], "bins": [-0.06260523945093155, -0.05871778068443139, -0.05483032191793124, -0.05094286315143108, -0.04705540438493093, -0.04316794561843077, -0.03928048685193061, -0.03539302808543046, -0.03150556931893031, -0.02761811055243015, -0.023730651785929993, -0.01984319301942984, -0.015955734252929683, -0.012068275486429532, -0.008180816719929374, -0.004293357953429222, -0.00040589918692906374, 0.0034815595795710946, 0.007369018346071246, 0.011256477112571397, 0.015143935879071563, 0.019031394645571714, 0.022918853412071866, 0.026806312178572017, 0.030693770945072182, 0.034581229711572334, 0.038468688478072485, 0.04235614724457265, 0.0462436060110728, 0.05013106477757295, 0.054018523544073105]}, "conv1d_transpose_2_bias_0_image": {"_type": "images/separated", "width": 1, "height": 4, "format": "png", "count": 1, "filenames": ["media/images/conv1d_transpose_2_bias_0_image_1_f09587a8569d0b840eaa.png"]}, "_runtime": 161.72758388519287, "_step": 1}